{"learner":{"attributes":{"scikit_learn":"{\"_estimator_type\": \"regressor\"}"},"feature_names":[],"feature_types":[],"gradient_booster":{"model":{"cats":{"enc":[],"feature_segments":[],"sorted_idx":[]},"gbtree_model_param":{"num_parallel_tree":"1","num_trees":"621"},"iteration_indptr":[0,1,2,3,4,5,6,7,8,9,10,11,12,13,14,15,16,17,18,19,20,21,22,23,24,25,26,27,28,29,30,31,32,33,34,35,36,37,38,39,40,41,42,43,44,45,46,47,48,49,50,51,52,53,54,55,56,57,58,59,60,61,62,63,64,65,66,67,68,69,70,71,72,73,74,75,76,77,78,79,80,81,82,83,84,85,86,87,88,89,90,91,92,93,94,95,96,97,98,99,100,101,102,103,104,105,106,107,108,109,110,111,112,113,114,115,116,117,118,119,120,121,122,123,124,125,126,127,128,129,130,131,132,133,134,135,136,137,138,139,140,141,142,143,144,145,146,147,148,149,150,151,152,153,154,155,156,157,158,159,160,161,162,163,164,165,166,167,168,169,170,171,172,173,174,175,176,177,178,179,180,181,182,183,184,185,186,187,188,189,190,191,192,193,194,195,196,197,198,199,200,201,202,203,204,205,206,207,208,209,210,211,212,213,214,215,216,217,218,219,220,221,222,223,224,225,226,227,228,229,230,231,232,233,234,235,236,237,238,239,240,241,242,243,244,245,246,247,248,249,250,251,252,253,254,255,256,257,258,259,260,261,262,263,264,265,266,267,268,269,270,271,272,273,274,275,276,277,278,279,280,281,282,283,284,285,286,287,288,289,290,291,292,293,294,295,296,297,298,299,300,301,302,303,304,305,306,307,308,309,310,311,312,313,314,315,316,317,318,319,320,321,322,323,324,325,326,327,328,329,330,331,332,333,334,335,336,337,338,339,340,341,342,343,344,345,346,347,348,349,350,351,352,353,354,355,356,357,358,359,360,361,362,363,364,365,366,367,368,369,370,371,372,373,374,375,376,377,378,379,380,381,382,383,384,385,386,387,388,389,390,391,392,393,394,395,396,397,398,399,400,401,402,403,404,405,406,407,408,409,410,411,412,413,414,415,416,417,418,419,420,421,422,423,424,425,426,427,428,429,430,431,432,433,434,435,436,437,438,439,440,441,442,443,444,445,446,447,448,449,450,451,452,453,454,455,456,457,458,459,460,461,462,463,464,465,466,467,468,469,470,471,472,473,474,475,476,477,478,479,480,481,482,483,484,485,486,487,488,489,490,491,492,493,494,495,496,497,498,499,500,501,502,503,504,505,506,507,508,509,510,511,512,513,514,515,516,517,518,519,520,521,522,523,524,525,526,527,528,529,530,531,532,533,534,535,536,537,538,539,540,541,542,543,544,545,546,547,548,549,550,551,552,553,554,555,556,557,558,559,560,561,562,563,564,565,566,567,568,569,570,571,572,573,574,575,576,577,578,579,580,581,582,583,584,585,586,587,588,589,590,591,592,593,594,595,596,597,598,599,600,601,602,603,604,605,606,607,608,609,610,611,612,613,614,615,616,617,618,619,620,621],"tree_info":[0,0,0,0,0,0,0,0,0,0,0,0,0,0,0,0,0,0,0,0,0,0,0,0,0,0,0,0,0,0,0,0,0,0,0,0,0,0,0,0,0,0,0,0,0,0,0,0,0,0,0,0,0,0,0,0,0,0,0,0,0,0,0,0,0,0,0,0,0,0,0,0,0,0,0,0,0,0,0,0,0,0,0,0,0,0,0,0,0,0,0,0,0,0,0,0,0,0,0,0,0,0,0,0,0,0,0,0,0,0,0,0,0,0,0,0,0,0,0,0,0,0,0,0,0,0,0,0,0,0,0,0,0,0,0,0,0,0,0,0,0,0,0,0,0,0,0,0,0,0,0,0,0,0,0,0,0,0,0,0,0,0,0,0,0,0,0,0,0,0,0,0,0,0,0,0,0,0,0,0,0,0,0,0,0,0,0,0,0,0,0,0,0,0,0,0,0,0,0,0,0,0,0,0,0,0,0,0,0,0,0,0,0,0,0,0,0,0,0,0,0,0,0,0,0,0,0,0,0,0,0,0,0,0,0,0,0,0,0,0,0,0,0,0,0,0,0,0,0,0,0,0,0,0,0,0,0,0,0,0,0,0,0,0,0,0,0,0,0,0,0,0,0,0,0,0,0,0,0,0,0,0,0,0,0,0,0,0,0,0,0,0,0,0,0,0,0,0,0,0,0,0,0,0,0,0,0,0,0,0,0,0,0,0,0,0,0,0,0,0,0,0,0,0,0,0,0,0,0,0,0,0,0,0,0,0,0,0,0,0,0,0,0,0,0,0,0,0,0,0,0,0,0,0,0,0,0,0,0,0,0,0,0,0,0,0,0,0,0,0,0,0,0,0,0,0,0,0,0,0,0,0,0,0,0,0,0,0,0,0,0,0,0,0,0,0,0,0,0,0,0,0,0,0,0,0,0,0,0,0,0,0,0,0,0,0,0,0,0,0,0,0,0,0,0,0,0,0,0,0,0,0,0,0,0,0,0,0,0,0,0,0,0,0,0,0,0,0,0,0,0,0,0,0,0,0,0,0,0,0,0,0,0,0,0,0,0,0,0,0,0,0,0,0,0,0,0,0,0,0,0,0,0,0,0,0,0,0,0,0,0,0,0,0,0,0,0,0,0,0,0,0,0,0,0,0,0,0,0,0,0,0,0,0,0,0,0,0,0,0,0,0,0,0,0,0,0,0,0,0,0,0,0,0,0,0,0,0,0,0,0,0,0,0,0,0,0,0,0,0,0,0,0,0,0,0,0,0,0,0,0,0,0,0,0,0,0,0,0,0,0,0,0,0,0,0,0,0,0,0,0,0,0,0,0,0,0,0,0,0,0,0,0,0,0,0,0,0,0,0,0,0,0,0,0,0,0,0,0,0,0,0,0,0,0,0,0,0,0,0,0],"trees":[{"base_weights":[4.753312E-4,-2.4161033E-1,1.3160472E0,-4.1098437E-1,4.95295E-1,1.9599348E-1,1.7333453E0,-5.554695E-1,9.485896E-3,1.645625E-1,1.3956522E0,-5.5072576E-1,6.414334E-1,2.1324115E0,1.2246121E0,-7.2511065E-1,-2.6586375E-1,-3.7308872E-1,3.3020192E-1,2.0888781E-2,6.1836874E-1,7.642344E-1,1.8498374E0,2.6165673E-3,-8.176565E-1,-3.208797E-4,7.243906E-1,2.6017366E-2,2.2652962E0,3.2374036E-2,1.382498E0,-1.8975357E-2,-1.2706047E-2,-9.433322E-3,-1.4010835E-3,-1.3078514E-2,-4.805866E-3,5.1774736E-3,1.8199423E-2,-2.732743E-3,4.4776667E-3,1.5918445E-2,3.640147E-3,1.8744195E-2,2.9932037E-3,1.964285E-2,4.5701955E-2,-2.440604E-2,-8.808268E-3,4.136072E-3,1.704319E-2,3.3671014E-2,5.3428017E-2,-5.778274E-4,1.7463814E-3,9.145369E-3,3.2788698E-2],"categories":[],"categories_nodes":[],"categories_segments":[],"categories_sizes":[],"default_left":[0,0,0,0,0,0,0,0,0,0,0,0,0,0,0,0,0,0,0,0,0,0,0,0,0,0,0,0,0,0,0,0,0,0,0,0,0,0,0,0,0,0,0,0,0,0,0,0,0,0,0,0,0,0,0,0,0],"id":0,"left_children":[1,3,5,7,9,11,13,15,17,19,21,23,25,27,29,31,33,35,37,39,41,43,45,-1,47,-1,49,-1,51,53,55,-1,-1,-1,-1,-1,-1,-1,-1,-1,-1,-1,-1,-1,-1,-1,-1,-1,-1,-1,-1,-1,-1,-1,-1,-1,-1],"loss_changes":[2.0287196E2,6.735275E1,4.5932495E1,2.6614525E1,2.9845839E1,9.666574E0,1.200592E1,1.5823288E1,1.3988049E1,4.877085E0,6.3293686E0,2.0705974E0,9.906645E-1,2.1040192E0,6.3553276E0,3.7724152E0,4.1369677E0,1.6804132E0,2.681651E0,1.6115106E0,8.219161E-1,7.0445967E-1,1.7688255E0,0E0,5.583954E-1,0E0,3.8363743E-1,0E0,8.938141E-1,1.640228E-2,3.1483078E0,0E0,0E0,0E0,0E0,0E0,0E0,0E0,0E0,0E0,0E0,0E0,0E0,0E0,0E0,0E0,0E0,0E0,0E0,0E0,0E0,0E0,0E0,0E0,0E0,0E0,0E0],"parents":[2147483647,0,0,1,1,2,2,3,3,4,4,5,5,6,6,7,7,8,8,9,9,10,10,11,11,12,12,13,13,14,14,15,15,16,16,17,17,18,18,19,19,20,20,21,21,22,22,24,24,26,26,28,28,29,29,30,30],"right_children":[2,4,6,8,10,12,14,16,18,20,22,24,26,28,30,32,34,36,38,40,42,44,46,-1,48,-1,50,-1,52,54,56,-1,-1,-1,-1,-1,-1,-1,-1,-1,-1,-1,-1,-1,-1,-1,-1,-1,-1,-1,-1,-1,-1,-1,-1,-1,-1],"split_conditions":[9.405571E-1,9.586014E-1,-7.679452E-1,5.2452497E-3,-1.9235586E-1,-8.8894695E-1,6.8696305E-2,-1.0315301E-1,-6.3211715E-1,2.1351402E0,1.6090455E0,-1.4642975E0,-3.265137E-1,-5.206808E-1,-4.0171888E-1,-7.292055E-1,-6.534251E-1,-8.8717735E-1,2.0293835E-1,-6.534251E-1,1.085997E0,1.3842597E0,-3.287875E-1,2.6165673E-3,-3.287875E-1,-3.208797E-4,-3.287875E-1,2.6017366E-2,1.085997E0,1.1631248E-2,1.085997E0,-1.8975357E-2,-1.2706047E-2,-9.433322E-3,-1.4010835E-3,-1.3078514E-2,-4.805866E-3,5.1774736E-3,1.8199423E-2,-2.732743E-3,4.4776667E-3,1.5918445E-2,3.640147E-3,1.8744195E-2,2.9932037E-3,1.964285E-2,4.5701955E-2,-2.440604E-2,-8.808268E-3,4.136072E-3,1.704319E-2,3.3671014E-2,5.3428017E-2,-5.778274E-4,1.7463814E-3,9.145369E-3,3.2788698E-2],"split_indices":[1,6,6,1,1,6,5,6,6,6,6,5,3,6,3,6,1,6,6,1,0,6,4,0,4,0,4,0,0,6,0,0,0,0,0,0,0,0,0,0,0,0,0,0,0,0,0,0,0,0,0,0,0,0,0,0,0],"split_type":[0,0,0,0,0,0,0,0,0,0,0,0,0,0,0,0,0,0,0,0,0,0,0,0,0,0,0,0,0,0,0,0,0,0,0,0,0,0,0,0,0,0,0,0,0,0,0,0,0,0,0,0,0,0,0,0,0],"sum_hessian":[6.35E2,5.37E2,9.8E1,4.37E2,1E2,2.7E1,7.1E1,3.25E2,1.12E2,7.4E1,2.6E1,1E1,1.7E1,3.8E1,3.3E1,2.04E2,1.21E2,5.1E1,6.1E1,5.7E1,1.7E1,1.2E1,1.4E1,3E0,7E0,2E0,1.5E1,6E0,3.2E1,4E0,2.9E1,9.5E1,1.09E2,6.5E1,5.6E1,1.9E1,3.2E1,5.3E1,8E0,3.2E1,2.5E1,1.3E1,4E0,1E1,2E0,4E0,1E1,3E0,4E0,2E0,1.3E1,9E0,2.3E1,2E0,2E0,4E0,2.5E1],"tree_param":{"num_deleted":"0","num_feature":"7","num_nodes":"57","size_leaf_vector":"1"}},{"base_weights":[-3.5893627E-2,-2.428274E-1,1.1193163E0,-4.302569E-1,1.0365656E-1,5.6900984E-1,1.5811996E0,-7.813427E-1,-3.6636966E-1,1.3808031E0,6.0024332E-2,-1.5488093E-1,8.775731E-1,6.0226213E-2,1.8273994E0,3.4004361E-3,-8.228472E-1,-1.9359963E-1,-5.855949E-1,1.4592941E-3,4.3762118E-2,-4.3889475E-1,2.3213151E-1,-1.0419948E-2,2.3731649E-2,1.0433692E0,-1.932403E-1,8.076492E-3,-4.374259E-3,2.1765401E0,1.3170605E0,-1.8536897E-2,-5.1280754E-3,-8.009668E-3,-2.1560541E-3,-1.5316176E-2,-1.1133338E-2,-1.7484225E-2,-7.3653567E-3,9.508656E-3,-5.6294724E-3,-3.110731E-3,6.7286855E-3,7.114859E-3,2.4979621E-2,-1.6615E-2,9.639911E-3,3.3440936E-2,5.6155197E-2,8.322261E-3,3.159935E-2],"categories":[],"categories_nodes":[],"categories_segments":[],"categories_sizes":[],"default_left":[0,0,0,0,0,0,0,0,0,0,0,0,0,0,0,0,0,0,0,0,0,0,0,0,0,0,0,0,0,0,0,0,0,0,0,0,0,0,0,0,0,0,0,0,0,0,0,0,0,0,0],"id":1,"left_children":[1,3,5,7,9,11,13,15,17,19,21,23,25,27,29,-1,31,33,35,-1,-1,37,39,-1,41,43,45,-1,-1,47,49,-1,-1,-1,-1,-1,-1,-1,-1,-1,-1,-1,-1,-1,-1,-1,-1,-1,-1,-1,-1],"loss_changes":[1.4633253E2,3.3749138E1,2.2738785E1,7.272621E0,1.0114748E1,9.964027E0,1.8613106E1,2.1154385E0,1.0756908E1,4.9063244E0,1.5386306E1,8.272283E-1,5.7052555E0,7.3124266E-1,4.7951202E0,0E0,7.471237E-1,2.6482534E0,7.3244095E-1,0E0,0E0,1.3999643E0,1.3655996E1,0E0,5.248971E-1,1.744915E0,2.1733606E0,0E0,0E0,2.3161316E0,2.0885468E0,0E0,0E0,0E0,0E0,0E0,0E0,0E0,0E0,0E0,0E0,0E0,0E0,0E0,0E0,0E0,0E0,0E0,0E0,0E0,0E0],"parents":[2147483647,0,0,1,1,2,2,3,3,4,4,5,5,6,6,7,7,8,8,9,9,10,10,11,11,12,12,13,13,14,14,16,16,17,17,18,18,21,21,22,22,24,24,25,25,26,26,29,29,30,30],"right_children":[2,4,6,8,10,12,14,16,18,20,22,24,26,28,30,-1,32,34,36,-1,-1,38,40,-1,42,44,46,-1,-1,48,50,-1,-1,-1,-1,-1,-1,-1,-1,-1,-1,-1,-1,-1,-1,-1,-1,-1,-1,-1,-1],"split_conditions":[9.405571E-1,-2.4504948E-1,-2.4171375E-1,-1.038466E0,-1.7197965E0,-2.4472807E-1,-1.3791312E0,-3.5246143E0,5.9672755E-1,-3.5246143E0,-1.038466E0,1.2303721E0,-2.8989473E-1,1.45432E0,8.3940107E-1,3.4004361E-3,6.7747545E-1,-7.851592E-1,-1.347405E-1,1.4592941E-3,4.3762118E-2,5.2452497E-3,6.648606E-1,-1.0419948E-2,-2.088652E0,-2.088652E0,1.085997E0,8.076492E-3,-4.374259E-3,1.0358341E-1,-6.9780064E-1,-1.8536897E-2,-5.1280754E-3,-8.009668E-3,-2.1560541E-3,-1.5316176E-2,-1.1133338E-2,-1.7484225E-2,-7.3653567E-3,9.508656E-3,-5.6294724E-3,-3.110731E-3,6.7286855E-3,7.114859E-3,2.4979621E-2,-1.6615E-2,9.639911E-3,3.3440936E-2,5.6155197E-2,8.322261E-3,3.159935E-2],"split_indices":[1,1,2,5,5,3,5,5,5,5,5,1,2,1,4,0,3,1,3,0,0,1,5,0,2,2,0,0,0,2,5,0,0,0,0,0,0,0,0,0,0,0,0,0,0,0,0,0,0,0,0],"split_type":[0,0,0,0,0,0,0,0,0,0,0,0,0,0,0,0,0,0,0,0,0,0,0,0,0,0,0,0,0,0,0,0,0,0,0,0,0,0,0,0,0,0,0,0,0,0,0,0,0,0,0],"sum_hessian":[6.1E2,5.18E2,9.2E1,3.36E2,1.82E2,4.3E1,4.9E1,5E1,2.86E2,5E0,1.77E2,1.3E1,3E1,7E0,4.2E1,2E0,4.8E1,1.61E2,1.25E2,2E0,3E0,4.5E1,1.32E2,4E0,9E0,2.6E1,4E0,3E0,4E0,2.3E1,1.9E1,4.5E1,3E0,5.5E1,1.06E2,4.3E1,8.2E1,8E0,3.7E1,9.3E1,3.9E1,6E0,3E0,4E0,2.2E1,2E0,2E0,1.1E1,1.2E1,3E0,1.6E1],"tree_param":{"num_deleted":"0","num_feature":"7","num_nodes":"51","size_leaf_vector":"1"}},{"base_weights":[-8.472807E-4,-2.1246968E-1,1.3053836E0,-3.18939E-1,1.3237171E0,8.109074E-2,1.5801383E0,-4.9337542E-1,-1.1217559E-2,5.8679384E-1,1.9134003E0,-1.7085455E-2,3.2386807E-1,4.1933724E-1,1.8578906E0,-6.76907E-1,-1.9633804E-1,-2.32984E-1,4.047698E-1,1.3301235E-3,1.4136758E-2,1.6730601E-2,4.5026142E-2,-2.6377859E-3,4.564855E-1,1.3155606E-2,6.211125E-1,1.4788456E0,5.184087E-2,-1.5167722E-2,7.973897E-3,-7.923617E-3,2.145657E-3,-7.733884E-3,-1.3818657E-3,1.1191041E-2,9.8977645E-5,1.2496028E-2,2.1950437E-3,-1.2786058E-3,2.2746362E-3,5.644072E-3,1.4697956E-2,2.5883546E-2,3.737218E-2],"categories":[],"categories_nodes":[],"categories_segments":[],"categories_sizes":[],"default_left":[0,0,0,0,0,0,0,0,0,0,0,0,0,0,0,0,0,0,0,0,0,0,0,0,0,0,0,0,0,0,0,0,0,0,0,0,0,0,0,0,0,0,0,0,0],"id":2,"left_children":[1,3,5,7,9,11,13,15,17,19,21,-1,23,25,27,29,31,33,35,-1,-1,-1,-1,-1,37,39,41,43,-1,-1,-1,-1,-1,-1,-1,-1,-1,-1,-1,-1,-1,-1,-1,-1,-1],"loss_changes":[1.7249182E2,8.8252174E1,2.9136963E1,2.6994408E1,1.4086525E1,3.8461492E0,2.2112366E1,1.7366661E1,1.6976427E1,5.4898787E-1,1.9843063E0,0E0,8.830396E-1,1.22119E0,8.036484E0,5.109535E0,6.2461743E0,2.4970112E0,2.8653603E0,0E0,0E0,0E0,0E0,0E0,4.1226697E-1,4.599683E-2,3.0603647E-2,4.5800018E-1,0E0,0E0,0E0,0E0,0E0,0E0,0E0,0E0,0E0,0E0,0E0,0E0,0E0,0E0,0E0,0E0,0E0],"parents":[2147483647,0,0,1,1,2,2,3,3,4,4,5,5,6,6,7,7,8,8,9,9,10,10,12,12,13,13,14,14,15,15,16,16,17,17,18,18,24,24,25,25,26,26,27,27],"right_children":[2,4,6,8,10,12,14,16,18,20,22,-1,24,26,28,30,32,34,36,-1,-1,-1,-1,-1,38,40,42,44,-1,-1,-1,-1,-1,-1,-1,-1,-1,-1,-1,-1,-1,-1,-1,-1,-1],"split_conditions":[1.1118114E0,1.943833E0,-7.9664123E-1,-8.880498E-2,-3.7678355E-1,-9.181213E-1,-4.5049807E-1,-7.928157E-3,-3.7678355E-1,-1.8680267E-1,-1.7353246E0,-1.7085455E-2,-1.347405E-1,-2.2291799E0,8.350799E-2,1.5168927E0,-6.196822E-1,8.438171E-1,6.648606E-1,1.3301235E-3,1.4136758E-2,1.6730601E-2,4.5026142E-2,-2.6377859E-3,3.0032247E-1,2.9012874E-1,-4.0171888E-1,-4.044617E-1,5.184087E-2,-1.5167722E-2,7.973897E-3,-7.923617E-3,2.145657E-3,-7.733884E-3,-1.3818657E-3,1.1191041E-2,9.8977645E-5,1.2496028E-2,2.1950437E-3,-1.2786058E-3,2.2746362E-3,5.644072E-3,1.4697956E-2,2.5883546E-2,3.737218E-2],"split_indices":[1,6,6,6,1,6,2,1,1,5,2,0,3,2,2,2,6,6,5,0,0,0,0,0,2,5,3,6,0,0,0,0,0,0,0,0,0,0,0,0,0,0,0,0,0],"split_type":[0,0,0,0,0,0,0,0,0,0,0,0,0,0,0,0,0,0,0,0,0,0,0,0,0,0,0,0,0,0,0,0,0,0,0,0,0,0,0,0,0,0,0,0,0],"sum_hessian":[6.22E2,5.36E2,8.6E1,5.02E2,3.4E1,1.6E1,7E1,3.2E2,1.82E2,1.6E1,1.8E1,3E0,1.3E1,1.4E1,5.6E1,1.97E2,1.23E2,1.19E2,6.3E1,2E0,1.4E1,3E0,1.5E1,3E0,1E1,5E0,9E0,3.5E1,2.1E1,1.93E2,4E0,7.8E1,4.5E1,6.8E1,5.1E1,4.9E1,1.4E1,7E0,3E0,3E0,2E0,2E0,7E0,1.9E1,1.6E1],"tree_param":{"num_deleted":"0","num_feature":"7","num_nodes":"45","size_leaf_vector":"1"}},{"base_weights":[-2.0552583E-2,-4.7989136E-1,2.0642516E-1,-5.6137115E-1,1.6478273E-1,6.635331E-1,-1.372659E-1,-7.0454013E-1,-3.8254458E-1,-5.6996662E-2,2.2067515E-2,5.6984967E-1,6.2750705E-2,-3.1448647E-1,1.2273215E-1,-8.0781573E-1,-3.9156938E-1,2.9304454E-1,-5.583365E-1,-2.1473573E-1,9.944308E-3,-1.3005867E-2,7.554022E-1,-3.752527E-1,4.4882184E-1,-4.111898E-1,2.4800445E-1,-4.2782645E-3,-1.779856E-2,-1.2871315E-2,1.7318325E-3,1.4137764E-3,2.3257757E-2,-6.3031777E-3,-1.378455E-2,1.0530971E-3,-9.203792E-3,-5.621847E-3,1.3982271E-2,1.5805549E-3,2.0323796E-2,-1.2340577E-2,-4.7038514E-3,1.2606398E-2,-2.178296E-3,-2.0723464E-3,-1.2718396E-2,1.6591776E-2,2.7395575E-3],"categories":[],"categories_nodes":[],"categories_segments":[],"categories_sizes":[],"default_left":[0,0,0,0,0,0,0,0,0,0,0,0,0,0,0,0,0,0,0,0,0,0,0,0,0,0,0,0,0,0,0,0,0,0,0,0,0,0,0,0,0,0,0,0,0,0,0,0,0],"id":3,"left_children":[1,3,5,7,9,11,13,15,17,19,-1,21,-1,23,25,27,29,31,33,35,-1,37,39,41,43,45,47,-1,-1,-1,-1,-1,-1,-1,-1,-1,-1,-1,-1,-1,-1,-1,-1,-1,-1,-1,-1,-1,-1],"loss_changes":[6.526136E1,1.0965782E1,6.591762E1,4.44133E0,4.6045237E0,3.6019424E1,1.1097078E1,2.948223E0,1.0139719E1,1.7269855E0,0E0,1.882798E1,0E0,6.80124E0,6.6567698E0,4.7906876E-1,2.6288214E0,3.1312304E0,1.214323E0,9.0656793E-1,0E0,7.1508336E0,1.6418541E1,3.9662132E0,8.639238E-1,9.9925375E-1,4.939396E0,0E0,0E0,0E0,0E0,0E0,0E0,0E0,0E0,0E0,0E0,0E0,0E0,0E0,0E0,0E0,0E0,0E0,0E0,0E0,0E0,0E0,0E0],"parents":[2147483647,0,0,1,1,2,2,3,3,4,4,5,5,6,6,7,7,8,8,9,9,11,11,13,13,14,14,15,15,16,16,17,17,18,18,19,19,21,21,22,22,23,23,24,24,25,25,26,26],"right_children":[2,4,6,8,10,12,14,16,18,20,-1,22,-1,24,26,28,30,32,34,36,-1,38,40,42,44,46,48,-1,-1,-1,-1,-1,-1,-1,-1,-1,-1,-1,-1,-1,-1,-1,-1,-1,-1,-1,-1,-1,-1],"split_conditions":[-6.6176975E-1,1.3261464E0,2.3902896E-1,-8.062066E-1,6.7747545E-1,2.3199093E0,-3.6740355E-2,5.9602845E-1,-1.697694E-1,1.3562894E0,2.2067515E-2,-3.7746203E-1,6.2750705E-2,1.7142644E0,-1.9360788E0,-1.8838828E0,-8.8894695E-1,1.085997E0,3.7529507E-1,-6.329558E-2,9.944308E-3,1.7479345E0,-1.4282696E0,-1.0315301E-1,-8.1553274E-1,-2.088652E0,-3.7576562E-1,-4.2782645E-3,-1.779856E-2,-1.2871315E-2,1.7318325E-3,1.4137764E-3,2.3257757E-2,-6.3031777E-3,-1.378455E-2,1.0530971E-3,-9.203792E-3,-5.621847E-3,1.3982271E-2,1.5805549E-3,2.0323796E-2,-1.2340577E-2,-4.7038514E-3,1.2606398E-2,-2.178296E-3,-2.0723464E-3,-1.2718396E-2,1.6591776E-2,2.7395575E-3],"split_indices":[6,4,5,6,3,2,4,4,5,2,0,4,0,6,2,2,6,0,5,3,0,6,3,6,4,2,6,0,0,0,0,0,0,0,0,0,0,0,0,0,0,0,0,0,0,0,0,0,0],"split_type":[0,0,0,0,0,0,0,0,0,0,0,0,0,0,0,0,0,0,0,0,0,0,0,0,0,0,0,0,0,0,0,0,0,0,0,0,0,0,0,0,0,0,0,0,0,0,0,0,0],"sum_hessian":[6.24E2,2.06E2,4.18E2,1.83E2,2.3E1,1.79E2,2.39E2,1E2,8.3E1,1.9E1,4E0,1.73E2,6E0,1.42E2,9.7E1,7.4E1,2.6E1,1.7E1,6.6E1,1.5E1,4E0,4.2E1,1.31E2,1.32E2,1E1,1.8E1,7.9E1,2E0,7.2E1,1.8E1,8E0,1.4E1,3E0,1.6E1,5E1,7E0,8E0,3.1E1,1.1E1,2.8E1,1.03E2,5.8E1,7.4E1,8E0,2E0,7E0,1.1E1,1.4E1,6.5E1],"tree_param":{"num_deleted":"0","num_feature":"7","num_nodes":"49","size_leaf_vector":"1"}},{"base_weights":[-1.976149E-2,-2.4563758E-1,1.1204599E0,-4.4736648E-1,2.9490972E-1,-2.5469634E-1,1.4432253E0,-6.5478504E-1,-8.847934E-2,5.6849193E-2,9.465925E-1,-9.078077E-1,1.3670276E-1,7.0081025E-1,1.7193084E0,-7.5339955E-1,-4.833867E-1,-1.426571E-1,9.922364E-1,-8.761327E-2,5.399691E-1,6.311891E-1,1.6036509E0,-2.2146633E-2,-8.13504E-3,-2.9346349E-2,3.6299264E-1,-2.7436616E-3,8.644612E-1,1.2281954E0,1.9239289E0,-1.6708829E-2,9.12805E-3,-1.1804495E-2,-7.8038517E-3,-1.1173259E-2,-7.4063183E-4,1.3185841E-2,2.8164849E-2,1.65192E-2,-2.5481028E-3,-1.8492399E-3,1.51725765E-2,3.8472787E-3,1.6173815E-2,1.056495E-2,3.850731E-2,-7.4148704E-3,3.989905E-3,9.6560274E-5,1.171971E-2,9.467222E-3,2.179255E-2,1.4495006E-2,2.9475993E-2,1.653355E-2,4.3877535E-2],"categories":[],"categories_nodes":[],"categories_segments":[],"categories_sizes":[],"default_left":[0,0,0,0,0,0,0,0,0,0,0,0,0,0,0,0,0,0,0,0,0,0,0,0,0,0,0,0,0,0,0,0,0,0,0,0,0,0,0,0,0,0,0,0,0,0,0,0,0,0,0,0,0,0,0,0,0],"id":4,"left_children":[1,3,5,7,9,11,13,15,17,19,21,23,25,27,29,31,33,35,37,39,41,43,45,-1,-1,47,49,-1,51,53,55,-1,-1,-1,-1,-1,-1,-1,-1,-1,-1,-1,-1,-1,-1,-1,-1,-1,-1,-1,-1,-1,-1,-1,-1,-1,-1],"loss_changes":[1.6510643E2,5.847048E1,4.7415985E1,2.8973602E1,2.2596619E1,5.4922714E0,1.6422363E1,3.8106995E0,8.572859E0,7.58492E0,7.0700912E0,1.0459423E-1,5.367058E-1,3.4950247E0,3.8675385E0,3.6235962E0,5.093746E-1,5.5690193E0,3.546858E-2,2.2357192E0,2.5707521E0,1.3356161E0,1.467596E0,0E0,0E0,6.647713E-1,3.8082945E-1,0E0,8.3248806E-1,6.4806557E-1,3.428299E0,0E0,0E0,0E0,0E0,0E0,0E0,0E0,0E0,0E0,0E0,0E0,0E0,0E0,0E0,0E0,0E0,0E0,0E0,0E0,0E0,0E0,0E0,0E0,0E0,0E0,0E0],"parents":[2147483647,0,0,1,1,2,2,3,3,4,4,5,5,6,6,7,7,8,8,9,9,10,10,11,11,12,12,13,13,14,14,15,15,16,16,17,17,18,18,19,19,20,20,21,21,22,22,25,25,26,26,28,28,29,29,30,30],"right_children":[2,4,6,8,10,12,14,16,18,20,22,24,26,28,30,32,34,36,38,40,42,44,46,-1,-1,48,50,-1,52,54,56,-1,-1,-1,-1,-1,-1,-1,-1,-1,-1,-1,-1,-1,-1,-1,-1,-1,-1,-1,-1,-1,-1,-1,-1,-1,-1],"split_conditions":[1.1118114E0,3.5598403E-1,-8.530769E-1,-1.7918244E-1,-2.5822288E-1,-9.181213E-1,-3.701964E-1,-3.4228688E-1,2.0562642E0,1.7142644E0,1.6568723E0,-2.738344E-1,-8.8894695E-1,-5.5212927E-1,-5.5224645E-1,1.5168927E0,-6.534251E-1,-8.4446806E-1,-1.6651954E-1,-1.5943252E0,-1.347405E-1,-9.657577E-1,-4.1034722E-1,-2.2146633E-2,-8.13504E-3,1.085997E0,-2.088652E0,-2.7436616E-3,-6.1011684E-1,1.085997E0,-8.003064E-1,-1.6708829E-2,9.12805E-3,-1.1804495E-2,-7.8038517E-3,-1.1173259E-2,-7.4063183E-4,1.3185841E-2,2.8164849E-2,1.65192E-2,-2.5481028E-3,-1.8492399E-3,1.51725765E-2,3.8472787E-3,1.6173815E-2,1.056495E-2,3.850731E-2,-7.4148704E-3,3.989905E-3,9.6560274E-5,1.171971E-2,9.467222E-3,2.179255E-2,1.4495006E-2,2.9475993E-2,1.653355E-2,4.3877535E-2],"split_indices":[1,6,6,1,1,6,2,6,4,6,6,2,6,3,6,2,1,6,0,4,3,3,2,0,0,0,2,0,6,0,3,0,0,0,0,0,0,0,0,0,0,0,0,0,0,0,0,0,0,0,0,0,0,0,0,0,0],"split_type":[0,0,0,0,0,0,0,0,0,0,0,0,0,0,0,0,0,0,0,0,0,0,0,0,0,0,0,0,0,0,0,0,0,0,0,0,0,0,0,0,0,0,0,0,0,0,0,0,0,0,0,0,0,0,0,0,0],"sum_hessian":[6.39E2,5.34E2,1.05E2,3.89E2,1.45E2,2E1,8.5E1,2.46E2,1.43E2,1.07E2,3.8E1,7E0,1.3E1,2.4E1,6.1E1,1.54E2,9.2E1,1.37E2,6E0,8.3E1,2.4E1,2.7E1,1.1E1,5E0,2E0,8E0,5E0,4E0,2E1,2E1,4.1E1,1.52E2,2E0,5.9E1,3.3E1,3E1,1.07E2,4E0,2E0,2E0,8.1E1,5E0,1.9E1,6E0,2.1E1,2E0,9E0,3E0,5E0,2E0,3E0,6E0,1.4E1,5E0,1.5E1,4E0,3.7E1],"tree_param":{"num_deleted":"0","num_feature":"7","num_nodes":"57","size_leaf_vector":"1"}},{"base_weights":[3.4937073E-2,-4.216541E-2,2.0682533E0,-5.105231E-1,2.0148599E-1,7.159562E-1,2.615136E0,-8.139109E-1,-3.7611243E-1,7.6388615E-1,-6.598132E-2,2.9112787E-3,8.8739574E-1,2.0795468E-2,6.685074E-2,-1.7949924E-2,-8.377447E-3,-7.275155E-1,-1.9109938E-1,5.730044E-1,1.7182777E0,-2.5064874E-1,1.7355452E-1,2.547598E-2,4.469119E-3,-1.8060914E-3,-1.62996E-2,1.9085982E-4,-8.562407E-3,-4.794501E-4,1.7772453E-2,1.0128585E-3,4.097041E-2,-8.687274E-3,1.5239215E-3,-6.217116E-3,5.8368314E-3],"categories":[],"categories_nodes":[],"categories_segments":[],"categories_sizes":[],"default_left":[0,0,0,0,0,0,0,0,0,0,0,0,0,0,0,0,0,0,0,0,0,0,0,0,0,0,0,0,0,0,0,0,0,0,0,0,0],"id":5,"left_children":[1,3,5,7,9,11,13,15,17,19,21,-1,23,-1,-1,-1,-1,25,27,29,31,33,35,-1,-1,-1,-1,-1,-1,-1,-1,-1,-1,-1,-1,-1,-1],"loss_changes":[9.8697876E1,6.937128E1,1.5137283E1,8.175816E0,6.0219864E1,6.7829084E-1,9.524155E0,8.0513E-2,9.353039E0,2.2516113E1,1.2075276E1,0E0,9.3789387E-1,0E0,0E0,0E0,0E0,7.456436E-1,3.9643981E0,1.6081375E1,6.0012093E0,7.467222E0,5.3370533E0,0E0,0E0,0E0,0E0,0E0,0E0,0E0,0E0,0E0,0E0,0E0,0E0,0E0,0E0],"parents":[2147483647,0,0,1,1,2,2,3,3,4,4,5,5,6,6,7,7,8,8,9,9,10,10,12,12,17,17,18,18,19,19,20,20,21,21,22,22],"right_children":[2,4,6,8,10,12,14,16,18,20,22,-1,24,-1,-1,-1,-1,26,28,30,32,34,36,-1,-1,-1,-1,-1,-1,-1,-1,-1,-1,-1,-1,-1,-1],"split_conditions":[1.6975714E0,-6.196822E-1,-5.2402866E-1,-3.7746203E-1,1.3682936E-1,1.7859032E0,-8.003064E-1,1.5165238E0,-8.8253814E-1,1.9964424E0,-1.3408941E-1,2.9112787E-3,2.0027177E0,2.0795468E-2,6.685074E-2,-1.7949924E-2,-8.377447E-3,-1.2334393E0,-1.697694E-1,-2.5130853E-1,-1.3509525E0,8.438171E-1,-1.9963051E0,2.547598E-2,4.469119E-3,-1.8060914E-3,-1.62996E-2,1.9085982E-4,-8.562407E-3,-4.794501E-4,1.7772453E-2,1.0128585E-3,4.097041E-2,-8.687274E-3,1.5239215E-3,-6.217116E-3,5.8368314E-3],"split_indices":[2,6,6,4,5,2,3,5,6,6,4,0,2,0,0,0,0,2,5,3,4,6,2,0,0,0,0,0,0,0,0,0,0,0,0,0,0],"split_type":[0,0,0,0,0,0,0,0,0,0,0,0,0,0,0,0,0,0,0,0,0,0,0,0,0,0,0,0,0,0,0,0,0,0,0,0,0],"sum_hessian":[6.28E2,6.06E2,2.2E1,2.07E2,3.99E2,7E0,1.5E1,6.2E1,1.45E2,1.28E2,2.71E2,2E0,5E0,4E0,1.1E1,5.9E1,3E0,4.9E1,9.6E1,1.08E2,2E1,1.53E2,1.18E2,3E0,2E0,2E0,4.7E1,4.9E1,4.7E1,3.2E1,7.6E1,2E0,1.8E1,1.04E2,4.9E1,2E1,9.8E1],"tree_param":{"num_deleted":"0","num_feature":"7","num_nodes":"37","size_leaf_vector":"1"}},{"base_weights":[-2.2989063E-2,-2.635888E-1,1.2469381E0,-3.490946E-1,1.2910373E0,1.0406868E-1,1.6018056E0,-5.2683896E-1,-3.7836295E-2,7.017295E-1,1.68916E0,-4.032245E-1,5.314579E-1,1.1873744E0,5.1307313E-2,-6.5211904E-1,-1.96649E-1,-2.2954324E-1,3.9669058E-1,9.037608E-1,8.651012E-3,1.8279697E0,1.0359273E-2,8.09166E-2,-7.605991E-1,1.3819346E-3,6.040819E-1,2.9017523E-1,1.3439065E0,-1.7424827E-2,-1.1509589E-2,-7.928101E-3,4.148985E-3,-8.41817E-3,-9.908304E-4,-4.544505E-3,1.082858E-2,2.216571E-2,8.727412E-3,1.5639307E-2,4.4698708E-2,-1.1225496E-3,3.4705582E-3,-1.8881718E-2,-6.966257E-3,1.5417837E-2,6.730062E-3,-9.225313E-4,1.2234444E-2,1.2426369E-2,3.046255E-2],"categories":[],"categories_nodes":[],"categories_segments":[],"categories_sizes":[],"default_left":[0,0,0,0,0,0,0,0,0,0,0,0,0,0,0,0,0,0,0,0,0,0,0,0,0,0,0,0,0,0,0,0,0,0,0,0,0,0,0,0,0,0,0,0,0,0,0,0,0,0,0],"id":6,"left_children":[1,3,5,7,9,11,13,15,17,19,21,23,25,27,-1,29,31,33,35,37,-1,39,-1,41,43,-1,45,47,49,-1,-1,-1,-1,-1,-1,-1,-1,-1,-1,-1,-1,-1,-1,-1,-1,-1,-1,-1,-1,-1,-1],"loss_changes":[1.9373811E2,7.1302155E1,4.0795578E1,2.7974228E1,5.383938E0,5.6345882E0,2.1671066E1,1.3191689E1,1.5501895E1,4.3289757E-1,1.814827E0,2.137782E0,4.369285E-1,6.9129333E0,0E0,3.8590393E0,5.98978E0,3.755704E0,3.6764727E0,7.2250366E-3,0E0,2.162445E0,0E0,7.14942E-2,6.136942E-2,0E0,1.5829468E-1,8.4688693E-1,1.3165283E0,0E0,0E0,0E0,0E0,0E0,0E0,0E0,0E0,0E0,0E0,0E0,0E0,0E0,0E0,0E0,0E0,0E0,0E0,0E0,0E0,0E0,0E0],"parents":[2147483647,0,0,1,1,2,2,3,3,4,4,5,5,6,6,7,7,8,8,9,9,10,10,11,11,12,12,13,13,15,15,16,16,17,17,18,18,19,19,21,21,23,23,24,24,26,26,27,27,28,28],"right_children":[2,4,6,8,10,12,14,16,18,20,22,24,26,28,-1,30,32,34,36,38,-1,40,-1,42,44,-1,46,48,50,-1,-1,-1,-1,-1,-1,-1,-1,-1,-1,-1,-1,-1,-1,-1,-1,-1,-1,-1,-1,-1,-1],"split_conditions":[1.1118114E0,1.9964424E0,-6.8663967E-1,-8.880498E-2,-4.953442E-1,-8.8894695E-1,4.7372244E-2,5.2452497E-3,-2.4504948E-1,3.616137E-1,1.5386263E-1,-1.4642975E0,-3.287875E-1,-2.0163805E0,5.1307313E-2,-7.3733604E-1,-6.3211715E-1,7.385982E-1,-2.088652E0,1.5386263E-1,8.651012E-3,-1.9810277E0,1.0359273E-2,-1.3850076E-1,-2.738344E-1,1.3819346E-3,1.5695189E0,8.3940107E-1,1.2303721E0,-1.7424827E-2,-1.1509589E-2,-7.928101E-3,4.148985E-3,-8.41817E-3,-9.908304E-4,-4.544505E-3,1.082858E-2,2.216571E-2,8.727412E-3,1.5639307E-2,4.4698708E-2,-1.1225496E-3,3.4705582E-3,-1.8881718E-2,-6.966257E-3,1.5417837E-2,6.730062E-3,-9.225313E-4,1.2234444E-2,1.2426369E-2,3.046255E-2],"split_indices":[1,6,6,6,1,6,2,1,1,3,5,5,4,2,0,6,6,6,2,5,0,3,0,3,2,0,4,4,1,0,0,0,0,0,0,0,0,0,0,0,0,0,0,0,0,0,0,0,0,0,0],"split_type":[0,0,0,0,0,0,0,0,0,0,0,0,0,0,0,0,0,0,0,0,0,0,0,0,0,0,0,0,0,0,0,0,0,0,0,0,0,0,0,0,0,0,0,0,0,0,0,0,0,0,0],"sum_hessian":[6.32E2,5.32E2,1E2,5.05E2,2.7E1,2.4E1,7.6E1,3.21E2,1.84E2,1.2E1,1.5E1,1.1E1,1.3E1,5.1E1,2.5E1,2.32E2,8.9E1,1.28E2,5.6E1,6E0,6E0,1.3E1,2E0,5E0,6E0,2E0,1.1E1,8E0,4.3E1,1E2,1.32E2,6.2E1,2.7E1,6.8E1,6E1,8E0,4.8E1,4E0,2E0,3E0,1E1,2E0,3E0,4E0,2E0,7E0,4E0,4E0,4E0,4E0,3.9E1],"tree_param":{"num_deleted":"0","num_feature":"7","num_nodes":"51","size_leaf_vector":"1"}},{"base_weights":[1.7271647E-2,-2.5626215E-1,1.1245031E0,-3.8568673E-1,6.1980283E-1,1.4536642E-1,1.4779772E0,-6.498684E-1,-2.1241936E-1,2.4674582E-1,1.0743996E0,-3.853334E-1,4.523542E-1,1.1300522E0,2.0841498E0,-6.868516E-1,-3.4947345E-1,-3.804734E-1,1.437458E-1,-2.3834008E-1,3.6787722E-1,4.622919E-1,1.4792819E0,-1.735904E-2,-1.1129541E-1,2.4982071E-1,6.321767E-1,6.0465258E-2,1.2261881E0,2.228164E0,1.1240296E-2,-1.6426139E-2,-1.3173544E-2,-1.0942408E-2,-1.8544422E-3,-1.0652268E-2,-3.8754237E-3,-5.1466906E-3,4.3932023E-3,-9.656484E-3,1.7470255E-3,2.709364E-3,1.1321915E-2,1.3632443E-2,-6.600422E-3,3.965495E-2,1.1462085E-2,-7.381978E-3,1.3057904E-3,9.317633E-3,2.2921215E-3,4.5123617E-3,1.6569227E-2,4.102453E-3,-2.850916E-3,1.9321896E-2,3.153305E-2,5.293861E-2,3.1967793E-2],"categories":[],"categories_nodes":[],"categories_segments":[],"categories_sizes":[],"default_left":[0,0,0,0,0,0,0,0,0,0,0,0,0,0,0,0,0,0,0,0,0,0,0,0,0,0,0,0,0,0,0,0,0,0,0,0,0,0,0,0,0,0,0,0,0,0,0,0,0,0,0,0,0,0,0,0,0,0,0],"id":7,"left_children":[1,3,5,7,9,11,13,15,17,19,21,23,25,27,29,31,33,35,37,39,41,43,45,-1,47,49,51,53,55,57,-1,-1,-1,-1,-1,-1,-1,-1,-1,-1,-1,-1,-1,-1,-1,-1,-1,-1,-1,-1,-1,-1,-1,-1,-1,-1,-1,-1,-1],"loss_changes":[1.8957893E2,5.715798E1,4.2701492E1,1.9911003E1,1.0758276E1,5.7135315E0,1.6836914E1,1.6819153E0,1.5976121E1,2.2617674E0,6.503254E0,1.3935088E0,6.43311E-1,6.095398E0,6.0564575E0,3.9954376E-1,8.198817E-1,3.9749146E0,1.9868355E0,5.6561553E-1,1.0627761E0,1.858835E0,4.711773E0,0E0,3.7505996E-1,2.6618236E-1,4.6013403E-1,1.735788E-1,2.922989E0,1.1077423E0,0E0,0E0,0E0,0E0,0E0,0E0,0E0,0E0,0E0,0E0,0E0,0E0,0E0,0E0,0E0,0E0,0E0,0E0,0E0,0E0,0E0,0E0,0E0,0E0,0E0,0E0,0E0,0E0,0E0],"parents":[2147483647,0,0,1,1,2,2,3,3,4,4,5,5,6,6,7,7,8,8,9,9,10,10,11,11,12,12,13,13,14,14,15,15,16,16,17,17,18,18,19,19,20,20,21,21,22,22,24,24,25,25,26,26,27,27,28,28,29,29],"right_children":[2,4,6,8,10,12,14,16,18,20,22,24,26,28,30,32,34,36,38,40,42,44,46,-1,48,50,52,54,56,58,-1,-1,-1,-1,-1,-1,-1,-1,-1,-1,-1,-1,-1,-1,-1,-1,-1,-1,-1,-1,-1,-1,-1,-1,-1,-1,-1,-1,-1],"split_conditions":[7.8247625E-1,1.1738219E0,-7.6555383E-1,-6.196822E-1,1.9964424E0,-9.028167E-1,4.7372244E-2,3.8727406E-1,-1.7918244E-1,-1.9963051E0,-3.7746203E-1,-9.2146915E-1,1.7046148E0,-2.0163805E0,1.1758585E0,-5.480378E-1,7.146274E-2,3.7989742E-1,-7.275388E-1,-3.7678355E-1,-6.0073143E-1,1.085997E0,-1.8680267E-1,-1.735904E-2,9.142103E-1,-3.6740355E-2,-2.2291799E0,1.7046148E0,1.7046148E0,8.3940107E-1,1.1240296E-2,-1.6426139E-2,-1.3173544E-2,-1.0942408E-2,-1.8544422E-3,-1.0652268E-2,-3.8754237E-3,-5.1466906E-3,4.3932023E-3,-9.656484E-3,1.7470255E-3,2.709364E-3,1.1321915E-2,1.3632443E-2,-6.600422E-3,3.965495E-2,1.1462085E-2,-7.381978E-3,1.3057904E-3,9.317633E-3,2.2921215E-3,4.5123617E-3,1.6569227E-2,4.102453E-3,-2.850916E-3,1.9321896E-2,3.153305E-2,5.293861E-2,3.1967793E-2],"split_indices":[1,6,6,6,6,6,2,1,1,2,4,6,1,2,5,1,2,6,2,1,1,0,5,0,1,4,2,1,1,4,0,0,0,0,0,0,0,0,0,0,0,0,0,0,0,0,0,0,0,0,0,0,0,0,0,0,0,0,0],"split_type":[0,0,0,0,0,0,0,0,0,0,0,0,0,0,0,0,0,0,0,0,0,0,0,0,0,0,0,0,0,0,0,0,0,0,0,0,0,0,0,0,0,0,0,0,0,0,0,0,0,0,0,0,0,0,0,0,0,0,0],"sum_hessian":[6.24E2,5.01E2,1.23E2,4.37E2,6.4E1,3.3E1,9E1,1.72E2,2.65E2,3.6E1,2.8E1,1.2E1,2.1E1,5.9E1,3.1E1,1.52E2,2E1,1.8E2,8.5E1,7E0,2.9E1,1.2E1,1.6E1,4E0,8E0,1.1E1,1E1,5E0,5.4E1,2.8E1,3E0,7.5E1,7.7E1,1.2E1,8E0,1.15E2,6.5E1,1.1E1,7.4E1,4E0,3E0,1.2E1,1.7E1,1E1,2E0,1.1E1,5E0,3E0,5E0,4E0,7E0,3E0,7E0,3E0,2E0,2.4E1,3E1,2E1,8E0],"tree_param":{"num_deleted":"0","num_feature":"7","num_nodes":"59","size_leaf_vector":"1"}},{"base_weights":[2.7219633E-2,-2.120909E-1,1.1231042E0,-2.791112E-1,1.004612E0,1.0621318E-1,1.3847029E0,-5.5637765E-1,-1.16166145E-1,5.352609E-1,1.7489828E0,-5.2269727E-1,3.4488875E-1,5.2728975E-1,1.5946487E0,-6.767157E-1,-2.848286E-1,-2.9731882E-1,2.2205472E-1,1.650563E-1,6.292439E-1,5.8739953E-2,1.1691332E0,-3.0119652E-3,-1.6798355E-2,1.1842041E-3,3.7774745E-1,-7.476733E-5,5.899331E-1,1.3462266E0,1.9280746E0,-1.5458259E-2,-9.710087E-3,-1.1058505E-2,-3.226534E-3,-9.682865E-3,-1.1998102E-3,2.2350235E-3,1.2083758E-2,7.2500133E-4,5.2327737E-3,1.5174828E-2,2.8965774E-3,1.3685164E-2,3.3533953E-2,9.482705E-3,3.420611E-3,2.3564638E-3,1.40085425E-2,1.3635947E-2,3.0795613E-2,2.5987523E-2,4.785867E-2],"categories":[],"categories_nodes":[],"categories_segments":[],"categories_sizes":[],"default_left":[0,0,0,0,0,0,0,0,0,0,0,0,0,0,0,0,0,0,0,0,0,0,0,0,0,0,0,0,0,0,0,0,0,0,0,0,0,0,0,0,0,0,0,0,0,0,0,0,0,0,0,0,0],"id":8,"left_children":[1,3,5,7,9,11,13,15,17,19,21,23,25,27,29,31,33,35,37,39,41,-1,43,-1,-1,-1,45,-1,47,49,51,-1,-1,-1,-1,-1,-1,-1,-1,-1,-1,-1,-1,-1,-1,-1,-1,-1,-1,-1,-1,-1,-1],"loss_changes":[1.638864E2,4.2112362E1,2.9646881E1,2.1937641E1,8.4968605E0,3.7828057E0,1.5180069E1,5.6892357E0,1.8937063E1,5.224128E-1,2.4145412E0,5.713862E-1,1.5099144E-1,6.3373804E-1,3.285324E0,7.292023E-1,1.6722498E0,7.2582417E0,4.2541394E0,4.228136E-2,4.0184546E-1,0E0,6.5159225E-1,0E0,0E0,0E0,1.422298E-1,0E0,3.949833E-1,1.4924316E0,3.0925064E0,0E0,0E0,0E0,0E0,0E0,0E0,0E0,0E0,0E0,0E0,0E0,0E0,0E0,0E0,0E0,0E0,0E0,0E0,0E0,0E0,0E0,0E0],"parents":[2147483647,0,0,1,1,2,2,3,3,4,4,5,5,6,6,7,7,8,8,9,9,10,10,11,11,12,12,13,13,14,14,15,15,16,16,17,17,18,18,19,19,20,20,22,22,26,26,28,28,29,29,30,30],"right_children":[2,4,6,8,10,12,14,16,18,20,22,24,26,28,30,32,34,36,38,40,42,-1,44,-1,-1,-1,46,-1,48,50,52,-1,-1,-1,-1,-1,-1,-1,-1,-1,-1,-1,-1,-1,-1,-1,-1,-1,-1,-1,-1,-1,-1],"split_conditions":[9.142103E-1,1.9964424E0,-7.9664123E-1,-6.196822E-1,-3.7678355E-1,-9.1132987E-1,-5.669355E-1,5.2452497E-3,-2.4504948E-1,-1.3509525E0,-1.6600904E-1,1.45432E0,-9.090342E-1,-4.0171888E-1,8.350799E-2,-6.8568313E-1,-8.855991E-1,6.046833E-1,2.9380924E-1,-9.1689324E-1,-4.953442E-1,5.8739953E-2,3.5265583E-1,-3.0119652E-3,-1.6798355E-2,1.1842041E-3,2.0562642E0,-7.476733E-5,-6.196822E-1,-5.953532E-2,1.45432E0,-1.5458259E-2,-9.710087E-3,-1.1058505E-2,-3.226534E-3,-9.682865E-3,-1.1998102E-3,2.2350235E-3,1.2083758E-2,7.2500133E-4,5.2327737E-3,1.5174828E-2,2.8965774E-3,1.3685164E-2,3.3533953E-2,9.482705E-3,3.420611E-3,2.3564638E-3,1.40085425E-2,1.3635947E-2,3.0795613E-2,2.5987523E-2,4.785867E-2],"split_indices":[1,6,6,6,1,6,2,1,1,4,1,1,6,3,2,6,6,6,6,1,1,0,4,0,0,0,4,0,6,3,1,0,0,0,0,0,0,0,0,0,0,0,0,0,0,0,0,0,0,0,0,0,0],"split_type":[0,0,0,0,0,0,0,0,0,0,0,0,0,0,0,0,0,0,0,0,0,0,0,0,0,0,0,0,0,0,0,0,0,0,0,0,0,0,0,0,0,0,0,0,0,0,0,0,0,0,0,0,0],"sum_hessian":[6.23E2,5.12E2,1.11E2,4.86E2,2.6E1,2.3E1,8.8E1,1.79E2,3.07E2,1.7E1,9E0,6E0,1.7E1,1.8E1,7E1,1.23E2,5.6E1,2E2,1.07E2,4E0,1.3E1,2E0,7E0,3E0,3E0,2E0,1.5E1,2E0,1.6E1,4.3E1,2.7E1,1.04E2,1.9E1,2E1,3.6E1,1.23E2,7.7E1,8E1,2.7E1,2E0,2E0,1.1E1,2E0,4E0,3E0,1.1E1,4E0,2E0,1.4E1,5E0,3.8E1,9E0,1.8E1],"tree_param":{"num_deleted":"0","num_feature":"7","num_nodes":"53","size_leaf_vector":"1"}},{"base_weights":[1.4657405E-2,-1.1156018E-1,8.5028535E-1,-1.5374129E-1,1.7677656E0,1.4376761E0,3.3537132E-1,-3.2023317E-1,2.088973E-1,1.840321E-2,4.5925394E-2,4.8145285E-1,1.6766205E0,-1.02446765E-1,4.9768233E-1,-5.8102787E-1,-1.6097923E-1,-1.7380248E-1,4.2869624E-1,-1.3847948E-3,6.464143E-1,1.4191102E0,4.7805883E-2,-2.500081E-1,1.1137616E-1,2.7875215E-1,1.0505238E0,-1.6069774E-2,-9.164487E-3,-7.6319114E-3,9.520175E-4,-5.862481E-3,1.1132912E-2,-1.4087808E-3,1.450201E-2,6.7934226E-3,1.7705794E-2,3.491795E-2,1.3059884E-2,1.2762912E-3,-7.857461E-3,-2.4420273E-4,5.149805E-3,-3.5732042E-4,1.1966942E-2,2.9711496E-2,1.1241113E-2],"categories":[],"categories_nodes":[],"categories_segments":[],"categories_sizes":[],"default_left":[0,0,0,0,0,0,0,0,0,0,0,0,0,0,0,0,0,0,0,0,0,0,0,0,0,0,0,0,0,0,0,0,0,0,0,0,0,0,0,0,0,0,0,0,0,0,0],"id":9,"left_children":[1,3,5,7,9,11,13,15,17,-1,-1,19,21,23,25,27,29,31,33,-1,35,37,-1,39,41,43,45,-1,-1,-1,-1,-1,-1,-1,-1,-1,-1,-1,-1,-1,-1,-1,-1,-1,-1,-1,-1],"loss_changes":[6.590873E1,4.3316498E1,2.4319218E1,3.2187126E1,2.0844688E0,7.875183E0,3.248807E0,1.5065861E1,1.4206163E1,0E0,0E0,8.510537E-1,9.6780396E-1,4.380209E-1,3.7012749E0,3.1930046E0,8.959556E0,4.2712593E0,1.2771458E1,0E0,1.4214396E-1,2.6538773E0,0E0,3.0017215E-1,9.570825E-2,2.030173E0,8.2514286E-1,0E0,0E0,0E0,0E0,0E0,0E0,0E0,0E0,0E0,0E0,0E0,0E0,0E0,0E0,0E0,0E0,0E0,0E0,0E0,0E0],"parents":[2147483647,0,0,1,1,2,2,3,3,4,4,5,5,6,6,7,7,8,8,11,11,12,12,13,13,14,14,15,15,16,16,17,17,18,18,20,20,21,21,23,23,24,24,25,25,26,26],"right_children":[2,4,6,8,10,12,14,16,18,-1,-1,20,22,24,26,28,30,32,34,-1,36,38,-1,40,42,44,46,-1,-1,-1,-1,-1,-1,-1,-1,-1,-1,-1,-1,-1,-1,-1,-1,-1,-1,-1,-1],"split_conditions":[1.1714306E0,1.7859032E0,1.3682936E-1,5.9602845E-1,-5.857252E-1,-1.2665784E0,-2.8989473E-1,-6.536392E-1,-7.022312E-1,1.840321E-2,4.5925394E-2,-3.5713533E-1,1.085997E0,-1.9963051E0,-3.287875E-1,-8.047718E-1,-3.7746203E-1,8.767692E-1,-4.5852822E-1,-1.3847948E-3,-1.8680267E-1,1.3570407E-1,4.7805883E-2,5.796943E-1,1.085997E0,1.7620913E0,5.9602845E-1,-1.6069774E-2,-9.164487E-3,-7.6319114E-3,9.520175E-4,-5.862481E-3,1.1132912E-2,-1.4087808E-3,1.450201E-2,6.7934226E-3,1.7705794E-2,3.491795E-2,1.3059884E-2,1.2762912E-3,-7.857461E-3,-2.4420273E-4,5.149805E-3,-3.5732042E-4,1.1966942E-2,2.9711496E-2,1.1241113E-2],"split_indices":[6,2,5,4,6,3,2,6,6,0,0,5,0,2,4,6,4,3,2,0,5,2,0,5,0,6,4,0,0,0,0,0,0,0,0,0,0,0,0,0,0,0,0,0,0,0,0],"split_type":[0,0,0,0,0,0,0,0,0,0,0,0,0,0,0,0,0,0,0,0,0,0,0,0,0,0,0,0,0,0,0,0,0,0,0,0,0,0,0,0,0,0,0,0,0,0,0],"sum_hessian":[6.23E2,5.42E2,8.1E1,5.31E2,1.1E1,3.7E1,4.4E1,3.64E2,1.67E2,4E0,7E0,8E0,2.9E1,1.2E1,3.2E1,1.37E2,2.27E2,6.1E1,1.06E2,2E0,6E0,2.2E1,7E0,7E0,5E0,2.4E1,8E0,6.6E1,7.1E1,1.17E2,1.1E2,5.4E1,7E0,3.5E1,7.1E1,3E0,3E0,1.7E1,5E0,2E0,5E0,3E0,2E0,1.2E1,1.2E1,4E0,4E0],"tree_param":{"num_deleted":"0","num_feature":"7","num_nodes":"47","size_leaf_vector":"1"}},{"base_weights":[-1.0297078E-2,-2.0626706E-1,1.1125549E0,-2.8699106E-1,1.1544666E0,2.7091745E-1,1.4551274E0,-4.4936547E-1,4.559956E-3,3.7898603E-1,1.5620317E0,-1.5503515E-2,3.705252E-1,3.5895744E-1,1.7326722E0,-5.95409E-1,-8.1097044E-2,-1.9969428E-1,4.195837E-1,-2.929987E-3,4.953699E-1,6.6388696E-3,1.7655567E0,4.1992422E-2,5.3245866E-1,-2.4280713E-1,6.841204E-1,1.3712302E0,2.0970957E0,-1.6216813E-2,-1.0388399E-2,-5.25808E-3,5.41146E-3,-8.776511E-3,-7.52728E-4,3.9032908E-4,1.2920677E-2,4.4378643E-3,1.1746235E-2,3.1483863E-2,5.9257556E-2,5.114067E-3,-2.745989E-3,1.7691798E-3,1.2641314E-2,-9.885342E-3,-4.737943E-4,1.7235512E-2,3.4258456E-3,7.3497794E-3,3.1030811E-2,1.4788678E-2,4.743769E-2],"categories":[],"categories_nodes":[],"categories_segments":[],"categories_sizes":[],"default_left":[0,0,0,0,0,0,0,0,0,0,0,0,0,0,0,0,0,0,0,0,0,0,0,0,0,0,0,0,0,0,0,0,0,0,0,0,0,0,0,0,0,0,0,0,0,0,0,0,0,0,0,0,0],"id":10,"left_children":[1,3,5,7,9,11,13,15,17,19,21,-1,23,25,27,29,31,33,35,-1,37,-1,39,41,43,45,47,49,51,-1,-1,-1,-1,-1,-1,-1,-1,-1,-1,-1,-1,-1,-1,-1,-1,-1,-1,-1,-1,-1,-1,-1,-1],"loss_changes":[1.4215869E2,6.0745453E1,2.7284683E1,2.4619068E1,9.205833E0,3.115668E0,2.0066116E1,1.7915306E1,1.5935845E1,7.8525794E-1,4.569248E0,0E0,1.4140525E0,3.1011825E0,4.2371674E0,3.883583E0,5.197962E0,4.257725E0,4.3963385E0,0E0,2.5375128E-2,0E0,1.1674881E0,3.576276E-1,3.6807442E-1,2.732087E-1,4.6163893E-1,1.4201393E0,1.8026199E0,0E0,0E0,0E0,0E0,0E0,0E0,0E0,0E0,0E0,0E0,0E0,0E0,0E0,0E0,0E0,0E0,0E0,0E0,0E0,0E0,0E0,0E0,0E0,0E0],"parents":[2147483647,0,0,1,1,2,2,3,3,4,4,5,5,6,6,7,7,8,8,9,9,10,10,12,12,13,13,14,14,15,15,16,16,17,17,18,18,20,20,22,22,23,23,24,24,25,25,26,26,27,27,28,28],"right_children":[2,4,6,8,10,12,14,16,18,20,22,-1,24,26,28,30,32,34,36,-1,38,-1,40,42,44,46,48,50,52,-1,-1,-1,-1,-1,-1,-1,-1,-1,-1,-1,-1,-1,-1,-1,-1,-1,-1,-1,-1,-1,-1,-1,-1],"split_conditions":[1.0459443E0,1.943833E0,-3.701964E-1,-8.880498E-2,-3.7746203E-1,-9.181213E-1,-7.808584E-1,5.2452497E-3,-3.7678355E-1,-1.6241585E-1,-6.6001177E-1,-1.5503515E-2,-2.4472807E-1,-8.9325136E-1,1.3570407E-1,-7.3733604E-1,-6.1298645E-1,6.046833E-1,-4.1034722E-1,-2.929987E-3,2.4699275E0,6.6388696E-3,4.0872973E-1,1.085997E0,-2.2613006E0,-7.709534E-2,4.3282023E-1,-5.953532E-2,-8.003064E-1,-1.6216813E-2,-1.0388399E-2,-5.25808E-3,5.41146E-3,-8.776511E-3,-7.52728E-4,3.9032908E-4,1.2920677E-2,4.4378643E-3,1.1746235E-2,3.1483863E-2,5.9257556E-2,5.114067E-3,-2.745989E-3,1.7691798E-3,1.2641314E-2,-9.885342E-3,-4.737943E-4,1.7235512E-2,3.4258456E-3,7.3497794E-3,3.1030811E-2,1.4788678E-2,4.743769E-2],"split_indices":[1,6,2,6,4,6,6,1,1,2,1,0,3,6,2,6,6,6,2,0,6,0,2,0,2,2,2,3,3,0,0,0,0,0,0,0,0,0,0,0,0,0,0,0,0,0,0,0,0,0,0,0,0],"split_type":[0,0,0,0,0,0,0,0,0,0,0,0,0,0,0,0,0,0,0,0,0,0,0,0,0,0,0,0,0,0,0,0,0,0,0,0,0,0,0,0,0,0,0,0,0,0,0,0,0,0,0,0,0],"sum_hessian":[6.44E2,5.49E2,9.5E1,5.19E2,3E1,2.8E1,6.7E1,3.33E2,1.86E2,1.1E1,1.9E1,2E0,2.6E1,1.4E1,5.3E1,2.38E2,9.5E1,1.25E2,6.1E1,2E0,9E0,3E0,1.6E1,9E0,1.7E1,5E0,9E0,2.9E1,2.4E1,1E2,1.38E2,6.4E1,3.1E1,5.5E1,7E1,1.9E1,4.2E1,2E0,7E0,1.4E1,2E0,4E0,5E0,2E0,1.5E1,2E0,3E0,7E0,2E0,2E0,2.7E1,2E0,2.2E1],"tree_param":{"num_deleted":"0","num_feature":"7","num_nodes":"53","size_leaf_vector":"1"}},{"base_weights":[-2.1057369E-3,-2.2232243E-1,1.1114627E0,-3.6859596E-1,4.036708E-1,2.800067E-1,1.420972E0,-5.297623E-1,-5.8848128E-2,3.092236E-1,7.401046E-2,-2.3960619E-1,6.3972676E-1,2.2984463E-1,1.5557426E0,-6.6857255E-1,-3.6731657E-1,-3.1403434E-1,2.3727946E-1,6.366256E-2,9.0822953E-1,1.1728852E-1,-5.622715E-1,4.8009204E-3,7.4333537E-1,-2.6697494E-2,1.2067344E-2,6.526144E-1,1.6313959E0,-1.47452755E-2,3.7274426E-3,-9.77223E-3,-4.7067837E-3,-1.18145235E-2,-3.4565171E-3,-1.6494109E-3,9.98048E-3,-2.1727849E-3,7.745819E-3,-2.0677665E-4,2.2858266E-2,-9.381236E-4,7.4905474E-3,-1.6274966E-2,-1.2886418E-3,1.8387709E-2,5.7788845E-3,1.3532711E-3,-2.96075E-3,5.4185274E-3,1.6536247E-2,2.7837887E-2,4.130038E-2],"categories":[],"categories_nodes":[],"categories_segments":[],"categories_sizes":[],"default_left":[0,0,0,0,0,0,0,0,0,0,0,0,0,0,0,0,0,0,0,0,0,0,0,0,0,0,0,0,0,0,0,0,0,0,0,0,0,0,0,0,0,0,0,0,0,0,0,0,0,0,0,0,0],"id":11,"left_children":[1,3,5,7,9,11,13,15,17,19,-1,21,23,25,27,29,31,33,35,37,39,41,43,-1,45,47,-1,49,51,-1,-1,-1,-1,-1,-1,-1,-1,-1,-1,-1,-1,-1,-1,-1,-1,-1,-1,-1,-1,-1,-1,-1,-1],"loss_changes":[1.574372E2,4.9228294E1,2.6880508E1,2.1684425E1,2.7975925E1,5.7607384E0,1.2003174E1,6.203476E0,1.1409665E1,1.4651433E1,0E0,1.5629959E0,6.1486244E-1,7.70692E-1,3.6497192E0,1.6960068E0,1.5882816E0,2.808649E0,4.940138E0,3.5071013E0,3.9285831E0,2.7195948E-1,6.211808E-1,0E0,4.7855854E-1,6.740979E-2,0E0,1.21445656E-1,3.5565948E0,0E0,0E0,0E0,0E0,0E0,0E0,0E0,0E0,0E0,0E0,0E0,0E0,0E0,0E0,0E0,0E0,0E0,0E0,0E0,0E0,0E0,0E0,0E0,0E0],"parents":[2147483647,0,0,1,1,2,2,3,3,4,4,5,5,6,6,7,7,8,8,9,9,11,11,12,12,13,13,14,14,15,15,16,16,17,17,18,18,19,19,20,20,21,21,22,22,24,24,25,25,27,27,28,28],"right_children":[2,4,6,8,10,12,14,16,18,20,-1,22,24,26,28,30,32,34,36,38,40,42,44,-1,46,48,-1,50,52,-1,-1,-1,-1,-1,-1,-1,-1,-1,-1,-1,-1,-1,-1,-1,-1,-1,-1,-1,-1,-1,-1,-1,-1],"split_conditions":[1.1776785E0,8.294691E-1,-7.679452E-1,-7.928157E-3,1.195686E0,-8.8894695E-1,-2.088652E0,-3.4228688E-1,-6.005515E-1,-2.5822288E-1,7.401046E-2,-1.4642975E0,-4.1034722E-1,8.3940107E-1,-3.265137E-1,1.5168927E0,-5.480378E-1,-8.4446806E-1,-2.8989473E-1,1.7620913E0,-2.088652E0,-9.090342E-1,-7.709534E-2,4.8009204E-3,4.3282023E-1,1.45432E0,1.2067344E-2,-4.5049807E-1,-8.914059E-2,-1.47452755E-2,3.7274426E-3,-9.77223E-3,-4.7067837E-3,-1.18145235E-2,-3.4565171E-3,-1.6494109E-3,9.98048E-3,-2.1727849E-3,7.745819E-3,-2.0677665E-4,2.2858266E-2,-9.381236E-4,7.4905474E-3,-1.6274966E-2,-1.2886418E-3,1.8387709E-2,5.7788845E-3,1.3532711E-3,-2.96075E-3,5.4185274E-3,1.6536247E-2,2.7837887E-2,4.130038E-2],"split_indices":[1,6,6,1,2,6,2,6,6,1,0,5,2,4,3,2,1,6,2,6,2,6,2,0,2,1,0,2,2,0,0,0,0,0,0,0,0,0,0,0,0,0,0,0,0,0,0,0,0,0,0,0,0],"split_type":[0,0,0,0,0,0,0,0,0,0,0,0,0,0,0,0,0,0,0,0,0,0,0,0,0,0,0,0,0,0,0,0,0,0,0,0,0,0,0,0,0,0,0,0,0,0,0,0,0,0,0,0,0],"sum_hessian":[6.4E2,5.35E2,1.05E2,4.34E2,1.01E2,2.9E1,7.6E1,2.85E2,1.49E2,9.9E1,2E0,1.2E1,1.7E1,8E0,6.8E1,1.52E2,1.33E2,8E1,6.9E1,7.1E1,2.8E1,6E0,6E0,4E0,1.3E1,5E0,3E0,6E0,6.2E1,1.5E2,2E0,8.4E1,4.9E1,3.1E1,4.9E1,2.9E1,4E1,4.6E1,2.5E1,4E0,2.4E1,4E0,2E0,4E0,2E0,1E1,3E0,3E0,2E0,2E0,4E0,3E1,3.2E1],"tree_param":{"num_deleted":"0","num_feature":"7","num_nodes":"53","size_leaf_vector":"1"}},{"base_weights":[-1.0029946E-2,-1.9378978E-1,1.0686694E0,-2.7267322E-1,1.0264093E0,7.347738E-2,1.3803945E0,-5.436629E-1,-1.0491234E-1,5.5178744E-1,1.6311256E0,-5.240628E-1,4.9504343E-1,5.21683E-1,1.5148183E0,-6.0425526E-1,-1.628561E-1,-2.7894592E-1,2.5600094E-1,-1.6657895E-3,6.259165E-1,1.978244E0,1.32252965E-2,2.3033482E-3,-8.0943525E-1,-2.7995089E-3,1.32080335E-2,2.375484E-2,3.6320288E-2,9.927215E-1,1.7510486E0,-1.4303893E-2,-8.724212E-3,-7.941895E-3,1.455144E-3,-8.380219E-3,-1.1432024E-3,1.3828914E-2,3.9749737E-3,5.282408E-3,1.4259629E-2,2.227551E-2,4.8475873E-2,-2.1779675E-2,-8.898067E-3,4.492805E-3,-3.1162596E-3,1.079426E-2,2.6081271E-2,3.999497E-2,2.4635196E-2],"categories":[],"categories_nodes":[],"categories_segments":[],"categories_sizes":[],"default_left":[0,0,0,0,0,0,0,0,0,0,0,0,0,0,0,0,0,0,0,0,0,0,0,0,0,0,0,0,0,0,0,0,0,0,0,0,0,0,0,0,0,0,0,0,0,0,0,0,0,0,0],"id":12,"left_children":[1,3,5,7,9,11,13,15,17,19,21,23,25,27,29,31,33,35,37,-1,39,41,-1,-1,43,-1,-1,-1,45,47,49,-1,-1,-1,-1,-1,-1,-1,-1,-1,-1,-1,-1,-1,-1,-1,-1,-1,-1,-1,-1],"loss_changes":[1.25284935E2,5.225676E1,2.8439384E1,2.3037388E1,8.571342E0,6.0531955E0,7.2899475E0,4.3779488E0,1.9856884E1,9.80247E-1,3.7510529E0,1.8851242E0,1.0824251E0,3.0309947E0,5.661804E0,1.6247787E0,1.3377097E0,5.182234E0,2.737833E0,0E0,6.292343E-2,1.6772461E-1,0E0,0E0,1.34274E-1,0E0,0E0,0E0,2.4572586E-1,1.5957947E0,2.47406E-1,0E0,0E0,0E0,0E0,0E0,0E0,0E0,0E0,0E0,0E0,0E0,0E0,0E0,0E0,0E0,0E0,0E0,0E0,0E0,0E0],"parents":[2147483647,0,0,1,1,2,2,3,3,4,4,5,5,6,6,7,7,8,8,9,9,10,10,11,11,12,12,13,13,14,14,15,15,16,16,17,17,18,18,20,20,21,21,24,24,28,28,29,29,30,30],"right_children":[2,4,6,8,10,12,14,16,18,20,22,24,26,28,30,32,34,36,38,-1,40,42,-1,-1,44,-1,-1,-1,46,48,50,-1,-1,-1,-1,-1,-1,-1,-1,-1,-1,-1,-1,-1,-1,-1,-1,-1,-1,-1,-1],"split_conditions":[1.1118114E0,1.943833E0,-7.679452E-1,-6.368998E-1,-3.7678355E-1,-8.8894695E-1,-3.265137E-1,5.190081E-1,-1.7918244E-1,-1.347405E-1,-1.0163634E-1,-1.4642975E0,-2.4472807E-1,-4.4230166E-1,-5.2402866E-1,-7.292055E-1,-8.6072916E-1,7.7829444E-1,-4.763682E-1,-1.6657895E-3,-1.1013209E0,2.6134079E0,1.32252965E-2,2.3033482E-3,1.2303721E0,-2.7995089E-3,1.32080335E-2,2.375484E-2,1.45432E0,1.5465338E0,1.8128916E0,-1.4303893E-2,-8.724212E-3,-7.941895E-3,1.455144E-3,-8.380219E-3,-1.1432024E-3,1.3828914E-2,3.9749737E-3,5.282408E-3,1.4259629E-2,2.227551E-2,4.8475873E-2,-2.1779675E-2,-8.898067E-3,4.492805E-3,-3.1162596E-3,1.079426E-2,2.6081271E-2,3.999497E-2,2.4635196E-2],"split_indices":[1,6,6,6,1,6,3,1,1,3,5,5,3,5,6,6,6,6,5,0,1,6,0,0,1,0,0,0,1,1,4,0,0,0,0,0,0,0,0,0,0,0,0,0,0,0,0,0,0,0,0],"split_type":[0,0,0,0,0,0,0,0,0,0,0,0,0,0,0,0,0,0,0,0,0,0,0,0,0,0,0,0,0,0,0,0,0,0,0,0,0,0,0,0,0,0,0,0,0,0,0,0,0,0,0],"sum_hessian":[6.3E2,5.39E2,9.1E1,5.07E2,3.2E1,2.2E1,6.9E1,1.93E2,3.14E2,1.9E1,1.3E1,9E0,1.3E1,1E1,5.9E1,1.66E2,2.7E1,2.12E2,1.02E2,2E0,1.7E1,9E0,4E0,3E0,6E0,2E0,1.1E1,4E0,6E0,2E1,3.9E1,1.28E2,3.8E1,1.4E1,1.3E1,1.43E2,6.9E1,1.5E1,8.7E1,2E0,1.5E1,3E0,6E0,3E0,3E0,3E0,3E0,7E0,1.3E1,3.2E1,7E0],"tree_param":{"num_deleted":"0","num_feature":"7","num_nodes":"51","size_leaf_vector":"1"}},{"base_weights":[-3.1084757E-2,-1.8408273E-1,1.0206845E0,-2.7483124E-1,1.355703E0,-4.6048883E-1,1.2205547E0,-4.5111743E-1,2.806638E-4,5.109623E-1,2.1663795E0,5.41098E-3,-1.7339015E-2,8.535573E-1,1.8323278E0,-5.629983E-1,-2.1513505E-1,-2.1493179E-1,3.999569E-1,4.900875E-3,6.197856E-1,6.86629E-2,3.5759635E-2,4.4162577E-1,1.0656015E0,1.105021E-2,1.9251088E0,-1.2624683E-2,7.944908E-3,-1.0549583E-2,-1.6455397E-3,-6.7989966E-3,-1.5851657E-4,1.0893971E-2,-2.4832177E-4,1.714398E-2,7.4645756E-3,-5.167456E-5,1.2527164E-2,2.6454251E-2,1.263583E-2,2.5530314E-2,4.8610393E-2],"categories":[],"categories_nodes":[],"categories_segments":[],"categories_sizes":[],"default_left":[0,0,0,0,0,0,0,0,0,0,0,0,0,0,0,0,0,0,0,0,0,0,0,0,0,0,0,0,0,0,0,0,0,0,0,0,0,0,0,0,0,0,0],"id":13,"left_children":[1,3,5,7,9,11,13,15,17,19,21,-1,-1,23,25,27,29,31,33,-1,35,-1,-1,37,39,-1,41,-1,-1,-1,-1,-1,-1,-1,-1,-1,-1,-1,-1,-1,-1,-1,-1],"loss_changes":[9.883097E1,7.5269615E1,2.3653366E1,2.4588825E1,1.9437405E1,2.6160326E0,1.3927826E1,8.037075E0,1.7203009E1,3.554058E-1,2.5246964E0,0E0,0E0,3.4600449E0,2.0843735E0,4.0875397E0,3.7855544E0,2.6697984E0,2.9738693E0,0E0,2.4713278E-1,0E0,0E0,1.0339935E0,1.4671326E0,0E0,2.8367538E0,0E0,0E0,0E0,0E0,0E0,0E0,0E0,0E0,0E0,0E0,0E0,0E0,0E0,0E0,0E0,0E0],"parents":[2147483647,0,0,1,1,2,2,3,3,4,4,5,5,6,6,7,7,8,8,9,9,10,10,13,13,14,14,15,15,16,16,17,17,18,18,20,20,23,23,24,24,26,26],"right_children":[2,4,6,8,10,12,14,16,18,20,22,-1,-1,24,26,28,30,32,34,-1,36,-1,-1,38,40,-1,42,-1,-1,-1,-1,-1,-1,-1,-1,-1,-1,-1,-1,-1,-1,-1,-1],"split_conditions":[1.1118114E0,1.9964424E0,-8.8894695E-1,-8.880498E-2,-4.953442E-1,-1.4642975E0,4.7372244E-2,-6.0621783E-2,-3.7678355E-1,2.6134079E0,-1.6600904E-1,5.41098E-3,-1.7339015E-2,-4.1034722E-1,-8.003064E-1,1.5168927E0,-8.4446806E-1,9.2034E-1,6.648606E-1,4.900875E-3,3.616137E-1,6.86629E-2,3.5759635E-2,-5.5212927E-1,7.500269E-1,1.105021E-2,-5.06811E-1,-1.2624683E-2,7.944908E-3,-1.0549583E-2,-1.6455397E-3,-6.7989966E-3,-1.5851657E-4,1.0893971E-2,-2.4832177E-4,1.714398E-2,7.4645756E-3,-5.167456E-5,1.2527164E-2,2.6454251E-2,1.263583E-2,2.5530314E-2,4.8610393E-2],"split_indices":[1,6,6,6,1,5,2,1,1,6,1,0,0,2,3,2,6,6,5,0,3,0,0,3,5,0,6,0,0,0,0,0,0,0,0,0,0,0,0,0,0,0,0],"split_type":[0,0,0,0,0,0,0,0,0,0,0,0,0,0,0,0,0,0,0,0,0,0,0,0,0,0,0,0,0,0,0,0,0,0,0,0,0,0,0,0,0,0,0],"sum_hessian":[6.12E2,5.35E2,7.7E1,5.06E2,2.9E1,9E0,6.8E1,3.08E2,1.98E2,1.5E1,1.4E1,3E0,6E0,4.4E1,2.4E1,2.08E2,1E2,1.29E2,6.9E1,5E0,1E1,3E0,1.1E1,1.6E1,2.8E1,2E0,2.2E1,2.04E2,4E0,3.3E1,6.7E1,8.7E1,4.2E1,5.5E1,1.4E1,5E0,5E0,4E0,1.2E1,2E1,8E0,8E0,1.4E1],"tree_param":{"num_deleted":"0","num_feature":"7","num_nodes":"43","size_leaf_vector":"1"}},{"base_weights":[2.7048183E-3,-1.7644937E-1,9.1618705E-1,-2.4930184E-1,1.203326E0,-7.661615E-1,1.049619E0,-5.3245044E-1,-1.15458645E-1,6.012435E-1,1.759159E0,-2.0719143E-2,-7.286967E-3,3.8546187E-1,1.3255422E0,-6.391263E-1,-2.7689216E-1,-2.9113057E-1,1.5221947E-1,4.696029E-3,6.863702E-1,1.7130997E-2,1.9705045E0,-5.83902E-2,5.037881E-1,8.321858E-1,1.6671684E0,-1.4202638E-2,3.765437E-3,-6.9946717E-3,6.7293984E-3,-1.0034185E-2,-2.1649885E-3,7.02054E-4,7.730213E-3,1.7690381E-2,7.936222E-3,5.496737E-2,2.5320021E-2,3.332494E-3,-3.7698953E-3,1.2434685E-2,6.4987843E-3,1.2293618E-2,2.0841071E-2,2.8108997E-2,4.262413E-2],"categories":[],"categories_nodes":[],"categories_segments":[],"categories_sizes":[],"default_left":[0,0,0,0,0,0,0,0,0,0,0,0,0,0,0,0,0,0,0,0,0,0,0,0,0,0,0,0,0,0,0,0,0,0,0,0,0,0,0,0,0,0,0,0,0,0,0],"id":14,"left_children":[1,3,5,7,9,11,13,15,17,19,21,-1,-1,23,25,27,29,31,33,-1,35,-1,37,39,41,43,45,-1,-1,-1,-1,-1,-1,-1,-1,-1,-1,-1,-1,-1,-1,-1,-1,-1,-1,-1,-1],"loss_changes":[1.00808975E2,5.2067814E1,2.3476562E1,1.8508303E1,7.643406E0,3.3303738E-1,1.6715157E1,4.103153E0,1.5750175E1,3.0930042E-1,1.1013145E0,0E0,0E0,1.5524769E0,9.736473E0,1.6043739E0,1.4000447E0,6.6027317E0,3.250311E0,0E0,1.5979862E-1,0E0,1.5809593E0,1.9866937E-1,1.5742254E-1,4.5205307E-1,1.668602E0,0E0,0E0,0E0,0E0,0E0,0E0,0E0,0E0,0E0,0E0,0E0,0E0,0E0,0E0,0E0,0E0,0E0,0E0,0E0,0E0],"parents":[2147483647,0,0,1,1,2,2,3,3,4,4,5,5,6,6,7,7,8,8,9,9,10,10,13,13,14,14,15,15,16,16,17,17,18,18,20,20,22,22,23,23,24,24,25,25,26,26],"right_children":[2,4,6,8,10,12,14,16,18,20,22,-1,-1,24,26,28,30,32,34,-1,36,-1,38,40,42,44,46,-1,-1,-1,-1,-1,-1,-1,-1,-1,-1,-1,-1,-1,-1,-1,-1,-1,-1,-1,-1],"split_conditions":[8.615167E-1,1.9964424E0,-9.1132987E-1,-6.8568313E-1,-3.7678355E-1,-2.738344E-1,-3.701964E-1,5.2452497E-3,-3.3462864E-1,2.6134079E0,-1.9810277E0,-2.0719143E-2,-7.286967E-3,-2.4472807E-1,-5.06811E-1,1.5168927E0,1.3261464E0,2.555478E-1,3.8727406E-1,4.696029E-3,3.616137E-1,1.7130997E-2,-1.00142E-1,1.45432E0,3.5033292E-1,1.5855971E-1,4.7372244E-2,-1.4202638E-2,3.765437E-3,-6.9946717E-3,6.7293984E-3,-1.0034185E-2,-2.1649885E-3,7.02054E-4,7.730213E-3,1.7690381E-2,7.936222E-3,5.496737E-2,2.5320021E-2,3.332494E-3,-3.7698953E-3,1.2434685E-2,6.4987843E-3,1.2293618E-2,2.0841071E-2,2.8108997E-2,4.262413E-2],"split_indices":[1,6,6,6,1,2,2,1,1,6,3,0,0,3,6,2,4,6,1,0,3,0,1,1,3,3,2,0,0,0,0,0,0,0,0,0,0,0,0,0,0,0,0,0,0,0,0],"split_type":[0,0,0,0,0,0,0,0,0,0,0,0,0,0,0,0,0,0,0,0,0,0,0,0,0,0,0,0,0,0,0,0,0,0,0,0,0,0,0,0,0,0,0,0,0,0,0],"sum_hessian":[6.14E2,5.14E2,1E2,4.89E2,2.5E1,7E0,9.3E1,1.56E2,3.33E2,1.3E1,1.2E1,4E0,3E0,2.8E1,6.5E1,1.09E2,4.7E1,2.01E2,1.32E2,3E0,1E1,3E0,9E0,6E0,2.2E1,2.8E1,3.7E1,1.07E2,2E0,4.4E1,3E0,1.05E2,9.6E1,8.4E1,4.8E1,6E0,4E0,4E0,5E0,2E0,4E0,1.5E1,7E0,1.1E1,1.7E1,1.9E1,1.8E1],"tree_param":{"num_deleted":"0","num_feature":"7","num_nodes":"47","size_leaf_vector":"1"}},{"base_weights":[2.0235866E-2,-2.7775371E-2,1.7107356E0,-4.3257508E-1,1.336431E-1,3.9694288E-1,5.178819E-2,-4.9194652E-1,1.4932799E-2,5.3057265E-1,-1.3407074E-1,4.482923E-3,1.0561283E-2,-1.4658962E-2,-4.0187076E-1,-4.4992045E-1,1.8831946E-1,4.1415954E-1,1.4523337E0,-2.3919988E-1,4.4731263E-2,-1.1847452E-2,-5.57287E-3,-1.4813995E-2,-3.5055596E-3,1.1265254E-2,-4.5164484E-3,2.2319106E-3,1.54230865E-2,7.277223E-3,3.386975E-2,-8.818665E-3,2.4521226E-4,-9.704946E-3,2.4642344E-3],"categories":[],"categories_nodes":[],"categories_segments":[],"categories_sizes":[],"default_left":[0,0,0,0,0,0,0,0,0,0,0,0,0,0,0,0,0,0,0,0,0,0,0,0,0,0,0,0,0,0,0,0,0,0,0],"id":15,"left_children":[1,3,5,7,9,11,-1,13,15,17,19,-1,-1,-1,21,23,25,27,29,31,33,-1,-1,-1,-1,-1,-1,-1,-1,-1,-1,-1,-1,-1,-1],"loss_changes":[4.996275E1,3.9197758E1,1.4250053E1,4.55068E0,4.565819E1,1.9673824E-2,0E0,2.2431068E0,1.7773151E0,1.7962276E1,4.8416057E0,0E0,0E0,0E0,2.0416355E0,2.938825E-1,2.2155976E0,1.42957535E1,1.8408089E0,6.8225203E0,3.3180697E0,0E0,0E0,0E0,0E0,0E0,0E0,0E0,0E0,0E0,0E0,0E0,0E0,0E0,0E0],"parents":[2147483647,0,0,1,1,2,2,3,3,4,4,5,5,7,7,8,8,9,9,10,10,14,14,15,15,16,16,17,17,18,18,19,19,20,20],"right_children":[2,4,6,8,10,12,-1,14,16,18,20,-1,-1,-1,22,24,26,28,30,32,34,-1,-1,-1,-1,-1,-1,-1,-1,-1,-1,-1,-1,-1,-1],"split_conditions":[1.6975714E0,-6.923789E-1,-6.345085E-1,1.3261464E0,2.3902896E-1,1.7859032E0,5.178819E-2,-3.7746203E-1,-8.8894695E-1,1.895528E0,3.5598403E-1,4.482923E-3,1.0561283E-2,-1.4658962E-2,-8.6359876E-1,1.5855971E-1,-1.2087985E0,3.5265583E-1,-2.0163805E0,-3.6740355E-2,-1.9360788E0,-1.1847452E-2,-5.57287E-3,-1.4813995E-2,-3.5055596E-3,1.1265254E-2,-4.5164484E-3,2.2319106E-3,1.54230865E-2,7.277223E-3,3.386975E-2,-8.818665E-3,2.4521226E-4,-9.704946E-3,2.4642344E-3],"split_indices":[2,6,6,4,5,2,0,4,6,6,6,0,0,0,6,3,5,4,2,4,2,0,0,0,0,0,0,0,0,0,0,0,0,0,0],"split_type":[0,0,0,0,0,0,0,0,0,0,0,0,0,0,0,0,0,0,0,0,0,0,0,0,0,0,0,0,0,0,0,0,0,0,0],"sum_hessian":[6.14E2,5.98E2,1.6E1,1.7E2,4.28E2,6E0,1E1,1.5E2,2E1,1.72E2,2.56E2,3E0,3E0,4.7E1,1.03E2,5E0,1.5E1,1.54E2,1.8E1,1.61E2,9.5E1,5E1,5.3E1,2E0,3E0,8E0,7E0,7.6E1,7.8E1,2E0,1.6E1,9.6E1,6.5E1,1.1E1,8.4E1],"tree_param":{"num_deleted":"0","num_feature":"7","num_nodes":"35","size_leaf_vector":"1"}},{"base_weights":[5.5450927E-3,-2.1266288E-1,8.2589644E-1,-2.9901344E-1,9.061016E-1,5.381314E-2,1.1850055E0,-4.4296813E-1,-6.7298345E-2,4.147275E-1,1.5336186E0,-4.8388416E-1,3.3994338E-1,4.7312757E-1,1.4151295E0,-5.2577746E-1,-1.7433314E-1,-1.9121227E-1,2.6195928E-1,-4.6908115E-3,5.319806E-1,5.8213007E-3,3.957701E-2,-6.42478E-1,-1.3891377E-1,1.1865059E-1,5.238204E-1,-4.9876332E-2,6.211773E-1,1.2055154E0,2.1075883E0,-1.4296889E-2,-8.947597E-3,-1.0854804E-2,-9.5351646E-4,-7.0375227E-3,-3.4325002E-4,-4.5460905E-3,7.5289733E-3,4.9899323E-3,1.3030896E-2,-1.5777253E-2,-4.30834E-3,-4.572222E-3,-1.0835676E-3,-1.10015115E-2,5.7482966E-3,1.2413091E-2,2.9324722E-3,-3.8946306E-3,1.3006969E-3,8.58718E-3,2.1753412E-2,1.4267366E-2,3.0406678E-2,4.9401883E-2,1.5400386E-2],"categories":[],"categories_nodes":[],"categories_segments":[],"categories_sizes":[],"default_left":[0,0,0,0,0,0,0,0,0,0,0,0,0,0,0,0,0,0,0,0,0,0,0,0,0,0,0,0,0,0,0,0,0,0,0,0,0,0,0,0,0,0,0,0,0,0,0,0,0,0,0,0,0,0,0,0,0],"id":16,"left_children":[1,3,5,7,9,11,13,15,17,19,21,23,25,27,29,31,33,35,37,-1,39,-1,-1,41,43,45,47,49,51,53,55,-1,-1,-1,-1,-1,-1,-1,-1,-1,-1,-1,-1,-1,-1,-1,-1,-1,-1,-1,-1,-1,-1,-1,-1,-1,-1],"loss_changes":[1.0990705E2,4.712481E1,3.570304E1,1.5013962E1,1.0156061E1,6.626254E0,1.3746658E1,6.0925827E0,7.1492205E0,1.6697335E0,5.083027E0,7.3140407E-1,1.0771868E0,1.8118863E0,7.0391083E0,2.935646E0,2.8317122E0,2.973339E0,2.0136728E0,0E0,2.3976326E-1,0E0,0E0,2.3661327E-1,2.7942546E-2,1.4224311E0,2.0986366E-1,9.651899E-2,1.1516991E0,4.8264236E0,1.7698326E0,0E0,0E0,0E0,0E0,0E0,0E0,0E0,0E0,0E0,0E0,0E0,0E0,0E0,0E0,0E0,0E0,0E0,0E0,0E0,0E0,0E0,0E0,0E0,0E0,0E0,0E0],"parents":[2147483647,0,0,1,1,2,2,3,3,4,4,5,5,6,6,7,7,8,8,9,9,10,10,11,11,12,12,13,13,14,14,15,15,16,16,17,17,18,18,20,20,23,23,24,24,25,25,26,26,27,27,28,28,29,29,30,30],"right_children":[2,4,6,8,10,12,14,16,18,20,22,24,26,28,30,32,34,36,38,-1,40,-1,-1,42,44,46,48,50,52,54,56,-1,-1,-1,-1,-1,-1,-1,-1,-1,-1,-1,-1,-1,-1,-1,-1,-1,-1,-1,-1,-1,-1,-1,-1,-1,-1],"split_conditions":[7.1660924E-1,1.943833E0,-7.775105E-1,-8.880498E-2,-3.7678355E-1,-9.090342E-1,-4.5049807E-1,5.2452497E-3,-3.7678355E-1,-1.347405E-1,-5.446087E-1,-9.1429514E-1,1.085997E0,-5.5212927E-1,1.0250212E-1,-7.3733604E-1,-8.119458E-1,8.438171E-1,-2.088652E0,-4.6908115E-3,-9.1689324E-1,5.8213007E-3,3.957701E-2,1.085997E0,9.405571E-1,-8.8894695E-1,-7.9664123E-1,-3.7576562E-1,1.7046148E0,1.085997E0,2.1191552E0,-1.4296889E-2,-8.947597E-3,-1.0854804E-2,-9.5351646E-4,-7.0375227E-3,-3.4325002E-4,-4.5460905E-3,7.5289733E-3,4.9899323E-3,1.3030896E-2,-1.5777253E-2,-4.30834E-3,-4.572222E-3,-1.0835676E-3,-1.10015115E-2,5.7482966E-3,1.2413091E-2,2.9324722E-3,-3.8946306E-3,1.3006969E-3,8.58718E-3,2.1753412E-2,1.4267366E-2,3.0406678E-2,4.9401883E-2,1.5400386E-2],"split_indices":[1,6,6,6,1,6,2,1,1,3,3,6,0,3,6,6,6,6,2,0,1,0,0,0,1,6,6,6,1,0,2,0,0,0,0,0,0,0,0,0,0,0,0,0,0,0,0,0,0,0,0,0,0,0,0,0,0],"split_type":[0,0,0,0,0,0,0,0,0,0,0,0,0,0,0,0,0,0,0,0,0,0,0,0,0,0,0,0,0,0,0,0,0,0,0,0,0,0,0,0,0,0,0,0,0,0,0,0,0,0,0,0,0,0,0,0,0],"sum_hessian":[6.12E2,4.84E2,1.28E2,4.5E2,3.4E1,4.1E1,8.7E1,2.77E2,1.73E2,2E1,1.4E1,1.4E1,2.7E1,2.2E1,6.5E1,2.11E2,6.6E1,1.26E2,4.7E1,3E0,1.7E1,3E0,1.1E1,9E0,5E0,1.3E1,1.4E1,5E0,1.7E1,5.2E1,1.3E1,9.4E1,1.17E2,1.8E1,4.8E1,7.1E1,5.5E1,7E0,4E1,4E0,1.3E1,7E0,2E0,2E0,3E0,2E0,1.1E1,1.2E1,2E0,2E0,3E0,1.2E1,5E0,1.5E1,3.7E1,1.1E1,2E0],"tree_param":{"num_deleted":"0","num_feature":"7","num_nodes":"57","size_leaf_vector":"1"}},{"base_weights":[-1.4784766E-3,-1.9261406E-1,7.584884E-1,-3.154003E-1,3.2355967E-1,-3.600248E-1,9.028056E-1,-3.871458E-1,1.3249152E-2,8.424683E-2,9.320167E-1,-1.6353242E-3,-6.734112E-1,2.589685E-1,1.0414625E0,-5.3725165E-1,-2.4781702E-1,-2.4550484E-1,2.2119142E-1,-6.238999E-2,3.679003E-1,1.15256436E-1,1.3339937E0,-6.857327E-3,2.5068724E-1,-2.0251615E-2,-7.1334783E-3,9.4590455E-2,1.4167056E-2,9.1918296E-1,4.447171E-2,-1.2184634E-2,7.6083643E-3,-6.931323E-3,1.4793851E-3,-1.1370155E-2,-3.2499384E-3,-7.028468E-3,6.2580705E-3,-1.0151738E-2,-6.18036E-5,2.4305542E-3,1.0584375E-2,-6.697212E-3,7.3928884E-3,5.960541E-3,3.1384356E-2,7.1892794E-3,1.8593789E-3,-3.1437457E-3,4.0413192E-3,9.925898E-3,2.271501E-2],"categories":[],"categories_nodes":[],"categories_segments":[],"categories_sizes":[],"default_left":[0,0,0,0,0,0,0,0,0,0,0,0,0,0,0,0,0,0,0,0,0,0,0,0,0,0,0,0,0,0,0,0,0,0,0,0,0,0,0,0,0,0,0,0,0,0,0,0,0,0,0,0,0],"id":17,"left_children":[1,3,5,7,9,11,13,15,17,19,21,23,25,27,29,31,33,35,37,39,41,43,45,-1,47,-1,-1,49,-1,51,-1,-1,-1,-1,-1,-1,-1,-1,-1,-1,-1,-1,-1,-1,-1,-1,-1,-1,-1,-1,-1,-1,-1],"loss_changes":[9.035052E1,3.1601427E1,2.0502625E1,9.4839325E0,1.3900191E1,1.6836147E0,9.639534E0,6.7685013E0,3.9821336E0,2.9345365E0,8.7108555E0,7.152166E-1,4.122193E-1,1.3022612E0,9.373161E0,3.7581024E0,3.9720726E0,8.015294E-1,1.6100678E0,1.1357285E0,6.865301E-1,1.0653486E0,1.7955933E0,0E0,3.8479537E-2,0E0,0E0,3.800488E-1,0E0,4.478958E0,0E0,0E0,0E0,0E0,0E0,0E0,0E0,0E0,0E0,0E0,0E0,0E0,0E0,0E0,0E0,0E0,0E0,0E0,0E0,0E0,0E0,0E0,0E0],"parents":[2147483647,0,0,1,1,2,2,3,3,4,4,5,5,6,6,7,7,8,8,9,9,10,10,11,11,12,12,13,13,14,14,15,15,16,16,17,17,18,18,19,19,20,20,21,21,22,22,24,24,27,27,29,29],"right_children":[2,4,6,8,10,12,14,16,18,20,22,24,26,28,30,32,34,36,38,40,42,44,46,-1,48,-1,-1,50,-1,52,-1,-1,-1,-1,-1,-1,-1,-1,-1,-1,-1,-1,-1,-1,-1,-1,-1,-1,-1,-1,-1,-1,-1],"split_conditions":[7.034358E-1,9.2034E-1,-8.8894695E-1,2.1601975E-1,-2.7139628E-1,-1.4642975E0,-5.5212927E-1,-4.4272313E-1,-6.196822E-1,1.7620913E0,-4.1034722E-1,9.405571E-1,-2.738344E-1,2.555478E-1,1.0752336E0,1.6975714E0,-2.4504948E-1,-9.0626025E-1,-2.1649384E0,-1.9963051E0,-6.929453E-1,-3.287875E-1,-1.9810277E0,-6.857327E-3,6.7747545E-1,-2.0251615E-2,-7.1334783E-3,-1.7353246E0,1.4167056E-2,-7.822932E-1,4.447171E-2,-1.2184634E-2,7.6083643E-3,-6.931323E-3,1.4793851E-3,-1.1370155E-2,-3.2499384E-3,-7.028468E-3,6.2580705E-3,-1.0151738E-2,-6.18036E-5,2.4305542E-3,1.0584375E-2,-6.697212E-3,7.3928884E-3,5.960541E-3,3.1384356E-2,7.1892794E-3,1.8593789E-3,-3.1437457E-3,4.0413192E-3,9.925898E-3,2.271501E-2],"split_indices":[1,6,6,1,1,5,3,6,6,6,2,1,2,6,2,2,1,6,2,2,1,4,3,0,3,0,0,2,0,6,0,0,0,0,0,0,0,0,0,0,0,0,0,0,0,0,0,0,0,0,0,0,0],"split_type":[0,0,0,0,0,0,0,0,0,0,0,0,0,0,0,0,0,0,0,0,0,0,0,0,0,0,0,0,0,0,0,0,0,0,0,0,0,0,0,0,0,0,0,0,0,0,0,0,0,0,0,0,0],"sum_hessian":[6.2E2,4.96E2,1.24E2,4.01E2,9.5E1,1.4E1,1.1E2,3.29E2,7.2E1,6.9E1,2.6E1,7E0,7E0,2E1,9E1,1.57E2,1.72E2,3.2E1,4E1,4.6E1,2.3E1,9E0,1.7E1,3E0,4E0,3E0,4E0,1.5E1,5E0,8.2E1,8E0,1.53E2,4E0,1.4E2,3.2E1,7E0,2.5E1,4E0,3.6E1,5E0,4.1E1,8E0,1.5E1,3E0,6E0,2E0,1.5E1,2E0,2E0,4E0,1.1E1,1.9E1,6.3E1],"tree_param":{"num_deleted":"0","num_feature":"7","num_nodes":"53","size_leaf_vector":"1"}},{"base_weights":[2.6972052E-3,-4.9239386E-2,1.6672597E0,-1.0715169E-1,9.983403E-1,6.9036764E-1,2.314966E0,-2.9629055E-1,1.439446E-1,6.814616E-1,1.6273273E0,9.514282E-1,6.307317E-3,1.4973486E-2,5.628591E-2,-4.960238E-1,-1.9279096E-1,-3.2389244E-1,3.4362367E-1,8.8962585E-1,-5.6608077E-2,2.3056734E-2,4.775928E-2,2.6385194E-2,7.956995E-3,-1.2662437E-2,-8.108549E-3,1.6268899E-4,-6.435831E-3,-8.131687E-3,1.0250667E-2,1.2862705E-2,2.1794145E-3,2.6349299E-2,7.120116E-3,-9.2603415E-3,5.1062936E-3],"categories":[],"categories_nodes":[],"categories_segments":[],"categories_sizes":[],"default_left":[0,0,0,0,0,0,0,0,0,0,0,0,0,0,0,0,0,0,0,0,0,0,0,0,0,0,0,0,0,0,0,0,0,0,0,0,0],"id":18,"left_children":[1,3,5,7,9,11,13,15,17,19,21,23,-1,-1,-1,25,27,29,31,33,35,-1,-1,-1,-1,-1,-1,-1,-1,-1,-1,-1,-1,-1,-1,-1,-1],"loss_changes":[5.428731E1,3.7053635E1,1.0423866E1,2.7493069E1,5.269043E0,6.6069555E-1,3.2747536E0,6.7262306E0,2.3372198E1,3.584073E0,9.0418434E-1,3.3170557E-1,0E0,0E0,0E0,9.8864555E-1,4.5808544E0,3.261671E0,1.058378E1,2.901494E0,7.5162756E-1,0E0,0E0,0E0,0E0,0E0,0E0,0E0,0E0,0E0,0E0,0E0,0E0,0E0,0E0,0E0,0E0],"parents":[2147483647,0,0,1,1,2,2,3,3,4,4,5,5,6,6,7,7,8,8,9,9,10,10,11,11,15,15,16,16,17,17,18,18,19,19,20,20],"right_children":[2,4,6,8,10,12,14,16,18,20,22,24,-1,-1,-1,26,28,30,32,34,36,-1,-1,-1,-1,-1,-1,-1,-1,-1,-1,-1,-1,-1,-1,-1,-1],"split_conditions":[1.6975714E0,1.9964424E0,-1.6532782E-1,-3.6740355E-2,5.9602845E-1,5.9602845E-1,-8.003064E-1,-6.536392E-1,-7.1983147E-1,1.085997E0,-2.4171375E-1,2.0027177E0,6.307317E-3,1.4973486E-2,5.628591E-2,-3.7746203E-1,2.3902896E-1,8.767692E-1,2.3902896E-1,1.5386263E-1,-5.446087E-1,2.3056734E-2,4.775928E-2,2.6385194E-2,7.956995E-3,-1.2662437E-2,-8.108549E-3,1.6268899E-4,-6.435831E-3,-8.131687E-3,1.0250667E-2,1.2862705E-2,2.1794145E-3,2.6349299E-2,7.120116E-3,-9.2603415E-3,5.1062936E-3],"split_indices":[2,6,6,4,4,4,3,6,6,0,2,2,0,0,0,4,5,3,5,5,3,0,0,0,0,0,0,0,0,0,0,0,0,0,0,0,0],"split_type":[0,0,0,0,0,0,0,0,0,0,0,0,0,0,0,0,0,0,0,0,0,0,0,0,0,0,0,0,0,0,0,0,0,0,0,0,0],"sum_hessian":[6.26E2,6.08E2,1.8E1,5.77E2,3.1E1,8E0,1E1,3.29E2,2.48E2,2.2E1,9E0,4E0,4E0,2E0,8E0,1.11E2,2.18E2,7.4E1,1.74E2,1.7E1,5E0,6E0,3E0,2E0,2E0,6.2E1,4.9E1,7.5E1,1.43E2,7E1,4E0,8.5E1,8.9E1,1E1,7E0,2E0,3E0],"tree_param":{"num_deleted":"0","num_feature":"7","num_nodes":"37","size_leaf_vector":"1"}},{"base_weights":[-1.9487327E-2,-2.0863256E-1,8.1456584E-1,-2.650154E-1,9.893811E-1,1.3513239E-1,1.1614444E0,-4.140906E-1,-3.536372E-2,1.658148E0,4.4102028E-1,-3.6187103E-1,4.8154595E-1,1.0268221E0,5.0715797E-2,-5.434366E-1,-2.3731633E-1,-1.5912102E-1,3.099088E-1,1.12943025E-2,2.0707817E0,1.7424361E-4,5.583729E-1,3.7181046E-2,-6.449256E-1,-2.1423062E-3,5.3881174E-1,2.6824132E-1,1.1487815E0,-1.2820507E-2,-9.085843E-3,-1.0089535E-2,-2.8047177E-3,-5.790574E-3,-1.4552985E-4,9.353347E-3,-1.7292467E-3,5.132871E-2,1.9096145E-2,1.7667692E-2,7.7937804E-3,-2.385681E-3,6.9186664E-3,-1.6208319E-2,-6.5537216E-3,7.0165345E-3,1.5683956E-2,8.042416E-3,-2.8262292E-3,2.0788014E-2,3.4005534E-2],"categories":[],"categories_nodes":[],"categories_segments":[],"categories_sizes":[],"default_left":[0,0,0,0,0,0,0,0,0,0,0,0,0,0,0,0,0,0,0,0,0,0,0,0,0,0,0,0,0,0,0,0,0,0,0,0,0,0,0,0,0,0,0,0,0,0,0,0,0,0,0],"id":19,"left_children":[1,3,5,7,9,11,13,15,17,19,21,23,25,27,-1,29,31,33,35,-1,37,-1,39,41,43,-1,45,47,49,-1,-1,-1,-1,-1,-1,-1,-1,-1,-1,-1,-1,-1,-1,-1,-1,-1,-1,-1,-1,-1,-1],"loss_changes":[9.813715E1,3.4508743E1,2.6946358E1,1.6589512E1,7.703413E0,7.061006E0,9.671478E0,6.5933533E0,8.253471E0,3.6102638E0,7.068579E-1,1.9441886E0,8.5107803E-1,6.1679688E0,0E0,7.6802444E-1,3.0444436E0,2.340895E0,2.4589815E0,0E0,4.0109634E-1,0E0,2.6849604E-1,3.679148E-1,1.2773895E-1,0E0,6.415243E-1,5.0070834E-1,3.26931E0,0E0,0E0,0E0,0E0,0E0,0E0,0E0,0E0,0E0,0E0,0E0,0E0,0E0,0E0,0E0,0E0,0E0,0E0,0E0,0E0,0E0,0E0],"parents":[2147483647,0,0,1,1,2,2,3,3,4,4,5,5,6,6,7,7,8,8,9,9,10,10,11,11,12,12,13,13,15,15,16,16,17,17,18,18,20,20,22,22,23,23,24,24,26,26,27,27,28,28],"right_children":[2,4,6,8,10,12,14,16,18,20,22,24,26,28,-1,30,32,34,36,-1,38,-1,40,42,44,-1,46,48,50,-1,-1,-1,-1,-1,-1,-1,-1,-1,-1,-1,-1,-1,-1,-1,-1,-1,-1,-1,-1,-1,-1],"split_conditions":[7.1660924E-1,1.9964424E0,-6.8663967E-1,-8.880498E-2,-1.8680267E-1,-8.8894695E-1,1.5755668E0,-3.109165E-1,-2.4504948E-1,-1.9810277E0,3.8231414E-2,-1.4642975E0,-7.777448E-1,-7.777448E-1,5.0715797E-2,-4.3315777E-1,-8.119458E-1,7.7829444E-1,6.648606E-1,1.12943025E-2,-1.00142E-1,1.7424361E-4,1.5855971E-1,-9.0626025E-1,-2.738344E-1,-2.1423062E-3,4.7372244E-2,1.2303721E0,1.3570407E-1,-1.2820507E-2,-9.085843E-3,-1.0089535E-2,-2.8047177E-3,-5.790574E-3,-1.4552985E-4,9.353347E-3,-1.7292467E-3,5.132871E-2,1.9096145E-2,1.7667692E-2,7.7937804E-3,-2.385681E-3,6.9186664E-3,-1.6208319E-2,-6.5537216E-3,7.0165345E-3,1.5683956E-2,8.042416E-3,-2.8262292E-3,2.0788014E-2,3.4005534E-2],"split_indices":[1,6,6,6,5,6,6,1,1,3,3,5,3,3,0,6,6,6,5,0,1,0,3,6,2,0,2,1,2,0,0,0,0,0,0,0,0,0,0,0,0,0,0,0,0,0,0,0,0,0,0],"split_type":[0,0,0,0,0,0,0,0,0,0,0,0,0,0,0,0,0,0,0,0,0,0,0,0,0,0,0,0,0,0,0,0,0,0,0,0,0,0,0,0,0,0,0,0,0,0,0,0,0,0,0],"sum_hessian":[6.2E2,5.06E2,1.14E2,4.84E2,2.2E1,3.9E1,7.5E1,2.93E2,1.91E2,9E0,1.3E1,1.6E1,2.3E1,6.9E1,6E0,1.68E2,1.25E2,1.41E2,5E1,3E0,6E0,3E0,1E1,7E0,9E0,2E0,2.1E1,1E1,5.9E1,1.18E2,5E1,3.9E1,8.6E1,8.2E1,5.9E1,3.8E1,1.2E1,4E0,2E0,3E0,7E0,5E0,2E0,6E0,3E0,1.1E1,1E1,8E0,2E0,4.3E1,1.6E1],"tree_param":{"num_deleted":"0","num_feature":"7","num_nodes":"51","size_leaf_vector":"1"}},{"base_weights":[-9.401116E-3,-1.729359E-1,8.30167E-1,-2.5293866E-1,1.0614378E0,1.18207335E-1,1.0750991E0,-4.8375976E-1,-1.298138E-1,8.291016E-1,6.732009E-2,-2.9513508E-1,4.030251E-1,1.6598831E0,8.974148E-1,-5.819701E-1,-2.3837423E-1,-2.5594544E-1,2.1218398E-1,3.1725538E-1,2.7918983E-2,-1.3178453E-2,1.1964753E-1,1.7517686E-1,5.4500115E-1,1.8147182E0,1.5224809E-2,3.0461198E-1,1.0055574E0,-1.5739422E-2,-1.1662586E-2,-7.0551354E-3,-1.504048E-3,-8.284122E-3,-1.4029082E-3,7.5308057E-3,-2.1736394E-3,-7.2597926E-3,1.0690248E-2,-7.821406E-4,4.4734594E-3,7.3157097E-3,2.1758975E-4,6.20226E-3,1.3317599E-2,1.2277183E-2,4.2782802E-2,1.2355636E-2,-2.610325E-4,1.5467526E-2,2.4941966E-2],"categories":[],"categories_nodes":[],"categories_segments":[],"categories_sizes":[],"default_left":[0,0,0,0,0,0,0,0,0,0,0,0,0,0,0,0,0,0,0,0,0,0,0,0,0,0,0,0,0,0,0,0,0,0,0,0,0,0,0,0,0,0,0,0,0,0,0,0,0,0,0],"id":20,"left_children":[1,3,5,7,9,11,13,15,17,19,-1,21,23,25,27,29,31,33,35,37,-1,-1,39,41,43,45,-1,47,49,-1,-1,-1,-1,-1,-1,-1,-1,-1,-1,-1,-1,-1,-1,-1,-1,-1,-1,-1,-1,-1,-1],"loss_changes":[8.842655E1,5.349651E1,1.8182999E1,1.4346046E1,1.3117302E1,3.4153101E0,6.615143E0,4.102764E0,1.4375706E1,6.890379E0,0E0,1.6325498E0,4.544611E-1,1.2430077E0,3.6683426E0,3.9521027E-1,7.450173E-1,5.85464E0,3.8476462E0,2.0065253E0,0E0,0E0,8.868306E-2,2.1143112E-1,4.7340393E-3,1.6880722E0,0E0,9.3307626E-1,1.3911781E0,0E0,0E0,0E0,0E0,0E0,0E0,0E0,0E0,0E0,0E0,0E0,0E0,0E0,0E0,0E0,0E0,0E0,0E0,0E0,0E0,0E0,0E0],"parents":[2147483647,0,0,1,1,2,2,3,3,4,4,5,5,6,6,7,7,8,8,9,9,11,11,12,12,13,13,14,14,15,15,16,16,17,17,18,18,19,19,22,22,23,23,24,24,25,25,27,27,28,28],"right_children":[2,4,6,8,10,12,14,16,18,20,-1,22,24,26,28,30,32,34,36,38,-1,-1,40,42,44,46,-1,48,50,-1,-1,-1,-1,-1,-1,-1,-1,-1,-1,-1,-1,-1,-1,-1,-1,-1,-1,-1,-1,-1,-1],"split_conditions":[8.615167E-1,1.943833E0,-7.6555383E-1,-6.3929117E-1,5.383459E-1,-8.8894695E-1,-6.9780064E-1,5.2452497E-3,-1.3966222E-1,-2.5822288E-1,6.732009E-2,1.085997E0,5.7032708E-2,1.5695189E0,-4.0171888E-1,-2.3250724E-1,8.3940107E-1,3.5598403E-1,6.648606E-1,-1.347405E-1,2.7918983E-2,-1.3178453E-2,1.45432E0,1.085997E0,1.7046148E0,1.085997E0,1.5224809E-2,-4.4230166E-1,-5.2402866E-1,-1.5739422E-2,-1.1662586E-2,-7.0551354E-3,-1.504048E-3,-8.284122E-3,-1.4029082E-3,7.5308057E-3,-2.1736394E-3,-7.2597926E-3,1.0690248E-2,-7.821406E-4,4.4734594E-3,7.3157097E-3,2.1758975E-4,6.20226E-3,1.3317599E-2,1.2277183E-2,4.2782802E-2,1.2355636E-2,-2.610325E-4,1.5467526E-2,2.4941966E-2],"split_indices":[1,6,6,6,3,6,5,1,1,1,0,0,3,4,3,3,4,6,5,3,0,0,1,0,1,0,0,5,6,0,0,0,0,0,0,0,0,0,0,0,0,0,0,0,0,0,0,0,0,0,0],"split_type":[0,0,0,0,0,0,0,0,0,0,0,0,0,0,0,0,0,0,0,0,0,0,0,0,0,0,0,0,0,0,0,0,0,0,0,0,0,0,0,0,0,0,0,0,0,0,0,0,0,0,0],"sum_hessian":[6.42E2,5.38E2,1.04E2,5.06E2,3.2E1,2.7E1,7.7E1,1.75E2,3.31E2,3E1,2E0,1.1E1,1.6E1,1.6E1,6.1E1,1.24E2,5.1E1,2.42E2,8.9E1,1.5E1,1.5E1,6E0,5E0,7E0,9E0,1.3E1,3E0,1E1,5.1E1,2.5E1,9.9E1,3.3E1,1.8E1,1.45E2,9.7E1,6.2E1,2.7E1,3E0,1.2E1,2E0,3E0,3E0,4E0,3E0,6E0,2E0,1.1E1,5E0,5E0,1.9E1,3.2E1],"tree_param":{"num_deleted":"0","num_feature":"7","num_nodes":"51","size_leaf_vector":"1"}},{"base_weights":[4.141063E-2,-1.7510144E-1,6.3256127E-1,-2.7791297E-1,8.203498E-1,1.5427557E-1,9.3507665E-1,-4.2829463E-1,-4.6353146E-2,3.5913643E-1,1.432582E0,-2.8543487E-1,3.3957443E-1,6.763864E-1,1.3687831E0,-5.011821E-1,-2.941233E-1,-1.4147541E-1,2.514414E-1,-9.861969E-2,4.6765462E-1,1.0604941E0,6.634812E-2,9.350276E-3,-5.0730294E-1,3.17835E-2,5.5074805E-1,5.822013E-1,3.0914111E-2,1.1160764E0,4.7830287E-2,-1.1969702E-2,-8.038613E-3,-1.3457747E-2,-4.5382245E-3,-6.482506E-3,-7.3173334E-4,7.038257E-3,-7.748322E-3,2.579444E-3,-5.1383297E-3,3.3969404E-3,1.1435207E-2,-4.036252E-3,2.6836948E-2,-2.893267E-3,5.5694696E-3,-3.6618055E-3,-1.2085598E-2,6.422981E-3,-2.63776E-3,-2.7456372E-3,1.3116289E-2,1.819108E-2,9.589454E-3,-2.6989258E-3,2.6052441E-2],"categories":[],"categories_nodes":[],"categories_segments":[],"categories_sizes":[],"default_left":[0,0,0,0,0,0,0,0,0,0,0,0,0,0,0,0,0,0,0,0,0,0,0,0,0,0,0,0,0,0,0,0,0,0,0,0,0,0,0,0,0,0,0,0,0,0,0,0,0,0,0,0,0,0,0,0,0],"id":21,"left_children":[1,3,5,7,9,11,13,15,17,19,21,23,25,27,29,31,33,35,37,39,41,43,-1,45,47,49,51,53,-1,55,-1,-1,-1,-1,-1,-1,-1,-1,-1,-1,-1,-1,-1,-1,-1,-1,-1,-1,-1,-1,-1,-1,-1,-1,-1,-1,-1],"loss_changes":[8.356106E1,4.9148354E1,2.5176277E1,1.5093048E1,1.2192146E1,5.718897E0,1.1079102E1,2.424572E0,4.9077983E0,1.387341E0,8.281551E0,1.378215E0,3.1673636E0,4.0497837E0,5.8111343E0,9.265137E-1,2.4993296E0,2.2166677E0,1.9979961E0,2.0936477E-1,3.2986307E-1,4.018219E0,0E0,3.885901E-1,1.1157012E-1,8.90115E-1,1.1551228E0,1.8920174E0,0E0,3.598732E0,0E0,0E0,0E0,0E0,0E0,0E0,0E0,0E0,0E0,0E0,0E0,0E0,0E0,0E0,0E0,0E0,0E0,0E0,0E0,0E0,0E0,0E0,0E0,0E0,0E0,0E0,0E0],"parents":[2147483647,0,0,1,1,2,2,3,3,4,4,5,5,6,6,7,7,8,8,9,9,10,10,11,11,12,12,13,13,14,14,15,15,16,16,17,17,18,18,19,19,20,20,21,21,23,23,24,24,25,25,26,26,27,27,29,29],"right_children":[2,4,6,8,10,12,14,16,18,20,22,24,26,28,30,32,34,36,38,40,42,44,-1,46,48,50,52,54,-1,56,-1,-1,-1,-1,-1,-1,-1,-1,-1,-1,-1,-1,-1,-1,-1,-1,-1,-1,-1,-1,-1,-1,-1,-1,-1,-1,-1],"split_conditions":[3.8727406E-1,1.7620913E0,-6.196822E-1,-1.0315301E-1,-3.7678355E-1,-8.8894695E-1,1.5465338E0,-3.6361015E-1,-3.7678355E-1,-1.347405E-1,4.255381E-1,-1.4642975E0,8.615167E-1,1.6568723E0,1.0250212E-1,-4.4272313E-1,-8.7985986E-1,5.616392E-1,4.8194197E-1,-1.6651954E-1,-9.1689324E-1,-2.5822288E-1,6.634812E-2,1.085997E0,-6.329558E-2,-7.9951084E-1,-2.4472807E-1,-1.697694E-1,3.0914111E-2,-7.777448E-1,4.7830287E-2,-1.1969702E-2,-8.038613E-3,-1.3457747E-2,-4.5382245E-3,-6.482506E-3,-7.3173334E-4,7.038257E-3,-7.748322E-3,2.579444E-3,-5.1383297E-3,3.3969404E-3,1.1435207E-2,-4.036252E-3,2.6836948E-2,-2.893267E-3,5.5694696E-3,-3.6618055E-3,-1.2085598E-2,6.422981E-3,-2.63776E-3,-2.7456372E-3,1.3116289E-2,1.819108E-2,9.589454E-3,-2.6989258E-3,2.6052441E-2],"split_indices":[1,6,6,6,1,6,1,1,1,3,3,5,1,6,6,6,6,6,3,0,1,1,0,0,3,6,3,5,0,3,0,0,0,0,0,0,0,0,0,0,0,0,0,0,0,0,0,0,0,0,0,0,0,0,0,0,0],"split_type":[0,0,0,0,0,0,0,0,0,0,0,0,0,0,0,0,0,0,0,0,0,0,0,0,0,0,0,0,0,0,0,0,0,0,0,0,0,0,0,0,0,0,0,0,0,0,0,0,0,0,0,0,0,0,0,0,0],"sum_hessian":[6.51E2,4.77E2,1.74E2,4.33E2,4.4E1,6.8E1,1.06E2,2.62E2,1.71E2,2.6E1,1.8E1,2E1,4.8E1,6.8E1,3.8E1,1.68E2,9.4E1,1.3E2,4.1E1,5E0,2.1E1,1.6E1,2E0,9E0,1.1E1,2E1,2.8E1,6.2E1,6E0,3.1E1,7E0,1.18E2,5E1,1.8E1,7.6E1,5.2E1,7.8E1,3.7E1,4E0,2E0,3E0,4E0,1.7E1,2E0,1.4E1,6E0,3E0,2E0,9E0,7E0,1.3E1,2E0,2.6E1,2E1,4.2E1,2E0,2.9E1],"tree_param":{"num_deleted":"0","num_feature":"7","num_nodes":"57","size_leaf_vector":"1"}},{"base_weights":[1.886084E-2,-1.4677957E-1,7.537217E-1,-2.2401474E-1,9.825446E-1,2.0382285E-2,1.0597954E0,-3.6887503E-1,6.1181434E-3,3.72163E-1,1.4366101E0,-5.696292E-1,2.8995496E-1,1.3163228E0,7.4837565E-1,-4.637258E-1,-8.0516756E-2,-1.3038391E-1,2.9784465E-1,5.58592E-1,-1.1241342E-1,6.539018E-2,1.0500637E0,-6.563908E-1,-2.5873496E-3,3.7064305E-1,-8.62845E-3,1.7385129E0,1.1104325E0,1.8408449E-1,9.4333375E-1,-1.2713188E-2,-8.056057E-3,-4.731611E-3,2.5969245E-3,-6.056169E-3,-1.5942474E-4,8.926427E-3,-3.7844523E-3,1.4231571E-2,6.690441E-3,5.639073E-3,-9.696681E-3,8.116523E-3,2.8651334E-2,-5.19778E-3,-1.6049601E-2,-2.4122586E-3,1.0480981E-2,1.2685518E-2,4.1376024E-2,1.6880263E-2,2.6658725E-2,7.649744E-3,-3.4067832E-4,8.016017E-3,2.2165008E-2],"categories":[],"categories_nodes":[],"categories_segments":[],"categories_sizes":[],"default_left":[0,0,0,0,0,0,0,0,0,0,0,0,0,0,0,0,0,0,0,0,0,0,0,0,0,0,0,0,0,0,0,0,0,0,0,0,0,0,0,0,0,0,0,0,0,0,0,0,0,0,0,0,0,0,0,0,0],"id":22,"left_children":[1,3,5,7,9,11,13,15,17,19,21,23,25,27,29,31,33,35,37,39,41,-1,43,45,-1,47,-1,49,51,53,55,-1,-1,-1,-1,-1,-1,-1,-1,-1,-1,-1,-1,-1,-1,-1,-1,-1,-1,-1,-1,-1,-1,-1,-1,-1,-1],"loss_changes":[7.4118004E1,4.3570213E1,2.5117455E1,1.55373535E1,8.3342495E0,5.5729003E0,5.3260193E0,7.7850494E0,7.2464833E0,1.4178796E0,7.8417625E0,3.512056E-1,1.480695E0,1.7203445E0,4.0068455E0,2.213623E0,2.0170665E0,2.2747703E0,3.2056417E0,6.76105E-2,7.4160314E-1,0E0,2.4525852E0,1.3948774E-1,0E0,1.2554557E0,0E0,1.2600021E0,2.770996E-1,3.7730727E-1,9.069576E-1,0E0,0E0,0E0,0E0,0E0,0E0,0E0,0E0,0E0,0E0,0E0,0E0,0E0,0E0,0E0,0E0,0E0,0E0,0E0,0E0,0E0,0E0,0E0,0E0,0E0,0E0],"parents":[2147483647,0,0,1,1,2,2,3,3,4,4,5,5,6,6,7,7,8,8,9,9,10,10,11,11,12,12,13,13,14,14,15,15,16,16,17,17,18,18,19,19,20,20,22,22,23,23,25,25,27,27,28,28,29,29,30,30],"right_children":[2,4,6,8,10,12,14,16,18,20,22,24,26,28,30,32,34,36,38,40,42,-1,44,46,-1,48,-1,50,52,54,56,-1,-1,-1,-1,-1,-1,-1,-1,-1,-1,-1,-1,-1,-1,-1,-1,-1,-1,-1,-1,-1,-1,-1,-1,-1,-1],"split_conditions":[7.034358E-1,1.943833E0,-7.679452E-1,-8.880498E-2,-3.7746203E-1,-9.0626025E-1,6.8696305E-2,5.2452497E-3,-3.7678355E-1,1.085997E0,-3.287875E-1,-9.185039E-1,2.2996368E0,-2.8891113E-1,1.19096E-2,-7.3733604E-1,-6.652611E-1,6.046833E-1,6.648606E-1,1.5386263E-1,-1.0222805E0,6.539018E-2,-6.6001177E-1,7.8247625E-1,-2.5873496E-3,-2.4472807E-1,-8.62845E-3,-5.158981E-1,1.085997E0,9.405571E-1,1.085997E0,-1.2713188E-2,-8.056057E-3,-4.731611E-3,2.5969245E-3,-6.056169E-3,-1.5942474E-4,8.926427E-3,-3.7844523E-3,1.4231571E-2,6.690441E-3,5.639073E-3,-9.696681E-3,8.116523E-3,2.8651334E-2,-5.19778E-3,-1.6049601E-2,-2.4122586E-3,1.0480981E-2,1.2685518E-2,4.1376024E-2,1.6880263E-2,2.6658725E-2,7.649744E-3,-3.4067832E-4,8.016017E-3,2.2165008E-2],"split_indices":[1,6,6,6,4,6,5,1,1,0,4,6,4,3,3,6,6,6,5,5,1,0,1,1,0,3,0,6,0,1,0,0,0,0,0,0,0,0,0,0,0,0,0,0,0,0,0,0,0,0,0,0,0,0,0,0,0],"split_type":[0,0,0,0,0,0,0,0,0,0,0,0,0,0,0,0,0,0,0,0,0,0,0,0,0,0,0,0,0,0,0,0,0,0,0,0,0,0,0,0,0,0,0,0,0,0,0,0,0,0,0,0,0,0,0,0,0],"sum_hessian":[6.07E2,4.96E2,1.11E2,4.65E2,3.1E1,3.3E1,7.8E1,2.85E2,1.8E2,1.4E1,1.7E1,1E1,2.3E1,4.1E1,3.7E1,2.14E2,7.1E1,1.23E2,5.7E1,1E1,4E0,2E0,1.5E1,8E0,2E0,2.1E1,2E0,1.1E1,3E1,1E1,2.7E1,8.9E1,1.25E2,4.2E1,2.9E1,5.5E1,6.8E1,4.6E1,1.1E1,6E0,4E0,2E0,2E0,5E0,1E1,2E0,6E0,4E0,1.7E1,2E0,9E0,1E1,2E1,5E0,5E0,4E0,2.3E1],"tree_param":{"num_deleted":"0","num_feature":"7","num_nodes":"57","size_leaf_vector":"1"}},{"base_weights":[-4.9089342E-3,-1.6926582E-1,8.308766E-1,-2.2509299E-1,8.202843E-1,-4.9659118E-1,9.898107E-1,-4.4163203E-1,-7.008325E-2,5.5040973E-1,6.4446054E-2,2.8937238E-3,-7.215058E-1,3.3534667E-1,1.1710052E0,-4.996387E-1,-2.8538775E-1,-2.05267E-1,2.1791223E-1,9.259983E-1,1.8820569E-1,-1.771039E-2,-5.553243E-3,-3.1512436E-2,5.086484E-1,8.671256E-1,1.503007E0,-1.1044575E-2,4.124184E-3,-9.301472E-3,-4.3877955E-3,-6.9580004E-3,-1.2491595E-3,-2.996243E-3,6.919702E-3,-1.534638E-3,2.4119394E-2,-3.676242E-3,6.3204346E-3,3.1203555E-3,-2.470141E-3,-1.1307719E-6,1.50222285E-2,1.5007023E-2,2.4983212E-2,3.8252648E-2,2.1673437E-2],"categories":[],"categories_nodes":[],"categories_segments":[],"categories_sizes":[],"default_left":[0,0,0,0,0,0,0,0,0,0,0,0,0,0,0,0,0,0,0,0,0,0,0,0,0,0,0,0,0,0,0,0,0,0,0,0,0,0,0,0,0,0,0,0,0,0,0],"id":23,"left_children":[1,3,5,7,9,11,13,15,17,19,-1,-1,21,23,25,27,29,31,33,35,37,-1,-1,39,41,43,45,-1,-1,-1,-1,-1,-1,-1,-1,-1,-1,-1,-1,-1,-1,-1,-1,-1,-1,-1,-1],"loss_changes":[8.860505E1,2.996104E1,2.28554E1,1.7121101E1,1.5231409E1,1.7973144E0,1.087291E1,1.7878761E0,1.1685489E1,3.4987926E0,0E0,0E0,1.9320917E-1,1.4147298E0,6.1624603E0,1.1951714E0,6.287422E-1,3.4743395E0,3.5189433E0,2.5112066E0,6.0597676E-1,0E0,0E0,1.3238484E-1,1.4115794E0,1.2464256E0,2.72818E0,0E0,0E0,0E0,0E0,0E0,0E0,0E0,0E0,0E0,0E0,0E0,0E0,0E0,0E0,0E0,0E0,0E0,0E0,0E0,0E0],"parents":[2147483647,0,0,1,1,2,2,3,3,4,4,5,5,6,6,7,7,8,8,9,9,12,12,13,13,14,14,15,15,16,16,17,17,18,18,19,19,20,20,23,23,24,24,25,25,26,26],"right_children":[2,4,6,8,10,12,14,16,18,20,-1,-1,22,24,26,28,30,32,34,36,38,-1,-1,40,42,44,46,-1,-1,-1,-1,-1,-1,-1,-1,-1,-1,-1,-1,-1,-1,-1,-1,-1,-1,-1,-1],"split_conditions":[1.1776785E0,1.943833E0,-8.8894695E-1,-6.005515E-1,1.1555352E0,-1.4642975E0,-4.1034722E-1,5.2452497E-3,-1.7918244E-1,1.3682936E-1,6.4446054E-2,2.8937238E-3,-2.738344E-1,-2.2291799E0,-3.9011365E-1,1.5168927E0,-8.855991E-1,3.7989742E-1,-5.3079975E-1,-9.1689324E-1,-4.1034722E-1,-1.771039E-2,-5.553243E-3,-6.196822E-1,-6.8663967E-1,2.4950192E0,8.3940107E-1,-1.1044575E-2,4.124184E-3,-9.301472E-3,-4.3877955E-3,-6.9580004E-3,-1.2491595E-3,-2.996243E-3,6.919702E-3,-1.534638E-3,2.4119394E-2,-3.676242E-3,6.3204346E-3,3.1203555E-3,-2.470141E-3,-1.1307719E-6,1.50222285E-2,1.5007023E-2,2.4983212E-2,3.8252648E-2,2.1673437E-2],"split_indices":[1,6,6,6,2,5,2,1,1,5,0,0,2,2,6,2,6,6,2,1,2,0,0,6,6,1,4,0,0,0,0,0,0,0,0,0,0,0,0,0,0,0,0,0,0,0,0],"split_type":[0,0,0,0,0,0,0,0,0,0,0,0,0,0,0,0,0,0,0,0,0,0,0,0,0,0,0,0,0,0,0,0,0,0,0,0,0,0,0,0,0,0,0,0,0,0,0],"sum_hessian":[6.43E2,5.38E2,1.05E2,5.1E2,2.8E1,1.1E1,9.4E1,2.12E2,2.98E2,2.6E1,2E0,3E0,8E0,2.1E1,7.3E1,1.53E2,5.9E1,2.03E2,9.5E1,1.2E1,1.4E1,6E0,2E0,7E0,1.4E1,4E1,3.3E1,1.51E2,2E0,2E1,3.9E1,1.13E2,9E1,2.1E1,7.4E1,2E0,1E1,3E0,1.1E1,2E0,5E0,4E0,1E1,2.7E1,1.3E1,2E1,1.3E1],"tree_param":{"num_deleted":"0","num_feature":"7","num_nodes":"47","size_leaf_vector":"1"}},{"base_weights":[1.1135661E-2,-3.3868503E-2,1.480653E0,-1.3661154E-1,4.455953E-1,1.9852273E0,6.017816E-1,-2.6921272E-1,1.9539727E-1,1.4135352E0,3.159085E-1,1.705988E-2,5.0587576E-2,3.714889E-1,1.8663634E-2,-5.296681E-1,-1.917213E-1,-2.2154899E-1,3.9735612E-1,1.3199165E-2,3.4951407E-2,4.6939996E-1,-6.216376E-3,2.4007058E-3,1.2889912E-2,1.679627E-3,-1.1834544E-2,-1.3693633E-3,-7.923764E-3,-6.02008E-3,6.425777E-3,-4.1728937E-3,1.2115687E-2,-2.9647984E-3,1.1600103E-2,-8.674797E-3,2.7177024E-3],"categories":[],"categories_nodes":[],"categories_segments":[],"categories_sizes":[],"default_left":[0,0,0,0,0,0,0,0,0,0,0,0,0,0,0,0,0,0,0,0,0,0,0,0,0,0,0,0,0,0,0,0,0,0,0,0,0],"id":24,"left_children":[1,3,5,7,9,11,13,15,17,19,21,-1,-1,23,-1,25,27,29,31,-1,-1,33,35,-1,-1,-1,-1,-1,-1,-1,-1,-1,-1,-1,-1,-1,-1],"loss_changes":[4.006146E1,2.9026672E1,6.787533E0,2.1404613E1,1.2608475E1,2.7783127E0,1.5885425E-1,6.90197E0,1.17926655E1,9.4919395E-1,4.6011553E0,0E0,0E0,2.8383678E-1,0E0,8.4729004E-1,5.9962673E0,1.4275465E0,9.096874E0,0E0,0E0,2.6027985E0,1.6602482E0,0E0,0E0,0E0,0E0,0E0,0E0,0E0,0E0,0E0,0E0,0E0,0E0,0E0,0E0],"parents":[2147483647,0,0,1,1,2,2,3,3,4,4,5,5,6,6,7,7,8,8,9,9,10,10,13,13,15,15,16,16,17,17,18,18,21,21,22,22],"right_children":[2,4,6,8,10,12,14,16,18,20,22,-1,-1,24,-1,26,28,30,32,-1,-1,34,36,-1,-1,-1,-1,-1,-1,-1,-1,-1,-1,-1,-1,-1,-1],"split_conditions":[1.6975714E0,9.586014E-1,5.9602845E-1,5.9602845E-1,-8.681333E-1,-3.4228688E-1,-4.4230166E-1,-7.9807603E-1,-7.022312E-1,-3.5246143E0,5.796943E-1,1.705988E-2,5.0587576E-2,-1.6532782E-1,1.8663634E-2,-2.1167576E0,6.648606E-1,8.767692E-1,-7.275388E-1,1.3199165E-2,3.4951407E-2,-2.088652E0,-1.9963051E0,2.4007058E-3,1.2889912E-2,1.679627E-3,-1.1834544E-2,-1.3693633E-3,-7.923764E-3,-6.02008E-3,6.425777E-3,-4.1728937E-3,1.2115687E-2,-2.9647984E-3,1.1600103E-2,-8.674797E-3,2.7177024E-3],"split_indices":[2,6,4,4,5,6,5,6,6,5,5,0,0,6,0,2,5,3,2,0,0,2,2,0,0,0,0,0,0,0,0,0,0,0,0,0,0],"split_type":[0,0,0,0,0,0,0,0,0,0,0,0,0,0,0,0,0,0,0,0,0,0,0,0,0,0,0,0,0,0,0,0,0,0,0,0,0],"sum_hessian":[6.04E2,5.87E2,1.7E1,4.84E2,1.03E2,1E1,7E0,3.46E2,1.38E2,1.1E1,9.2E1,3E0,7E0,5E0,2E0,7.8E1,2.68E2,4.5E1,9.3E1,3E0,8E0,6.2E1,3E1,3E0,2E0,2E0,7.6E1,1.55E2,1.13E2,4.1E1,4E0,2E1,7.3E1,6E0,5.6E1,7E0,2.3E1],"tree_param":{"num_deleted":"0","num_feature":"7","num_nodes":"37","size_leaf_vector":"1"}},{"base_weights":[-1.6284876E-2,-1.8455544E-1,7.035975E-1,-2.4974571E-1,8.6464065E-1,-2.5789801E-2,9.4974816E-1,-3.6463204E-1,-5.624276E-2,6.3643837E-1,4.740437E-2,-4.46046E-1,2.2765341E-1,8.1499064E-1,1.4360145E0,-4.6131366E-1,-1.0079562E-1,-1.8126315E-1,2.8169465E-1,3.0873415E-1,9.656018E-1,-1.7455531E-2,-2.934581E-1,3.0596575E-1,-3.5103662E-3,1.07317515E-1,9.01773E-1,1.0016104E0,3.6457304E-2,-1.0714984E-2,-5.7138307E-3,-4.935155E-3,2.5040559E-3,-1.2552225E-2,-3.342155E-3,7.6879216E-3,-4.5206947E-3,-7.311171E-3,1.0794971E-2,8.108553E-3,2.2503084E-2,-7.67595E-3,-2.455823E-3,6.21383E-5,8.028559E-3,5.1120617E-3,-9.284988E-4,9.078686E-3,2.227469E-2,4.498938E-3,2.5961755E-2],"categories":[],"categories_nodes":[],"categories_segments":[],"categories_sizes":[],"default_left":[0,0,0,0,0,0,0,0,0,0,0,0,0,0,0,0,0,0,0,0,0,0,0,0,0,0,0,0,0,0,0,0,0,0,0,0,0,0,0,0,0,0,0,0,0,0,0,0,0,0,0],"id":25,"left_children":[1,3,5,7,9,11,13,15,17,19,-1,21,23,25,27,29,31,33,35,37,39,-1,41,43,-1,45,47,49,-1,-1,-1,-1,-1,-1,-1,-1,-1,-1,-1,-1,-1,-1,-1,-1,-1,-1,-1,-1,-1,-1,-1],"loss_changes":[7.608151E1,3.50302E1,2.138966E1,1.0650297E1,7.672533E0,3.4033875E0,4.661667E0,7.631447E0,7.6558924E0,2.6143284E0,0E0,4.225533E-1,6.6002345E-1,4.324993E0,2.481041E-1,1.3222847E0,2.2815382E0,1.327168E0,1.8352699E0,2.0074873E0,1.7550945E-1,0E0,6.959522E-2,3.3254075E-1,0E0,1.8412054E-1,3.4830856E0,1.1595621E0,0E0,0E0,0E0,0E0,0E0,0E0,0E0,0E0,0E0,0E0,0E0,0E0,0E0,0E0,0E0,0E0,0E0,0E0,0E0,0E0,0E0,0E0,0E0],"parents":[2147483647,0,0,1,1,2,2,3,3,4,4,5,5,6,6,7,7,8,8,9,9,11,11,12,12,13,13,14,14,15,15,16,16,17,17,18,18,19,19,20,20,22,22,23,23,25,25,26,26,27,27],"right_children":[2,4,6,8,10,12,14,16,18,20,-1,22,24,26,28,30,32,34,36,38,40,-1,42,44,-1,46,48,50,-1,-1,-1,-1,-1,-1,-1,-1,-1,-1,-1,-1,-1,-1,-1,-1,-1,-1,-1,-1,-1,-1,-1],"split_conditions":[7.034358E-1,1.943833E0,-7.9664123E-1,-1.0315301E-1,4.8194197E-1,-9.1132987E-1,1.7902496E-1,5.2452497E-3,-3.7678355E-1,-2.5822288E-1,4.740437E-2,-4.0171888E-1,2.2996368E0,-7.777448E-1,1.2303721E0,5.4210615E-1,-6.196822E-1,-1.3509525E0,4.8194197E-1,-1.347405E-1,1.9964424E0,-1.7455531E-2,1.085997E0,-1.347405E-1,-3.5103662E-3,-1.6651954E-1,1.085997E0,3.5265583E-1,3.6457304E-2,-1.0714984E-2,-5.7138307E-3,-4.935155E-3,2.5040559E-3,-1.2552225E-2,-3.342155E-3,7.6879216E-3,-4.5206947E-3,-7.311171E-3,1.0794971E-2,8.108553E-3,2.2503084E-2,-7.67595E-3,-2.455823E-3,6.21383E-5,8.028559E-3,5.1120617E-3,-9.284988E-4,9.078686E-3,2.227469E-2,4.498938E-3,2.5961755E-2],"split_indices":[1,6,6,6,3,6,6,1,1,1,0,3,4,3,1,3,6,4,3,3,6,0,0,3,0,0,0,4,0,0,0,0,0,0,0,0,0,0,0,0,0,0,0,0,0,0,0,0,0,0,0],"split_type":[0,0,0,0,0,0,0,0,0,0,0,0,0,0,0,0,0,0,0,0,0,0,0,0,0,0,0,0,0,0,0,0,0,0,0,0,0,0,0,0,0,0,0,0,0,0,0,0,0,0,0],"sum_hessian":[6.26E2,5.08E2,1.18E2,4.79E2,2.9E1,3E1,8.8E1,3E2,1.79E2,2.6E1,3E0,1.1E1,1.9E1,7.1E1,1.7E1,2.19E2,8.1E1,1.31E2,4.8E1,1.4E1,1.2E1,2E0,9E0,1.6E1,3E0,8E0,6.3E1,8E0,9E0,1.86E2,3.3E1,5.1E1,3E1,7E0,1.24E2,4.2E1,6E0,3E0,1.1E1,2E0,1E1,6E0,3E0,3E0,1.3E1,4E0,4E0,1.4E1,4.9E1,2E0,6E0],"tree_param":{"num_deleted":"0","num_feature":"7","num_nodes":"51","size_leaf_vector":"1"}},{"base_weights":[4.616455E-3,-1.347359E-1,8.1126046E-1,-2.6904568E-1,2.0557895E-1,-2.0932978E-1,1.0181695E0,-3.8793996E-1,1.615372E-2,1.6339642E-1,4.742798E-2,-1.8074676E-2,-8.4319484E-4,6.6406375E-1,1.4732472E0,-4.96565E-1,-2.7885172E-1,-1.9037215E-1,2.1514967E-1,-6.922708E-4,6.468115E-1,-6.374279E-2,1.1254471E-1,3.776089E-2,7.4339074E-1,6.953999E-1,1.6632285E0,-1.13922395E-2,-5.4565235E-3,-8.539554E-3,-3.33361E-3,-7.947884E-3,-2.2026212E-3,-4.0281843E-3,6.5937093E-3,-7.296143E-3,8.677225E-4,4.050476E-3,1.9233128E-2,-7.821884E-3,1.5773161E-3,5.353776E-3,-1.2914286E-3,3.0717275E-3,-1.0771002E-3,1.7096445E-2,3.1050034E-3,6.223759E-3,1.9117707E-2,8.580795E-3,3.8033966E-2],"categories":[],"categories_nodes":[],"categories_segments":[],"categories_sizes":[],"default_left":[0,0,0,0,0,0,0,0,0,0,0,0,0,0,0,0,0,0,0,0,0,0,0,0,0,0,0,0,0,0,0,0,0,0,0,0,0,0,0,0,0,0,0,0,0,0,0,0,0,0,0],"id":26,"left_children":[1,3,5,7,9,11,13,15,17,19,-1,-1,21,23,25,27,29,31,33,35,37,39,41,43,45,47,49,-1,-1,-1,-1,-1,-1,-1,-1,-1,-1,-1,-1,-1,-1,-1,-1,-1,-1,-1,-1,-1,-1,-1,-1],"loss_changes":[6.8678024E1,2.3868977E1,1.9218388E1,1.2688072E1,1.2030543E1,2.084993E0,1.110759E1,2.9898567E0,4.6028156E0,1.1581598E1,0E0,0E0,9.98906E-2,2.1579685E0,3.572235E0,8.114891E-1,1.8719978E0,8.239757E-1,2.0986826E0,1.5208229E0,3.9381933E0,3.9188704E-1,1.3066646E-1,6.168896E-2,9.63707E-1,3.5783577E-1,2.2483978E0,0E0,0E0,0E0,0E0,0E0,0E0,0E0,0E0,0E0,0E0,0E0,0E0,0E0,0E0,0E0,0E0,0E0,0E0,0E0,0E0,0E0,0E0,0E0,0E0],"parents":[2147483647,0,0,1,1,2,2,3,3,4,4,5,5,6,6,7,7,8,8,9,9,12,12,13,13,14,14,15,15,16,16,17,17,18,18,19,19,20,20,21,21,22,22,23,23,24,24,25,25,26,26],"right_children":[2,4,6,8,10,12,14,16,18,20,-1,-1,22,24,26,28,30,32,34,36,38,40,42,44,46,48,50,-1,-1,-1,-1,-1,-1,-1,-1,-1,-1,-1,-1,-1,-1,-1,-1,-1,-1,-1,-1,-1,-1,-1,-1],"split_conditions":[1.1118114E0,3.5598403E-1,-8.530769E-1,5.2452497E-3,1.436591E0,-9.219952E-1,4.7372244E-2,-6.005515E-1,-6.196822E-1,-1.6600904E-1,4.742798E-2,-1.8074676E-2,-8.8894695E-1,-3.265137E-1,-6.536392E-1,5.383459E-1,-5.480378E-1,-8.9325136E-1,-1.5345705E0,-1.9360788E0,-4.1034722E-1,-2.738344E-1,-8.540334E-1,1.085997E0,1.1236495E-2,1.2471737E-1,-8.003064E-1,-1.13922395E-2,-5.4565235E-3,-8.539554E-3,-3.33361E-3,-7.947884E-3,-2.2026212E-3,-4.0281843E-3,6.5937093E-3,-7.296143E-3,8.677225E-4,4.050476E-3,1.9233128E-2,-7.821884E-3,1.5773161E-3,5.353776E-3,-1.2914286E-3,3.0717275E-3,-1.0771002E-3,1.7096445E-2,3.1050034E-3,6.223759E-3,1.9117707E-2,8.580795E-3,3.8033966E-2],"split_indices":[1,6,6,1,2,6,2,6,6,1,0,0,6,3,6,3,1,6,2,2,2,2,6,0,2,3,3,0,0,0,0,0,0,0,0,0,0,0,0,0,0,0,0,0,0,0,0,0,0,0,0],"split_type":[0,0,0,0,0,0,0,0,0,0,0,0,0,0,0,0,0,0,0,0,0,0,0,0,0,0,0,0,0,0,0,0,0,0,0,0,0,0,0,0,0,0,0,0,0,0,0,0,0,0,0],"sum_hessian":[6.09E2,5.2E2,8.9E1,3.73E2,1.47E2,1.5E1,7.4E1,2.63E2,1.1E2,1.45E2,2E0,3E0,1.2E1,4.3E1,3.1E1,1.3E2,1.33E2,5.4E1,5.6E1,1.09E2,3.6E1,8E0,4E0,5E0,3.8E1,7E0,2.4E1,1.15E2,1.5E1,6.8E1,6.5E1,1.7E1,3.7E1,1E1,4.6E1,1.1E1,9.8E1,1.3E1,2.3E1,2E0,6E0,2E0,2E0,2E0,3E0,3.5E1,3E0,3E0,4E0,2E0,2.2E1],"tree_param":{"num_deleted":"0","num_feature":"7","num_nodes":"51","size_leaf_vector":"1"}},{"base_weights":[-8.367747E-3,-1.4540245E-1,8.4934795E-1,-3.2135534E-1,9.528496E-2,-3.6728588E-1,1.0622891E0,-4.349318E-1,-1.2131692E-1,6.032366E-2,4.5652594E-2,-1.5490755E-2,-9.4487615E-2,8.338972E-1,1.7518909E0,-4.9788254E-1,-2.9481003E-1,-2.8238386E-1,1.2800512E-1,-6.755961E-2,4.3017974E-1,-1.9865803E-1,1.8493105E-3,3.1611028E-1,9.733563E-1,2.3400754E-2,4.3261256E-2,-1.1027266E-2,4.058559E-3,-8.417539E-3,-4.3438226E-3,-8.614052E-3,-3.7807561E-3,4.688703E-3,-3.926075E-3,-3.3223438E-3,4.648905E-3,2.491453E-2,6.786307E-3,-9.923764E-3,9.892442E-4,3.0419289E-3,1.1411289E-2,2.4790011E-2,1.7809989E-2],"categories":[],"categories_nodes":[],"categories_segments":[],"categories_sizes":[],"default_left":[0,0,0,0,0,0,0,0,0,0,0,0,0,0,0,0,0,0,0,0,0,0,0,0,0,0,0,0,0,0,0,0,0,0,0,0,0,0,0,0,0,0,0,0,0],"id":27,"left_children":[1,3,5,7,9,11,13,15,17,19,-1,-1,21,23,25,27,29,31,33,35,37,39,-1,41,43,-1,-1,-1,-1,-1,-1,-1,-1,-1,-1,-1,-1,-1,-1,-1,-1,-1,-1,-1,-1],"loss_changes":[7.5934746E1,2.3619373E1,2.3447517E1,7.2629623E0,1.6479149E1,1.2614245E0,1.0509064E1,1.6614761E0,4.7747364E0,1.1049591E1,0E0,0E0,1.8560466E-1,3.9527092E0,8.1032944E-1,1.1785355E0,5.058346E-1,8.260441E-1,1.3255928E0,4.248477E0,4.6881037E0,4.0144992E-1,0E0,4.4436228E-1,2.4850082E-1,0E0,0E0,0E0,0E0,0E0,0E0,0E0,0E0,0E0,0E0,0E0,0E0,0E0,0E0,0E0,0E0,0E0,0E0,0E0,0E0],"parents":[2147483647,0,0,1,1,2,2,3,3,4,4,5,5,6,6,7,7,8,8,9,9,12,12,13,13,14,14,15,15,16,16,17,17,18,18,19,19,20,20,21,21,23,23,24,24],"right_children":[2,4,6,8,10,12,14,16,18,20,-1,-1,22,24,26,28,30,32,34,36,38,40,-1,42,44,-1,-1,-1,-1,-1,-1,-1,-1,-1,-1,-1,-1,-1,-1,-1,-1,-1,-1,-1,-1],"split_conditions":[1.1118114E0,-8.880498E-2,-8.530769E-1,-7.928157E-3,1.4767418E0,-9.2146915E-1,4.0327314E-2,-4.4272313E-1,-6.196822E-1,-1.3966222E-1,4.5652594E-2,-1.5490755E-2,-8.8894695E-1,-4.5049807E-1,1.45432E0,1.5168927E0,1.6984048E-1,3.8727406E-1,8.351932E-1,1.4655652E0,-9.532996E-1,-2.738344E-1,1.8493105E-3,2.0207765E0,-2.924089E-1,2.3400754E-2,4.3261256E-2,-1.1027266E-2,4.058559E-3,-8.417539E-3,-4.3438226E-3,-8.614052E-3,-3.7807561E-3,4.688703E-3,-3.926075E-3,-3.3223438E-3,4.648905E-3,2.491453E-2,6.786307E-3,-9.923764E-3,9.892442E-4,3.0419289E-3,1.1411289E-2,2.4790011E-2,1.7809989E-2],"split_indices":[1,6,6,1,2,6,6,6,6,1,0,0,6,2,1,2,3,1,5,6,5,2,0,1,5,0,0,0,0,0,0,0,0,0,0,0,0,0,0,0,0,0,0,0,0],"split_type":[0,0,0,0,0,0,0,0,0,0,0,0,0,0,0,0,0,0,0,0,0,0,0,0,0,0,0,0,0,0,0,0,0,0,0,0,0,0,0,0,0,0,0,0,0],"sum_hessian":[6.44E2,5.56E2,8.8E1,3.21E2,2.35E2,1.3E1,7.5E1,2.04E2,1.17E2,2.32E2,3E0,5E0,8E0,5.8E1,1.7E1,1.39E2,6.5E1,7.1E1,4.6E1,1.73E2,5.9E1,5E0,3E0,1.3E1,4.5E1,6E0,1.1E1,1.37E2,2E0,3.1E1,3.4E1,3.3E1,3.8E1,3.6E1,1E1,1.33E2,4E1,7E0,5.2E1,2E0,3E0,8E0,5E0,1.8E1,2.7E1],"tree_param":{"num_deleted":"0","num_feature":"7","num_nodes":"45","size_leaf_vector":"1"}},{"base_weights":[7.4671204E-3,-1.175514E-1,8.114787E-1,-1.8550444E-1,9.5116967E-1,2.663005E-1,1.2017785E0,-2.7977005E-1,9.726982E-2,7.4761325E-1,6.0756836E-2,-2.905716E-1,4.0141907E-1,7.745875E-1,1.5528154E0,-3.5626853E-1,5.6473643E-2,3.7249744E-2,5.7094574E-1,3.335145E-1,1.1408674E0,-9.863621E-3,-2.5643452E-4,6.613673E-2,5.5792797E-1,3.5987915E-3,9.183833E-1,2.5943397E-2,4.2451296E-2,-7.846843E-3,9.009365E-3,-6.3091717E-3,3.5395666E-3,3.734612E-4,1.7579598E-2,7.5761187E-3,1.6755946E-2,3.0453154E-4,1.0080325E-2,2.8551659E-2,6.039286E-3,-4.4275107E-4,6.5801647E-3,2.9751188E-3,1.34359095E-2,8.528215E-3,2.310825E-2],"categories":[],"categories_nodes":[],"categories_segments":[],"categories_sizes":[],"default_left":[0,0,0,0,0,0,0,0,0,0,0,0,0,0,0,0,0,0,0,0,0,0,0,0,0,0,0,0,0,0,0,0,0,0,0,0,0,0,0,0,0,0,0,0,0,0,0],"id":28,"left_children":[1,3,5,7,9,11,13,15,17,19,-1,21,23,25,27,29,31,33,35,37,39,-1,-1,41,43,-1,45,-1,-1,-1,-1,-1,-1,-1,-1,-1,-1,-1,-1,-1,-1,-1,-1,-1,-1,-1,-1],"loss_changes":[6.573256E1,4.1280975E1,1.840487E1,1.4234798E1,1.0735508E1,2.9759042E0,6.44516E0,1.0308975E1,3.7883615E0,4.830578E0,0E0,3.6224335E-1,1.5898147E0,2.034587E0,1.5551453E0,1.6741219E0,2.8376596E0,1.8452469E0,4.01824E-1,7.0994794E-1,2.0801315E0,0E0,0E0,2.3258838E-1,4.6640682E-1,0E0,1.1391163E0,0E0,0E0,0E0,0E0,0E0,0E0,0E0,0E0,0E0,0E0,0E0,0E0,0E0,0E0,0E0,0E0,0E0,0E0,0E0,0E0],"parents":[2147483647,0,0,1,1,2,2,3,3,4,4,5,5,6,6,7,7,8,8,9,9,11,11,12,12,13,13,14,14,15,15,16,16,17,17,18,18,19,19,20,20,23,23,24,24,26,26],"right_children":[2,4,6,8,10,12,14,16,18,20,-1,22,24,26,28,30,32,34,36,38,40,-1,-1,42,44,-1,46,-1,-1,-1,-1,-1,-1,-1,-1,-1,-1,-1,-1,-1,-1,-1,-1,-1,-1,-1,-1],"split_conditions":[1.1776785E0,1.9964424E0,-6.1011684E-1,5.090297E-1,1.1555352E0,-9.133386E-1,1.7046148E0,3.8727406E-1,5.2452497E-3,-3.7678355E-1,6.0756836E-2,-7.709534E-2,-4.1034722E-1,-5.669355E-1,1.1236495E-2,1.6975714E0,-8.8717735E-1,1.3442441E0,-1.5345705E0,-9.1689324E-1,1.3682936E-1,-9.863621E-3,-2.5643452E-4,2.363285E0,-8.9325136E-1,3.5987915E-3,-4.3315777E-1,2.5943397E-2,4.2451296E-2,-7.846843E-3,9.009365E-3,-6.3091717E-3,3.5395666E-3,3.734612E-4,1.7579598E-2,7.5761187E-3,1.6755946E-2,3.0453154E-4,1.0080325E-2,2.8551659E-2,6.039286E-3,-4.4275107E-4,6.5801647E-3,2.9751188E-3,1.34359095E-2,8.528215E-3,2.310825E-2],"split_indices":[1,6,6,6,2,6,1,1,1,1,0,2,2,2,2,2,6,2,2,1,5,0,0,1,6,0,6,0,0,0,0,0,0,0,0,0,0,0,0,0,0,0,0,0,0,0,0],"split_type":[0,0,0,0,0,0,0,0,0,0,0,0,0,0,0,0,0,0,0,0,0,0,0,0,0,0,0,0,0,0,0,0,0,0,0,0,0,0,0,0,0,0,0,0,0,0,0],"sum_hessian":[6.52E2,5.65E2,8.7E1,5.32E2,3.3E1,3.7E1,5E1,3.99E2,1.33E2,3.1E1,2E0,7E0,3E1,2.4E1,2.6E1,3.25E2,7.4E1,1.19E2,1.4E1,1.6E1,1.5E1,4E0,3E0,1E1,2E1,5E0,1.9E1,1.6E1,1E1,3.23E2,2E0,1.7E1,5.7E1,1.17E2,2E0,8E0,6E0,5E0,1.1E1,1.2E1,3E0,8E0,2E0,3E0,1.7E1,5E0,1.4E1],"tree_param":{"num_deleted":"0","num_feature":"7","num_nodes":"47","size_leaf_vector":"1"}},{"base_weights":[4.461418E-3,-1.5137751E-1,6.4914614E-1,8.4007996E-1,-1.768018E-1,5.155555E-1,1.2798262E0,3.6683842E-3,1.0243505E0,-3.66247E-1,-8.846772E-2,1.1431222E-1,6.547666E-1,1.453425E-2,3.3270977E-2,9.114964E-3,1.2228587E0,-4.673854E-1,-1.6650553E-1,-1.05651386E-1,1.0942786E0,-2.8597713E-1,2.887268E-1,2.2023258E-1,8.24576E-1,3.1672552E-2,9.007827E-3,-7.6321145E-3,-1.1062321E-2,-3.0665384E-3,-9.718205E-3,-2.5851827E-4,-6.6268127E-3,3.4884803E-2,4.6136295E-3,-1.1628007E-3,-9.985457E-3,-8.931132E-5,8.977552E-3,-6.264919E-4,1.7193124E-2,1.5806822E-2,2.7933128E-2],"categories":[],"categories_nodes":[],"categories_segments":[],"categories_sizes":[],"default_left":[0,0,0,0,0,0,0,0,0,0,0,0,0,0,0,0,0,0,0,0,0,0,0,0,0,0,0,0,0,0,0,0,0,0,0,0,0,0,0,0,0,0,0],"id":29,"left_children":[1,3,5,7,9,11,13,-1,15,17,19,21,23,-1,-1,-1,25,27,29,31,33,35,37,39,41,-1,-1,-1,-1,-1,-1,-1,-1,-1,-1,-1,-1,-1,-1,-1,-1,-1,-1],"loss_changes":[6.399526E1,1.3079771E1,9.787544E0,1.433156E0,8.351565E0,5.734333E0,2.246952E0,0E0,6.832819E-1,3.134222E0,7.0867167E0,2.0374258E0,5.5000763E0,0E0,0E0,0E0,7.4504375E-1,3.4402657E-1,3.2314336E-1,6.360825E0,1.9326401E0,3.4128487E-1,7.3853314E-1,3.3103223E0,1.4819946E0,0E0,0E0,0E0,0E0,0E0,0E0,0E0,0E0,0E0,0E0,0E0,0E0,0E0,0E0,0E0,0E0,0E0,0E0],"parents":[2147483647,0,0,1,1,2,2,3,3,4,4,5,5,6,6,8,8,9,9,10,10,11,11,12,12,16,16,17,17,18,18,19,19,20,20,21,21,22,22,23,23,24,24],"right_children":[2,4,6,8,10,12,14,-1,16,18,20,22,24,-1,-1,-1,26,28,30,32,34,36,38,40,42,-1,-1,-1,-1,-1,-1,-1,-1,-1,-1,-1,-1,-1,-1,-1,-1,-1,-1],"split_conditions":[7.034358E-1,-1.7197965E0,2.4950192E0,-2.5822288E-1,-6.929453E-1,-5.669355E-1,-1.17246166E-1,3.6683842E-3,-3.665145E0,5.383459E-1,1.6975714E0,-4.0171888E-1,-1.038466E0,1.453425E-2,3.3270977E-2,9.114964E-3,-3.235757E0,-9.9593365E-1,1.3261464E0,6.648606E-1,4.1668477E0,-1.7754755E0,-2.924089E-1,1.8495222E0,1.6975714E0,3.1672552E-2,9.007827E-3,-7.6321145E-3,-1.1062321E-2,-3.0665384E-3,-9.718205E-3,-2.5851827E-4,-6.6268127E-3,3.4884803E-2,4.6136295E-3,-1.1628007E-3,-9.985457E-3,-8.931132E-5,8.977552E-3,-6.264919E-4,1.7193124E-2,1.5806822E-2,2.7933128E-2],"split_indices":[1,5,1,1,1,2,2,0,5,3,2,3,5,0,0,0,5,1,4,5,2,2,5,1,2,0,0,0,0,0,0,0,0,0,0,0,0,0,0,0,0,0,0],"split_type":[0,0,0,0,0,0,0,0,0,0,0,0,0,0,0,0,0,0,0,0,0,0,0,0,0,0,0,0,0,0,0,0,0,0,0,0,0,0,0,0,0,0,0],"sum_hessian":[6.35E2,5.12E2,1.23E2,1.2E1,5E2,1.03E2,2E1,3E0,9E0,1.58E2,3.42E2,2.7E1,7.6E1,7E0,1.3E1,3E0,6E0,1.04E2,5.4E1,3.38E2,4E0,8E0,1.9E1,2.2E1,5.4E1,4E0,2E0,3.1E1,7.3E1,5.1E1,3E0,2.31E2,1.07E2,2E0,2E0,4E0,4E0,6E0,1.3E1,1.6E1,6E0,4.7E1,7E0],"tree_param":{"num_deleted":"0","num_feature":"7","num_nodes":"43","size_leaf_vector":"1"}},{"base_weights":[2.4214685E-2,-1.3969049E-1,7.0130867E-1,-1.6032964E-1,1.5863212E0,1.9392596E-1,8.3812994E-1,-3.2785216E-1,-5.8429834E-2,4.8122764E-2,4.547017E-3,-6.038141E-3,2.6463416E-1,3.6621273E-1,1.0951623E0,-4.9237686E-1,-2.5557005E-1,8.0492655E-3,-2.1777591E-1,3.032802E-2,4.6056026E-1,-1.4391632E-1,6.0601836E-1,1.5106249E0,8.0394477E-1,-1.3526622E-3,-1.1165034E-2,-6.7107063E-3,-1.3136589E-3,-4.6938956E-3,1.4958973E-3,-8.592608E-3,-3.3560118E-3,-1.6013298E-3,3.1818608E-3,5.6466856E-3,1.4082429E-2,1.8878488E-3,-1.0500953E-2,1.6748587E-2,6.376373E-3,3.8199227E-2,2.276311E-2,1.9674225E-2,1.0068038E-2],"categories":[],"categories_nodes":[],"categories_segments":[],"categories_sizes":[],"default_left":[0,0,0,0,0,0,0,0,0,0,0,0,0,0,0,0,0,0,0,0,0,0,0,0,0,0,0,0,0,0,0,0,0,0,0,0,0,0,0,0,0,0,0,0,0],"id":30,"left_children":[1,3,5,7,9,11,13,15,17,-1,-1,-1,19,21,23,25,27,29,31,33,35,37,39,41,43,-1,-1,-1,-1,-1,-1,-1,-1,-1,-1,-1,-1,-1,-1,-1,-1,-1,-1,-1,-1],"loss_changes":[6.890507E1,1.8066044E1,8.237377E0,8.430746E0,4.783184E0,9.7628105E-1,1.1122246E1,2.0980034E0,3.2750468E0,0E0,0E0,0E0,1.0877928E0,4.3688297E0,6.1659317E0,5.2530766E-1,1.3779974E0,3.0189629E0,9.616008E-1,1.5674323E-1,3.2321525E-1,9.8774064E-1,1.0236521E0,9.386139E-1,9.239979E-1,0E0,0E0,0E0,0E0,0E0,0E0,0E0,0E0,0E0,0E0,0E0,0E0,0E0,0E0,0E0,0E0,0E0,0E0,0E0,0E0],"parents":[2147483647,0,0,1,1,2,2,3,3,4,4,5,5,6,6,7,7,8,8,12,12,13,13,14,14,15,15,16,16,17,17,18,18,19,19,20,20,21,21,22,22,23,23,24,24],"right_children":[2,4,6,8,10,12,14,16,18,-1,-1,-1,20,22,24,26,28,30,32,34,36,38,40,42,44,-1,-1,-1,-1,-1,-1,-1,-1,-1,-1,-1,-1,-1,-1,-1,-1,-1,-1,-1,-1],"split_conditions":[7.034358E-1,1.6975714E0,-4.1034722E-1,-6.534251E-1,4.1668477E0,-1.2087985E0,1.085997E0,5.7032708E-2,6.648606E-1,4.8122764E-2,4.547017E-3,-6.038141E-3,-2.4472807E-1,-1.2087985E0,8.3940107E-1,-2.6578743E0,-7.851592E-1,-1.038466E0,-5.0700617E-1,-5.5212927E-1,1.5465338E0,1.0827737E0,7.550961E-2,-1.0163634E-1,4.3282023E-1,-1.3526622E-3,-1.1165034E-2,-6.7107063E-3,-1.3136589E-3,-4.6938956E-3,1.4958973E-3,-8.592608E-3,-3.3560118E-3,-1.6013298E-3,3.1818608E-3,5.6466856E-3,1.4082429E-2,1.8878488E-3,-1.0500953E-2,1.6748587E-2,6.376373E-3,3.8199227E-2,2.276311E-2,1.9674225E-2,1.0068038E-2],"split_indices":[1,2,2,1,2,5,0,3,5,0,0,0,3,5,4,3,1,5,3,3,1,4,5,5,2,0,0,0,0,0,0,0,0,0,0,0,0,0,0,0,0,0,0,0,0],"split_type":[0,0,0,0,0,0,0,0,0,0,0,0,0,0,0,0,0,0,0,0,0,0,0,0,0,0,0,0,0,0,0,0,0,0,0,0,0,0,0,0,0,0,0,0,0],"sum_hessian":[6.19E2,4.99E2,1.2E2,4.94E2,5E0,2.6E1,9.4E1,1.86E2,3.08E2,3E0,2E0,3E0,2.3E1,3.4E1,6E1,5.5E1,1.31E2,2.18E2,9E1,1.1E1,1.2E1,1.1E1,2.3E1,2.3E1,3.7E1,3E0,5.2E1,1.02E2,2.9E1,4.6E1,1.72E2,2.2E1,6.8E1,6E0,5E0,7E0,5E0,7E0,4E0,1.4E1,9E0,1.3E1,1E1,2.7E1,1E1],"tree_param":{"num_deleted":"0","num_feature":"7","num_nodes":"45","size_leaf_vector":"1"}},{"base_weights":[2.9696955E-3,-1.3712995E-1,7.320031E-1,-3.0898887E-1,9.817134E-2,1.1835799E-1,9.7088623E-1,-4.3246827E-1,-1.1774402E-1,-8.215906E-2,5.122925E-1,-1.5348111E-2,2.3649889E-1,2.677703E-1,1.0403495E0,-1.33385705E-2,-4.094238E-1,-3.6111215E-1,-3.1814408E-2,-1.598507E-1,1.5296984E-1,3.4965807E-1,1.0744659E0,5.813129E-2,5.339107E-1,1.5117436E-4,1.1409366E-2,7.09918E-1,1.2325764E0,-6.7709745E-3,-9.977873E-3,-1.1216338E-2,-4.1647544E-3,-2.9930067E-3,3.7245087E-3,-1.6802761E-3,-5.8394466E-3,-3.813032E-3,5.5047274E-3,4.1496055E-3,1.251855E-2,2.5677202E-2,5.0819833E-3,3.0556445E-3,-8.74299E-3,1.2290794E-3,1.3992888E-2,1.1050828E-2,2.1620654E-2,2.3054473E-2,3.8826313E-2],"categories":[],"categories_nodes":[],"categories_segments":[],"categories_sizes":[],"default_left":[0,0,0,0,0,0,0,0,0,0,0,0,0,0,0,0,0,0,0,0,0,0,0,0,0,0,0,0,0,0,0,0,0,0,0,0,0,0,0,0,0,0,0,0,0,0,0,0,0,0,0],"id":31,"left_children":[1,3,5,7,9,11,13,15,17,19,21,-1,23,25,27,-1,29,31,33,35,37,39,41,43,45,-1,-1,47,49,-1,-1,-1,-1,-1,-1,-1,-1,-1,-1,-1,-1,-1,-1,-1,-1,-1,-1,-1,-1,-1,-1],"loss_changes":[6.526399E1,2.1705437E1,1.4983803E1,7.2696705E0,1.6994137E1,3.0988216E0,3.33564E0,5.4250336E-1,2.5607526E0,2.9289927E0,5.93289E0,0E0,1.4012762E0,5.3677315E-1,3.3806686E0,0E0,6.9989014E-1,7.473693E-1,2.0183308E0,1.0628114E0,1.3767401E0,1.8744898E0,1.1219788E0,7.465973E-1,4.986856E-1,0E0,0E0,1.0452585E0,1.9515419E0,0E0,0E0,0E0,0E0,0E0,0E0,0E0,0E0,0E0,0E0,0E0,0E0,0E0,0E0,0E0,0E0,0E0,0E0,0E0,0E0,0E0,0E0],"parents":[2147483647,0,0,1,1,2,2,3,3,4,4,5,5,6,6,7,7,8,8,9,9,10,10,12,12,13,13,14,14,16,16,17,17,18,18,19,19,20,20,21,21,22,22,23,23,24,24,27,27,28,28],"right_children":[2,4,6,8,10,12,14,16,18,20,22,-1,24,26,28,-1,30,32,34,36,38,40,42,44,46,-1,-1,48,50,-1,-1,-1,-1,-1,-1,-1,-1,-1,-1,-1,-1,-1,-1,-1,-1,-1,-1,-1,-1,-1,-1],"split_conditions":[1.0459443E0,-1.0315301E-1,-7.679452E-1,-7.928157E-3,-2.4504948E-1,-9.2146915E-1,-5.5212927E-1,-9.0377325E-1,-8.4446806E-1,1.4655652E0,1.9964424E0,-1.5348111E-2,2.1872385E-1,2.555478E-1,3.5265583E-1,-1.33385705E-2,2.3902896E-1,3.8727406E-1,4.3996766E-1,5.796943E-1,-1.347405E-1,3.8727406E-1,1.5386263E-1,2.2996368E0,1.7046148E0,1.5117436E-4,1.1409366E-2,-5.054356E-2,8.8154085E-2,-6.7709745E-3,-9.977873E-3,-1.1216338E-2,-4.1647544E-3,-2.9930067E-3,3.7245087E-3,-1.6802761E-3,-5.8394466E-3,-3.813032E-3,5.5047274E-3,4.1496055E-3,1.251855E-2,2.5677202E-2,5.0819833E-3,3.0556445E-3,-8.74299E-3,1.2290794E-3,1.3992888E-2,1.1050828E-2,2.1620654E-2,2.3054473E-2,3.8826313E-2],"split_indices":[1,6,6,1,1,6,3,6,6,6,6,0,3,6,4,0,5,1,1,5,3,1,5,4,1,0,0,6,6,0,0,0,0,0,0,0,0,0,0,0,0,0,0,0,0,0,0,0,0,0,0],"split_type":[0,0,0,0,0,0,0,0,0,0,0,0,0,0,0,0,0,0,0,0,0,0,0,0,0,0,0,0,0,0,0,0,0,0,0,0,0,0,0,0,0,0,0,0,0,0,0,0,0,0,0],"sum_hessian":[6.37E2,5.35E2,1.02E2,3.09E2,2.26E2,2.9E1,7.3E1,1.87E2,1.22E2,1.58E2,6.8E1,3E0,2.6E1,7E0,6.6E1,1.8E1,1.69E2,3.1E1,9.1E1,1.19E2,3.9E1,5.4E1,1.4E1,1.7E1,9E0,4E0,3E0,2.6E1,4E1,6.1E1,1.08E2,1.5E1,1.6E1,6E1,3.1E1,6.9E1,5E1,9E0,3E1,3.3E1,2.1E1,1.2E1,2E0,1.5E1,2E0,2E0,7E0,1.7E1,9E0,3.3E1,7E0],"tree_param":{"num_deleted":"0","num_feature":"7","num_nodes":"51","size_leaf_vector":"1"}},{"base_weights":[-1.5356871E-2,-1.6996294E-1,6.143219E-1,-2.2698812E-1,8.1775504E-1,1.0417157E-1,8.444578E-1,-3.0650872E-1,2.0910226E-2,5.6844366E-1,5.8601666E-2,-2.540872E-1,3.0685273E-1,1.9085088E-1,1.0396289E0,-3.5352644E-1,5.379909E-2,-7.189516E-2,3.5206372E-1,2.6930335E-1,2.2093376E-2,-1.2492631E-2,-8.428536E-2,-1.20212115E-1,3.8996506E-1,-6.1203312E-2,