{"learner":{"attributes":{"scikit_learn":"{\"_estimator_type\": \"regressor\"}"},"feature_names":[],"feature_types":[],"gradient_booster":{"model":{"cats":{"enc":[],"feature_segments":[],"sorted_idx":[]},"gbtree_model_param":{"num_parallel_tree":"1","num_trees":"866"},"iteration_indptr":[0,1,2,3,4,5,6,7,8,9,10,11,12,13,14,15,16,17,18,19,20,21,22,23,24,25,26,27,28,29,30,31,32,33,34,35,36,37,38,39,40,41,42,43,44,45,46,47,48,49,50,51,52,53,54,55,56,57,58,59,60,61,62,63,64,65,66,67,68,69,70,71,72,73,74,75,76,77,78,79,80,81,82,83,84,85,86,87,88,89,90,91,92,93,94,95,96,97,98,99,100,101,102,103,104,105,106,107,108,109,110,111,112,113,114,115,116,117,118,119,120,121,122,123,124,125,126,127,128,129,130,131,132,133,134,135,136,137,138,139,140,141,142,143,144,145,146,147,148,149,150,151,152,153,154,155,156,157,158,159,160,161,162,163,164,165,166,167,168,169,170,171,172,173,174,175,176,177,178,179,180,181,182,183,184,185,186,187,188,189,190,191,192,193,194,195,196,197,198,199,200,201,202,203,204,205,206,207,208,209,210,211,212,213,214,215,216,217,218,219,220,221,222,223,224,225,226,227,228,229,230,231,232,233,234,235,236,237,238,239,240,241,242,243,244,245,246,247,248,249,250,251,252,253,254,255,256,257,258,259,260,261,262,263,264,265,266,267,268,269,270,271,272,273,274,275,276,277,278,279,280,281,282,283,284,285,286,287,288,289,290,291,292,293,294,295,296,297,298,299,300,301,302,303,304,305,306,307,308,309,310,311,312,313,314,315,316,317,318,319,320,321,322,323,324,325,326,327,328,329,330,331,332,333,334,335,336,337,338,339,340,341,342,343,344,345,346,347,348,349,350,351,352,353,354,355,356,357,358,359,360,361,362,363,364,365,366,367,368,369,370,371,372,373,374,375,376,377,378,379,380,381,382,383,384,385,386,387,388,389,390,391,392,393,394,395,396,397,398,399,400,401,402,403,404,405,406,407,408,409,410,411,412,413,414,415,416,417,418,419,420,421,422,423,424,425,426,427,428,429,430,431,432,433,434,435,436,437,438,439,440,441,442,443,444,445,446,447,448,449,450,451,452,453,454,455,456,457,458,459,460,461,462,463,464,465,466,467,468,469,470,471,472,473,474,475,476,477,478,479,480,481,482,483,484,485,486,487,488,489,490,491,492,493,494,495,496,497,498,499,500,501,502,503,504,505,506,507,508,509,510,511,512,513,514,515,516,517,518,519,520,521,522,523,524,525,526,527,528,529,530,531,532,533,534,535,536,537,538,539,540,541,542,543,544,545,546,547,548,549,550,551,552,553,554,555,556,557,558,559,560,561,562,563,564,565,566,567,568,569,570,571,572,573,574,575,576,577,578,579,580,581,582,583,584,585,586,587,588,589,590,591,592,593,594,595,596,597,598,599,600,601,602,603,604,605,606,607,608,609,610,611,612,613,614,615,616,617,618,619,620,621,622,623,624,625,626,627,628,629,630,631,632,633,634,635,636,637,638,639,640,641,642,643,644,645,646,647,648,649,650,651,652,653,654,655,656,657,658,659,660,661,662,663,664,665,666,667,668,669,670,671,672,673,674,675,676,677,678,679,680,681,682,683,684,685,686,687,688,689,690,691,692,693,694,695,696,697,698,699,700,701,702,703,704,705,706,707,708,709,710,711,712,713,714,715,716,717,718,719,720,721,722,723,724,725,726,727,728,729,730,731,732,733,734,735,736,737,738,739,740,741,742,743,744,745,746,747,748,749,750,751,752,753,754,755,756,757,758,759,760,761,762,763,764,765,766,767,768,769,770,771,772,773,774,775,776,777,778,779,780,781,782,783,784,785,786,787,788,789,790,791,792,793,794,795,796,797,798,799,800,801,802,803,804,805,806,807,808,809,810,811,812,813,814,815,816,817,818,819,820,821,822,823,824,825,826,827,828,829,830,831,832,833,834,835,836,837,838,839,840,841,842,843,844,845,846,847,848,849,850,851,852,853,854,855,856,857,858,859,860,861,862,863,864,865,866],"tree_info":[0,0,0,0,0,0,0,0,0,0,0,0,0,0,0,0,0,0,0,0,0,0,0,0,0,0,0,0,0,0,0,0,0,0,0,0,0,0,0,0,0,0,0,0,0,0,0,0,0,0,0,0,0,0,0,0,0,0,0,0,0,0,0,0,0,0,0,0,0,0,0,0,0,0,0,0,0,0,0,0,0,0,0,0,0,0,0,0,0,0,0,0,0,0,0,0,0,0,0,0,0,0,0,0,0,0,0,0,0,0,0,0,0,0,0,0,0,0,0,0,0,0,0,0,0,0,0,0,0,0,0,0,0,0,0,0,0,0,0,0,0,0,0,0,0,0,0,0,0,0,0,0,0,0,0,0,0,0,0,0,0,0,0,0,0,0,0,0,0,0,0,0,0,0,0,0,0,0,0,0,0,0,0,0,0,0,0,0,0,0,0,0,0,0,0,0,0,0,0,0,0,0,0,0,0,0,0,0,0,0,0,0,0,0,0,0,0,0,0,0,0,0,0,0,0,0,0,0,0,0,0,0,0,0,0,0,0,0,0,0,0,0,0,0,0,0,0,0,0,0,0,0,0,0,0,0,0,0,0,0,0,0,0,0,0,0,0,0,0,0,0,0,0,0,0,0,0,0,0,0,0,0,0,0,0,0,0,0,0,0,0,0,0,0,0,0,0,0,0,0,0,0,0,0,0,0,0,0,0,0,0,0,0,0,0,0,0,0,0,0,0,0,0,0,0,0,0,0,0,0,0,0,0,0,0,0,0,0,0,0,0,0,0,0,0,0,0,0,0,0,0,0,0,0,0,0,0,0,0,0,0,0,0,0,0,0,0,0,0,0,0,0,0,0,0,0,0,0,0,0,0,0,0,0,0,0,0,0,0,0,0,0,0,0,0,0,0,0,0,0,0,0,0,0,0,0,0,0,0,0,0,0,0,0,0,0,0,0,0,0,0,0,0,0,0,0,0,0,0,0,0,0,0,0,0,0,0,0,0,0,0,0,0,0,0,0,0,0,0,0,0,0,0,0,0,0,0,0,0,0,0,0,0,0,0,0,0,0,0,0,0,0,0,0,0,0,0,0,0,0,0,0,0,0,0,0,0,0,0,0,0,0,0,0,0,0,0,0,0,0,0,0,0,0,0,0,0,0,0,0,0,0,0,0,0,0,0,0,0,0,0,0,0,0,0,0,0,0,0,0,0,0,0,0,0,0,0,0,0,0,0,0,0,0,0,0,0,0,0,0,0,0,0,0,0,0,0,0,0,0,0,0,0,0,0,0,0,0,0,0,0,0,0,0,0,0,0,0,0,0,0,0,0,0,0,0,0,0,0,0,0,0,0,0,0,0,0,0,0,0,0,0,0,0,0,0,0,0,0,0,0,0,0,0,0,0,0,0,0,0,0,0,0,0,0,0,0,0,0,0,0,0,0,0,0,0,0,0,0,0,0,0,0,0,0,0,0,0,0,0,0,0,0,0,0,0,0,0,0,0,0,0,0,0,0,0,0,0,0,0,0,0,0,0,0,0,0,0,0,0,0,0,0,0,0,0,0,0,0,0,0,0,0,0,0,0,0,0,0,0,0,0,0,0,0,0,0,0,0,0,0,0,0,0,0,0,0,0,0,0,0,0,0,0,0,0,0,0,0,0,0,0,0,0,0,0,0,0,0,0,0,0,0,0,0,0,0,0,0,0,0,0,0,0,0,0,0,0,0,0,0,0,0,0,0,0,0,0,0,0,0,0,0,0,0,0,0,0,0,0,0,0,0,0,0,0,0,0,0,0,0,0,0,0,0,0,0,0,0,0,0,0,0,0,0,0,0,0,0,0,0,0,0,0,0,0,0,0,0,0,0,0,0,0,0,0,0,0,0,0,0,0,0,0,0,0,0,0,0,0,0,0,0,0,0,0,0,0,0,0,0,0,0,0,0,0,0,0,0,0,0,0,0,0,0,0],"trees":[{"base_weights":[1.6038777E-2,-5.133628E-1,2.6734385E-1,-6.7110926E-1,-1.5797739E-1,7.762333E-1,-1.1510954E-1,-8.567345E-1,-5.373064E-1,-5.566361E-1,6.860253E-2,5.75432E-1,1.7005186E0,-3.069321E-1,2.1728069E-1,-1.827134E-2,-3.4148414E-2,-2.9680172E-2,-1.0616912E-2,-9.8298285E-3,-2.7631655E-2,1.7608138E-2,-2.013061E-2,8.898896E-3,4.3510944E-2,3.0257894E-2,8.569785E-2,-1.9565793E-2,-1.0601504E-3,2.8433744E-2,2.2044796E-3],"categories":[],"categories_nodes":[],"categories_segments":[],"categories_sizes":[],"default_left":[0,0,0,0,0,0,0,0,0,0,0,0,0,0,0,0,0,0,0,0,0,0,0,0,0,0,0,0,0,0,0],"id":0,"left_children":[1,3,5,7,9,11,13,15,17,19,21,23,25,27,29,-1,-1,-1,-1,-1,-1,-1,-1,-1,-1,-1,-1,-1,-1,-1,-1],"loss_changes":[1.16548386E2,1.5703125E1,1.15697495E2,4.3829193E0,7.987055E0,4.634886E1,2.174507E1,4.4719696E-2,6.590748E0,1.2745094E0,1.2860016E1,3.9047318E1,1.860936E1,1.1606697E1,1.0187248E1,0E0,0E0,0E0,0E0,0E0,0E0,0E0,0E0,0E0,0E0,0E0,0E0,0E0,0E0,0E0,0E0],"parents":[2147483647,0,0,1,1,2,2,3,3,4,4,5,5,6,6,7,7,8,8,9,9,10,10,11,11,12,12,13,13,14,14],"right_children":[2,4,6,8,10,12,14,16,18,20,22,24,26,28,30,-1,-1,-1,-1,-1,-1,-1,-1,-1,-1,-1,-1,-1,-1,-1,-1],"split_conditions":[-6.6176975E-1,5.9602845E-1,2.3902896E-1,-3.7746203E-1,-8.8717735E-1,1.6090455E0,-3.6740355E-2,-1.3961645E0,-8.062066E-1,-1.4642975E0,6.8696305E-2,1.085997E0,-3.7746203E-1,3.5598403E-1,-3.7576562E-1,-1.827134E-2,-3.4148414E-2,-2.9680172E-2,-1.0616912E-2,-9.8298285E-3,-2.7631655E-2,1.7608138E-2,-2.013061E-2,8.898896E-3,4.3510944E-2,3.0257894E-2,8.569785E-2,-1.9565793E-2,-1.0601504E-3,2.8433744E-2,2.2044796E-3],"split_indices":[6,4,5,4,6,6,4,5,6,5,5,0,4,6,6,0,0,0,0,0,0,0,0,0,0,0,0,0,0,0,0],"split_type":[0,0,0,0,0,0,0,0,0,0,0,0,0,0,0,0,0,0,0,0,0,0,0,0,0,0,0,0,0,0,0],"sum_hessian":[8.74E2,2.81E2,5.93E2,1.94E2,8.7E1,2.54E2,3.39E2,7.9E1,1.15E2,3.1E1,5.6E1,2.1E2,4.4E1,2.15E2,1.24E2,4E0,7.5E1,6.2E1,5.3E1,1.1E1,2E1,3.4E1,2.2E1,1.28E2,8.2E1,1.6E1,2.8E1,1.27E2,8.8E1,2.9E1,9.5E1],"tree_param":{"num_deleted":"0","num_feature":"7","num_nodes":"31","size_leaf_vector":"1"}},{"base_weights":[-9.187304E-3,-8.04014E-2,2.0342374E0,-2.3706526E-1,2.9160437E-1,2.5810006E0,1.0445728E0,1.2093602E0,-2.591773E-1,5.163347E-1,-5.5346213E-2,1.1353471E-1,2.9519228E-2,9.656029E-3,5.030308E-2,8.265185E-3,7.7064626E-2,-2.7276447E-2,-6.4778957E-3,-3.2882702E-3,3.1343915E-2,-1.9258788E-2,4.600487E-3],"categories":[],"categories_nodes":[],"categories_segments":[],"categories_sizes":[],"default_left":[0,0,0,0,0,0,0,0,0,0,0,0,0,0,0,0,0,0,0,0,0,0,0],"id":1,"left_children":[1,3,5,7,9,11,13,15,17,19,21,-1,-1,-1,-1,-1,-1,-1,-1,-1,-1,-1,-1],"loss_changes":[1.2531132E2,4.8557972E1,1.2996208E1,1.9055725E1,1.9287243E1,8.195824E0,1.970439E0,6.3850145E0,2.359002E1,2.5571678E1,7.4365826E0,0E0,0E0,0E0,0E0,0E0,0E0,0E0,0E0,0E0,0E0,0E0,0E0],"parents":[2147483647,0,0,1,1,2,2,3,3,4,4,5,5,6,6,7,7,8,8,9,9,10,10],"right_children":[2,4,6,8,10,12,14,16,18,20,22,-1,-1,-1,-1,-1,-1,-1,-1,-1,-1,-1,-1],"split_conditions":[1.6975714E0,5.9602845E-1,5.9602845E-1,-1.7197965E0,2.3902896E-1,4.1668477E0,1.7859032E0,-3.5246143E0,-9.532996E-1,-1.038466E0,-1.7353246E0,1.1353471E-1,2.9519228E-2,9.656029E-3,5.030308E-2,8.265185E-3,7.7064626E-2,-2.7276447E-2,-6.4778957E-3,-3.2882702E-3,3.1343915E-2,-1.9258788E-2,4.600487E-3],"split_indices":[2,4,4,5,5,2,2,5,5,5,2,0,0,0,0,0,0,0,0,0,0,0,0],"split_type":[0,0,0,0,0,0,0,0,0,0,0,0,0,0,0,0,0,0,0,0,0,0,0],"sum_hessian":[8.59E2,8.31E2,2.8E1,5.85E2,2.46E2,1.7E1,1.1E1,8E0,5.77E2,1.49E2,9.7E1,1.4E1,3E0,3E0,8E0,4E0,4E0,1.01E2,4.76E2,4.8E1,1.01E2,2.7E1,7E1],"tree_param":{"num_deleted":"0","num_feature":"7","num_nodes":"23","size_leaf_vector":"1"}},{"base_weights":[1.5126405E-2,-2.2439848E-1,1.2430066E0,-3.274657E-1,1.3472102E0,2.844627E-1,1.6031886E0,-5.210003E-1,2.222729E-3,5.951343E-1,1.9804794E0,-8.393652E-1,5.482857E-1,1.9004636E0,1.1778017E0,-2.6115688E-2,-5.954341E-3,-8.358481E-3,1.8228473E-2,1.0116377E-2,2.7650833E-2,4.1188348E-2,9.021591E-2,-4.1232653E-2,-1.9657232E-2,6.015053E-4,2.611222E-2,5.6685433E-2,8.7752E-2,6.200807E-3,5.598805E-2],"categories":[],"categories_nodes":[],"categories_segments":[],"categories_sizes":[],"default_left":[0,0,0,0,0,0,0,0,0,0,0,0,0,0,0,0,0,0,0,0,0,0,0,0,0,0,0,0,0,0,0],"id":2,"left_children":[1,3,5,7,9,11,13,15,17,19,21,23,25,27,29,-1,-1,-1,-1,-1,-1,-1,-1,-1,-1,-1,-1,-1,-1,-1,-1],"loss_changes":[2.5585869E2,1.1836362E2,4.8569504E1,4.3644547E1,2.0253334E1,1.231988E1,1.0786682E1,2.3003326E1,2.5426462E1,6.355977E-1,4.74469E0,4.697323E-2,2.0626392E0,5.8283386E0,1.1268066E1,0E0,0E0,0E0,0E0,0E0,0E0,0E0,0E0,0E0,0E0,0E0,0E0,0E0,0E0,0E0,0E0],"parents":[2147483647,0,0,1,1,2,2,3,3,4,4,5,5,6,6,7,7,8,8,9,9,10,10,11,11,12,12,13,13,14,14],"right_children":[2,4,6,8,10,12,14,16,18,20,22,24,26,28,30,-1,-1,-1,-1,-1,-1,-1,-1,-1,-1,-1,-1,-1,-1,-1,-1],"split_conditions":[1.0459443E0,1.943833E0,-7.679452E-1,-8.880498E-2,-3.7678355E-1,-9.181213E-1,6.8696305E-2,5.2452497E-3,-2.4504948E-1,-9.1689324E-1,-5.446087E-1,-9.244822E-1,-1.347405E-1,-2.4185066E-1,-5.953532E-2,-2.6115688E-2,-5.954341E-3,-8.358481E-3,1.8228473E-2,1.0116377E-2,2.7650833E-2,4.1188348E-2,9.021591E-2,-4.1232653E-2,-1.9657232E-2,6.015053E-4,2.611222E-2,5.6685433E-2,8.7752E-2,6.200807E-3,5.598805E-2],"split_indices":[1,6,6,6,1,6,5,1,1,1,3,6,3,6,3,0,0,0,0,0,0,0,0,0,0,0,0,0,0,0,0],"split_type":[0,0,0,0,0,0,0,0,0,0,0,0,0,0,0,0,0,0,0,0,0,0,0,0,0,0,0,0,0,0,0],"sum_hessian":[8.68E2,7.27E2,1.41E2,6.83E2,4.4E1,3.9E1,1.02E2,4.3E2,2.53E2,2.1E1,2.3E1,7E0,3.2E1,5.8E1,4.4E1,3.08E2,1.22E2,1.73E2,8E1,6E0,1.5E1,7E0,1.6E1,3E0,4E0,6E0,2.6E1,2.7E1,3.1E1,9E0,3.5E1],"tree_param":{"num_deleted":"0","num_feature":"7","num_nodes":"31","size_leaf_vector":"1"}},{"base_weights":[-2.1197197E-3,-4.483232E-1,2.3892747E-1,-7.577884E-1,-3.136292E-1,8.1546634E-1,-4.322381E-2,-3.0520719E-2,-3.907024E-1,-5.810841E-1,-1.3361241E-1,6.3726723E-1,1.9012736E0,-2.358564E-1,2.3802516E-1,-1.8544229E-3,-2.4946932E-2,-2.4926443E-2,-5.6665153E-3,6.201231E-3,-1.8465452E-2,-6.0176654E-3,3.413038E-2,3.346488E-2,9.091856E-2,-1.2149756E-2,1.7296927E-2,3.7401885E-2,5.426049E-3],"categories":[],"categories_nodes":[],"categories_segments":[],"categories_sizes":[],"default_left":[0,0,0,0,0,0,0,0,0,0,0,0,0,0,0,0,0,0,0,0,0,0,0,0,0,0,0,0,0],"id":3,"left_children":[1,3,5,7,9,11,13,-1,15,17,19,21,23,25,27,-1,-1,-1,-1,-1,-1,-1,-1,-1,-1,-1,-1,-1,-1],"loss_changes":[9.475648E1,1.264241E1,9.308317E1,4.0675735E-1,1.0370121E1,3.5164474E1,2.091456E1,0E0,5.605407E-1,1.9897957E0,1.2974716E1,3.0222626E1,9.408707E0,1.1626096E1,1.1066396E1,0E0,0E0,0E0,0E0,0E0,0E0,0E0,0E0,0E0,0E0,0E0,0E0,0E0,0E0],"parents":[2147483647,0,0,1,1,2,2,3,3,4,4,5,5,6,6,8,8,9,9,10,10,11,11,12,12,13,13,14,14],"right_children":[2,4,6,8,10,12,14,-1,16,18,20,22,24,26,28,-1,-1,-1,-1,-1,-1,-1,-1,-1,-1,-1,-1,-1,-1],"split_conditions":[-6.196822E-1,-3.7746203E-1,1.3682936E-1,-6.3929117E-1,-8.6072916E-1,1.9964424E0,-3.6740355E-2,-3.0520719E-2,-6.2924755E-1,1.3261464E0,6.8696305E-2,-1.2665784E0,-3.7746203E-1,1.7620913E0,-5.06811E-1,-1.8544229E-3,-2.4946932E-2,-2.4926443E-2,-5.6665153E-3,6.201231E-3,-1.8465452E-2,-6.0176654E-3,3.413038E-2,3.346488E-2,9.091856E-2,-1.2149756E-2,1.7296927E-2,3.7401885E-2,5.426049E-3],"split_indices":[6,4,5,6,6,6,4,0,6,4,5,3,4,6,6,0,0,0,0,0,0,0,0,0,0,0,0,0,0],"split_type":[0,0,0,0,0,0,0,0,0,0,0,0,0,0,0,0,0,0,0,0,0,0,0,0,0,0,0,0,0],"sum_hessian":[8.79E2,3.08E2,5.71E2,9.2E1,2.16E2,1.87E2,3.84E2,8.6E1,6E0,8.6E1,1.3E2,1.62E2,2.5E1,2.28E2,1.56E2,3E0,3E0,7.6E1,1E1,7E1,6E1,3.7E1,1.25E2,8E0,1.7E1,2.06E2,2.2E1,1.8E1,1.38E2],"tree_param":{"num_deleted":"0","num_feature":"7","num_nodes":"29","size_leaf_vector":"1"}},{"base_weights":[-2.780032E-2,-8.426243E-2,1.8839896E0,-5.2261543E-1,1.1112048E-1,6.8880045E-1,2.773867E0,-7.971089E-1,-4.055418E-1,-1.3897842E-1,4.5735058E-1,9.021062E-3,8.161178E-1,1.2131722E-1,4.694036E-2,-2.8952925E-2,-3.7634734E-2,-2.6474314E-2,-9.946613E-3,-1.0609903E-2,2.6283685E-2,3.2900128E-4,2.5793256E-2,4.530131E-2,1.7785367E-2],"categories":[],"categories_nodes":[],"categories_segments":[],"categories_sizes":[],"default_left":[0,0,0,0,0,0,0,0,0,0,0,0,0,0,0,0,0,0,0,0,0,0,0,0,0],"id":4,"left_children":[1,3,5,7,9,11,13,15,17,19,21,-1,23,-1,-1,-1,-1,-1,-1,-1,-1,-1,-1,-1,-1],"loss_changes":[9.406977E1,7.251516E1,2.467865E1,8.064217E0,5.0806335E1,5.129323E-1,3.3792953E0,2.4932861E-2,7.406351E0,3.6533405E1,2.2156193E1,0E0,5.831485E-1,0E0,0E0,0E0,0E0,0E0,0E0,0E0,0E0,0E0,0E0,0E0,0E0],"parents":[2147483647,0,0,1,1,2,2,3,3,4,4,5,5,6,6,7,7,8,8,9,9,10,10,12,12],"right_children":[2,4,6,8,10,12,14,16,18,20,22,-1,24,-1,-1,-1,-1,-1,-1,-1,-1,-1,-1,-1,-1],"split_conditions":[1.6975714E0,-6.923789E-1,-1.6532782E-1,-3.7746203E-1,-3.6740355E-2,1.7859032E0,5.9602845E-1,-7.181837E-1,-8.8717735E-1,1.499044E0,-4.5852822E-1,9.021062E-3,2.0027177E0,1.2131722E-1,4.694036E-2,-2.8952925E-2,-3.7634734E-2,-2.6474314E-2,-9.946613E-3,-1.0609903E-2,2.6283685E-2,3.2900128E-4,2.5793256E-2,4.530131E-2,1.7785367E-2],"split_indices":[2,6,6,4,4,2,4,4,6,6,2,0,2,0,0,0,0,0,0,0,0,0,0,0,0],"split_type":[0,0,0,0,0,0,0,0,0,0,0,0,0,0,0,0,0,0,0,0,0,0,0,0,0],"sum_hessian":[8.69E2,8.45E2,2.4E1,2.6E2,5.85E2,1.1E1,1.3E1,7.6E1,1.84E2,3.4E2,2.45E2,3E0,8E0,1E1,3E0,6E1,1.6E1,6.5E1,1.19E2,2.93E2,4.7E1,7.6E1,1.69E2,3E0,5E0],"tree_param":{"num_deleted":"0","num_feature":"7","num_nodes":"25","size_leaf_vector":"1"}},{"base_weights":[1.1492742E-2,-4.5197368E-1,2.3822756E-1,-7.359399E-1,-3.2632664E-1,8.627587E-1,-7.2313145E-2,-3.5618924E-2,-6.76917E-1,-6.283433E-1,-1.8365465E-1,6.94566E-1,1.8363647E0,-2.2999732E-1,1.6809018E-1,-1.7619116E-2,-2.7386745E-2,-1.8157743E-2,-2.7670082E-2,-3.5180652E-4,-1.7403653E-2,1.2370165E-2,4.3186E-2,3.7943054E-2,8.7902166E-2,-1.2358597E-2,1.2835008E-2,2.7415749E-2,2.7403224E-3],"categories":[],"categories_nodes":[],"categories_segments":[],"categories_sizes":[],"default_left":[0,0,0,0,0,0,0,0,0,0,0,0,0,0,0,0,0,0,0,0,0,0,0,0,0,0,0,0,0],"id":5,"left_children":[1,3,5,7,9,11,13,-1,15,17,19,21,23,25,27,-1,-1,-1,-1,-1,-1,-1,-1,-1,-1,-1,-1,-1,-1],"loss_changes":[9.468325E1,1.0320984E1,1.1739751E2,3.024788E-1,8.8040905E0,3.1638947E1,1.5391319E1,0E0,3.7117004E-2,5.1813316E-1,6.453371E0,2.6347404E1,8.056595E0,1.1750354E1,8.349712E0,0E0,0E0,0E0,0E0,0E0,0E0,0E0,0E0,0E0,0E0,0E0,0E0,0E0,0E0],"parents":[2147483647,0,0,1,1,2,2,3,3,4,4,5,5,6,6,8,8,9,9,10,10,11,11,12,12,13,13,14,14],"right_children":[2,4,6,8,10,12,14,-1,16,18,20,22,24,26,28,-1,-1,-1,-1,-1,-1,-1,-1,-1,-1,-1,-1,-1,-1],"split_conditions":[-6.3929117E-1,-3.7746203E-1,1.3682936E-1,-4.0171888E-1,-8.8717735E-1,1.9964424E0,-3.6740355E-2,-3.5618924E-2,1.19096E-2,-1.4642975E0,6.8696305E-2,3.5265583E-1,-3.7746203E-1,1.4655652E0,-5.06811E-1,-1.7619116E-2,-2.7386745E-2,-1.8157743E-2,-2.7670082E-2,-3.5180652E-4,-1.7403653E-2,1.2370165E-2,4.3186E-2,3.7943054E-2,8.7902166E-2,-1.2358597E-2,1.2835008E-2,2.7415749E-2,2.7403224E-3],"split_indices":[6,4,5,3,6,6,4,0,3,5,5,4,4,6,6,0,0,0,0,0,0,0,0,0,0,0,0,0,0],"split_type":[0,0,0,0,0,0,0,0,0,0,0,0,0,0,0,0,0,0,0,0,0,0,0,0,0,0,0,0,0],"sum_hessian":[8.99E2,2.95E2,6.04E2,8.9E1,2.06E2,2E2,4.04E2,1.9E1,7E1,6.5E1,1.41E2,1.72E2,2.8E1,2.44E2,1.6E2,8E0,6.2E1,2.3E1,4.2E1,8.5E1,5.6E1,9E1,8.2E1,1E1,1.8E1,2.12E2,3.2E1,2.4E1,1.36E2],"tree_param":{"num_deleted":"0","num_feature":"7","num_nodes":"29","size_leaf_vector":"1"}},{"base_weights":[1.4536795E-3,-2.2195062E-1,1.15966E0,-2.9930758E-1,1.1218737E0,1.7996088E-1,1.493843E0,-4.7361317E-1,-2.008108E-2,5.595724E-1,1.6039764E0,-3.570585E-2,4.2047724E-1,2.6614234E-1,1.5655607E0,-2.40333E-2,-5.053434E-3,-7.914739E-3,1.5389895E-2,7.667507E-3,2.9027008E-2,2.1587113E-2,7.794951E-2,6.493315E-3,2.5440942E-2,2.530171E-2,-7.0449086E-3,8.154915E-2,5.454298E-2],"categories":[],"categories_nodes":[],"categories_segments":[],"categories_sizes":[],"default_left":[0,0,0,0,0,0,0,0,0,0,0,0,0,0,0,0,0,0,0,0,0,0,0,0,0,0,0,0,0],"id":6,"left_children":[1,3,5,7,9,11,13,15,17,19,21,-1,23,25,27,-1,-1,-1,-1,-1,-1,-1,-1,-1,-1,-1,-1,-1,-1],"loss_changes":[2.2562712E2,7.63263E1,4.5894394E1,3.3670635E1,9.945934E0,1.0090622E1,8.828354E0,2.040519E1,2.0115122E1,1.1722417E0,7.411545E0,0E0,1.6979175E0,1.2999136E0,5.9797363E0,0E0,0E0,0E0,0E0,0E0,0E0,0E0,0E0,0E0,0E0,0E0,0E0,0E0,0E0],"parents":[2147483647,0,0,1,1,2,2,3,3,4,4,5,5,6,6,7,7,8,8,9,9,10,10,12,12,13,13,14,14],"right_children":[2,4,6,8,10,12,14,16,18,20,22,-1,24,26,28,-1,-1,-1,-1,-1,-1,-1,-1,-1,-1,-1,-1,-1,-1],"split_conditions":[1.1118114E0,1.943833E0,-7.679452E-1,-1.0315301E-1,-3.7678355E-1,-9.181213E-1,-7.777448E-1,5.2452497E-3,-2.4504948E-1,-6.929453E-1,-5.446087E-1,-3.570585E-2,-8.530769E-1,1.2303721E0,-6.9780064E-1,-2.40333E-2,-5.053434E-3,-7.914739E-3,1.5389895E-2,7.667507E-3,2.9027008E-2,2.1587113E-2,7.794951E-2,6.493315E-3,2.5440942E-2,2.530171E-2,-7.0449086E-3,8.154915E-2,5.454298E-2],"split_indices":[1,6,6,6,1,6,3,1,1,1,3,0,6,1,5,0,0,0,0,0,0,0,0,0,0,0,0,0,0],"split_type":[0,0,0,0,0,0,0,0,0,0,0,0,0,0,0,0,0,0,0,0,0,0,0,0,0,0,0,0,0],"sum_hessian":[8.7E2,7.3E2,1.4E2,6.91E2,3.9E1,3.6E1,1.04E2,4.25E2,2.66E2,1.9E1,2E1,6E0,3E1,6E0,9.8E1,3.02E2,1.23E2,1.85E2,8.1E1,7E0,1.2E1,6E0,1.4E1,1.5E1,1.5E1,3E0,3E0,2.2E1,7.6E1],"tree_param":{"num_deleted":"0","num_feature":"7","num_nodes":"29","size_leaf_vector":"1"}},{"base_weights":[1.49082625E-2,-3.786328E-2,1.8085444E0,-4.0041575E-1,1.5158784E-1,4.3368024E-1,2.4300287E0,-6.217327E-1,-3.182616E-1,5.605626E-1,-1.3602541E-1,8.740735E-3,2.5138311E-2,1.880506E0,1.2245972E-1,-7.864218E-3,-2.5157163E-2,-3.4451764E-3,-2.044577E-2,1.7406095E-2,5.0878204E-2,2.6870461E-2,-6.6358177E-3,9.019473E-2,3.260096E-2],"categories":[],"categories_nodes":[],"categories_segments":[],"categories_sizes":[],"default_left":[0,0,0,0,0,0,0,0,0,0,0,0,0,0,0,0,0,0,0,0,0,0,0,0,0],"id":7,"left_children":[1,3,5,7,9,11,13,15,17,19,21,-1,-1,23,-1,-1,-1,-1,-1,-1,-1,-1,-1,-1,-1],"loss_changes":[8.279515E1,5.844378E1,2.0307564E1,5.1112976E0,6.5829506E1,2.5070608E-1,6.0881805E-1,5.2986526E-1,1.0025091E1,1.9270638E1,9.105776E0,0E0,0E0,3.3780785E0,0E0,0E0,0E0,0E0,0E0,0E0,0E0,0E0,0E0,0E0,0E0],"parents":[2147483647,0,0,1,1,2,2,3,3,4,4,5,5,6,6,7,7,8,8,9,9,10,10,13,13],"right_children":[2,4,6,8,10,12,14,16,18,20,22,-1,-1,24,-1,-1,-1,-1,-1,-1,-1,-1,-1,-1,-1],"split_conditions":[1.6975714E0,-6.1298645E-1,-5.2402866E-1,-8.8717735E-1,2.3902896E-1,-7.545537E-1,2.3199093E0,-1.1129868E0,6.8696305E-2,1.9964424E0,-5.4315937E-1,8.740735E-3,2.5138311E-2,2.1191552E0,1.2245972E-1,-7.864218E-3,-2.5157163E-2,-3.4451764E-3,-2.044577E-2,1.7406095E-2,5.0878204E-2,2.6870461E-2,-6.6358177E-3,9.019473E-2,3.260096E-2],"split_indices":[2,6,6,6,5,6,2,2,5,6,6,0,0,2,0,0,0,0,0,0,0,0,0,0,0],"split_type":[0,0,0,0,0,0,0,0,0,0,0,0,0,0,0,0,0,0,0,0,0,0,0,0,0],"sum_hessian":[8.73E2,8.49E2,2.4E1,2.91E2,5.58E2,8E0,1.6E1,7.7E1,2.14E2,2.3E2,3.28E2,5E0,3E0,1.1E1,5E0,4E0,7.3E1,1.01E2,1.13E2,2E2,3E1,1.2E1,3.16E2,7E0,4E0],"tree_param":{"num_deleted":"0","num_feature":"7","num_nodes":"25","size_leaf_vector":"1"}},{"base_weights":[4.7332565E-3,-5.1047746E-2,1.7238145E0,-2.3252986E-1,1.7915411E-1,2.1631598E0,8.481754E-1,-1.2108058E-1,-3.674518E-1,8.939534E-2,4.860081E-1,9.46766E-2,2.653233E-2,8.935024E-3,4.124773E-2,-2.0313287E-2,-2.4542513E-3,-1.54073E-2,-5.6489767E-3,2.7122372E-3,3.581302E-2,-4.4452487E-3,3.047055E-2],"categories":[],"categories_nodes":[],"categories_segments":[],"categories_sizes":[],"default_left":[0,0,0,0,0,0,0,0,0,0,0,0,0,0,0,0,0,0,0,0,0,0,0],"id":8,"left_children":[1,3,5,7,9,11,13,15,17,19,21,-1,-1,-1,-1,-1,-1,-1,-1,-1,-1,-1,-1],"loss_changes":[8.5431946E1,3.6095657E1,8.937088E0,7.218361E0,1.0450374E1,5.1105804E0,1.1525984E0,6.14417E0,1.1899567E0,4.8658705E0,1.510581E1,0E0,0E0,0E0,0E0,0E0,0E0,0E0,0E0,0E0,0E0,0E0,0E0],"parents":[2147483647,0,0,1,1,2,2,3,3,4,4,5,5,6,6,7,7,8,8,9,9,10,10],"right_children":[2,4,6,8,10,12,14,16,18,20,22,-1,-1,-1,-1,-1,-1,-1,-1,-1,-1,-1,-1],"split_conditions":[1.6975714E0,1.0928322E-1,5.9602845E-1,1.9191523E-1,5.646677E-1,4.1668477E0,1.7859032E0,-1.7754755E0,1.0271796E0,2.5430095E0,-4.1034722E-1,9.46766E-2,2.653233E-2,8.935024E-3,4.124773E-2,-2.0313287E-2,-2.4542513E-3,-1.54073E-2,-5.6489767E-3,2.7122372E-3,3.581302E-2,-4.4452487E-3,3.047055E-2],"split_indices":[2,4,4,2,3,2,2,2,3,4,2,0,0,0,0,0,0,0,0,0,0,0,0],"split_type":[0,0,0,0,0,0,0,0,0,0,0,0,0,0,0,0,0,0,0,0,0,0,0],"sum_hessian":[8.89E2,8.62E2,2.7E1,4.82E2,3.8E2,1.7E1,1E1,2.65E2,2.17E2,2.95E2,8.5E1,1.4E1,3E0,3E0,7E0,3.3E1,2.32E2,1.94E2,2.3E1,2.89E2,6E0,2.8E1,5.7E1],"tree_param":{"num_deleted":"0","num_feature":"7","num_nodes":"23","size_leaf_vector":"1"}},{"base_weights":[7.806362E-3,-5.8018737E-2,1.1910574E0,-3.840512E-1,1.1504844E-1,6.797014E-1,6.2459677E-2,-6.7711514E-1,-2.6948792E-1,-1.3755843E-1,4.300676E-1,8.460883E-1,-2.1650149E-3,-3.3128373E-2,-2.4512513E-2,-2.1667914E-2,-5.5895327E-3,-1.0111091E-2,2.7764807E-3,7.724289E-3,2.361944E-2,4.514791E-2,1.616692E-2],"categories":[],"categories_nodes":[],"categories_segments":[],"categories_sizes":[],"default_left":[0,0,0,0,0,0,0,0,0,0,0,0,0,0,0,0,0,0,0,0,0,0,0],"id":9,"left_children":[1,3,5,7,9,11,-1,13,15,17,19,21,-1,-1,-1,-1,-1,-1,-1,-1,-1,-1,-1],"loss_changes":[6.7987114E1,4.6708088E1,8.38121E0,9.453369E0,4.310978E1,2.7369614E0,0E0,1.6747665E-1,7.398076E0,7.569473E0,9.567524E0,1.9110394E0,0E0,0E0,0E0,0E0,0E0,0E0,0E0,0E0,0E0,0E0,0E0],"parents":[2147483647,0,0,1,1,2,2,3,3,4,4,5,5,7,7,8,8,9,9,10,10,11,11],"right_children":[2,4,6,8,10,12,-1,14,16,18,20,22,-1,-1,-1,-1,-1,-1,-1,-1,-1,-1,-1],"split_conditions":[1.9964424E0,-6.435956E-1,-3.7746203E-1,-3.7746203E-1,-3.6740355E-2,1.085997E0,6.2459677E-2,-4.0171888E-1,-8.8717735E-1,-3.7746203E-1,1.085997E0,4.9512193E-2,-2.1650149E-3,-3.3128373E-2,-2.4512513E-2,-2.1667914E-2,-5.5895327E-3,-1.0111091E-2,2.7764807E-3,7.724289E-3,2.361944E-2,4.514791E-2,1.616692E-2],"split_indices":[6,6,4,4,4,0,0,3,6,4,0,3,0,0,0,0,0,0,0,0,0,0,0],"split_type":[0,0,0,0,0,0,0,0,0,0,0,0,0,0,0,0,0,0,0,0,0,0,0],"sum_hessian":[8.71E2,8.26E2,4.5E1,2.86E2,5.4E2,2.1E1,2.4E1,7.9E1,2.07E2,3E2,2.4E2,1.7E1,4E0,1.5E1,6.4E1,6.3E1,1.44E2,1.9E2,1.1E2,1.03E2,1.37E2,9E0,8E0],"tree_param":{"num_deleted":"0","num_feature":"7","num_nodes":"23","size_leaf_vector":"1"}},{"base_weights":[8.103915E-4,-5.278923E-2,1.8574688E0,-3.8361856E-1,1.3328561E-1,6.09088E-1,9.443432E-2,-6.258527E-1,-3.0295905E-1,5.4485135E-2,9.4590926E-1,2.9965354E-2,8.771866E-3,-4.1509613E-2,-2.2777187E-2,-1.3634585E-2,1.31622115E-2,1.936343E-2,3.7471717E-4,-1.239032E-2,4.0574078E-2],"categories":[],"categories_nodes":[],"categories_segments":[],"categories_sizes":[],"default_left":[0,0,0,0,0,0,0,0,0,0,0,0,0,0,0,0,0,0,0,0,0],"id":10,"left_children":[1,3,5,7,9,11,-1,13,15,17,19,-1,-1,-1,-1,-1,-1,-1,-1,-1,-1],"loss_changes":[8.8667465E1,5.336124E1,1.5749191E1,5.9064026E0,3.5487965E1,3.6768055E-1,0E0,8.781605E-1,6.8810406E0,1.0005812E1,5.841625E0,0E0,0E0,0E0,0E0,0E0,0E0,0E0,0E0,0E0,0E0],"parents":[2147483647,0,0,1,1,2,2,3,3,4,4,5,5,7,7,8,8,9,9,10,10],"right_children":[2,4,6,8,10,12,-1,14,16,18,20,-1,-1,-1,-1,-1,-1,-1,-1,-1,-1],"split_conditions":[1.6975714E0,-6.196822E-1,-5.2402866E-1,-8.956427E-1,1.943833E0,2.0027177E0,9.443432E-2,-4.0171888E-1,9.143718E-1,-5.158981E-1,-2.2131195E0,2.9965354E-2,8.771866E-3,-4.1509613E-2,-2.2777187E-2,-1.3634585E-2,1.31622115E-2,1.936343E-2,3.7471717E-4,-1.239032E-2,4.0574078E-2],"split_indices":[2,6,6,6,6,2,0,3,3,6,2,0,0,0,0,0,0,0,0,0,0],"split_type":[0,0,0,0,0,0,0,0,0,0,0,0,0,0,0,0,0,0,0,0,0],"sum_hessian":[8.89E2,8.65E2,2.4E1,3.11E2,5.54E2,8E0,1.6E1,7.6E1,2.35E2,5.06E2,4.8E1,5E0,3E0,5E0,7.1E1,2.2E2,1.5E1,4.6E1,4.6E2,3E0,4.5E1],"tree_param":{"num_deleted":"0","num_feature":"7","num_nodes":"21","size_leaf_vector":"1"}},{"base_weights":[8.339385E-3,-1.9489618E-1,1.1109059E0,-3.7882227E-1,7.266964E-2,2.8685462E-1,1.3458548E0,-4.9532813E-1,-2.6995325E-1,2.5256146E-2,1.7823253E0,-6.64926E-3,4.8130843E-1,1.6306956E0,1.0178692E0,-2.3213074E-2,-1.1313758E-2,-1.8117415E-2,-7.5395023E-3,-1.4547377E-2,2.5106973E-3,3.6986247E-2,9.349716E-2,8.068546E-3,2.7192794E-2,4.7405496E-2,7.299481E-2,1.7004086E-2,5.187223E-2],"categories":[],"categories_nodes":[],"categories_segments":[],"categories_sizes":[],"default_left":[0,0,0,0,0,0,0,0,0,0,0,0,0,0,0,0,0,0,0,0,0,0,0,0,0,0,0,0,0],"id":11,"left_children":[1,3,5,7,9,11,13,15,17,19,21,-1,23,25,27,-1,-1,-1,-1,-1,-1,-1,-1,-1,-1,-1,-1,-1,-1],"loss_changes":[1.9292592E2,3.5804897E1,2.5557693E1,5.333042E0,2.4030027E1,2.8333597E0,8.056213E0,3.9734955E0,3.268177E0,4.48311E0,1.7948437E0,0E0,1.1444736E0,3.0144806E0,8.52449E0,0E0,0E0,0E0,0E0,0E0,0E0,0E0,0E0,0E0,0E0,0E0,0E0,0E0,0E0],"parents":[2147483647,0,0,1,1,2,2,3,3,4,4,5,5,6,6,7,7,8,8,9,9,10,10,12,12,13,13,14,14],"right_children":[2,4,6,8,10,12,14,16,18,20,22,-1,24,26,28,-1,-1,-1,-1,-1,-1,-1,-1,-1,-1,-1,-1,-1,-1],"split_conditions":[1.1776785E0,-3.3462864E-1,-4.1034722E-1,-7.851592E-1,1.6975714E0,-4.0171888E-1,8.3940107E-1,5.383459E-1,-1.347405E-1,-2.4504948E-1,3.616137E-1,-6.64926E-3,1.7046148E0,-8.914059E-2,1.6984048E-1,-2.3213074E-2,-1.1313758E-2,-1.8117415E-2,-7.5395023E-3,-1.4547377E-2,2.5106973E-3,3.6986247E-2,9.349716E-2,8.068546E-3,2.7192794E-2,4.7405496E-2,7.299481E-2,1.7004086E-2,5.187223E-2],"split_indices":[1,1,2,1,2,3,4,3,3,1,3,0,1,2,3,0,0,0,0,0,0,0,0,0,0,0,0,0,0],"split_type":[0,0,0,0,0,0,0,0,0,0,0,0,0,0,0,0,0,0,0,0,0,0,0,0,0,0,0,0,0],"sum_hessian":[8.59E2,7.26E2,1.33E2,4.3E2,2.96E2,3E1,1.03E2,2.06E2,2.24E2,2.89E2,7E0,9E0,2.1E1,5.3E1,5E1,1.39E2,6.7E1,6.3E1,1.61E2,2.5E1,2.64E2,4E0,3E0,1E1,1.1E1,2.1E1,3.2E1,1.8E1,3.2E1],"tree_param":{"num_deleted":"0","num_feature":"7","num_nodes":"29","size_leaf_vector":"1"}},{"base_weights":[-7.138642E-3,-1.9909818E-1,9.916378E-1,-2.6020476E-1,9.121929E-1,-1.8005186E-1,1.1726229E0,-3.366927E-1,1.960246E-1,4.5039052E-1,1.483326E0,-3.154508E-2,8.1829384E-2,4.6477473E-1,1.2884389E0,-1.7794177E-2,-1.3323233E-3,-5.3421874E-3,1.726808E-2,2.4521386E-3,2.0726252E-2,4.3903515E-2,9.345215E-2,-1.364428E-3,1.612183E-2,2.4942444E-3,2.3656288E-2,3.5101347E-2,6.0870886E-2],"categories":[],"categories_nodes":[],"categories_segments":[],"categories_sizes":[],"default_left":[0,0,0,0,0,0,0,0,0,0,0,0,0,0,0,0,0,0,0,0,0,0,0,0,0,0,0,0,0],"id":12,"left_children":[1,3,5,7,9,11,13,15,17,19,21,-1,23,25,27,-1,-1,-1,-1,-1,-1,-1,-1,-1,-1,-1,-1,-1,-1],"loss_changes":[1.7006549E2,5.0760323E1,3.0535477E1,2.4702599E1,9.618198E0,3.3377671E0,9.566711E0,2.1458061E1,8.347538E0,6.658807E-1,2.8928642E0,0E0,5.9071624E-1,1.0188918E0,9.624512E0,0E0,0E0,0E0,0E0,0E0,0E0,0E0,0E0,0E0,0E0,0E0,0E0,0E0,0E0],"parents":[2147483647,0,0,1,1,2,2,3,3,4,4,5,5,6,6,7,7,8,8,9,9,10,10,12,12,13,13,14,14],"right_children":[2,4,6,8,10,12,14,16,18,20,22,-1,24,26,28,-1,-1,-1,-1,-1,-1,-1,-1,-1,-1,-1,-1,-1,-1],"split_conditions":[1.0459443E0,1.943833E0,-8.530769E-1,3.8727406E-1,-3.7678355E-1,-9.2146915E-1,-3.265137E-1,2.9380924E-1,-6.3211715E-1,-9.1689324E-1,4.255381E-1,-3.154508E-2,2.3501117E0,-4.594625E-1,-5.2402866E-1,-1.7794177E-2,-1.3323233E-3,-5.3421874E-3,1.726808E-2,2.4521386E-3,2.0726252E-2,4.3903515E-2,9.345215E-2,-1.364428E-3,1.612183E-2,2.4942444E-3,2.3656288E-2,3.5101347E-2,6.0870886E-2],"split_indices":[1,6,6,1,1,6,3,6,6,1,3,0,1,6,6,0,0,0,0,0,0,0,0,0,0,0,0,0,0],"split_type":[0,0,0,0,0,0,0,0,0,0,0,0,0,0,0,0,0,0,0,0,0,0,0,0,0,0,0,0,0],"sum_hessian":[8.85E2,7.43E2,1.42E2,7.05E2,3.8E1,1.9E1,1.23E2,6.04E2,1.01E2,2.2E1,1.6E1,5E0,1.4E1,1.8E1,1.05E2,4.35E2,1.69E2,4.3E1,5.8E1,4E0,1.8E1,1.3E1,3E0,1.1E1,3E0,5E0,1.3E1,4.4E1,6.1E1],"tree_param":{"num_deleted":"0","num_feature":"7","num_nodes":"29","size_leaf_vector":"1"}},{"base_weights":[-3.369138E-3,-1.7617539E-1,9.586967E-1,-2.5008056E-1,1.037904E0,-3.6552063E-1,1.1413493E0,-4.02435E-1,-5.165753E-3,3.5916638E-1,1.6124947E0,-7.505623E-1,6.0134485E-2,9.699544E-1,1.6339077E0,-2.0163504E-2,-4.514798E-3,-7.2823423E-3,1.4603135E-2,-1.07497815E-2,1.8814208E-2,5.2260235E-2,1.0214387E-1,-3.4467164E-2,-1.4496799E-2,-8.049536E-3,1.2292494E-2,8.751696E-3,4.3758214E-2,6.9109954E-2,3.312164E-2],"categories":[],"categories_nodes":[],"categories_segments":[],"categories_sizes":[],"default_left":[0,0,0,0,0,0,0,0,0,0,0,0,0,0,0,0,0,0,0,0,0,0,0,0,0,0,0,0,0,0,0],"id":13,"left_children":[1,3,5,7,9,11,13,15,17,19,21,23,25,27,29,-1,-1,-1,-1,-1,-1,-1,-1,-1,-1,-1,-1,-1,-1,-1,-1],"loss_changes":[1.4630351E2,6.719571E1,3.282798E1,2.6266876E1,1.6190685E1,2.8313491E0,8.376984E0,1.3898315E1,1.8556576E1,1.7384813E0,2.9064102E0,1.1591911E-1,6.7000633E-1,9.586548E0,1.4652634E0,0E0,0E0,0E0,0E0,0E0,0E0,0E0,0E0,0E0,0E0,0E0,0E0,0E0,0E0,0E0,0E0],"parents":[2147483647,0,0,1,1,2,2,3,3,4,4,5,5,6,6,7,7,8,8,9,9,10,10,11,11,12,12,13,13,14,14],"right_children":[2,4,6,8,10,12,14,16,18,20,22,24,26,28,30,-1,-1,-1,-1,-1,-1,-1,-1,-1,-1,-1,-1,-1,-1,-1,-1],"split_conditions":[1.1118114E0,1.943833E0,-8.8894695E-1,-8.880498E-2,-3.7678355E-1,-9.181213E-1,2.4950192E0,5.2452497E-3,-3.7678355E-1,-1.347405E-1,1.085997E0,-9.2146915E-1,1.085997E0,-3.265137E-1,3.5488915E0,-2.0163504E-2,-4.514798E-3,-7.2823423E-3,1.4603135E-2,-1.07497815E-2,1.8814208E-2,5.2260235E-2,1.0214387E-1,-3.4467164E-2,-1.4496799E-2,-8.049536E-3,1.2292494E-2,8.751696E-3,4.3758214E-2,6.9109954E-2,3.312164E-2],"split_indices":[1,6,6,6,1,6,1,1,1,3,0,6,0,3,1,0,0,0,0,0,0,0,0,0,0,0,0,0,0,0,0],"split_type":[0,0,0,0,0,0,0,0,0,0,0,0,0,0,0,0,0,0,0,0,0,0,0,0,0,0,0,0,0,0,0],"sum_hessian":[8.78E2,7.45E2,1.33E2,7.03E2,4.2E1,1.6E1,1.17E2,4.33E2,2.7E2,2E1,2.2E1,8E0,8E0,8.9E1,2.8E1,3.11E2,1.22E2,1.83E2,8.7E1,3E0,1.7E1,1.9E1,3E0,5E0,3E0,4E0,4E0,1.5E1,7.4E1,2.3E1,5E0],"tree_param":{"num_deleted":"0","num_feature":"7","num_nodes":"31","size_leaf_vector":"1"}},{"base_weights":[3.9769323E-3,-4.7955144E-2,1.5062884E0,-1.7172806E-1,2.2528417E-1,1.8849355E0,5.9836555E-1,-3.7330788E-1,-1.1413616E-1,-9.347195E-2,3.5603115E-1,8.110147E-2,2.4754697E-2,7.607225E-3,2.9160447E-2,-1.2364562E-2,-2.6265722E-2,5.567546E-3,-7.387609E-3,-5.1184143E-3,2.4158912E-2,4.84369E-3,2.4963262E-2],"categories":[],"categories_nodes":[],"categories_segments":[],"categories_sizes":[],"default_left":[0,0,0,0,0,0,0,0,0,0,0,0,0,0,0,0,0,0,0,0,0,0,0],"id":14,"left_children":[1,3,5,7,9,11,13,15,17,19,21,-1,-1,-1,-1,-1,-1,-1,-1,-1,-1,-1,-1],"loss_changes":[6.7713974E1,2.8413351E1,8.841812E0,6.6676044E0,1.0952497E1,3.3070679E0,4.440713E-1,1.9870396E0,8.614202E0,2.108345E0,1.2062895E1,0E0,0E0,0E0,0E0,0E0,0E0,0E0,0E0,0E0,0E0,0E0,0E0],"parents":[2147483647,0,0,1,1,2,2,3,3,4,4,5,5,6,6,7,7,8,8,9,9,10,10],"right_children":[2,4,6,8,10,12,14,16,18,20,22,-1,-1,-1,-1,-1,-1,-1,-1,-1,-1,-1,-1],"split_conditions":[1.6975714E0,5.9602845E-1,5.9602845E-1,-2.3250724E-1,-4.1034722E-1,4.1668477E0,1.7859032E0,1.085997E0,4.9512193E-2,2.5430095E0,1.085997E0,8.110147E-2,2.4754697E-2,7.607225E-3,2.9160447E-2,-1.2364562E-2,-2.6265722E-2,5.567546E-3,-7.387609E-3,-5.1184143E-3,2.4158912E-2,4.84369E-3,2.4963262E-2],"split_indices":[2,4,4,3,2,2,2,0,3,4,0,0,0,0,0,0,0,0,0,0,0,0,0],"split_type":[0,0,0,0,0,0,0,0,0,0,0,0,0,0,0,0,0,0,0,0,0,0,0],"sum_hessian":[8.66E2,8.38E2,2.8E1,5.77E2,2.61E2,1.9E1,9E0,1.27E2,4.5E2,7.6E1,1.85E2,1.6E1,3E0,3E0,6E0,1.08E2,1.9E1,1.01E2,3.49E2,7.3E1,3E0,1.02E2,8.3E1],"tree_param":{"num_deleted":"0","num_feature":"7","num_nodes":"23","size_leaf_vector":"1"}},{"base_weights":[1.816218E-2,-3.0304836E-2,1.5433029E0,-1.4172332E-1,2.2733285E-1,1.877431E0,7.875419E-1,-3.9859228E-2,-2.6632893E-1,-8.3639644E-2,3.7880874E-1,8.190444E-2,2.402693E-2,7.3835794E-3,3.9881796E-2,-1.7521888E-2,9.069647E-4,-1.275258E-2,-6.9167214E-3,2.762731E-3,-1.567561E-2,6.106595E-3,2.4935374E-2],"categories":[],"categories_nodes":[],"categories_segments":[],"categories_sizes":[],"default_left":[0,0,0,0,0,0,0,0,0,0,0,0,0,0,0,0,0,0,0,0,0,0,0],"id":15,"left_children":[1,3,5,7,9,11,13,15,17,19,21,-1,-1,-1,-1,-1,-1,-1,-1,-1,-1,-1,-1],"loss_changes":[6.479983E1,2.4431978E1,5.339508E0,7.5289307E0,1.2137625E1,3.5452614E0,1.1857624E0,8.423088E0,1.358469E0,4.1712546E0,9.828995E0,0E0,0E0,0E0,0E0,0E0,0E0,0E0,0E0,0E0,0E0,0E0,0E0],"parents":[2147483647,0,0,1,1,2,2,3,3,4,4,5,5,6,6,7,7,8,8,9,9,10,10],"right_children":[2,4,6,8,10,12,14,16,18,20,22,-1,-1,-1,-1,-1,-1,-1,-1,-1,-1,-1,-1],"split_conditions":[1.6975714E0,5.9602845E-1,5.9602845E-1,1.9191523E-1,-4.1034722E-1,4.1668477E0,1.7859032E0,-1.7754755E0,1.5855971E-1,4.255381E-1,1.085997E0,8.190444E-2,2.402693E-2,7.3835794E-3,3.9881796E-2,-1.7521888E-2,9.069647E-4,-1.275258E-2,-6.9167214E-3,2.762731E-3,-1.567561E-2,6.106595E-3,2.4935374E-2],"split_indices":[2,4,4,2,2,2,2,2,3,3,0,0,0,0,0,0,0,0,0,0,0,0,0],"split_type":[0,0,0,0,0,0,0,0,0,0,0,0,0,0,0,0,0,0,0,0,0,0,0],"sum_hessian":[8.75E2,8.49E2,2.6E1,5.93E2,2.56E2,1.7E1,9E0,3.27E2,2.66E2,8.4E1,1.72E2,1.4E1,3E0,3E0,6E0,4.3E1,2.84E2,1.59E2,1.07E2,5.7E1,2.7E1,9.3E1,7.9E1],"tree_param":{"num_deleted":"0","num_feature":"7","num_nodes":"23","size_leaf_vector":"1"}},{"base_weights":[1.6075501E-3,-4.7256324E-2,1.5090891E0,1.0892083E-1,-1.9178239E-1,2.0606857E-2,1.7086908E0,-2.2441694E-1,3.1547365E-1,-3.23705E-1,-1.0774186E-1,1.925877E0,3.1694096E-2,4.141788E-2,-1.1832049E-2,-4.5186054E-5,1.7644843E-2,-6.011025E-3,-1.4215894E-2,-1.6807029E-2,-2.180657E-3,3.145258E-2,8.268245E-2],"categories":[],"categories_nodes":[],"categories_segments":[],"categories_sizes":[],"default_left":[0,0,0,0,0,0,0,0,0,0,0,0,0,0,0,0,0,0,0,0,0,0,0],"id":16,"left_children":[1,3,5,7,9,-1,11,13,15,17,19,21,-1,-1,-1,-1,-1,-1,-1,-1,-1,-1,-1],"loss_changes":[6.3346447E1,1.882309E1,4.401455E0,2.7680393E1,4.765727E0,0E0,2.743805E0,1.5594274E1,1.0574772E1,1.05933E0,4.4260163E0,1.8109932E0,0E0,0E0,0E0,0E0,0E0,0E0,0E0,0E0,0E0,0E0,0E0],"parents":[2147483647,0,0,1,1,2,2,3,3,4,4,6,6,7,7,8,8,9,9,10,10,11,11],"right_children":[2,4,6,8,10,-1,12,14,16,18,20,22,-1,-1,-1,-1,-1,-1,-1,-1,-1,-1,-1],"split_conditions":[1.6975714E0,2.3902896E-1,-8.003064E-1,-1.038466E0,5.7032708E-2,2.0606857E-2,1.3682936E-1,-1.7197965E0,-1.6651954E-1,6.648606E-1,-1.7754755E0,-1.1662154E0,3.1694096E-2,4.141788E-2,-1.1832049E-2,-4.5186054E-5,1.7644843E-2,-6.011025E-3,-1.4215894E-2,-1.6807029E-2,-2.180657E-3,3.145258E-2,8.268245E-2],"split_indices":[2,5,3,5,3,0,5,5,0,5,2,5,0,0,0,0,0,0,0,0,0,0,0],"split_type":[0,0,0,0,0,0,0,0,0,0,0,0,0,0,0,0,0,0,0,0,0,0,0],"sum_hessian":[8.58E2,8.32E2,2.6E1,4E2,4.32E2,5E0,2.1E1,1.53E2,2.47E2,1.67E2,2.65E2,1.6E1,5E0,8E0,1.45E2,7.4E1,1.73E2,3.2E1,1.35E2,3.6E1,2.29E2,3E0,1.3E1],"tree_param":{"num_deleted":"0","num_feature":"7","num_nodes":"23","size_leaf_vector":"1"}},{"base_weights":[1.1519923E-2,-1.5794808E-1,9.2530644E-1,-3.240894E-1,7.09431E-2,2.4805295E-1,1.1002134E0,-4.2942014E-1,-2.0942509E-1,3.0905578E-2,1.3931962E0,-1.5058208E-1,4.070845E-1,2.4835089E-1,1.2472624E0,-2.2265945E-2,-1.48295285E-2,-4.1197813E-3,-1.4121269E-2,3.6594078E-2,-1.3947398E-4,7.8676455E-2,1.9624421E-2,-2.092008E-2,1.0295336E-2,-1.5369212E-3,1.8958293E-2,2.2090387E-2,-1.1071193E-2,5.7332158E-2,3.7678294E-2],"categories":[],"categories_nodes":[],"categories_segments":[],"categories_sizes":[],"default_left":[0,0,0,0,0,0,0,0,0,0,0,0,0,0,0,0,0,0,0,0,0,0,0,0,0,0,0,0,0,0,0],"id":17,"left_children":[1,3,5,7,9,11,13,15,17,19,21,23,25,27,29,-1,-1,-1,-1,-1,-1,-1,-1,-1,-1,-1,-1,-1,-1,-1,-1],"loss_changes":[1.3363338E2,2.7707586E1,1.5718704E1,5.0068474E0,1.6209444E1,1.8997701E0,1.3093628E1,1.3363609E0,3.171999E0,9.304768E0,3.9267807E0,1.5649712E0,7.3649883E-1,3.003313E0,4.199539E0,0E0,0E0,0E0,0E0,0E0,0E0,0E0,0E0,0E0,0E0,0E0,0E0,0E0,0E0,0E0,0E0],"parents":[2147483647,0,0,1,1,2,2,3,3,4,4,5,5,6,6,7,7,8,8,9,9,10,10,11,11,12,12,13,13,14,14],"right_children":[2,4,6,8,10,12,14,16,18,20,22,24,26,28,30,-1,-1,-1,-1,-1,-1,-1,-1,-1,-1,-1,-1,-1,-1,-1,-1],"split_conditions":[1.1776785E0,-3.109165E-1,-4.1034722E-1,-6.665985E-1,1.6975714E0,1.45432E0,-1.3791312E0,7.550961E-2,6.648606E-1,-1.7197965E0,-2.71969E-1,-3.6740355E-2,-2.2291799E0,-1.3961645E0,8.3940107E-1,-2.2265945E-2,-1.48295285E-2,-4.1197813E-3,-1.4121269E-2,3.6594078E-2,-1.3947398E-4,7.8676455E-2,1.9624421E-2,-2.092008E-2,1.0295336E-2,-1.5369212E-3,1.8958293E-2,2.2090387E-2,-1.1071193E-2,5.7332158E-2,3.7678294E-2],"split_indices":[1,1,2,1,2,1,5,5,5,5,5,4,2,5,4,0,0,0,0,0,0,0,0,0,0,0,0,0,0,0,0],"split_type":[0,0,0,0,0,0,0,0,0,0,0,0,0,0,0,0,0,0,0,0,0,0,0,0,0,0,0,0,0,0,0],"sum_hessian":[8.61E2,7.27E2,1.34E2,4.21E2,3.06E2,2.8E1,1.06E2,2.18E2,2.03E2,2.98E2,8E0,8E0,2E1,1.6E1,9E1,5.6E1,1.62E2,1.21E2,8.2E1,1E1,2.88E2,4E0,4E0,4E0,4E0,3E0,1.7E1,1E1,6E0,4.9E1,4.1E1],"tree_param":{"num_deleted":"0","num_feature":"7","num_nodes":"31","size_leaf_vector":"1"}},{"base_weights":[-2.2550595E-3,-3.3997053E-1,1.8517213E-1,-4.783112E-1,-2.4908108E-1,5.3262085E-1,-7.784013E-2,-2.633135E-2,-4.3730304E-1,-1.376794E-2,-4.0382758E-1,4.1019365E-1,1.2875266E0,5.8322215E-1,-1.1149127E-1,-1.4988751E-2,-1.9089306E-2,-2.4621075E-3,2.802008E-2,-1.8965669E-2,-8.536169E-3,6.67103E-3,3.0559774E-2,5.6426857E-2,2.4054646E-2,2.0601235E-3,3.5136472E-2,-9.3739E-3,3.1900192E-3],"categories":[],"categories_nodes":[],"categories_segments":[],"categories_sizes":[],"default_left":[0,0,0,0,0,0,0,0,0,0,0,0,0,0,0,0,0,0,0,0,0,0,0,0,0,0,0,0,0],"id":18,"left_children":[1,3,5,7,9,11,13,-1,15,17,19,21,23,25,27,-1,-1,-1,-1,-1,-1,-1,-1,-1,-1,-1,-1,-1,-1],"loss_changes":[5.6397335E1,3.879303E0,5.240407E1,6.977596E-1,7.058734E0,2.2299843E1,7.3393025E0,0E0,1.0305023E-1,2.8319979E0,1.6362934E0,1.884127E1,2.5987015E0,2.611693E0,7.7007008E0,0E0,0E0,0E0,0E0,0E0,0E0,0E0,0E0,0E0,0E0,0E0,0E0,0E0,0E0],"parents":[2147483647,0,0,1,1,2,2,3,3,4,4,5,5,6,6,8,8,9,9,10,10,11,11,12,12,13,13,14,14],"right_children":[2,4,6,8,10,12,14,-1,16,18,20,22,24,26,28,-1,-1,-1,-1,-1,-1,-1,-1,-1,-1,-1,-1,-1,-1],"split_conditions":[-6.196822E-1,-8.530769E-1,2.3902896E-1,-9.185039E-1,6.8696305E-2,1.9964424E0,-5.4315937E-1,-2.633135E-2,2.1872385E-1,8.391666E-1,3.616137E-1,1.085997E0,1.3682936E-1,8.351932E-1,3.5598403E-1,-1.4988751E-2,-1.9089306E-2,-2.4621075E-3,2.802008E-2,-1.8965669E-2,-8.536169E-3,6.67103E-3,3.0559774E-2,5.6426857E-2,2.4054646E-2,2.0601235E-3,3.5136472E-2,-9.3739E-3,3.1900192E-3],"split_indices":[6,6,5,6,5,6,6,0,3,3,3,0,5,5,6,0,0,0,0,0,0,0,0,0,0,0,0,0,0],"split_type":[0,0,0,0,0,0,0,0,0,0,0,0,0,0,0,0,0,0,0,0,0,0,0,0,0,0,0,0,0],"sum_hessian":[8.89E2,3.17E2,5.72E2,1.24E2,1.93E2,2.46E2,3.26E2,1.9E1,1.05E2,7.7E1,1.16E2,2.13E2,3.3E1,1.5E1,3.11E2,5.4E1,5.1E1,7.3E1,4E0,8E1,3.6E1,1.3E2,8.3E1,2.6E1,7E0,6E0,9E0,1.87E2,1.24E2],"tree_param":{"num_deleted":"0","num_feature":"7","num_nodes":"29","size_leaf_vector":"1"}},{"base_weights":[-5.6096513E-5,-1.8047938E-1,7.395742E-1,-2.4454184E-1,8.567344E-1,1.1452608E-1,1.0349458E0,-3.845569E-1,-3.517904E-2,1.5038711E0,4.6548304E-1,-2.990901E-1,4.3408477E-1,9.323592E-1,7.563101E-2,-1.847551E-2,-5.089145E-3,-6.0569826E-3,1.2064856E-2,2.0060172E-2,6.700068E-2,2.360168E-3,2.3688532E-2,9.646819E-4,-2.1762528E-2,2.235029E-2,4.7993315E-3,5.6670338E-2,3.090908E-2],"categories":[],"categories_nodes":[],"categories_segments":[],"categories_sizes":[],"default_left":[0,0,0,0,0,0,0,0,0,0,0,0,0,0,0,0,0,0,0,0,0,0,0,0,0,0,0,0,0],"id":19,"left_children":[1,3,5,7,9,11,13,15,17,19,21,23,25,27,-1,-1,-1,-1,-1,-1,-1,-1,-1,-1,-1,-1,-1,-1,-1],"loss_changes":[1.163654E2,4.678847E1,3.1451752E1,1.9362991E1,9.680891E0,7.5316105E0,8.845406E0,8.691658E0,1.0934861E1,2.1817398E0,1.4827971E0,2.0861015E0,1.2874179E0,6.687088E0,0E0,0E0,0E0,0E0,0E0,0E0,0E0,0E0,0E0,0E0,0E0,0E0,0E0,0E0,0E0],"parents":[2147483647,0,0,1,1,2,2,3,3,4,4,5,5,6,6,7,7,8,8,9,9,10,10,11,11,12,12,13,13],"right_children":[2,4,6,8,10,12,14,16,18,20,22,24,26,28,-1,-1,-1,-1,-1,-1,-1,-1,-1,-1,-1,-1,-1,-1,-1],"split_conditions":[7.034358E-1,1.943833E0,-7.679452E-1,-1.0315301E-1,-2.71969E-1,-8.8894695E-1,1.1403432E0,5.2452497E-3,-2.4504948E-1,-8.6420727E-1,-6.929453E-1,-1.4642975E0,-1.697694E-1,-6.9780064E-1,7.563101E-2,-1.847551E-2,-5.089145E-3,-6.0569826E-3,1.2064856E-2,2.0060172E-2,6.700068E-2,2.360168E-3,2.3688532E-2,9.646819E-4,-2.1762528E-2,2.235029E-2,4.7993315E-3,5.6670338E-2,3.090908E-2],"split_indices":[1,6,6,6,5,6,6,1,1,4,1,5,5,5,0,0,0,0,0,0,0,0,0,0,0,0,0,0,0],"split_type":[0,0,0,0,0,0,0,0,0,0,0,0,0,0,0,0,0,0,0,0,0,0,0,0,0,0,0,0,0],"sum_hessian":[8.7E2,7E2,1.7E2,6.6E2,4E1,5.5E1,1.15E2,3.95E2,2.65E2,1.4E1,2.6E1,2.4E1,3.1E1,1.05E2,1E1,2.94E2,1.01E2,1.97E2,6.8E1,3E0,1.1E1,7E0,1.9E1,1.1E1,1.3E1,2.1E1,1E1,2.1E1,8.4E1],"tree_param":{"num_deleted":"0","num_feature":"7","num_nodes":"29","size_leaf_vector":"1"}},{"base_weights":[-4.270994E-3,-1.7684746E-1,7.1299344E-1,-2.5404978E-1,6.600897E-1,8.8161714E-2,9.73471E-1,-3.7033132E-1,-5.9847955E-2,2.8795496E-1,1.2624012E0,-5.06138E-1,2.791051E-1,4.5939928E-1,1.1147398E0,-1.7914843E-2,-3.734676E-3,-7.395973E-3,1.16918655E-2,-1.9301056E-3,1.4760737E-2,1.9922234E-2,5.658957E-2,-2.288919E-2,-7.2570136E-3,6.1510196E-3,2.469416E-2,3.53153E-2,4.7316137E-3,5.466905E-2,3.6384612E-2],"categories":[],"categories_nodes":[],"categories_segments":[],"categories_sizes":[],"default_left":[0,0,0,0,0,0,0,0,0,0,0,0,0,0,0,0,0,0,0,0,0,0,0,0,0,0,0,0,0,0,0],"id":20,"left_children":[1,3,5,7,9,11,13,15,17,19,21,23,25,27,29,-1,-1,-1,-1,-1,-1,-1,-1,-1,-1,-1,-1,-1,-1,-1,-1],"loss_changes":[1.1041672E2,4.6624783E1,2.8070724E1,1.4859436E1,1.3309088E1,6.0421004E0,8.347801E0,9.780907E0,1.1498183E1,1.1837616E0,2.4102936E0,2.165091E-1,1.6159956E0,4.078426E0,3.6658325E0,0E0,0E0,0E0,0E0,0E0,0E0,0E0,0E0,0E0,0E0,0E0,0E0,0E0,0E0,0E0,0E0],"parents":[2147483647,0,0,1,1,2,2,3,3,4,4,5,5,6,6,7,7,8,8,9,9,10,10,11,11,12,12,13,13,14,14],"right_children":[2,4,6,8,10,12,14,16,18,20,22,24,26,28,30,-1,-1,-1,-1,-1,-1,-1,-1,-1,-1,-1,-1,-1,-1,-1,-1],"split_conditions":[7.034358E-1,1.7479345E0,-7.6555383E-1,-1.0315301E-1,-3.7678355E-1,-9.1429514E-1,-3.265137E-1,5.2452497E-3,-2.4504948E-1,-1.347405E-1,-5.446087E-1,9.2565256E-1,3.616137E-1,-1.0163634E-1,-1.8680267E-1,-1.7914843E-2,-3.734676E-3,-7.395973E-3,1.16918655E-2,-1.9301056E-3,1.4760737E-2,1.9922234E-2,5.658957E-2,-2.288919E-2,-7.2570136E-3,6.1510196E-3,2.469416E-2,3.53153E-2,4.7316137E-3,5.466905E-2,3.6384612E-2],"split_indices":[1,6,6,6,1,6,3,1,1,3,3,3,3,5,5,0,0,0,0,0,0,0,0,0,0,0,0,0,0,0,0],"split_type":[0,0,0,0,0,0,0,0,0,0,0,0,0,0,0,0,0,0,0,0,0,0,0,0,0,0,0,0,0,0,0],"sum_hessian":[8.9E2,7.18E2,1.72E2,6.58E2,6E1,5.1E1,1.21E2,4.11E2,2.47E2,3.8E1,2.2E1,1.2E1,3.9E1,2.7E1,9.4E1,3.12E2,9.9E1,1.82E2,6.5E1,8E0,3E1,5E0,1.7E1,9E0,3E0,3E1,9E0,1.1E1,1.6E1,3.5E1,5.9E1],"tree_param":{"num_deleted":"0","num_feature":"7","num_nodes":"31","size_leaf_vector":"1"}},{"base_weights":[8.280941E-3,-1.4878723E-1,6.526619E-1,-2.7006385E-1,3.62883E-1,-3.278209E-1,8.031812E-1,-3.770878E-1,-7.6328166E-2,1.147949E-1,9.4702333E-1,-2.4281487E-2,-1.4329359E-1,7.045345E-1,7.429534E-2,-1.6320664E-2,-2.552952E-3,-1.1939914E-2,5.403715E-3,3.9247697E-4,1.18818255E-2,2.0881953E-2,4.7755565E-2,2.5816048E-3,-1.0794219E-2,5.2460423E-3,3.105788E-2],"categories":[],"categories_nodes":[],"categories_segments":[],"categories_sizes":[],"default_left":[0,0,0,0,0,0,0,0,0,0,0,0,0,0,0,0,0,0,0,0,0,0,0,0,0,0,0],"id":21,"left_children":[1,3,5,7,9,11,13,15,17,19,21,-1,23,25,-1,-1,-1,-1,-1,-1,-1,-1,-1,-1,-1,-1,-1],"loss_changes":[9.037799E1,4.4652508E1,2.6090065E1,1.20178795E1,1.9890005E1,1.2027397E0,1.5040947E1,4.5544586E0,1.0211441E1,1.9307863E0,3.958889E0,0E0,4.6012658E-1,6.9577713E0,0E0,0E0,0E0,0E0,0E0,0E0,0E0,0E0,0E0,0E0,0E0,0E0,0E0],"parents":[2147483647,0,0,1,1,2,2,3,3,4,4,5,5,6,6,7,7,8,8,9,9,10,10,12,12,13,13],"right_children":[2,4,6,8,10,12,14,16,18,20,22,-1,24,26,-1,-1,-1,-1,-1,-1,-1,-1,-1,-1,-1,-1,-1],"split_conditions":[7.034358E-1,9.2034E-1,-8.8894695E-1,-2.4504948E-1,-2.7139628E-1,-9.2146915E-1,1.1403432E0,6.046833E-1,-6.196822E-1,1.7620913E0,1.6568723E0,-2.4281487E-2,5.7032708E-2,-5.859716E-1,7.429534E-2,-1.6320664E-2,-2.552952E-3,-1.1939914E-2,5.403715E-3,3.9247697E-4,1.18818255E-2,2.0881953E-2,4.7755565E-2,2.5816048E-3,-1.0794219E-2,5.2460423E-3,3.105788E-2],"split_indices":[1,6,6,1,1,6,6,6,6,6,6,0,3,3,0,0,0,0,0,0,0,0,0,0,0,0,0],"split_type":[0,0,0,0,0,0,0,0,0,0,0,0,0,0,0,0,0,0,0,0,0,0,0,0,0,0,0],"sum_hessian":[8.91E2,7.17E2,1.74E2,5.8E2,1.37E2,2.3E1,1.51E2,3.73E2,2.07E2,9.7E1,4E1,8E0,1.5E1,1.4E2,1.1E1,3.31E2,4.2E1,1E2,1.07E2,6.3E1,3.4E1,1.7E1,2.3E1,6E0,9E0,1.9E1,1.21E2],"tree_param":{"num_deleted":"0","num_feature":"7","num_nodes":"27","size_leaf_vector":"1"}},{"base_weights":[1.2466517E-2,-1.3281958E-1,8.1036276E-1,-2.7004087E-1,2.3127055E-1,1.7632231E-1,1.0414764E0,-3.4781256E-1,9.8524466E-2,1.5659343E-2,7.067356E-1,-2.4634417E-2,3.2170677E-1,9.0041155E-1,1.5158374E0,-1.9114014E-2,-1.0425918E-2,7.362847E-4,2.5160007E-2,-2.6665824E-3,1.0919415E-2,1.7277647E-2,4.6347227E-2,-3.071691E-4,1.6929207E-2,5.2715205E-2,2.9576056E-2,2.3101807E-2,6.660528E-2],"categories":[],"categories_nodes":[],"categories_segments":[],"categories_sizes":[],"default_left":[0,0,0,0,0,0,0,0,0,0,0,0,0,0,0,0,0,0,0,0,0,0,0,0,0,0,0,0,0],"id":22,"left_children":[1,3,5,7,9,11,13,15,17,19,21,-1,23,25,27,-1,-1,-1,-1,-1,-1,-1,-1,-1,-1,-1,-1,-1,-1],"loss_changes":[1.0084492E2,3.6833687E1,1.9452103E1,1.5369492E1,2.0697083E1,4.5312195E0,5.192856E0,4.9273224E0,4.0605803E0,3.0991836E0,7.4483986E0,0E0,1.1652122E0,4.042633E0,2.5654984E0,0E0,0E0,0E0,0E0,0E0,0E0,0E0,0E0,0E0,0E0,0E0,0E0,0E0,0E0],"parents":[2147483647,0,0,1,1,2,2,3,3,4,4,5,5,6,6,7,7,8,8,9,9,10,10,12,12,13,13,14,14],"right_children":[2,4,6,8,10,12,14,16,18,20,22,-1,24,26,28,-1,-1,-1,-1,-1,-1,-1,-1,-1,-1,-1,-1,-1,-1],"split_conditions":[1.1776785E0,3.5598403E-1,-7.679452E-1,3.8727406E-1,-2.7139628E-1,-9.185039E-1,1.7902496E-1,-7.292055E-1,6.8485704E-3,1.7479345E0,1.6090455E0,-2.4634417E-2,-8.8894695E-1,-6.9780064E-1,1.2303721E0,-1.9114014E-2,-1.0425918E-2,7.362847E-4,2.5160007E-2,-2.6665824E-3,1.0919415E-2,1.7277647E-2,4.6347227E-2,-3.071691E-4,1.6929207E-2,5.2715205E-2,2.9576056E-2,2.3101807E-2,6.660528E-2],"split_indices":[1,6,6,1,1,6,6,6,6,6,6,0,6,5,1,0,0,0,0,0,0,0,0,0,0,0,0,0,0],"split_type":[0,0,0,0,0,0,0,0,0,0,0,0,0,0,0,0,0,0,0,0,0,0,0,0,0,0,0,0,0],"sum_hessian":[8.68E2,7.35E2,1.33E2,5.34E2,2.01E2,3.6E1,9.7E1,4.41E2,9.3E1,1.39E2,6.2E1,5E0,3.1E1,7.7E1,2E1,1.61E2,2.8E2,8.2E1,1.1E1,1.06E2,3.3E1,4.1E1,2.1E1,8E0,2.3E1,1.7E1,6E1,4E0,1.6E1],"tree_param":{"num_deleted":"0","num_feature":"7","num_nodes":"29","size_leaf_vector":"1"}},{"base_weights":[5.1813987E-3,-2.640957E-1,1.6061634E-1,-4.600303E-1,-1.8475658E-1,1.146772E-1,1.469891E0,-5.078433E-1,-3.5770836E-1,-2.5319526E-1,1.14973105E-1,6.11948E-2,7.075662E-1,1.7666249E0,2.087452E-2,-2.8292237E-2,-1.8822037E-2,-1.1097161E-2,-1.8862044E-2,-1.5715247E-2,-6.568753E-3,-1.1542377E-2,1.0885949E-2,-6.8118772E-3,7.6750885E-3,2.1321313E-2,4.359862E-2,3.5112172E-2,7.939328E-2],"categories":[],"categories_nodes":[],"categories_segments":[],"categories_sizes":[],"default_left":[0,0,0,0,0,0,0,0,0,0,0,0,0,0,0,0,0,0,0,0,0,0,0,0,0,0,0,0,0],"id":23,"left_children":[1,3,5,7,9,11,13,15,17,19,21,23,25,27,-1,-1,-1,-1,-1,-1,-1,-1,-1,-1,-1,-1,-1,-1,-1],"loss_changes":[3.7167866E1,4.967222E0,3.3694168E1,2.7332687E-1,4.8086643E0,1.7238174E1,4.3440094E0,1.4557838E-2,1.6779661E-1,2.3358307E0,3.013496E0,1.5879816E1,2.3749561E0,1.3408356E0,0E0,0E0,0E0,0E0,0E0,0E0,0E0,0E0,0E0,0E0,0E0,0E0,0E0,0E0,0E0],"parents":[2147483647,0,0,1,1,2,2,3,3,4,4,5,5,6,6,7,7,8,8,9,9,10,10,11,11,12,12,13,13],"right_children":[2,4,6,8,10,12,14,16,18,20,22,24,26,28,-1,-1,-1,-1,-1,-1,-1,-1,-1,-1,-1,-1,-1,-1,-1],"split_conditions":[-6.196822E-1,-3.7746203E-1,1.6975714E0,6.3357437E-1,-7.1983147E-1,1.943833E0,5.9602845E-1,-9.219952E-1,1.3763647E0,-8.8717735E-1,-1.6651954E-1,-3.7746203E-1,5.9602845E-1,-1.9402389E-1,2.087452E-2,-2.8292237E-2,-1.8822037E-2,-1.1097161E-2,-1.8862044E-2,-1.5715247E-2,-6.568753E-3,-1.1542377E-2,1.0885949E-2,-6.8118772E-3,7.6750885E-3,2.1321313E-2,4.359862E-2,3.5112172E-2,7.939328E-2],"split_indices":[6,4,2,2,6,6,4,6,2,6,0,4,4,6,0,0,0,0,0,0,0,0,0,0,0,0,0,0,0],"split_type":[0,0,0,0,0,0,0,0,0,0,0,0,0,0,0,0,0,0,0,0,0,0,0,0,0,0,0,0,0],"sum_hessian":[8.86E2,3.24E2,5.62E2,9.2E1,2.32E2,5.44E2,1.8E1,6E1,3.2E1,1.89E2,4.3E1,5E2,4.4E1,1.3E1,5E0,4E0,5.6E1,2.2E1,1E1,6.8E1,1.21E2,1.2E1,3.1E1,1.82E2,3.18E2,3.3E1,1.1E1,4E0,9E0],"tree_param":{"num_deleted":"0","num_feature":"7","num_nodes":"29","size_leaf_vector":"1"}},{"base_weights":[2.6637737E-3,-3.3595033E-2,1.1837616E0,-2.7549592E-1,1.030383E-1,3.6987206E-1,1.5928872E0,-4.022198E-1,-1.9601072E-1,5.130921E-2,6.7321724E-1,2.050904E-2,4.3862257E-3,1.422291E-2,7.1755394E-2,-2.2586593E-2,-1.4127477E-2,-1.6519513E-2,-3.867391E-3,-1.0343446E-2,3.8243388E-3,-6.4450414E-6,2.8964652E-2],"categories":[],"categories_nodes":[],"categories_segments":[],"categories_sizes":[],"default_left":[0,0,0,0,0,0,0,0,0,0,0,0,0,0,0,0,0,0,0,0,0,0,0],"id":24,"left_children":[1,3,5,7,9,11,13,15,17,19,21,-1,-1,-1,-1,-1,-1,-1,-1,-1,-1,-1,-1],"loss_changes":[3.7383343E1,2.8023201E1,8.068394E0,3.003399E0,1.5951662E1,3.3701813E-1,4.305542E0,6.435108E-1,4.1278625E0,7.285692E0,1.9909687E0,0E0,0E0,0E0,0E0,0E0,0E0,0E0,0E0,0E0,0E0,0E0,0E0],"parents":[2147483647,0,0,1,1,2,2,3,3,4,4,5,5,6,6,7,7,8,8,9,9,10,10],"right_children":[2,4,6,8,10,12,14,16,18,20,22,-1,-1,-1,-1,-1,-1,-1,-1,-1,-1,-1,-1],"split_conditions":[1.6975714E0,-6.196822E-1,-5.2402866E-1,-8.530769E-1,1.9964424E0,2.0027177E0,-8.003064E-1,-9.185039E-1,-1.6651954E-1,-1.7754755E0,-4.1034722E-1,2.050904E-2,4.3862257E-3,1.422291E-2,7.1755394E-2,-2.2586593E-2,-1.4127477E-2,-1.6519513E-2,-3.867391E-3,-1.0343446E-2,3.8243388E-3,-6.4450414E-6,2.8964652E-2],"split_indices":[2,6,6,6,6,2,3,6,0,2,2,0,0,0,0,0,0,0,0,0,0,0,0],"split_type":[0,0,0,0,0,0,0,0,0,0,0,0,0,0,0,0,0,0,0,0,0,0,0],"sum_hessian":[8.71E2,8.46E2,2.5E1,3.05E2,5.41E2,9E0,1.6E1,1.16E2,1.89E2,4.97E2,4.4E1,5E0,4E0,3E0,1.3E1,2E1,9.6E1,5.6E1,1.33E2,6.3E1,4.34E2,4E0,4E1],"tree_param":{"num_deleted":"0","num_feature":"7","num_nodes":"23","size_leaf_vector":"1"}},{"base_weights":[7.3826956E-3,-3.9356444E-2,8.222427E-1,-1.9146256E-1,1.3715671E-1,1.1294782E0,3.3563888E-1,-2.9477805E-1,-5.2359655E-2,-1.9755985E-1,2.9141605E-1,4.7879937E-1,1.4467409E0,1.8702234E-1,2.0978639E-2,-1.4342359E-2,-8.178527E-3,2.208433E-2,-2.9449747E-3,-1.0642924E-2,8.319997E-4,2.0501032E-2,2.9814888E-3,2.644547E-3,3.1764105E-2,4.034729E-2,8.5439526E-2,2.635737E-3,1.2369623E-2],"categories":[],"categories_nodes":[],"categories_segments":[],"categories_sizes":[],"default_left":[0,0,0,0,0,0,0,0,0,0,0,0,0,0,0,0,0,0,0,0,0,0,0,0,0,0,0,0,0],"id":25,"left_children":[1,3,5,7,9,11,13,15,17,19,21,23,25,27,-1,-1,-1,-1,-1,-1,-1,-1,-1,-1,-1,-1,-1,-1,-1],"loss_changes":[3.3700256E1,2.2498648E1,6.797001E0,6.4517326E0,2.0091234E1,5.2939453E0,4.9302793E-1,1.5039349E0,2.7482703E0,1.9958453E0,1.3226494E1,1.4454176E0,3.5694542E0,1.7893827E-1,0E0,0E0,0E0,0E0,0E0,0E0,0E0,0E0,0E0,0E0,0E0,0E0,0E0,0E0,0E0],"parents":[2147483647,0,0,1,1,2,2,3,3,4,4,5,5,6,6,7,7,8,8,9,9,10,10,11,11,12,12,13,13],"right_children":[2,4,6,8,10,12,14,16,18,20,22,24,26,28,-1,-1,-1,-1,-1,-1,-1,-1,-1,-1,-1,-1,-1,-1,-1],"split_conditions":[1.9964424E0,1.0928322E-1,1.3682936E-1,-2.0837192E-1,-7.315968E-1,-3.7746203E-1,3.1490676E0,-3.7746203E-1,-7.82967E-1,1.3261464E0,2.3902896E-1,-2.71969E-1,1.085997E0,-3.287875E-1,2.0978639E-2,-1.4342359E-2,-8.178527E-3,2.208433E-2,-2.9449747E-3,-1.0642924E-2,8.319997E-4,2.0501032E-2,2.9814888E-3,2.644547E-3,3.1764105E-2,4.034729E-2,8.5439526E-2,2.635737E-3,1.2369623E-2],"split_indices":[6,4,5,6,6,4,6,4,5,4,5,5,0,4,0,0,0,0,0,0,0,0,0,0,0,0,0,0,0],"split_type":[0,0,0,0,0,0,0,0,0,0,0,0,0,0,0,0,0,0,0,0,0,0,0,0,0,0,0,0,0],"sum_hessian":[8.83E2,8.36E2,4.7E1,4.49E2,3.87E2,2.8E1,1.9E1,2.57E2,1.92E2,1.22E2,2.65E2,1E1,1.8E1,1.2E1,7E0,1.39E2,1.18E2,6E0,1.86E2,9.1E1,3.1E1,1.27E2,1.38E2,5E0,5E0,1.3E1,5E0,7E0,5E0],"tree_param":{"num_deleted":"0","num_feature":"7","num_nodes":"29","size_leaf_vector":"1"}},{"base_weights":[-2.007951E-3,-1.1998117E-1,6.816952E-1,-1.367923E-1,1.253184E0,5.889442E-2,8.737068E-1,-2.5936913E-1,5.79901E-2,6.8161935E-2,2.0259991E-2,-5.082095E-2,2.0560231E-2,9.938876E-1,2.4968618E-1,-1.2925017E-2,-7.4849366E-3,-7.18124E-3,4.292223E-3,-1.9164836E-2,1.0810536E-3,2.8758163E-2,4.648094E-2,-8.574094E-3,1.8152524E-2],"categories":[],"categories_nodes":[],"categories_segments":[],"categories_sizes":[],"default_left":[0,0,0,0,0,0,0,0,0,0,0,0,0,0,0,0,0,0,0,0,0,0,0,0,0],"id":26,"left_children":[1,3,5,7,9,11,13,15,17,-1,-1,19,-1,21,23,-1,-1,-1,-1,-1,-1,-1,-1,-1,-1],"loss_changes":[6.960956E1,1.716159E1,1.5135841E1,1.7396633E1,2.3199463E0,1.6103036E0,7.02639E0,2.0889664E0,3.5234685E0,0E0,0E0,9.0648913E-1,0E0,3.1749039E0,1.8006482E0,0E0,0E0,0E0,0E0,0E0,0E0,0E0,0E0,0E0,0E0],"parents":[2147483647,0,0,1,1,2,2,3,3,4,4,5,5,6,6,7,7,8,8,11,11,13,13,14,14],"right_children":[2,4,6,8,10,12,14,16,18,-1,-1,20,-1,22,24,-1,-1,-1,-1,-1,-1,-1,-1,-1,-1],"split_conditions":[1.1776785E0,1.6975714E0,-4.1034722E-1,-2.4504948E-1,-3.287875E-1,2.363285E0,1.8128916E0,-6.665985E-1,-7.275388E-1,6.8161935E-2,2.0259991E-2,-3.7746203E-1,2.0560231E-2,4.7372244E-2,1.085997E0,-1.2925017E-2,-7.4849366E-3,-7.18124E-3,4.292223E-3,-1.9164836E-2,1.0810536E-3,2.8758163E-2,4.648094E-2,-8.574094E-3,1.8152524E-2],"split_indices":[1,2,2,1,4,1,4,1,2,0,0,4,0,2,0,0,0,0,0,0,0,0,0,0,0],"split_type":[0,0,0,0,0,0,0,0,0,0,0,0,0,0,0,0,0,0,0,0,0,0,0,0,0],"sum_hessian":[8.61E2,7.35E2,1.26E2,7.27E2,8E0,3E1,9.6E1,4.46E2,2.81E2,4E0,4E0,2.5E1,5E0,8E1,1.6E1,2.18E2,2.28E2,4.9E1,2.32E2,3E0,2.2E1,3.6E1,4.4E1,5E0,1.1E1],"tree_param":{"num_deleted":"0","num_feature":"7","num_nodes":"25","size_leaf_vector":"1"}},{"base_weights":[-4.1451474E-4,-2.821316E-1,1.18563764E-1,-3.1474072E-1,-6.958187E-2,7.955281E-2,1.2238014E0,-2.2853343E-2,-2.9290625E-1,-3.4219822E-1,1.4143924E-1,3.6603693E-2,6.0653627E-1,1.2972886E-2,1.414416E0,-1.190438E-2,4.94855E-3,-7.6148766E-3,-2.1809405E-2,1.4362901E-2,-7.809838E-3,-9.661233E-3,3.192368E-3,2.3788959E-3,2.6390586E-2,2.0078667E-2,6.850547E-2],"categories":[],"categories_nodes":[],"categories_segments":[],"categories_sizes":[],"default_left":[0,0,0,0,0,0,0,0,0,0,0,0,0,0,0,0,0,0,0,0,0,0,0,0,0,0,0],"id":27,"left_children":[1,3,5,7,9,11,13,-1,15,17,19,21,23,-1,25,-1,-1,-1,-1,-1,-1,-1,-1,-1,-1,-1,-1],"loss_changes":[2.9462444E1,1.7871056E0,2.6548567E1,1.153038E0,2.1194012E0,1.3512613E1,3.1058903E0,0E0,9.922867E-1,3.9887536E-1,1.682501E0,7.0514445E0,1.5978451E0,0E0,4.21558E0,0E0,0E0,0E0,0E0,0E0,0E0,0E0,0E0,0E0,0E0,0E0,0E0],"parents":[2147483647,0,0,1,1,2,2,3,3,4,4,5,5,6,6,8,8,9,9,10,10,11,11,12,12,14,14],"right_children":[2,4,6,8,10,12,14,-1,16,18,20,22,24,-1,26,-1,-1,-1,-1,-1,-1,-1,-1,-1,-1,-1,-1],"split_conditions":[-6.923789E-1,5.4210615E-1,1.6975714E0,-9.185039E-1,-8.707728E-1,1.9964424E0,-8.003064E-1,-2.2853343E-2,1.5168927E0,8.767692E-1,-7.746409E-1,-1.7754755E0,-5.446087E-1,1.2972886E-2,-3.4228688E-1,-1.190438E-2,4.94855E-3,-7.6148766E-3,-2.1809405E-2,1.4362901E-2,-7.809838E-3,-9.661233E-3,3.192368E-3,2.3788959E-3,2.6390586E-2,2.0078667E-2,6.850547E-2],"split_indices":[6,3,2,6,6,6,3,0,2,3,6,2,3,0,6,0,0,0,0,0,0,0,0,0,0,0,0],"split_type":[0,0,0,0,0,0,0,0,0,0,0,0,0,0,0,0,0,0,0,0,0,0,0,0,0,0,0],"sum_hessian":[8.77E2,2.6E2,6.17E2,2.25E2,3.5E1,5.97E2,2E1,1.5E1,2.1E2,1.5E1,2E1,5.53E2,4.4E1,4E0,1.6E1,2.05E2,5E0,1E1,5E0,1.2E1,8E0,7.5E1,4.78E2,5E0,3.9E1,5E0,1.1E1],"tree_param":{"num_deleted":"0","num_feature":"7","num_nodes":"27","size_leaf_vector":"1"}},{"base_weights":[2.6984038E-3,-1.605925E-1,5.24265E-1,7.1159536E-1,-1.7927472E-1,3.044708E-1,8.274142E-1,2.5372726E-3,3.4578394E-2,-3.2274222E-1,-1.0217388E-1,-7.908651E-2,4.262344E-1,4.0220627E-1,9.3405443E-1,-1.6745517E-2,-1.1128819E-2,-7.992514E-4,-1.0790804E-2,-2.726252E-4,-9.667234E-3,2.309556E-2,1.15717305E-2,2.492303E-2,5.9700633E-5,3.934342E-2,1.1223717E-2],"categories":[],"categories_nodes":[],"categories_segments":[],"categories_sizes":[],"default_left":[0,0,0,0,0,0,0,0,0,0,0,0,0,0,0,0,0,0,0,0,0,0,0,0,0,0,0],"id":28,"left_children":[1,3,5,7,9,11,13,-1,-1,15,17,19,21,23,25,-1,-1,-1,-1,-1,-1,-1,-1,-1,-1,-1,-1],"loss_changes":[7.358338E1,1.0849293E1,1.3473946E1,1.4872789E0,7.1016693E0,5.6848106E0,3.5239258E0,0E0,0E0,7.9141045E-1,5.95477E0,3.6082E-1,1.7904377E0,1.777462E0,2.7797356E0,0E0,0E0,0E0,0E0,0E0,0E0,0E0,0E0,0E0,0E0,0E0,0E0],"parents":[2147483647,0,0,1,1,2,2,3,3,4,4,5,5,6,6,9,9,10,10,11,11,12,12,13,13,14,14],"right_children":[2,4,6,8,10,12,14,-1,-1,16,18,20,22,24,26,-1,-1,-1,-1,-1,-1,-1,-1,-1,-1,-1,-1],"split_conditions":[5.190081E-1,-1.7197965E0,1.5465338E0,-2.5822288E-1,-6.665985E-1,-9.532996E-1,1.085997E0,2.5372726E-3,3.4578394E-2,7.550961E-2,6.648606E-1,1.085997E0,-1.0163634E-1,1.5695189E0,9.493161E-1,-1.6745517E-2,-1.1128819E-2,-7.992514E-4,-1.0790804E-2,-2.726252E-4,-9.667234E-3,2.309556E-2,1.15717305E-2,2.492303E-2,5.9700633E-5,3.934342E-2,1.1223717E-2],"split_indices":[1,5,1,1,1,5,0,0,0,5,5,0,5,4,5,0,0,0,0,0,0,0,0,0,0,0,0],"split_type":[0,0,0,0,0,0,0,0,0,0,0,0,0,0,0,0,0,0,0,0,0,0,0,0,0,0,0],"sum_hessian":[8.62E2,6.57E2,2.05E2,1.3E1,6.44E2,1.2E2,8.5E1,3E0,1E1,2.24E2,4.2E2,2.9E1,9.1E1,1.8E1,6.7E1,5.8E1,1.66E2,2.86E2,1.34E2,2.1E1,8E0,3.9E1,5.2E1,1.1E1,7E0,6E1,7E0],"tree_param":{"num_deleted":"0","num_feature":"7","num_nodes":"27","size_leaf_vector":"1"}},{"base_weights":[-7.7927336E-3,-1.4283514E-1,5.771627E-1,-1.5631764E-1,1.2258183E0,9.366595E-2,7.2847486E-1,-2.5353912E-1,3.3471745E-2,6.423373E-2,1.9854805E-2,-2.4876358E-1,2.3213106E-1,6.0877824E-1,1.399534E0,-7.3710415E-3,-1.32192E-2,3.4518044E-2,-1.4372099E-4,-1.1383748E-2,-3.6402568E-3,-2.5757283E-3,1.4481785E-2,9.495959E-3,2.986685E-2,6.238471E-2,2.2818929E-2],"categories":[],"categories_nodes":[],"categories_segments":[],"categories_sizes":[],"default_left":[0,0,0,0,0,0,0,0,0,0,0,0,0,0,0,0,0,0,0,0,0,0,0,0,0,0,0],"id":29,"left_children":[1,3,5,7,9,11,13,15,17,-1,-1,19,21,23,25,-1,-1,-1,-1,-1,-1,-1,-1,-1,-1,-1,-1],"loss_changes":[6.8649055E1,1.3219328E1,1.1856663E1,1.2924612E1,1.2487268E0,1.9543276E0,9.1081085E0,2.4746513E0,7.4908137E0,0E0,0E0,5.094254E-2,1.2103053E0,5.821903E0,1.8979149E0,0E0,0E0,0E0,0E0,0E0,0E0,0E0,0E0,0E0,0E0,0E0,0E0],"parents":[2147483647,0,0,1,1,2,2,3,3,4,4,5,5,6,6,7,7,8,8,11,11,12,12,13,13,14,14],"right_children":[2,4,6,8,10,12,14,16,18,-1,-1,20,22,24,26,-1,-1,-1,-1,-1,-1,-1,-1,-1,-1,-1,-1],"split_conditions":[7.034358E-1,1.6975714E0,-5.669355E-1,-2.4504948E-1,4.1668477E0,-4.0171888E-1,2.626753E0,5.796943E-1,-3.235757E0,6.423373E-2,1.9854805E-2,2.9012874E-1,-2.924089E-1,-1.038466E0,9.033263E-1,-7.3710415E-3,-1.32192E-2,3.4518044E-2,-1.4372099E-4,-1.1383748E-2,-3.6402568E-3,-2.5757283E-3,1.4481785E-2,9.495959E-3,2.986685E-2,6.238471E-2,2.2818929E-2],"split_indices":[1,2,2,1,2,3,1,5,5,0,0,5,5,5,5,0,0,0,0,0,0,0,0,0,0,0,0],"split_type":[0,0,0,0,0,0,0,0,0,0,0,0,0,0,0,0,0,0,0,0,0,0,0,0,0,0,0],"sum_hessian":[8.67E2,7.05E2,1.62E2,6.99E2,6E0,3.9E1,1.23E2,4.62E2,2.37E2,3E0,3E0,1.1E1,2.8E1,1.06E2,1.7E1,2.61E2,2.01E2,9E0,2.28E2,8E0,3E0,9E0,1.9E1,3.2E1,7.4E1,1.3E1,4E0],"tree_param":{"num_deleted":"0","num_feature":"7","num_nodes":"27","size_leaf_vector":"1"}},{"base_weights":[6.9543356E-3,-1.05810165E-1,6.487911E-1,-2.1763515E-1,4.91434E-2,5.006947E-1,1.0866895E0,-2.9681945E-1,-1.3480972E-1,8.633261E-1,2.2020984E-2,-3.6765248E-2,6.047444E-1,1.1843086E0,4.205169E-3,-1.5925318E-2,-7.895794E-3,-9.90267E-3,-1.4498427E-3,2.0825518E-2,4.8158675E-2,-9.376399E-3,3.766542E-3,8.363494E-3,-6.22338E-3,9.288528E-3,2.7840076E-2,2.2832021E-2,5.038701E-2],"categories":[],"categories_nodes":[],"categories_segments":[],"categories_sizes":[],"default_left":[0,0,0,0,0,0,0,0,0,0,0,0,0,0,0,0,0,0,0,0,0,0,0,0,0,0,0,0,0],"id":30,"left_children":[1,3,5,7,9,11,13,15,17,19,21,23,25,27,-1,-1,-1,-1,-1,-1,-1,-1,-1,-1,-1,-1,-1,-1,-1],"loss_changes":[6.2963737E1,1.2833178E1,7.886551E0,2.7801304E0,6.8486776E0,5.558565E0,2.9324493E0,2.2046452E0,2.4340012E0,5.600815E-1,5.8660836E0,5.5263346E-1,3.051714E0,1.0160675E0,0E0,0E0,0E0,0E0,0E0,0E0,0E0,0E0,0E0,0E0,0E0,0E0,0E0,0E0,0E0],"parents":[2147483647,0,0,1,1,2,2,3,3,4,4,5,5,6,6,7,7,8,8,9,9,10,10,11,11,12,12,13,13],"right_children":[2,4,6,8,10,12,14,16,18,20,22,24,26,28,-1,-1,-1,-1,-1,-1,-1,-1,-1,-1,-1,-1,-1,-1,-1],"split_conditions":[1.1776785E0,-3.109165E-1,2.4950192E0,-6.665985E-1,-3.235757E0,-3.265137E-1,3.8123598E0,3.2401112E-1,7.5834006E-2,-3.5246143E0,-1.038466E0,-8.003064E-1,-1.2939649E0,-1.2087985E0,4.205169E-3,-1.5925318E-2,-7.895794E-3,-9.90267E-3,-1.4498427E-3,2.0825518E-2,4.8158675E-2,-9.376399E-3,3.766542E-3,8.363494E-3,-6.22338E-3,9.288528E-3,2.7840076E-2,2.2832021E-2,5.038701E-2],"split_indices":[1,1,1,1,5,3,1,3,3,5,5,3,5,5,0,0,0,0,0,0,0,0,0,0,0,0,0,0,0],"split_type":[0,0,0,0,0,0,0,0,0,0,0,0,0,0,0,0,0,0,0,0,0,0,0,0,0,0,0,0,0],"sum_hessian":[8.68E2,7.39E2,1.29E2,4.29E2,3.1E2,9.8E1,3.1E1,2.18E2,2.11E2,9E0,3.01E2,1.6E1,8.2E1,2.8E1,3E0,1E2,1.18E2,9.5E1,1.16E2,6E0,3E0,6.6E1,2.35E2,5E0,1.1E1,1.9E1,6.3E1,5E0,2.3E1],"tree_param":{"num_deleted":"0","num_feature":"7","num_nodes":"29","size_leaf_vector":"1"}},{"base_weights":[-7.5381724E-3,-1.1600902E-1,6.131675E-1,-2.0622732E-1,2.559361E-1,1.372423E-1,8.0916584E-1,-2.8885195E-1,2.5578601E-2,9.131749E-2,6.004186E-1,-4.7115934E-1,2.8057474E-1,6.805137E-1,1.2811867E0,-1.3830574E-2,-5.8624195E-3,-6.1896457E-3,8.095007E-3,4.3183033E-4,9.097614E-3,6.1952923E-3,2.914372E-2,-2.214305E-2,-9.258935E-3,5.556778E-3,2.137585E-2,2.6666576E-3,2.9860552E-2,3.0955782E-2,6.8187185E-2],"categories":[],"categories_nodes":[],"categories_segments":[],"categories_sizes":[],"default_left":[0,0,0,0,0,0,0,0,0,0,0,0,0,0,0,0,0,0,0,0,0,0,0,0,0,0,0,0,0,0,0],"id":31,"left_children":[1,3,5,7,9,11,13,15,17,19,21,23,25,27,29,-1,-1,-1,-1,-1,-1,-1,-1,-1,-1,-1,-1,-1,-1,-1,-1],"loss_changes":[6.0195457E1,2.5589092E1,1.2295258E1,1.1748104E1,8.394698E0,3.6203432E0,4.836426E0,3.9755058E0,5.4106975E0,1.1504631E0,2.9203396E0,4.275191E-2,1.1354694E0,3.7306747E0,2.9062214E0,0E0,0E0,0E0,0E0,0E0,0E0,0E0,0E0,0E0,0E0,0E0,0E0,0E0,0E0,0E0,0E0],"parents":[2147483647,0,0,1,1,2,2,3,3,4,4,5,5,6,6,7,7,8,8,9,9,10,10,11,11,12,12,13,13,14,14],"right_children":[2,4,6,8,10,12,14,16,18,20,22,24,26,28,30,-1,-1,-1,-1,-1,-1,-1,-1,-1,-1,-1,-1,-1,-1,-1,-1],"split_conditions":[1.1118114E0,8.294691E-1,-7.679452E-1,5.2452497E-3,-2.7139628E-1,-9.181213E-1,2.555478E-1,-1.0315301E-1,-6.196822E-1,-6.0073143E-1,-5.446087E-1,-9.219952E-1,2.1872385E-1,-3.265137E-1,1.3752795E0,-1.3830574E-2,-5.8624195E-3,-6.1896457E-3,8.095007E-3,4.3183033E-4,9.097614E-3,6.1952923E-3,2.914372E-2,-2.214305E-2,-9.258935E-3,5.556778E-3,2.137585E-2,2.6666576E-3,2.9860552E-2,3.0955782E-2,6.8187185E-2],"split_indices":[1,6,6,1,1,6,6,6,6,1,3,6,3,3,1,0,0,0,0,0,0,0,0,0,0,0,0,0,0,0,0],"split_type":[0,0,0,0,0,0,0,0,0,0,0,0,0,0,0,0,0,0,0,0,0,0,0,0,0,0,0,0,0,0,0],"sum_hessian":[8.92E2,7.6E2,1.32E2,6.12E2,1.48E2,3.9E1,9.3E1,4.51E2,1.61E2,1.01E2,4.7E1,7E0,3.2E1,7.5E1,1.8E1,3.08E2,1.43E2,8E1,8.1E1,6.5E1,3.6E1,1.2E1,3.5E1,4E0,3E0,2.2E1,1E1,9E0,6.6E1,1E1,8E0],"tree_param":{"num_deleted":"0","num_feature":"7","num_nodes":"31","size_leaf_vector":"1"}},{"base_weights":[-1.4960589E-3,-3.2031585E-2,9.5986295E-1,-1.0605349E-1,1.4013663E-1,6.1381213E-2,6.6945666E-1,-2.4354345E-1,-6.7470334E-2,-1.974967E-1,2.4225777E-1,7.448737E-3,8.1659895E-1,-1.6600369E-2,-6.773113E-3,4.3367553E-3,-4.788513E-3,-9.9030845E-3,1.3361972E-2,3.6538339E-3,1.640155E-2,3.853217E-2,4.439821E-3],"categories":[],"categories_nodes":[],"categories_segments":[],"categories_sizes":[],"default_left":[0,0,0,0,0,0,0,0,0,0,0,0,0,0,0,0,0,0,0,0,0,0,0],"id":32,"left_children":[1,3,5,7,9,-1,11,13,15,17,19,-1,21,-1,-1,-1,-1,-1,-1,-1,-1,-1,-1],"loss_changes":[2.5746256E1,1.0847449E1,3.7035866E0,3.1399212E0,8.874598E0,0E0,1.2557211E0,1.5820098E0,4.552573E0,1.867302E0,5.133439E0,0E0,1.6441326E0,0E0,0E0,0E0,0E0,0E0,0E0,0E0,0E0,0E0,0E0],"parents":[2147483647,0,0,1,1,2,2,3,3,4,4,6,6,7,7,8,8,9,9,10,10,12,12],"right_children":[2,4,6,8,10,-1,12,14,16,18,20,-1,22,-1,-1,-1,-1,-1,-1,-1,-1,-1,-1],"split_conditions":[1.6975714E0,5.9602845E-1,-3.287875E-1,-2.3250724E-1,-7.275388E-1,6.1381213E-2,-8.003064E-1,1.5176441E-1,4.9512193E-2,2.2996368E0,1.085997E0,7.448737E-3,3.4039817E0,-1.6600369E-2,-6.773113E-3,4.3367553E-3,-4.788513E-3,-9.9030845E-3,1.3361972E-2,3.6538339E-3,1.640155E-2,3.853217E-2,4.439821E-3],"split_indices":[2,4,4,3,2,0,3,2,3,4,0,0,2,0,0,0,0,0,0,0,0,0,0],"split_type":[0,0,0,0,0,0,0,0,0,0,0,0,0,0,0,0,0,0,0,0,0,0,0],"sum_hessian":[8.75E2,8.49E2,2.6E1,5.94E2,2.55E2,7E0,1.9E1,1.29E2,4.65E2,5.9E1,1.96E2,5E0,1.4E1,3.5E1,9.4E1,1.09E2,3.56E2,5.4E1,5E0,1.07E2,8.9E1,1.1E1,3E0],"tree_param":{"num_deleted":"0","num_feature":"7","num_nodes":"23","size_leaf_vector":"1"}},{"base_weights":[1.3016998E-2,-1.3280587E-1,4.686532E-1,6.1662376E-1,-1.5077265E-1,2.7232584E-1,7.2538376E-1,2.7290054E-3,7.3750013E-1,-2.6482353E-1,-8.833191E-2,-7.81226E-2,3.8500217E-1,-9.3376385E-3,7.7136797E-1,1.0478729E-2,3.339035E-2,-1.3076573E-2,-4.960109E-3,-1.0720029E-3,-8.642835E-3,2.9676518E-4,-1.462154E-2,2.180482E-2,1.0146857E-2,1.0375112E-2,3.3805847E-2],"categories":[],"categories_nodes":[],"categories_segments":[],"categories_sizes":[],"default_left":[0,0,0,0,0,0,0,0,0,0,0,0,0,0,0,0,0,0,0,0,0,0,0,0,0,0,0],"id":33,"left_children":[1,3,5,7,9,11,13,-1,15,17,19,21,23,-1,25,-1,-1,-1,-1,-1,-1,-1,-1,-1,-1,-1,-1],"loss_changes":[5.9195778E1,9.18173E0,1.068956E1,1.0065737E0,4.6767454E0,4.9264956E0,4.304596E0,0E0,4.710536E-1,2.1736965E0,3.4433813E0,7.8619075E-1,1.8867645E0,0E0,3.8777924E0,0E0,0E0,0E0,0E0,0E0,0E0,0E0,0E0,0E0,0E0,0E0,0E0],"parents":[2147483647,0,0,1,1,2,2,3,3,4,4,5,5,6,6,8,8,9,9,10,10,11,11,12,12,14,14],"right_children":[2,4,6,8,10,12,14,-1,16,18,20,22,24,-1,26,-1,-1,-1,-1,-1,-1,-1,-1,-1,-1,-1,-1],"split_conditions":[5.190081E-1,-1.7197965E0,1.5465338E0,-2.5822288E-1,-6.665985E-1,-1.038466E0,-7.777448E-1,2.7290054E-3,-3.665145E0,5.383459E-1,6.648606E-1,3.80415E-1,-1.0163634E-1,-9.3376385E-3,-1.3791312E0,1.0478729E-2,3.339035E-2,-1.3076573E-2,-4.960109E-3,-1.0720029E-3,-8.642835E-3,2.9676518E-4,-1.462154E-2,2.180482E-2,1.0146857E-2,1.0375112E-2,3.3805847E-2],"split_indices":[1,5,1,1,1,5,3,0,5,3,5,3,5,0,5,0,0,0,0,0,0,0,0,0,0,0,0],"split_type":[0,0,0,0,0,0,0,0,0,0,0,0,0,0,0,0,0,0,0,0,0,0,0,0,0,0,0],"sum_hessian":[8.89E2,6.74E2,2.15E2,1.5E1,6.59E2,1.23E2,9.2E1,3E0,1.2E1,2.32E2,4.27E2,3E1,9.3E1,4E0,8.8E1,3E0,9E0,1.54E2,7.8E1,2.93E2,1.34E2,2.4E1,6E0,3.8E1,5.5E1,1.4E1,7.4E1],"tree_param":{"num_deleted":"0","num_feature":"7","num_nodes":"27","size_leaf_vector":"1"}},{"base_weights":[1.5049198E-2,-6.0541686E-3,9.322932E-1,5.9550006E-2,-1.6020069E-1,5.3418553E-3,1.1227802E0,-1.5180221E-1,1.1867479E-1,-1.9939417E-1,8.399792E-3,5.1087223E-2,1.8227851E-2,2.239158E-2,-8.9217415E-3,-1.0595198E-2,5.5881985E-3,-8.598093E-3,-7.063777E-4,4.119981E-3,-1.52456155E-2],"categories":[],"categories_nodes":[],"categories_segments":[],"categories_sizes":[],"default_left":[0,0,0,0,0,0,0,0,0,0,0,0,0,0,0,0,0,0,0,0,0],"id":34,"left_children":[1,3,5,7,9,-1,11,13,15,17,19,-1,-1,-1,-1,-1,-1,-1,-1,-1,-1],"loss_changes":[1.721396E1,8.80755E0,2.87961E0,7.653165E0,1.7197642E0,0E0,1.2936573E0,7.47404E0,4.4795327E0,7.595978E-1,1.9620718E0,0E0,0E0,0E0,0E0,0E0,0E0,0E0,0E0,0E0,0E0],"parents":[2147483647,0,0,1,1,2,2,3,3,4,4,6,6,7,7,8,8,9,9,10,10],"right_children":[2,4,6,8,10,-1,12,14,16,18,20,-1,-1,-1,-1,-1,-1,-1,-1,-1,-1],"split_conditions":[1.7859032E0,6.648606E-1,-8.003064E-1,-1.2939649E0,5.4210615E-1,5.3418553E-3,1.3682936E-1,-1.7197965E0,-2.088652E0,1.0350827E0,1.5912184E0,5.1087223E-2,1.8227851E-2,2.239158E-2,-8.9217415E-3,-1.0595198E-2,5.5881985E-3,-8.598093E-3,-7.063777E-4,4.119981E-3,-1.52456155E-2],"split_indices":[2,5,3,5,3,0,5,5,2,2,3,0,0,0,0,0,0,0,0,0,0],"split_type":[0,0,0,0,0,0,0,0,0,0,0,0,0,0,0,0,0,0,0,0,0],"sum_hessian":[8.88E2,8.69E2,1.9E1,6.1E2,2.59E2,4E0,1.5E1,1.33E2,4.77E2,2.1E2,4.9E1,1.1E1,4E0,1.2E1,1.21E2,2.7E1,4.5E2,1.89E2,2.1E1,4E1,9E0],"tree_param":{"num_deleted":"0","num_feature":"7","num_nodes":"21","size_leaf_vector":"1"}},{"base_weights":[1.087063E-2,-6.757887E-2,4.0616333E-1,-9.218335E-2,7.2591215E-1,3.6091518E-1,6.4882874E-2,-2.5496295E-1,-7.936143E-3,1.6711192E-1,1.0127982E0,-1.5257369E-1,4.2923737E-1,-1.5016618E-2,-7.3018204E-3,-2.3793445E-3,7.442878E-3,1.1519539E-2,2.7151324E-4,5.5343267E-3,4.7780797E-2,1.3738301E-3,-1.0785755E-2,1.05695585E-2,2.37288E-2],"categories":[],"categories_nodes":[],"categories_segments":[],"categories_sizes":[],"default_left":[0,0,0,0,0,0,0,0,0,0,0,0,0,0,0,0,0,0,0,0,0,0,0,0,0],"id":35,"left_children":[1,3,5,7,9,11,-1,13,15,17,19,21,23,-1,-1,-1,-1,-1,-1,-1,-1,-1,-1,-1,-1],"loss_changes":[2.8278028E1,1.4924254E1,7.9367943E0,1.01324215E1,3.5179243E0,5.222645E0,0E0,2.1463623E0,5.1048694E0,1.8071455E-1,2.5229826E0,4.2362458E-1,3.4906025E0,0E0,0E0,0E0,0E0,0E0,0E0,0E0,0E0,0E0,0E0,0E0,0E0],"parents":[2147483647,0,0,1,1,2,2,3,3,4,4,5,5,7,7,8,8,9,9,10,10,11,11,12,12],"right_children":[2,4,6,8,10,12,-1,14,16,18,20,22,24,-1,-1,-1,-1,-1,-1,-1,-1,-1,-1,-1,-1],"split_conditions":[9.2034E-1,1.6975714E0,1.3442441E0,-7.292055E-1,-5.2402866E-1,-1.9360788E0,6.4882874E-2,-8.8717735E-1,5.646677E-1,2.0027177E0,-8.003064E-1,-5.953532E-2,1.7142644E0,-1.5016618E-2,-7.3018204E-3,-2.3793445E-3,7.442878E-3,1.1519539E-2,2.7151324E-4,5.5343267E-3,4.7780797E-2,1.3738301E-3,-1.0785755E-2,1.05695585E-2,2.37288E-2],"split_indices":[6,2,2,6,6,2,0,6,3,2,3,3,6,0,0,0,0,0,0,0,0,0,0,0,0],"split_type":[0,0,0,0,0,0,0,0,0,0,0,0,0,0,0,0,0,0,0,0,0,0,0,0,0],"sum_hessian":[9.1E2,7.6E2,1.5E2,7.38E2,2.2E1,1.46E2,4E0,2.51E2,4.87E2,8E0,1.4E1,1.7E1,1.29E2,8.6E1,1.65E2,3.85E2,1.02E2,4E0,4E0,3E0,1.1E1,7E0,1E1,6.9E1,6E1],"tree_param":{"num_deleted":"0","num_feature":"7","num_nodes":"25","size_leaf_vector":"1"}},{"base_weights":[-5.6548894E-4,-2.9482622E-2,9.0766764E-1,3.124015E-2,-1.7002606E-1,1.0963814E0,3.2242474E-1,-4.3240584E-2,1.8117726E-1,-3.1728366E-1,-1.3796654E-1,5.1724076E-2,1.9342758E-2,8.7974174E-4,1.9518059E-2,-9.15123E-3,1.3409362E-3,9.530375E-3,-2.980758E-3,-1.3651991E-2,-5.111922E-3,-7.6047545E-3,3.1518592E-3],"categories":[],"categories_nodes":[],"categories_segments":[],"categories_sizes":[],"default_left":[0,0,0,0,0,0,0,0,0,0,0,0,0,0,0,0,0,0,0,0,0,0,0],"id":36,"left_children":[1,3,5,7,9,11,13,15,17,19,21,-1,-1,-1,-1,-1,-1,-1,-1,-1,-1,-1,-1],"loss_changes":[2.2981056E1,7.2423024E0,2.6284695E0,6.6301184E0,1.164803E0,2.0397587E0,4.100002E-1,5.8566318E0,3.1577363E0,2.1520424E-1,2.6099038E0,0E0,0E0,0E0,0E0,0E0,0E0,0E0,0E0,0E0,0E0,0E0,0E0],"parents":[2147483647,0,0,1,1,2,2,3,3,4,4,5,5,6,6,7,7,8,8,9,9,10,10],"right_children":[2,4,6,8,10,12,14,16,18,20,22,-1,-1,-1,-1,-1,-1,-1,-1,-1,-1,-1,-1],"split_conditions":[1.6975714E0,6.648606E-1,5.9602845E-1,5.9602845E-1,-1.8557771E0,1.3682936E-1,1.0827737E0,-7.82967E-1,2.3902896E-1,1.5165238E0,1.085997E0,5.1724076E-2,1.9342758E-2,8.7974174E-4,1.9518059E-2,-9.15123E-3,1.3409362E-3,9.530375E-3,-2.980758E-3,-1.3651991E-2,-5.111922E-3,-7.6047545E-3,3.1518592E-3],"split_indices":[2,5,4,4,2,5,4,5,5,5,0,0,0,0,0,0,0,0,0,0,0,0,0],"split_type":[0,0,0,0,0,0,0,0,0,0,0,0,0,0,0,0,0,0,0,0,0,0,0],"sum_hessian":[8.73E2,8.47E2,2.6E1,5.92E2,2.55E2,1.9E1,7E0,3.96E2,1.96E2,4.4E1,2.11E2,1.3E1,6E0,3E0,4E0,1.14E2,2.82E2,1.58E2,3.8E1,3.7E1,7E0,1.68E2,4.3E1],"tree_param":{"num_deleted":"0","num_feature":"7","num_nodes":"23","size_leaf_vector":"1"}},{"base_weights":[-9.751099E-3,-2.0966397E-1,1.0536763E-1,-3.6318913E-1,-1.5062821E-1,8.063001E-2,8.9222854E-1,-3.7874812E-1,2.4352907E-3,-3.370588E-1,-9.448601E-2,3.519773E-2,5.5031013E-1,3.7252305E-3,1.0562677E0,-1.9791842E-2,-1.294424E-2,-1.4226052E-2,-4.3733604E-3,-9.2420885E-3,-1.2950411E-3,-8.547477E-3,3.650271E-3,1.511665E-2,3.9676286E-2,4.563254E-2,1.9425955E-2],"categories":[],"categories_nodes":[],"categories_segments":[],"categories_sizes":[],"default_left":[0,0,0,0,0,0,0,0,0,0,0,0,0,0,0,0,0,0,0,0,0,0,0,0,0,0,0],"id":37,"left_children":[1,3,5,7,9,11,13,15,-1,17,19,21,23,-1,25,-1,-1,-1,-1,-1,-1,-1,-1,-1,-1,-1,-1],"loss_changes":[2.0343203E1,2.8727942E0,1.0847962E1,6.124878E-1,2.4278097E0,1.1610189E1,2.1227264E0,3.5978794E-1,0E0,2.7441597E-1,1.572325E0,7.3257017E0,3.2603521E0,0E0,2.6978207E-1,0E0,0E0,0E0,0E0,0E0,0E0,0E0,0E0,0E0,0E0,0E0,0E0],"parents":[2147483647,0,0,1,1,2,2,3,3,4,4,5,5,6,6,7,7,9,9,10,10,11,11,12,12,14,14],"right_children":[2,4,6,8,10,12,14,16,-1,18,20,22,24,-1,26,-1,-1,-1,-1,-1,-1,-1,-1,-1,-1,-1,-1],"split_conditions":[-6.196822E-1,-8.8717735E-1,1.6975714E0,1.4767418E0,-2.3250724E-1,1.943833E0,-5.2402866E-1,-9.185039E-1,2.4352907E-3,8.3940107E-1,-3.7746203E-1,-8.6420727E-1,5.9602845E-1,3.7252305E-3,5.9602845E-1,-1.9791842E-2,-1.294424E-2,-1.4226052E-2,-4.3733604E-3,-9.2420885E-3,-1.2950411E-3,-8.547477E-3,3.650271E-3,1.511665E-2,3.9676286E-2,4.563254E-2,1.9425955E-2],"split_indices":[6,6,2,2,3,6,6,6,0,4,4,4,4,0,4,0,0,0,0,0,0,0,0,0,0,0,0],"split_type":[0,0,0,0,0,0,0,0,0,0,0,0,0,0,0,0,0,0,0,0,0,0,0,0,0,0,0],"sum_hessian":[8.82E2,3.22E2,5.6E2,8.8E1,2.34E2,5.44E2,1.6E1,8.5E1,3E0,5.3E1,1.81E2,4.97E2,4.7E1,3E0,1.3E1,2.1E1,6.4E1,4.7E1,6E0,5.4E1,1.27E2,9.2E1,4.05E2,3.6E1,1.1E1,1E1,3E0],"tree_param":{"num_deleted":"0","num_feature":"7","num_nodes":"27","size_leaf_vector":"1"}},{"base_weights":[7.689711E-3,-1.2600274E-1,4.225396E-1,-2.124045E-1,2.425476E-1,2.8892797E-1,9.9318665E-1,-2.7199313E-1,-8.792743E-2,1.1051638E-1,5.8267117E-1,-1.6102639E-1,3.8002935E-1,7.060621E-1,6.0178366E-2,-1.1965699E-2,-5.3358753E-3,-9.638126E-3,2.7839951E-3,-9.007342E-3,5.7097618E-3,-8.382029E-3,3.3970017E-2,-1.46380495E-2,9.159733E-4,3.8176214E-3,2.0171164E-2,2.1214988E-2,4.403143E-2],"categories":[],"categories_nodes":[],"categories_segments":[],"categories_sizes":[],"default_left":[0,0,0,0,0,0,0,0,0,0,0,0,0,0,0,0,0,0,0,0,0,0,0,0,0,0,0,0,0],"id":38,"left_children":[1,3,5,7,9,11,13,15,17,19,21,23,25,27,-1,-1,-1,-1,-1,-1,-1,-1,-1,-1,-1,-1,-1,-1,-1],"loss_changes":[4.8471825E1,2.1100002E1,1.5953247E1,3.9518204E0,5.5938787E0,7.1937094E0,5.1411705E0,1.5945206E0,4.411058E0,1.1337954E0,8.100833E0,1.18371E0,5.4643745E0,1.3178406E0,0E0,0E0,0E0,0E0,0E0,0E0,0E0,0E0,0E0,0E0,0E0,0E0,0E0,0E0,0E0],"parents":[2147483647,0,0,1,1,2,2,3,3,4,4,5,5,6,6,7,7,8,8,9,9,10,10,11,11,12,12,13,13],"right_children":[2,4,6,8,10,12,14,16,18,20,22,24,26,28,-1,-1,-1,-1,-1,-1,-1,-1,-1,-1,-1,-1,-1,-1,-1],"split_conditions":[5.190081E-1,9.2034E-1,2.0293835E-1,-1.0315301E-1,-2.7139628E-1,-8.8717735E-1,1.3752795E0,5.2452497E-3,-5.480378E-1,-1.9360788E0,-4.1034722E-1,-9.1429514E-1,-3.701964E-1,1.7142644E0,6.0178366E-2,-1.1965699E-2,-5.3358753E-3,-9.638126E-3,2.7839951E-3,-9.007342E-3,5.7097618E-3,-8.382029E-3,3.3970017E-2,-1.46380495E-2,9.159733E-4,3.8176214E-3,2.0171164E-2,2.1214988E-2,4.403143E-2],"split_indices":[1,6,6,6,1,6,1,1,1,2,2,6,2,6,0,0,0,0,0,0,0,0,0,0,0,0,0,0,0],"split_type":[0,0,0,0,0,0,0,0,0,0,0,0,0,0,0,0,0,0,0,0,0,0,0,0,0,0,0,0,0],"sum_hessian":[8.72E2,6.6E2,2.12E2,5.35E2,1.25E2,1.73E2,3.9E1,3.61E2,1.74E2,9.1E1,3.4E1,2.9E1,1.44E2,2.7E1,1.2E1,2.89E2,7.2E1,8.7E1,8.7E1,8E0,8.3E1,9E0,2.5E1,1.3E1,1.6E1,4.7E1,9.7E1,2.1E1,6E0],"tree_param":{"num_deleted":"0","num_feature":"7","num_nodes":"29","size_leaf_vector":"1"}},{"base_weights":[-2.7763084E-4,-6.4299196E-2,3.3832735E-1,-2.153937E-1,9.339922E-3,6.02418E-1,1.434983E-1,-2.4964058E-1,8.590968E-3,-1.7140444E-1,1.17037416E-1,4.735108E-1,7.245313E-2,1.8662132E-1,-1.2806754E-2,-2.2476036E-2,-9.417579E-3,1.2247566E-2,-4.1438295E-3,-1.121256E-2,-4.26272E-3,9.965471E-3,-5.0917483E-4,3.4478538E-2,1.25259E-2,-6.202193E-3,1.0347496E-2],"categories":[],"categories_nodes":[],"categories_segments":[],"categories_sizes":[],"default_left":[0,0,0,0,0,0,0,0,0,0,0,0,0,0,0,0,0,0,0,0,0,0,0,0,0,0,0],"id":39,"left_children":[1,3,5,7,9,11,13,15,17,19,21,23,-1,25,-1,-1,-1,-1,-1,-1,-1,-1,-1,-1,-1,-1,-1],"loss_changes":[1.8404715E1,7.946308E0,6.859647E0,1.7971058E0,9.383069E0,8.279547E0,1.6628495E0,4.7927666E-1,1.1444564E0,1.2618494E0,5.390564E0,3.0324783E0,0E0,1.9890442E0,0E0,0E0,0E0,0E0,0E0,0E0,0E0,0E0,0E0,0E0,0E0,0E0,0E0],"parents":[2147483647,0,0,1,1,2,2,3,3,4,4,5,5,6,6,7,7,8,8,9,9,10,10,11,11,13,13],"right_children":[2,4,6,8,10,12,14,16,18,20,22,24,-1,26,-1,-1,-1,-1,-1,-1,-1,-1,-1,-1,-1,-1,-1],"split_conditions":[9.2034E-1,-3.7746203E-1,1.3682936E-1,5.616392E-1,-7.1983147E-1,4.8194197E-1,1.5695189E0,-9.219952E-1,6.668581E-1,-8.8717735E-1,2.3902896E-1,-8.681333E-1,7.245313E-2,-5.953532E-2,-1.2806754E-2,-2.2476036E-2,-9.417579E-3,1.2247566E-2,-4.1438295E-3,-1.121256E-2,-4.26272E-3,9.965471E-3,-5.0917483E-4,3.4478538E-2,1.25259E-2,-6.202193E-3,1.0347496E-2],"split_indices":[6,4,5,6,6,3,4,6,6,6,5,5,0,3,0,0,0,0,0,0,0,0,0,0,0,0,0],"split_type":[0,0,0,0,0,0,0,0,0,0,0,0,0,0,0,0,0,0,0,0,0,0,0,0,0,0,0],"sum_hessian":[8.47E2,7.13E2,1.34E2,2.33E2,4.8E2,5.6E1,7.8E1,2.02E2,3.1E1,1.79E2,3.01E2,5.2E1,4E0,7.2E1,6E0,4E0,1.98E2,8E0,2.3E1,6.2E1,1.17E2,1.46E2,1.55E2,1.3E1,3.9E1,1.3E1,5.9E1],"tree_param":{"num_deleted":"0","num_feature":"7","num_nodes":"27","size_leaf_vector":"1"}},{"base_weights":[-1.2181966E-2,-8.5338876E-2,3.8327768E-1,-1.0739517E-1,6.6968936E-1,2.2364178E-1,6.9074696E-1,-2.4129571E-1,-3.8805883E-2,1.4581597E-1,8.695176E-1,-1.2434828E-1,2.885276E-1,6.0404277E-1,5.6843355E-2,-1.5127516E-2,-8.49101E-3,-7.425204E-3,1.7899617E-4,1.17638465E-2,-1.7611802E-3,3.868207E-3,4.131564E-2,7.291435E-3,-1.1686313E-2,-5.2037435E-3,1.3035639E-2,1.846886E-2,3.902017E-2],"categories":[],"categories_nodes":[],"categories_segments":[],"categories_sizes":[],"default_left":[0,0,0,0,0,0,0,0,0,0,0,0,0,0,0,0,0,0,0,0,0,0,0,0,0,0,0,0,0],"id":40,"left_children":[1,3,5,7,9,11,13,15,17,19,21,23,25,27,-1,-1,-1,-1,-1,-1,-1,-1,-1,-1,-1,-1,-1,-1,-1],"loss_changes":[2.5202335E1,1.231197E1,6.5208263E0,6.5572977E0,2.0715895E0,2.0906239E0,2.1527786E0,7.8022575E-1,3.0973468E0,2.1949635E-1,2.02911E0,8.6447656E-1,1.472239E0,1.7674522E0,0E0,0E0,0E0,0E0,0E0,0E0,0E0,0E0,0E0,0E0,0E0,0E0,0E0,0E0,0E0],"parents":[2147483647,0,0,1,1,2,2,3,3,4,4,5,5,6,6,7,7,8,8,9,9,10,10,11,11,12,12,13,13],"right_children":[2,4,6,8,10,12,14,16,18,20,22,24,26,28,-1,-1,-1,-1,-1,-1,-1,-1,-1,-1,-1,-1,-1,-1,-1],"split_conditions":[9.2034E-1,1.6975714E0,1.943833E0,-7.292055E-1,-5.2402866E-1,-1.9963051E0,1.1555352E0,-4.0171888E-1,-2.3250724E-1,2.0027177E0,-8.003064E-1,-5.953532E-2,-8.905526E-1,3.5268993E0,5.6843355E-2,-1.5127516E-2,-8.49101E-3,-7.425204E-3,1.7899617E-4,1.17638465E-2,-1.7611802E-3,3.868207E-3,4.131564E-2,7.291435E-3,-1.1686313E-2,-5.2037435E-3,1.3035639E-2,1.846886E-2,3.902017E-2],"split_indices":[6,2,6,6,6,2,2,3,3,2,3,3,3,6,0,0,0,0,0,0,0,0,0,0,0,0,0,0,0],"split_type":[0,0,0,0,0,0,0,0,0,0,0,0,0,0,0,0,0,0,0,0,0,0,0,0,0,0,0,0,0],"sum_hessian":[8.69E2,7.34E2,1.35E2,7.14E2,2E1,9E1,4.5E1,2.41E2,4.73E2,6E0,1.4E1,1.4E1,7.6E1,4.2E1,3E0,3.3E1,2.08E2,1.05E2,3.68E2,3E0,3E0,3E0,1.1E1,5E0,9E0,7E0,6.9E1,3.3E1,9E0],"tree_param":{"num_deleted":"0","num_feature":"7","num_nodes":"29","size_leaf_vector":"1"}},{"base_weights":[-4.9695587E-3,-1.17217235E-1,4.4927087E-1,-2.107318E-1,1.1412827E-1,-1.3268349E-1,5.585498E-1,-2.4372643E-1,3.7783E-2,7.198225E-3,4.9551052E-1,-4.0811265E-1,-2.1061867E-3,1.5889989E-1,6.4453304E-1,-1.2185149E-2,-7.995492E-3,-3.023926E-3,5.936653E-3,9.473481E-4,-1.4202195E-2,1.3838841E-2,4.2824123E-2,-5.769192E-3,-2.0150153E-2,-3.2713618E-3,1.0138118E-2,1.0376032E-3,2.0912109E-2,2.1827895E-2,4.026489E-2],"categories":[],"categories_nodes":[],"categories_segments":[],"categories_sizes":[],"default_left":[0,0,0,0,0,0,0,0,0,0,0,0,0,0,0,0,0,0,0,0,0,0,0,0,0,0,0,0,0,0,0],"id":41,"left_children":[1,3,5,7,9,11,13,15,17,19,21,23,25,27,29,-1,-1,-1,-1,-1,-1,-1,-1,-1,-1,-1,-1,-1,-1,-1,-1],"loss_changes":[4.4258766E1,1.5081437E1,1.1012516E1,4.0762386E0,8.193459E0,1.0061545E0,4.880245E0,1.1054401E0,7.824195E-1,9.994842E-1,3.3564997E0,1.7312896E-1,4.4580528E-1,1.3252578E0,3.4207687E0,0E0,0E0,0E0,0E0,0E0,0E0,0E0,0E0,0E0,0E0,0E0,0E0,0E0,0E0,0E0,0E0],"parents":[2147483647,0,0,1,1,2,2,3,3,4,4,5,5,6,6,7,7,8,8,9,9,10,10,11,11,12,12,13,13,14,14],"right_children":[2,4,6,8,10,12,14,16,18,20,22,24,26,28,30,-1,-1,-1,-1,-1,-1,-1,-1,-1,-1,-1,-1,-1,-1,-1,-1],"split_conditions":[7.034358E-1,3.5598403E-1,-8.530769E-1,3.8727406E-1,-2.7139628E-1,-9.185039E-1,-5.5212927E-1,-7.3733604E-1,-5.4315937E-1,1.3261464E0,2.6134079E0,9.405571E-1,3.80415E-1,2.555478E-1,1.7902496E-1,-1.2185149E-2,-7.995492E-3,-3.023926E-3,5.936653E-3,9.473481E-4,-1.4202195E-2,1.3838841E-2,4.2824123E-2,-5.769192E-3,-2.0150153E-2,-3.2713618E-3,1.0138118E-2,1.0376032E-3,2.0912109E-2,2.1827895E-2,4.026489E-2],"split_indices":[1,6,6,1,1,6,3,6,6,4,6,1,3,6,6,0,0,0,0,0,0,0,0,0,0,0,0,0,0,0,0],"split_type":[0,0,0,0,0,0,0,0,0,0,0,0,0,0,0,0,0,0,0,0,0,0,0,0,0,0,0,0,0,0,0],"sum_hessian":[8.66E2,6.95E2,1.71E2,4.95E2,2E2,2.7E1,1.44E2,4.37E2,5.8E1,1.57E2,4.3E1,8E0,1.9E1,2.6E1,1.18E2,1.6E2,2.77E2,2.9E1,2.9E1,1.51E2,6E0,3.6E1,7E0,3E0,5E0,1.5E1,4E0,2E1,6E0,9.8E1,2E1],"tree_param":{"num_deleted":"0","num_feature":"7","num_nodes":"31","size_leaf_vector":"1"}},{"base_weights":[7.100812E-4,-1.0764733E-1,4.4879568E-1,-1.7837104E-1,2.953372E-2,6.851823E-2,5.577504E-1,-1.8948975E-1,2.751513E-2,-3.878133E-1,5.514308E-2,-1.0580239E-2,1.149078E-1,7.522845E-1,3.5779515E-1,-9.244532E-3,-5.594578E-3,-7.6529826E-3,-1.7456044E-2,1.6533002E-2,1.4923852E-3,-6.825642E-3,7.0837284E-3,1.8308653E-2,4.079523E-2,1.3785469E-4,1.8744053E-2],"categories":[],"categories_nodes":[],"categories_segments":[],"categories_sizes":[],"default_left":[0,0,0,0,0,0,0,0,0,0,0,0,0,0,0,0,0,0,0,0,0,0,0,0,0,0,0],"id":42,"left_children":[1,3,5,7,9,11,13,15,-1,17,19,-1,21,23,25,-1,-1,-1,-1,-1,-1,-1,-1,-1,-1,-1,-1],"loss_changes":[4.2386875E1,6.8257427E0,7.005398E0,4.674595E0,2.5865028E0,6.433015E-1,4.865383E0,9.612274E-1,0E0,6.810379E-2,1.4046648E0,0E0,6.97171E-1,4.9435577E0,2.8558378E0,0E0,0E0,0E0,0E0,0E0,0E0,0E0,0E0,0E0,0E0,0E0,0E0],"parents":[2147483647,0,0,1,1,2,2,3,3,4,4,5,5,6,6,7,7,9,9,10,10,12,12,13,13,14,14],"right_children":[2,4,6,8,10,12,14,16,-1,18,20,-1,22,24,26,-1,-1,-1,-1,-1,-1,-1,-1,-1,-1,-1,-1],"split_conditions":[7.034358E-1,-1.7918244E-1,-4.1034722E-1,1.5168927E0,-2.1167576E0,-3.7746203E-1,8.3940107E-1,-6.665985E-1,2.751513E-2,5.9602845E-1,-8.6420727E-1,-1.0580239E-2,-2.2572856E0,1.085997E0,1.085997E0,-9.244532E-3,-5.594578E-3,-7.6529826E-3,-1.7456044E-2,1.6533002E-2,1.4923852E-3,-6.825642E-3,7.0837284E-3,1.8308653E-2,4.079523E-2,1.3785469E-4,1.8744053E-2],"split_indices":[1,1,2,2,2,4,4,1,0,4,4,0,2,0,0,0,0,0,0,0,0,0,0,0,0,0,0],"split_type":[0,0,0,0,0,0,0,0,0,0,0,0,0,0,0,0,0,0,0,0,0,0,0,0,0,0,0],"sum_hessian":[8.71E2,7.02E2,1.69E2,4.63E2,2.39E2,3.8E1,1.31E2,4.58E2,5E0,1.3E1,2.26E2,4E0,3.4E1,6.5E1,6.6E1,2.28E2,2.3E2,4E0,9E0,9E0,2.17E2,6E0,2.8E1,3.4E1,3.1E1,1.7E1,4.9E1],"tree_param":{"num_deleted":"0","num_feature":"7","num_nodes":"27","size_leaf_vector":"1"}},{"base_weights":[-2.0060502E-3,-4.5138728E-2,4.2402047E-1,-2.012782E-1,1.7450565E-2,2.5682682E-1,5.808722E-1,-2.4513745E-1,-6.46303E-2,-1.434755E-1,1.0704946E-1,3.8753763E-2,3.5669094E-1,2.8433847E-1,8.005795E-1,-9.066816E-3,-2.1173466E-2,-1.10294195E-2,4.948028E-3,-1.4230409E-2,-4.564481E-3,-5.121413E-3,6.249469E-3,4.697854E-3,-5.1422263E-3,1.84081E-2,-1.9266203E-3,-3.029551E-3,1.5127766E-2,2.0671232E-2,3.6790557E-2],"categories":[],"categories_nodes":[],"categories_segments":[],"categories_sizes":[],"default_left":[0,0,0,0,0,0,0,0,0,0,0,0,0,0,0,0,0,0,0,0,0,0,0,0,0,0,0,0,0,0,0],"id":43,"left_children":[1,3,5,7,9,11,13,15,17,19,21,23,25,27,29,-1,-1,-1,-1,-1,-1,-1,-1,-1,-1,-1,-1,-1,-1,-1,-1],"loss_changes":[1.6189724E1,7.821639E0,1.9750099E0,1.356617E0,8.262911E0,8.790617E-1,2.4435406E0,5.811205E-1,2.393441E0,1.1743693E0,4.6027927E0,2.086522E-1,1.3062298E0,7.278112E-1,3.7220573E-1,0E0,0E0,0E0,0E0,0E0,0E0,0E0,0E0,0E0,0E0,0E0,0E0,0E0,0E0,0E0,0E0],"parents":[2147483647,0,0,1,1,2,2,3,3,4,4,5,5,6,6,7,7,8,8,9,9,10,10,11,11,12,12,13,13,14,14],"right_children":[2,4,6,8,10,12,14,16,18,20,22,24,26,28,30,-1,-1,-1,-1,-1,-1,-1,-1,-1,-1,-1,-1,-1,-1,-1,-1],"split_conditions":[1.4655652E0,-7.3733604E-1,1.9964424E0,8.3940107E-1,-3.7746203E-1,-5.953532E-2,-3.7746203E-1,-7.406839E-1,-8.8894695E-1,-8.153474E-1,-5.897319E-1,-8.003064E-1,5.9602845E-1,-1.3509525E0,2.6134079E0,-9.066816E-3,-2.1173466E-2,-1.10294195E-2,4.948028E-3,-1.4230409E-2,-4.564481E-3,-5.121413E-3,6.249469E-3,4.697854E-3,-5.1422263E-3,1.84081E-2,-1.9266203E-3,-3.029551E-3,1.5127766E-2,2.0671232E-2,3.6790557E-2],"split_indices":[6,6,6,4,4,3,4,6,6,3,3,3,4,4,6,0,0,0,0,0,0,0,0,0,0,0,0,0,0,0,0],"split_type":[0,0,0,0,0,0,0,0,0,0,0,0,0,0,0,0,0,0,0,0,0,0,0,0,0,0,0,0,0,0,0],"sum_hessian":[8.79E2,7.99E2,8E1,2.28E2,5.71E2,4E1,4E1,1.72E2,5.6E1,2.04E2,3.67E2,1.3E1,2.7E1,1.8E1,2.2E1,1.66E2,6E0,2.6E1,3E1,2.1E1,1.83E2,6.6E1,3.01E2,9E0,4E0,2.1E1,6E0,4E0,1.4E1,9E0,1.3E1],"tree_param":{"num_deleted":"0","num_feature":"7","num_nodes":"31","size_leaf_vector":"1"}},{"base_weights":[-2.5663965E-3,-8.2457915E-2,5.050423E-1,-1.7413335E-1,1.5630044E-1,-2.9493421E-2,6.6753626E-1,-2.2683272E-1,4.807604E-2,1.4687671E-2,4.6806157E-1,-1.8951029E-1,1.4405988E-1,4.464317E-1,1.1587234E0,-1.1708927E-2,-7.250778E-3,-1.4602288E-2,4.428198E-3,-9.930714E-3,2.0840622E-3,1.4793249E-2,4.1377667E-2,-1.5031857E-2,-2.1237445E-3,9.7852E-3,-7.1448945E-3,-4.96503E-3,2.0857435E-2,3.6963724E-2,6.088505E-2],"categories":[],"categories_nodes":[],"categories_segments":[],"categories_sizes":[],"default_left":[0,0,0,0,0,0,0,0,0,0,0,0,0,0,0,0,0,0,0,0,0,0,0,0,0,0,0,0,0,0,0],"id":44,"left_children":[1,3,5,7,9,11,13,15,17,19,21,23,25,27,29,-1,-1,-1,-1,-1,-1,-1,-1,-1,-1,-1,-1,-1,-1,-1,-1],"loss_changes":[3.459334E1,1.6158876E1,1.0095308E1,6.252491E0,9.043743E0,8.049016E-1,9.148445E0,1.2414112E0,2.8532736E0,1.4779838E0,3.0110035E0,3.7297183E-1,5.278163E-1,3.160225E0,8.333893E-1,0E0,0E0,0E0,0E0,0E0,0E0,0E0,0E0,0E0,0E0,0E0,0E0,0E0,0E0,0E0,0E0],"parents":[2147483647,0,0,1,1,2,2,3,3,4,4,5,5,6,6,7,7,8,8,9,9,10,10,11,11,12,12,13,13,14,14],"right_children":[2,4,6,8,10,12,14,16,18,20,22,24,26,28,30,-1,-1,-1,-1,-1,-1,-1,-1,-1,-1,-1,-1,-1,-1,-1,-1],"split_conditions":[1.2303721E0,3.5598403E-1,-7.9664123E-1,3.8727406E-1,-2.7139628E-1,-8.8894695E-1,4.7372244E-2,-7.3733604E-1,-5.669355E-1,6.046833E-1,2.6134079E0,-2.738344E-1,-8.286852E-1,-2.0163805E0,-4.0978204E-2,-1.1708927E-2,-7.250778E-3,-1.4602288E-2,4.428198E-3,-9.930714E-3,2.0840622E-3,1.4793249E-2,4.1377667E-2,-1.5031857E-2,-2.1237445E-3,9.7852E-3,-7.1448945E-3,-4.96503E-3,2.0857435E-2,3.6963724E-2,6.088505E-2],"split_indices":[1,6,6,1,1,6,2,6,2,6,6,2,6,2,6,0,0,0,0,0,0,0,0,0,0,0,0,0,0,0,0],"split_type":[0,0,0,0,0,0,0,0,0,0,0,0,0,0,0,0,0,0,0,0,0,0,0,0,0,0,0,0,0,0,0],"sum_hessian":[8.51E2,7.36E2,1.15E2,5.32E2,2.04E2,2.7E1,8.8E1,4.3E2,1.02E2,1.41E2,6.3E1,1.4E1,1.3E1,6.2E1,2.6E1,1.56E2,2.74E2,1.3E1,8.9E1,1.7E1,1.24E2,5.6E1,7E0,5E0,9E0,1E1,3E0,8E0,5.4E1,1.9E1,7E0],"tree_param":{"num_deleted":"0","num_feature":"7","num_nodes":"31","size_leaf_vector":"1"}},{"base_weights":[8.5046245E-3,-7.408814E-2,5.195623E-1,-1.6296834E-1,7.059943E-2,4.118448E-1,7.9759294E-1,-1.0436255E-1,-2.3264024E-1,7.5793445E-1,4.8254374E-2,-1.5340169E-1,4.6886155E-1,8.796083E-1,-6.63261E-4,-7.872764E-3,-6.9604535E-4,-1.0947883E-2,-5.747177E-3,9.164521E-3,3.8455486E-2,-5.448628E-3,4.0915944E-3,-9.591977E-4,-8.380274E-3,7.680638E-3,2.1267653E-2,3.7505317E-2,2.1470623E-2],"categories":[],"categories_nodes":[],"categories_segments":[],"categories_sizes":[],"default_left":[0,0,0,0,0,0,0,0,0,0,0,0,0,0,0,0,0,0,0,0,0,0,0,0,0,0,0,0,0],"id":45,"left_children":[1,3,5,7,9,11,13,15,17,19,21,23,25,27,-1,-1,-1,-1,-1,-1,-1,-1,-1,-1,-1,-1,-1,-1,-1],"loss_changes":[3.701416E1,9.7207E0,3.325264E0,1.8866463E0,4.3866854E0,2.9724894E0,2.21937E0,2.135487E0,8.138466E-1,8.2307005E-1,2.9572768E0,6.484121E-2,1.5430031E0,2.4443626E-1,0E0,0E0,0E0,0E0,0E0,0E0,0E0,0E0,0E0,0E0,0E0,0E0,0E0,0E0,0E0],"parents":[2147483647,0,0,1,1,2,2,3,3,4,4,5,5,6,6,7,7,8,8,9,9,10,10,11,11,12,12,13,13],"right_children":[2,4,6,8,10,12,14,16,18,20,22,24,26,28,-1,-1,-1,-1,-1,-1,-1,-1,-1,-1,-1,-1,-1,-1,-1],"split_conditions":[1.2303721E0,-2.4504948E-1,2.4950192E0,5.796943E-1,-3.235757E0,-3.265137E-1,3.8123598E0,7.550961E-2,2.9392904E-1,-3.665145E0,-1.038466E0,-1.647002E-2,-1.3791312E0,1.0271796E0,-6.63261E-4,-7.872764E-3,-6.9604535E-4,-1.0947883E-2,-5.747177E-3,9.164521E-3,3.8455486E-2,-5.448628E-3,4.0915944E-3,-9.591977E-4,-8.380274E-3,7.680638E-3,2.1267653E-2,3.7505317E-2,2.1470623E-2],"split_indices":[1,1,1,5,5,3,1,5,3,5,5,5,5,3,0,0,0,0,0,0,0,0,0,0,0,0,0,0,0],"split_type":[0,0,0,0,0,0,0,0,0,0,0,0,0,0,0,0,0,0,0,0,0,0,0,0,0,0,0,0,0],"sum_hessian":[8.75E2,7.54E2,1.21E2,4.67E2,2.87E2,8.9E1,3.2E1,2.55E2,2.12E2,8E0,2.79E2,8E0,8.1E1,2.9E1,3E0,1.2E2,1.35E2,1.36E2,7.6E1,3E0,5E0,6.4E1,2.15E2,3E0,5E0,1.8E1,6.3E1,2.2E1,7E0],"tree_param":{"num_deleted":"0","num_feature":"7","num_nodes":"29","size_leaf_vector":"1"}},{"base_weights":[-1.9110157E-4,-8.777712E-2,4.4378075E-1,-1.0039973E-1,8.374019E-1,1.2094126E-2,5.915614E-1,-1.6381387E-1,1.4574087E-2,4.982335E-2,1.3189106E-2,-4.611261E-2,1.2944046E-2,1.6138594E-1,6.6462034E-1,-4.515428E-3,-8.8656E-3,2.1938056E-2,-2.8566938E-4,1.1752E-2,-4.0830835E-3,1.0643355E-2,-1.0365677E-2,2.3824153E-2,4.3953735E-2],"categories":[],"categories_nodes":[],"categories_segments":[],"categories_sizes":[],"default_left":[0,0,0,0,0,0,0,0,0,0,0,0,0,0,0,0,0,0,0,0,0,0,0,0,0],"id":46,"left_children":[1,3,5,7,9,11,13,15,17,-1,-1,19,-1,21,23,-1,-1,-1,-1,-1,-1,-1,-1,-1,-1],"loss_changes":[3.421951E1,8.66753E0,9.243111E0,5.295629E0,1.7445955E0,7.188657E-1,3.2869797E0,1.3928385E0,3.0904763E0,0E0,0E0,6.9389665E-1,0E0,8.690822E-1,1.7067223E0,0E0,0E0,0E0,0E0,0E0,0E0,0E0,0E0,0E0,0E0],"parents":[2147483647,0,0,1,1,2,2,3,3,4,4,5,5,6,6,7,7,8,8,11,11,13,13,14,14],"right_children":[2,4,6,8,10,12,14,16,18,-1,-1,20,-1,22,24,-1,-1,-1,-1,-1,-1,-1,-1,-1,-1],"split_conditions":[9.142103E-1,1.6975714E0,-4.1034722E-1,-1.7918244E-1,-3.287875E-1,2.363285E0,-1.3791312E0,5.796943E-1,-3.235757E0,4.982335E-2,1.3189106E-2,1.1776785E0,1.2944046E-2,2.2996368E0,3.1536894E0,-4.515428E-3,-8.8656E-3,2.1938056E-2,-2.8566938E-4,1.1752E-2,-4.0830835E-3,1.0643355E-2,-1.0365677E-2,2.3824153E-2,4.3953735E-2],"split_indices":[1,2,2,1,4,1,5,5,5,0,0,1,0,4,1,0,0,0,0,0,0,0,0,0,0],"split_type":[0,0,0,0,0,0,0,0,0,0,0,0,0,0,0,0,0,0,0,0,0,0,0,0,0],"sum_hessian":[8.78E2,7.34E2,1.44E2,7.25E2,9E0,3.7E1,1.07E2,4.67E2,2.58E2,4E0,5E0,3.2E1,5E0,1.6E1,9.1E1,2.64E2,2.03E2,9E0,2.49E2,4E0,2.8E1,1.3E1,3E0,8.3E1,8E0],"tree_param":{"num_deleted":"0","num_feature":"7","num_nodes":"25","size_leaf_vector":"1"}},{"base_weights":[1.3523147E-3,-7.1164005E-2,4.5819387E-1,-1.842661E-1,1.5942894E-2,3.3849555E-1,8.393993E-1,-1.9671303E-1,1.787461E-2,5.230463E-1,-1.2026246E-3,-1.06223956E-1,3.9944845E-1,1.0557632E0,5.085359E-1,-6.5956595E-3,-1.4131943E-2,3.1805576E-3,-7.375132E-3,1.2178426E-2,3.3050932E-2,1.8976587E-3,-5.0763907E-3,3.4541707E-3,-7.086987E-3,1.7026385E-2,-1.4368612E-3,2.1234347E-2,4.6331875E-2,2.5532003E-2,9.147641E-3],"categories":[],"categories_nodes":[],"categories_segments":[],"categories_sizes":[],"default_left":[0,0,0,0,0,0,0,0,0,0,0,0,0,0,0,0,0,0,0,0,0,0,0,0,0,0,0,0,0,0,0],"id":47,"left_children":[1,3,5,7,9,11,13,15,17,19,21,23,25,27,29,-1,-1,-1,-1,-1,-1,-1,-1,-1,-1,-1,-1,-1,-1,-1,-1],"loss_changes":[2.9020018E1,7.45103E0,5.1914253E0,8.3129025E-1,3.721897E0,2.5633774E0,1.4675407E0,1.3840942E0,2.7594343E-1,6.897714E-1,2.6479545E0,1.8984276E-1,1.2643795E0,3.977661E-1,3.588636E-1,0E0,0E0,0E0,0E0,0E0,0E0,0E0,0E0,0E0,0E0,0E0,0E0,0E0,0E0,0E0,0E0],"parents":[2147483647,0,0,1,1,2,2,3,3,4,4,5,5,6,6,7,7,8,8,9,9,10,10,11,11,12,12,13,13,14,14],"right_children":[2,4,6,8,10,12,14,16,18,20,22,24,26,28,30,-1,-1,-1,-1,-1,-1,-1,-1,-1,-1,-1,-1,-1,-1,-1,-1],"split_conditions":[1.1776785E0,-5.480378E-1,2.363285E0,1.5165238E0,-1.7197965E0,-3.265137E-1,7.550961E-2,1.0566257E0,1.6868565E0,-3.5246143E0,6.648606E-1,-8.003064E-1,2.099817E0,2.6399267E0,1.0271796E0,-6.5956595E-3,-1.4131943E-2,3.1805576E-3,-7.375132E-3,1.2178426E-2,3.3050932E-2,1.8976587E-3,-5.0763907E-3,3.4541707E-3,-7.086987E-3,1.7026385E-2,-1.4368612E-3,2.1234347E-2,4.6331875E-2,2.5532003E-2,9.147641E-3],"split_indices":[1,1,1,5,5,3,5,5,5,5,5,3,1,1,3,0,0,0,0,0,0,0,0,0,0,0,0,0,0,0,0],"split_type":[0,0,0,0,0,0,0,0,0,0,0,0,0,0,0,0,0,0,0,0,0,0,0,0,0,0,0,0,0,0,0],"sum_hessian":[8.74E2,7.55E2,1.19E2,3.28E2,4.27E2,9.2E1,2.7E1,3.09E2,1.9E1,1.3E1,4.14E2,1.1E1,8.1E1,1.5E1,1.2E1,2.65E2,4.4E1,1.5E1,4E0,9E0,4E0,2.99E2,1.15E2,3E0,8E0,7.5E1,6E0,4E0,1.1E1,7E0,5E0],"tree_param":{"num_deleted":"0","num_feature":"7","num_nodes":"31","size_leaf_vector":"1"}},{"base_weights":[3.1106614E-3,-1.4118231E-2,5.655806E-1,-1.08048394E-1,5.97137E-2,7.203415E-1,1.932166E-1,-6.771386E-2,-1.7057277E-1,-1.5681693E-1,1.1060637E-1,3.4180686E-2,1.4012711E-2,1.2833832E-2,7.99109E-4,-6.140478E-3,-1.3693326E-4,-7.867822E-3,1.1510783E-3,-6.7699943E-3,9.094871E-3,6.189747E-3,-1.742963E-3],"categories":[],"categories_nodes":[],"categories_segments":[],"categories_sizes":[],"default_left":[0,0,0,0,0,0,0,0,0,0,0,0,0,0,0,0,0,0,0,0,0,0,0],"id":48,"left_children":[1,3,5,7,9,11,13,15,17,19,21,-1,-1,-1,-1,-1,-1,-1,-1,-1,-1,-1,-1],"loss_changes":[8.477687E0,5.894305E0,1.3591299E0,9.316373E-1,5.26278E0,6.7873955E-1,2.0205033E-1,1.3073883E0,8.8580227E-1,6.024082E-1,2.8382907E0,0E0,0E0,0E0,0E0,0E0,0E0,0E0,0E0,0E0,0E0,0E0,0E0],"parents":[2147483647,0,0,1,1,2,2,3,3,4,4,5,5,6,6,7,7,8,8,9,9,10,10],"right_children":[2,4,6,8,10,12,14,16,18,20,22,-1,-1,-1,-1,-1,-1,-1,-1,-1,-1,-1,-1],"split_conditions":[1.6975714E0,-1.3408941E-1,5.9602845E-1,5.9672755E-1,-5.3079975E-1,1.3682936E-1,2.0027177E0,-1.0163634E-1,1.5165238E0,2.5430095E0,7.500269E-1,3.4180686E-2,1.4012711E-2,1.2833832E-2,7.99109E-4,-6.140478E-3,-1.3693326E-4,-7.867822E-3,1.1510783E-3,-6.7699943E-3,9.094871E-3,6.189747E-3,-1.742963E-3],"split_indices":[2,4,4,5,2,5,2,5,5,4,5,0,0,0,0,0,0,0,0,0,0,0,0],"split_type":[0,0,0,0,0,0,0,0,0,0,0,0,0,0,0,0,0,0,0,0,0,0,0],"sum_hessian":[8.73E2,8.48E2,2.5E1,3.73E2,4.75E2,1.7E1,8E0,2.28E2,1.45E2,9E1,3.85E2,1.1E1,6E0,4E0,4E0,9.5E1,1.33E2,1.26E2,1.9E1,8.7E1,3E0,2.95E2,9E1],"tree_param":{"num_deleted":"0","num_feature":"7","num_nodes":"23","size_leaf_vector":"1"}},{"base_weights":[7.8100376E-3,-6.574436E-2,4.4907492E-1,-1.5722509E-1,1.6325904E-1,3.3974186E-1,1.0922729E0,-2.1842909E-1,-8.587785E-3,1.7537637E-2,4.7767863E-1,2.2045302E-1,6.504969E-1,2.475308E-2,4.9784362E-2,-1.0687395E-2,-7.428454E-3,-1.1080473E-2,2.4358958E-3,-1.3156782E-3,7.829337E-3,1.600382E-2,5.0347373E-2,-6.972167E-3,1.1457955E-2,2.8621651E-2,-1.9559748E-3],"categories":[],"categories_nodes":[],"categories_segments":[],"categories_sizes":[],"default_left":[0,0,0,0,0,0,0,0,0,0,0,0,0,0,0,0,0,0,0,0,0,0,0,0,0,0,0],"id":49,"left_children":[1,3,5,7,9,11,13,15,17,19,21,23,25,-1,-1,-1,-1,-1,-1,-1,-1,-1,-1,-1,-1,-1,-1],"loss_changes":[2.8851315E1,1.598911E1,8.559908E0,4.9560966E0,9.979874E0,3.9342518E0,6.725273E-1,5.536022E-1,3.119339E0,1.4032922E0,3.3390245E0,2.3701797E0,1.7104473E0,0E0,0E0,0E0,0E0,0E0,0E0,0E0,0E0,0E0,0E0,0E0,0E0,0E0,0E0],"parents":[2147483647,0,0,1,1,2,2,3,3,4,4,5,5,6,6,7,7,8,8,9,9,10,10,11,11,12,12],"right_children":[2,4,6,8,10,12,14,16,18,20,22,24,26,-1,-1,-1,-1,-1,-1,-1,-1,-1,-1,-1,-1,-1,-1],"split_conditions":[1.2303721E0,3.5598403E-1,2.555478E-1,5.2452497E-3,-2.7139628E-1,2.4950192E0,1.3752795E0,-7.3733604E-1,-8.855991E-1,1.7479345E0,5.383459E-1,-8.8894695E-1,3.8123598E0,2.475308E-2,4.9784362E-2,-1.0687395E-2,-7.428454E-3,-1.1080473E-2,2.4358958E-3,-1.3156782E-3,7.829337E-3,1.600382E-2,5.0347373E-2,-6.972167E-3,1.1457955E-2,2.8621651E-2,-1.9559748E-3],"split_indices":[1,6,6,1,1,1,1,6,6,6,3,6,1,0,0,0,0,0,0,0,0,0,0,0,0,0,0],"split_type":[0,0,0,0,0,0,0,0,0,0,0,0,0,0,0,0,0,0,0,0,0,0,0,0,0,0,0],"sum_hessian":[8.87E2,7.61E2,1.26E2,5.44E2,2.17E2,1.09E2,1.7E1,3.85E2,1.59E2,1.49E2,6.8E1,8E1,2.9E1,6E0,1.1E1,1.31E2,2.54E2,3.2E1,1.27E2,1.17E2,3.2E1,6.4E1,4E0,1.2E1,6.8E1,2.6E1,3E0],"tree_param":{"num_deleted":"0","num_feature":"7","num_nodes":"27","size_leaf_vector":"1"}},{"base_weights":[-1.1730263E-3,-2.1237874E-2,6.3202786E-1,-1.5440209E-1,5.612437E-3,1.3760293E-3,7.660968E-1,-1.8149278E-1,1.9380564E-2,-7.748165E-2,5.0940704E-2,4.0006336E-2,5.477655E-1,-3.7451244E-3,-1.4993921E-2,3.2229086E-3,-4.4952617E-3,-6.2098918E-3,3.3147794E-3,2.6328266E-2,2.7483609E-3],"categories":[],"categories_nodes":[],"categories_segments":[],"categories_sizes":[],"default_left":[0,0,0,0,0,0,0,0,0,0,0,0,0,0,0,0,0,0,0,0,0],"id":50,"left_children":[1,3,5,7,9,-1,11,13,-1,15,17,-1,19,-1,-1,-1,-1,-1,-1,-1,-1],"loss_changes":[1.1168483E1,3.0471933E0,2.1338882E0,2.6032395E0,2.6781697E0,0E0,6.6340923E-1,2.3477635E0,0E0,1.5004692E0,3.2514615E0,0E0,7.8140783E-1,0E0,0E0,0E0,0E0,0E0,0E0,0E0,0E0],"parents":[2147483647,0,0,1,1,2,2,3,3,4,4,6,6,7,7,9,9,10,10,12,12],"right_children":[2,4,6,8,10,-1,12,14,-1,16,18,-1,20,-1,-1,-1,-1,-1,-1,-1,-1],"split_conditions":[1.6975714E0,-4.0171888E-1,-8.003064E-1,2.2996368E0,-3.7746203E-1,1.3760293E-3,-3.287875E-1,-1.6651954E-1,1.9380564E-2,4.9512193E-2,-1.8838828E0,4.0006336E-2,3.4039817E0,-3.7451244E-3,-1.4993921E-2,3.2229086E-3,-4.4952617E-3,-6.2098918E-3,3.3147794E-3,2.6328266E-2,2.7483609E-3],"split_indices":[2,3,3,4,4,0,4,0,0,3,2,0,2,0,0,0,0,0,0,0,0],"split_type":[0,0,0,0,0,0,0,0,0,0,0,0,0,0,0,0,0,0,0,0,0],"sum_hessian":[8.77E2,8.51E2,2.6E1,1.42E2,7.09E2,5E0,2.1E1,1.37E2,5E0,2.5E2,4.59E2,8E0,1.3E1,9.7E1,4E1,4.7E1,2.03E2,6.3E1,3.96E2,1E1,3E0],"tree_param":{"num_deleted":"0","num_feature":"7","num_nodes":"21","size_leaf_vector":"1"}},{"base_weights":[1.2325748E-2,-6.355952E-2,4.5746252E-1,-7.81346E-2,5.343109E-1,4.4614E-2,5.5723536E-1,-1.4246203E-1,2.667653E-2,2.9611182E-1,8.66322E-1,-8.051659E-3,1.2989023E-1,4.3787196E-1,8.770037E-1,-8.705682E-3,-4.362469E-3,1.9977124E-2,3.4325194E-4,1.7970018E-2,2.2494271E-3,4.4861354E-2,1.4566492E-2,-2.458478E-3,1.0329758E-2,1.8831715E-2,-5.708628E-3,1.450028E-2,3.823592E-2],"categories":[],"categories_nodes":[],"categories_segments":[],"categories_sizes":[],"default_left":[0,0,0,0,0,0,0,0,0,0,0,0,0,0,0,0,0,0,0,0,0,0,0,0,0,0,0,0,0],"id":51,"left_children":[1,3,5,7,9,11,13,15,17,19,21,-1,23,25,27,-1,-1,-1,-1,-1,-1,-1,-1,-1,-1,-1,-1,-1,-1],"loss_changes":[2.9687323E1,6.585968E0,5.2475967E0,4.9525976E0,1.166997E0,5.810197E-1,3.5473537E0,1.1046438E0,2.4188135E0,4.3869758E-1,5.379014E-1,0E0,5.313014E-1,1.981453E0,9.868469E-1,0E0,0E0,0E0,0E0,0E0,0E0,0E0,0E0,0E0,0E0,0E0,0E0,0E0,0E0],"parents":[2147483647,0,0,1,1,2,2,3,3,4,4,5,5,6,6,7,7,8,8,9,9,10,10,12,12,13,13,14,14],"right_children":[2,4,6,8,10,12,14,16,18,20,22,-1,24,26,28,-1,-1,-1,-1,-1,-1,-1,-1,-1,-1,-1,-1,-1,-1],"split_conditions":[1.2303721E0,1.6975714E0,-4.5049807E-1,-2.4504948E-1,3.845641E0,-2.2572856E0,2.4950192E0,7.550961E-2,-1.7197965E0,2.1191552E0,4.1668477E0,-8.051659E-3,1.7046148E0,2.099817E0,-1.17246166E-1,-8.705682E-3,-4.362469E-3,1.9977124E-2,3.4325194E-4,1.7970018E-2,2.2494271E-3,4.4861354E-2,1.4566492E-2,-2.458478E-3,1.0329758E-2,1.8831715E-2,-5.708628E-3,1.450028E-2,3.823592E-2],"split_indices":[1,2,2,1,2,2,1,5,5,2,2,0,1,1,2,0,0,0,0,0,0,0,0,0,0,0,0,0,0],"split_type":[0,0,0,0,0,0,0,0,0,0,0,0,0,0,0,0,0,0,0,0,0,0,0,0,0,0,0,0,0],"sum_hessian":[8.77E2,7.5E2,1.27E2,7.33E2,1.7E1,2.5E1,1.02E2,4.54E2,2.79E2,1.1E1,6E0,6E0,1.9E1,7.6E1,2.6E1,1.26E2,3.28E2,9E0,2.7E2,6E0,5E0,3E0,3E0,8E0,1.1E1,7.1E1,5E0,5E0,2.1E1],"tree_param":{"num_deleted":"0","num_feature":"7","num_nodes":"29","size_leaf_vector":"1"}},{"base_weights":[1.3359447E-3,-3.3877693E-2,4.704509E-1,-1.5070872E-1,3.9179567E-2,7.777653E-1,2.940761E-1,-2.619045E-1,-1.0901968E-1,1.5585889E-1,-3.49925E-2,4.186314E-1,6.5292776E-2,3.9229473E-1,5.235182E-2,-1.4672144E-2,-8.6172E-3,-1.0483013E-4,-7.091744E-3,7.1891636E-4,1.1074378E-2,6.6132727E-3,-1.912029E-3,9.443575E-3,3.6689326E-2,2.2918375E-2,1.3254199E-2,-2.1718352E-3,9.244836E-3],"categories":[],"categories_nodes":[],"categories_segments":[],"categories_sizes":[],"default_left":[0,0,0,0,0,0,0,0,0,0,0,0,0,0,0,0,0,0,0,0,0,