{"learner":{"attributes":{"scikit_learn":"{\"_estimator_type\": \"regressor\"}"},"feature_names":[],"feature_types":[],"gradient_booster":{"model":{"cats":{"enc":[],"feature_segments":[],"sorted_idx":[]},"gbtree_model_param":{"num_parallel_tree":"1","num_trees":"870"},"iteration_indptr":[0,1,2,3,4,5,6,7,8,9,10,11,12,13,14,15,16,17,18,19,20,21,22,23,24,25,26,27,28,29,30,31,32,33,34,35,36,37,38,39,40,41,42,43,44,45,46,47,48,49,50,51,52,53,54,55,56,57,58,59,60,61,62,63,64,65,66,67,68,69,70,71,72,73,74,75,76,77,78,79,80,81,82,83,84,85,86,87,88,89,90,91,92,93,94,95,96,97,98,99,100,101,102,103,104,105,106,107,108,109,110,111,112,113,114,115,116,117,118,119,120,121,122,123,124,125,126,127,128,129,130,131,132,133,134,135,136,137,138,139,140,141,142,143,144,145,146,147,148,149,150,151,152,153,154,155,156,157,158,159,160,161,162,163,164,165,166,167,168,169,170,171,172,173,174,175,176,177,178,179,180,181,182,183,184,185,186,187,188,189,190,191,192,193,194,195,196,197,198,199,200,201,202,203,204,205,206,207,208,209,210,211,212,213,214,215,216,217,218,219,220,221,222,223,224,225,226,227,228,229,230,231,232,233,234,235,236,237,238,239,240,241,242,243,244,245,246,247,248,249,250,251,252,253,254,255,256,257,258,259,260,261,262,263,264,265,266,267,268,269,270,271,272,273,274,275,276,277,278,279,280,281,282,283,284,285,286,287,288,289,290,291,292,293,294,295,296,297,298,299,300,301,302,303,304,305,306,307,308,309,310,311,312,313,314,315,316,317,318,319,320,321,322,323,324,325,326,327,328,329,330,331,332,333,334,335,336,337,338,339,340,341,342,343,344,345,346,347,348,349,350,351,352,353,354,355,356,357,358,359,360,361,362,363,364,365,366,367,368,369,370,371,372,373,374,375,376,377,378,379,380,381,382,383,384,385,386,387,388,389,390,391,392,393,394,395,396,397,398,399,400,401,402,403,404,405,406,407,408,409,410,411,412,413,414,415,416,417,418,419,420,421,422,423,424,425,426,427,428,429,430,431,432,433,434,435,436,437,438,439,440,441,442,443,444,445,446,447,448,449,450,451,452,453,454,455,456,457,458,459,460,461,462,463,464,465,466,467,468,469,470,471,472,473,474,475,476,477,478,479,480,481,482,483,484,485,486,487,488,489,490,491,492,493,494,495,496,497,498,499,500,501,502,503,504,505,506,507,508,509,510,511,512,513,514,515,516,517,518,519,520,521,522,523,524,525,526,527,528,529,530,531,532,533,534,535,536,537,538,539,540,541,542,543,544,545,546,547,548,549,550,551,552,553,554,555,556,557,558,559,560,561,562,563,564,565,566,567,568,569,570,571,572,573,574,575,576,577,578,579,580,581,582,583,584,585,586,587,588,589,590,591,592,593,594,595,596,597,598,599,600,601,602,603,604,605,606,607,608,609,610,611,612,613,614,615,616,617,618,619,620,621,622,623,624,625,626,627,628,629,630,631,632,633,634,635,636,637,638,639,640,641,642,643,644,645,646,647,648,649,650,651,652,653,654,655,656,657,658,659,660,661,662,663,664,665,666,667,668,669,670,671,672,673,674,675,676,677,678,679,680,681,682,683,684,685,686,687,688,689,690,691,692,693,694,695,696,697,698,699,700,701,702,703,704,705,706,707,708,709,710,711,712,713,714,715,716,717,718,719,720,721,722,723,724,725,726,727,728,729,730,731,732,733,734,735,736,737,738,739,740,741,742,743,744,745,746,747,748,749,750,751,752,753,754,755,756,757,758,759,760,761,762,763,764,765,766,767,768,769,770,771,772,773,774,775,776,777,778,779,780,781,782,783,784,785,786,787,788,789,790,791,792,793,794,795,796,797,798,799,800,801,802,803,804,805,806,807,808,809,810,811,812,813,814,815,816,817,818,819,820,821,822,823,824,825,826,827,828,829,830,831,832,833,834,835,836,837,838,839,840,841,842,843,844,845,846,847,848,849,850,851,852,853,854,855,856,857,858,859,860,861,862,863,864,865,866,867,868,869,870],"tree_info":[0,0,0,0,0,0,0,0,0,0,0,0,0,0,0,0,0,0,0,0,0,0,0,0,0,0,0,0,0,0,0,0,0,0,0,0,0,0,0,0,0,0,0,0,0,0,0,0,0,0,0,0,0,0,0,0,0,0,0,0,0,0,0,0,0,0,0,0,0,0,0,0,0,0,0,0,0,0,0,0,0,0,0,0,0,0,0,0,0,0,0,0,0,0,0,0,0,0,0,0,0,0,0,0,0,0,0,0,0,0,0,0,0,0,0,0,0,0,0,0,0,0,0,0,0,0,0,0,0,0,0,0,0,0,0,0,0,0,0,0,0,0,0,0,0,0,0,0,0,0,0,0,0,0,0,0,0,0,0,0,0,0,0,0,0,0,0,0,0,0,0,0,0,0,0,0,0,0,0,0,0,0,0,0,0,0,0,0,0,0,0,0,0,0,0,0,0,0,0,0,0,0,0,0,0,0,0,0,0,0,0,0,0,0,0,0,0,0,0,0,0,0,0,0,0,0,0,0,0,0,0,0,0,0,0,0,0,0,0,0,0,0,0,0,0,0,0,0,0,0,0,0,0,0,0,0,0,0,0,0,0,0,0,0,0,0,0,0,0,0,0,0,0,0,0,0,0,0,0,0,0,0,0,0,0,0,0,0,0,0,0,0,0,0,0,0,0,0,0,0,0,0,0,0,0,0,0,0,0,0,0,0,0,0,0,0,0,0,0,0,0,0,0,0,0,0,0,0,0,0,0,0,0,0,0,0,0,0,0,0,0,0,0,0,0,0,0,0,0,0,0,0,0,0,0,0,0,0,0,0,0,0,0,0,0,0,0,0,0,0,0,0,0,0,0,0,0,0,0,0,0,0,0,0,0,0,0,0,0,0,0,0,0,0,0,0,0,0,0,0,0,0,0,0,0,0,0,0,0,0,0,0,0,0,0,0,0,0,0,0,0,0,0,0,0,0,0,0,0,0,0,0,0,0,0,0,0,0,0,0,0,0,0,0,0,0,0,0,0,0,0,0,0,0,0,0,0,0,0,0,0,0,0,0,0,0,0,0,0,0,0,0,0,0,0,0,0,0,0,0,0,0,0,0,0,0,0,0,0,0,0,0,0,0,0,0,0,0,0,0,0,0,0,0,0,0,0,0,0,0,0,0,0,0,0,0,0,0,0,0,0,0,0,0,0,0,0,0,0,0,0,0,0,0,0,0,0,0,0,0,0,0,0,0,0,0,0,0,0,0,0,0,0,0,0,0,0,0,0,0,0,0,0,0,0,0,0,0,0,0,0,0,0,0,0,0,0,0,0,0,0,0,0,0,0,0,0,0,0,0,0,0,0,0,0,0,0,0,0,0,0,0,0,0,0,0,0,0,0,0,0,0,0,0,0,0,0,0,0,0,0,0,0,0,0,0,0,0,0,0,0,0,0,0,0,0,0,0,0,0,0,0,0,0,0,0,0,0,0,0,0,0,0,0,0,0,0,0,0,0,0,0,0,0,0,0,0,0,0,0,0,0,0,0,0,0,0,0,0,0,0,0,0,0,0,0,0,0,0,0,0,0,0,0,0,0,0,0,0,0,0,0,0,0,0,0,0,0,0,0,0,0,0,0,0,0,0,0,0,0,0,0,0,0,0,0,0,0,0,0,0,0,0,0,0,0,0,0,0,0,0,0,0,0,0,0,0,0,0,0,0,0,0,0,0,0,0,0,0,0,0,0,0,0,0,0,0,0,0,0,0,0,0,0,0,0,0,0,0,0,0,0,0,0,0,0,0,0,0,0,0,0,0,0,0,0,0,0,0,0,0,0,0,0,0,0,0,0,0,0,0,0,0,0,0,0,0,0,0,0,0,0,0,0,0,0,0,0,0,0,0,0,0,0,0,0,0,0,0,0,0,0,0,0,0,0,0,0,0,0,0,0,0,0,0,0,0,0,0,0,0,0,0,0,0,0,0,0,0,0],"trees":[{"base_weights":[2.2444123E-2,-2.1514939E-1,1.2498406E0,-3.216687E-1,1.4156607E0,1.5870748E-1,1.6731377E0,-5.421649E-1,7.7585275E-3,6.442194E-1,2.0876884E0,-3.9058886E-2,4.7854024E-1,2.0171754E0,1.2460474E0,-3.0652834E-2,-8.836661E-3,-8.804733E-3,2.1131292E-2,1.3545155E-2,3.176122E-2,3.304416E-2,1.0241503E-1,-2.0268795E-3,2.8382774E-2,7.245845E-2,1.0845927E-1,-9.887959E-5,5.920483E-2],"categories":[],"categories_nodes":[],"categories_segments":[],"categories_sizes":[],"default_left":[0,0,0,0,0,0,0,0,0,0,0,0,0,0,0,0,0,0,0,0,0,0,0,0,0,0,0,0,0],"id":0,"left_children":[1,3,5,7,9,11,13,15,17,19,21,-1,23,25,27,-1,-1,-1,-1,-1,-1,-1,-1,-1,-1,-1,-1,-1,-1],"loss_changes":[2.3735713E2,1.1892749E2,6.0701767E1,4.6564827E1,2.0429123E1,1.36140995E1,1.1445343E1,2.33415E1,2.7597174E1,4.9213314E-1,7.8013306E0,0E0,3.0912528E0,4.061554E0,8.772995E0,0E0,0E0,0E0,0E0,0E0,0E0,0E0,0E0,0E0,0E0,0E0,0E0,0E0,0E0],"parents":[2147483647,0,0,1,1,2,2,3,3,4,4,5,5,6,6,7,7,8,8,9,9,10,10,12,12,13,13,14,14],"right_children":[2,4,6,8,10,12,14,16,18,20,22,-1,24,26,28,-1,-1,-1,-1,-1,-1,-1,-1,-1,-1,-1,-1,-1,-1],"split_conditions":[1.0459443E0,1.9964424E0,-7.679452E-1,-8.880498E-2,-3.7678355E-1,-9.181213E-1,6.8696305E-2,-7.928157E-3,-2.4504948E-1,2.6134079E0,-3.7746203E-1,-3.9058886E-2,-8.8894695E-1,1.7902496E-1,-4.0171888E-1,-3.0652834E-2,-8.836661E-3,-8.804733E-3,2.1131292E-2,1.3545155E-2,3.176122E-2,3.304416E-2,1.0241503E-1,-2.0268795E-3,2.8382774E-2,7.245845E-2,1.0845927E-1,-9.887959E-5,5.920483E-2],"split_indices":[1,6,6,6,1,6,5,1,1,6,4,0,6,6,3,0,0,0,0,0,0,0,0,0,0,0,0,0,0],"split_type":[0,0,0,0,0,0,0,0,0,0,0,0,0,0,0,0,0,0,0,0,0,0,0,0,0,0,0,0,0],"sum_hessian":[8.12E2,6.81E2,1.31E2,6.4E2,4.1E1,3.7E1,9.4E1,3.83E2,2.57E2,2E1,2.1E1,8E0,2.9E1,5E1,4.4E1,2.46E2,1.37E2,1.79E2,7.8E1,6E0,1.4E1,5E0,1.6E1,8E0,2.1E1,3.5E1,1.5E1,5E0,3.9E1],"tree_param":{"num_deleted":"0","num_feature":"7","num_nodes":"29","size_leaf_vector":"1"}},{"base_weights":[-6.6974354E-3,-2.3031904E-1,1.1848121E0,-2.6164922E-1,7.81614E-2,6.1437553E-1,1.6388711E0,-4.4145644E-1,7.408617E-2,-1.3385151E-1,8.6109716E-1,5.461503E-3,1.8347212E0,-3.4397665E-2,-1.5723782E-2,6.1780646E-2,1.0100774E-3,-1.4911701E-2,4.6936478E-4,3.2503346E-3,4.2706657E-2,9.257336E-2,5.6362573E-2],"categories":[],"categories_nodes":[],"categories_segments":[],"categories_sizes":[],"default_left":[0,0,0,0,0,0,0,0,0,0,0,0,0,0,0,0,0,0,0,0,0,0,0],"id":1,"left_children":[1,3,5,7,-1,9,11,13,15,17,19,-1,21,-1,-1,-1,-1,-1,-1,-1,-1,-1,-1],"loss_changes":[2.1076624E2,4.3915115E1,3.1369583E1,3.9694244E1,0E0,1.0637674E1,2.0161911E1,1.0728523E1,1.5991844E1,4.8080498E-1,4.990814E0,0E0,7.9808044E0,0E0,0E0,0E0,0E0,0E0,0E0,0E0,0E0,0E0,0E0],"parents":[2147483647,0,0,1,1,2,2,3,3,5,5,6,6,7,7,8,8,9,9,10,10,12,12],"right_children":[2,4,6,8,-1,10,12,14,16,18,20,-1,22,-1,-1,-1,-1,-1,-1,-1,-1,-1,-1],"split_conditions":[9.142103E-1,1.6975714E0,-1.2929142E-1,-2.4504948E-1,7.81614E-2,-2.4472807E-1,-1.3791312E0,-9.532996E-1,-1.7197965E0,1.2303721E0,-1.3791312E0,5.461503E-3,8.3940107E-1,-3.4397665E-2,-1.5723782E-2,6.1780646E-2,1.0100774E-3,-1.4911701E-2,4.6936478E-4,3.2503346E-3,4.2706657E-2,9.257336E-2,5.6362573E-2],"split_indices":[1,2,2,1,0,3,5,5,5,1,5,0,4,0,0,0,0,0,0,0,0,0,0],"split_type":[0,0,0,0,0,0,0,0,0,0,0,0,0,0,0,0,0,0,0,0,0,0,0],"sum_hessian":[7.89E2,6.65E2,1.24E2,6.56E2,9E0,5.6E1,6.8E1,4.27E2,2.29E2,1.4E1,4.2E1,8E0,6E1,6.5E1,3.62E2,7E0,2.22E2,5E0,9E0,7E0,3.5E1,3.3E1,2.7E1],"tree_param":{"num_deleted":"0","num_feature":"7","num_nodes":"23","size_leaf_vector":"1"}},{"base_weights":[6.592121E-3,-2.1420191E-1,1.1864626E0,-3.1674135E-1,1.3616267E0,1.4101228E-1,1.5446713E0,-6.1533225E-1,-1.1894595E-1,6.032164E-1,1.9289385E0,-3.995842E-2,4.1769567E-1,1.1268137E0,2.3059998E0,-3.1897802E-2,-1.5993878E-2,-1.3234197E-2,1.19715035E-2,1.153225E-2,2.9624473E-2,4.4353325E-2,9.490463E-2,-1.3549222E-3,2.3127602E-2,1.5970815E-2,5.822567E-2,6.3982606E-2,1.0415782E-1],"categories":[],"categories_nodes":[],"categories_segments":[],"categories_sizes":[],"default_left":[0,0,0,0,0,0,0,0,0,0,0,0,0,0,0,0,0,0,0,0,0,0,0,0,0,0,0,0,0],"id":2,"left_children":[1,3,5,7,9,11,13,15,17,19,21,-1,23,25,27,-1,-1,-1,-1,-1,-1,-1,-1,-1,-1,-1,-1,-1,-1],"loss_changes":[2.0657677E2,1.0836979E2,4.6593353E1,3.701643E1,1.647689E1,1.0323406E1,2.6987366E1,7.9993362E0,2.975412E1,4.2542267E-1,4.078583E0,0E0,1.5967793E0,1.1181183E1,3.302002E-1,0E0,0E0,0E0,0E0,0E0,0E0,0E0,0E0,0E0,0E0,0E0,0E0,0E0,0E0],"parents":[2147483647,0,0,1,1,2,2,3,3,4,4,5,5,6,6,7,7,8,8,9,9,10,10,12,12,13,13,14,14],"right_children":[2,4,6,8,10,12,14,16,18,20,22,-1,24,26,28,-1,-1,-1,-1,-1,-1,-1,-1,-1,-1,-1,-1,-1,-1],"split_conditions":[1.0459443E0,1.943833E0,-7.679452E-1,-6.196822E-1,-3.7678355E-1,-9.181213E-1,4.7372244E-2,-7.928157E-3,-1.7918244E-1,-9.1689324E-1,-5.446087E-1,-3.995842E-2,-1.347405E-1,-5.669355E-1,-5.2402866E-1,-3.1897802E-2,-1.5993878E-2,-1.3234197E-2,1.19715035E-2,1.153225E-2,2.9624473E-2,4.4353325E-2,9.490463E-2,-1.3549222E-3,2.3127602E-2,1.5970815E-2,5.822567E-2,6.3982606E-2,1.0415782E-1],"split_indices":[1,6,6,6,1,6,2,1,1,1,3,0,3,2,6,0,0,0,0,0,0,0,0,0,0,0,0,0,0],"split_type":[0,0,0,0,0,0,0,0,0,0,0,0,0,0,0,0,0,0,0,0,0,0,0,0,0,0,0,0,0],"sum_hessian":[7.91E2,6.67E2,1.24E2,6.27E2,4E1,3.2E1,9.2E1,2.49E2,3.78E2,1.8E1,2.2E1,6E0,2.6E1,6.1E1,3.1E1,1.55E2,9.4E1,2.55E2,1.23E2,5E0,1.3E1,7E0,1.5E1,6E0,2E1,1.6E1,4.5E1,7E0,2.4E1],"tree_param":{"num_deleted":"0","num_feature":"7","num_nodes":"29","size_leaf_vector":"1"}},{"base_weights":[1.3776708E-2,-4.285304E-1,2.4998282E-1,-7.32979E-1,-3.021955E-1,7.1474737E-1,-8.953509E-2,-3.1618748E-2,-1.7201753E-2,-5.5868274E-1,-1.0943603E-1,5.92185E-1,2.3747997E0,-2.614155E-1,1.6831478E-1,-2.6585106E-2,-4.7258115E-3,7.3774178E-3,-1.8062148E-2,1.1730307E-2,4.1758373E-2,1.1970095E-1,5.1183365E-2,-1.8194465E-2,-1.71331E-3,4.4142306E-2,3.43885E-3],"categories":[],"categories_nodes":[],"categories_segments":[],"categories_sizes":[],"default_left":[0,0,0,0,0,0,0,0,0,0,0,0,0,0,0,0,0,0,0,0,0,0,0,0,0,0,0],"id":3,"left_children":[1,3,5,7,9,11,13,-1,-1,15,17,19,21,23,25,-1,-1,-1,-1,-1,-1,-1,-1,-1,-1,-1,-1],"loss_changes":[8.4627914E1,1.0624916E1,8.338022E1,1.18133545E-1,9.876369E0,4.396525E1,1.360572E1,0E0,0E0,2.6549664E0,1.0567633E1,2.5795631E1,4.5872498E0,6.8694725E0,9.28704E0,0E0,0E0,0E0,0E0,0E0,0E0,0E0,0E0,0E0,0E0,0E0,0E0],"parents":[2147483647,0,0,1,1,2,2,3,3,4,4,5,5,6,6,9,9,10,10,11,11,12,12,13,13,14,14],"right_children":[2,4,6,8,10,12,14,-1,-1,16,18,20,22,24,26,-1,-1,-1,-1,-1,-1,-1,-1,-1,-1,-1,-1],"split_conditions":[-6.196822E-1,-3.7746203E-1,2.3902896E-1,-6.3929117E-1,-8.530769E-1,1.3964401E0,-3.6740355E-2,-3.1618748E-2,-1.7201753E-2,1.3261464E0,6.8696305E-2,3.5265583E-1,5.9602845E-1,3.5598403E-1,-5.06811E-1,-2.6585106E-2,-4.7258115E-3,7.3774178E-3,-1.8062148E-2,1.1730307E-2,4.1758373E-2,1.1970095E-1,5.1183365E-2,-1.8194465E-2,-1.71331E-3,4.4142306E-2,3.43885E-3],"split_indices":[6,4,5,6,6,2,4,0,0,4,5,4,4,6,6,0,0,0,0,0,0,0,0,0,0,0,0],"split_type":[0,0,0,0,0,0,0,0,0,0,0,0,0,0,0,0,0,0,0,0,0,0,0,0,0,0,0],"sum_hessian":[8.08E2,2.81E2,5.27E2,8.1E1,2E2,2.22E2,3.05E2,7.6E1,5E0,8.5E1,1.15E2,2.08E2,1.4E1,1.83E2,1.22E2,7.3E1,1.2E1,6.1E1,5.4E1,1.17E2,9.1E1,9E0,5E0,1.03E2,8E1,1E1,1.12E2],"tree_param":{"num_deleted":"0","num_feature":"7","num_nodes":"27","size_leaf_vector":"1"}},{"base_weights":[-2.373382E-2,-2.592341E-1,9.067841E-1,-3.4623498E-1,9.567141E-1,4.011053E-2,1.2933339E0,-5.2353305E-1,-6.2287312E-2,5.428634E-1,1.5577291E0,-3.4089398E-2,3.2156658E-1,2.9471695E-1,1.4689314E0,-2.6576184E-2,-6.1896695E-3,-8.9477515E-3,1.29677905E-2,6.9602383E-3,2.9276365E-2,2.9372102E-2,7.849355E-2,-2.230902E-3,2.068664E-2,-3.4338098E-3,2.2860525E-2,4.6888992E-2,9.1759235E-2],"categories":[],"categories_nodes":[],"categories_segments":[],"categories_sizes":[],"default_left":[0,0,0,0,0,0,0,0,0,0,0,0,0,0,0,0,0,0,0,0,0,0,0,0,0,0,0,0,0],"id":4,"left_children":[1,3,5,7,9,11,13,15,17,19,21,-1,23,25,27,-1,-1,-1,-1,-1,-1,-1,-1,-1,-1,-1,-1,-1,-1],"loss_changes":[1.7576398E2,6.803594E1,5.4220123E1,3.0072723E1,9.849773E0,1.2424182E1,1.9206818E1,1.45939865E1,1.2832816E1,1.4217234E0,3.121807E0,0E0,2.484181E0,1.7138152E0,2.1567444E1,0E0,0E0,0E0,0E0,0E0,0E0,0E0,0E0,0E0,0E0,0E0,0E0,0E0,0E0],"parents":[2147483647,0,0,1,1,2,2,3,3,4,4,5,5,6,6,7,7,8,8,9,9,10,10,12,12,13,13,14,14],"right_children":[2,4,6,8,10,12,14,16,18,20,22,-1,24,26,28,-1,-1,-1,-1,-1,-1,-1,-1,-1,-1,-1,-1,-1,-1],"split_conditions":[7.034358E-1,1.7620913E0,-7.6555383E-1,-9.358766E-2,-3.7678355E-1,-9.181213E-1,-7.777448E-1,5.2452497E-3,-3.7678355E-1,-6.929453E-1,-5.446087E-1,-3.4089398E-2,-8.8894695E-1,5.131219E-1,4.7372244E-2,-2.6576184E-2,-6.1896695E-3,-8.9477515E-3,1.29677905E-2,6.9602383E-3,2.9276365E-2,2.9372102E-2,7.849355E-2,-2.230902E-3,2.068664E-2,-3.4338098E-3,2.2860525E-2,4.6888992E-2,9.1759235E-2],"split_indices":[1,6,6,6,1,6,3,1,1,1,3,0,6,2,2,0,0,0,0,0,0,0,0,0,0,0,0,0,0],"split_type":[0,0,0,0,0,0,0,0,0,0,0,0,0,0,0,0,0,0,0,0,0,0,0,0,0,0,0,0,0],"sum_hessian":[8E2,6.39E2,1.61E2,5.97E2,4.2E1,5E1,1.11E2,3.67E2,2.3E2,2.6E1,1.6E1,1.2E1,3.8E1,1.7E1,9.4E1,2.86E2,8.1E1,1.64E2,6.6E1,8E0,1.8E1,5E0,1.1E1,1.2E1,2.6E1,7E0,1E1,6.4E1,3E1],"tree_param":{"num_deleted":"0","num_feature":"7","num_nodes":"29","size_leaf_vector":"1"}},{"base_weights":[2.5080442E-2,-4.029825E-2,1.8851424E0,-1.5956707E-1,7.559793E-1,2.6743392E-2,2.4447536E0,-4.874119E-1,2.845171E-2,1.3088455E0,3.2873008E-1,1.2041464E-1,4.592034E-2,-3.0781794E-2,-1.6026475E-2,1.8196069E-2,-9.086039E-3,2.420417E-2,6.998851E-2,-1.47454105E-2,1.7939337E-2],"categories":[],"categories_nodes":[],"categories_segments":[],"categories_sizes":[],"default_left":[0,0,0,0,0,0,0,0,0,0,0,0,0,0,0,0,0,0,0,0,0],"id":5,"left_children":[1,3,5,7,9,-1,11,13,15,17,19,-1,-1,-1,-1,-1,-1,-1,-1,-1,-1],"loss_changes":[1.002813E2,7.58126E1,1.8065796E1,4.279271E1,2.4135754E1,0E0,7.394951E0,6.315838E0,4.343572E1,1.0592758E1,4.0585995E0,0E0,0E0,0E0,0E0,0E0,0E0,0E0,0E0,0E0,0E0],"parents":[2147483647,0,0,1,1,2,2,3,3,4,4,6,6,7,7,8,8,9,9,10,10],"right_children":[2,4,6,8,10,-1,12,14,16,18,20,-1,-1,-1,-1,-1,-1,-1,-1,-1,-1],"split_conditions":[1.6975714E0,1.1738219E0,-5.2402866E-1,-6.6176975E-1,1.3682936E-1,2.6743392E-2,5.9602845E-1,-3.7746203E-1,2.3902896E-1,-1.2665784E0,-1.9963051E0,1.2041464E-1,4.592034E-2,-3.0781794E-2,-1.6026475E-2,1.8196069E-2,-9.086039E-3,2.420417E-2,6.998851E-2,-1.47454105E-2,1.7939337E-2],"split_indices":[2,6,6,6,5,0,4,4,5,3,2,0,0,0,0,0,0,0,0,0,0],"split_type":[0,0,0,0,0,0,0,0,0,0,0,0,0,0,0,0,0,0,0,0,0],"sum_hessian":[8.23E2,7.96E2,2.7E1,6.93E2,1.03E2,9E0,1.8E1,2.52E2,4.41E2,4.4E1,5.9E1,1.3E1,5E0,7.6E1,1.76E2,1.66E2,2.75E2,1.5E1,2.9E1,7E0,5.2E1],"tree_param":{"num_deleted":"0","num_feature":"7","num_nodes":"21","size_leaf_vector":"1"}},{"base_weights":[2.764534E-3,-2.0062348E-1,1.0977834E0,-2.751979E-1,1.2540076E0,1.7464095E-1,1.4003662E0,-4.4961178E-1,-4.1796076E-3,1.6647524E0,6.5013033E-1,-2.7248012E-2,3.503858E-1,4.0421477E-1,1.6309782E0,-2.2988528E-2,-2.3841962E-5,-7.6474436E-3,1.6280785E-2,1.7871412E-2,8.7738216E-2,3.693693E-2,1.9014673E-2,7.278985E-3,3.173483E-2,-1.6871837E-3,2.5853494E-2,5.4822814E-2,8.550506E-2],"categories":[],"categories_nodes":[],"categories_segments":[],"categories_sizes":[],"default_left":[0,0,0,0,0,0,0,0,0,0,0,0,0,0,0,0,0,0,0,0,0,0,0,0,0,0,0,0,0],"id":6,"left_children":[1,3,5,7,9,11,13,15,17,19,21,-1,23,25,27,-1,-1,-1,-1,-1,-1,-1,-1,-1,-1,-1,-1,-1,-1],"loss_changes":[1.777231E2,7.335097E1,3.467131E1,3.0297775E1,7.102997E0,4.8374224E0,2.093483E1,1.6606781E1,1.7448336E1,8.866394E0,2.793541E-1,0E0,1.7985382E0,1.7804804E0,7.331436E0,0E0,0E0,0E0,0E0,0E0,0E0,0E0,0E0,0E0,0E0,0E0,0E0,0E0,0E0],"parents":[2147483647,0,0,1,1,2,2,3,3,4,4,5,5,6,6,7,7,8,8,9,9,10,10,12,12,13,13,14,14],"right_children":[2,4,6,8,10,12,14,16,18,20,22,-1,24,26,28,-1,-1,-1,-1,-1,-1,-1,-1,-1,-1,-1,-1,-1,-1],"split_conditions":[1.1118114E0,1.9964424E0,-7.679452E-1,-1.0315301E-1,-1.8680267E-1,-9.147734E-1,-5.669355E-1,3.8727406E-1,-2.4504948E-1,-3.7746203E-1,1.5386263E-1,-2.7248012E-2,2.1872385E-1,-2.2291799E0,4.7372244E-2,-2.2988528E-2,-2.3841962E-5,-7.6474436E-3,1.6280785E-2,1.7871412E-2,8.7738216E-2,3.693693E-2,1.9014673E-2,7.278985E-3,3.173483E-2,-1.6871837E-3,2.5853494E-2,5.4822814E-2,8.550506E-2],"split_indices":[1,6,6,6,5,6,2,1,1,4,5,0,3,2,2,0,0,0,0,0,0,0,0,0,0,0,0,0,0],"split_type":[0,0,0,0,0,0,0,0,0,0,0,0,0,0,0,0,0,0,0,0,0,0,0,0,0,0,0,0,0],"sum_hessian":[7.96E2,6.72E2,1.24E2,6.4E2,3.2E1,3.1E1,9.3E1,3.89E2,2.51E2,1.8E1,1.4E1,5E0,2.6E1,1.8E1,7.5E1,3.21E2,6.8E1,1.73E2,7.8E1,5E0,1.3E1,5E0,9E0,1.9E1,7E0,6E0,1.2E1,4.3E1,3.2E1],"tree_param":{"num_deleted":"0","num_feature":"7","num_nodes":"29","size_leaf_vector":"1"}},{"base_weights":[2.2555519E-2,-1.9773848E-1,9.3286836E-1,-3.1751782E-1,5.550757E-1,-8.9284845E-2,1.2138562E0,-5.549392E-1,-1.6966528E-1,2.4749164E-1,1.1324941E0,-3.2456126E-2,1.4048105E-1,4.423986E-1,1.4342563E0,-2.5255933E-2,-1.3924667E-2,-1.4285736E-2,8.234797E-3,5.1020426E-3,2.7657997E-2,1.07110785E-2,6.251213E-2,-3.655063E-3,1.3844777E-2,-4.1961716E-3,2.483004E-2,4.7486644E-2,7.623866E-2],"categories":[],"categories_nodes":[],"categories_segments":[],"categories_sizes":[],"default_left":[0,0,0,0,0,0,0,0,0,0,0,0,0,0,0,0,0,0,0,0,0,0,0,0,0,0,0,0,0],"id":7,"left_children":[1,3,5,7,9,11,13,15,17,19,21,-1,23,25,27,-1,-1,-1,-1,-1,-1,-1,-1,-1,-1,-1,-1,-1,-1],"loss_changes":[1.62619E2,5.905829E1,4.5487976E1,1.9704128E1,1.5704134E1,5.5714025E0,2.0449127E1,1.9037552E0,2.1533226E1,3.0179458E0,9.104847E0,0E0,1.1772207E0,2.3468862E0,9.006271E0,0E0,0E0,0E0,0E0,0E0,0E0,0E0,0E0,0E0,0E0,0E0,0E0,0E0,0E0],"parents":[2147483647,0,0,1,1,2,2,3,3,4,4,5,5,6,6,7,7,8,8,9,9,10,10,12,12,13,13,14,14],"right_children":[2,4,6,8,10,12,14,16,18,20,22,-1,24,26,28,-1,-1,-1,-1,-1,-1,-1,-1,-1,-1,-1,-1,-1,-1],"split_conditions":[7.8247625E-1,1.1714306E0,-8.004674E-1,-6.196822E-1,-3.7678355E-1,-9.185039E-1,-4.5049807E-1,2.1601975E-1,-1.7918244E-1,2.6134079E0,-4.1034722E-1,-3.2456126E-2,-8.8894695E-1,-2.2291799E0,-2.2750263E-1,-2.5255933E-2,-1.3924667E-2,-1.4285736E-2,8.234797E-3,5.1020426E-3,2.7657997E-2,1.07110785E-2,6.251213E-2,-3.655063E-3,1.3844777E-2,-4.1961716E-3,2.483004E-2,4.7486644E-2,7.623866E-2],"split_indices":[1,6,6,6,1,6,2,1,1,6,2,0,6,2,6,0,0,0,0,0,0,0,0,0,0,0,0,0,0],"split_type":[0,0,0,0,0,0,0,0,0,0,0,0,0,0,0,0,0,0,0,0,0,0,0,0,0,0,0,0,0],"sum_hessian":[8.09E2,6.52E2,1.57E2,5.63E2,8.9E1,3.4E1,1.23E2,2.15E2,3.48E2,5.9E1,3E1,8E0,2.6E1,2.8E1,9.5E1,1.79E2,3.6E1,2.38E2,1.1E2,4.6E1,1.3E1,9E0,2.1E1,1.2E1,1.4E1,6E0,2.2E1,5.4E1,4.1E1],"tree_param":{"num_deleted":"0","num_feature":"7","num_nodes":"29","size_leaf_vector":"1"}},{"base_weights":[8.412186E-3,-1.7905354E-1,1.0319678E0,-2.4171199E-1,9.968801E-1,2.7503452E-1,1.276072E0,-5.0532943E-1,-9.84797E-2,3.6951655E-1,1.5688614E0,-1.8096726E-2,4.5389277E-1,5.8472455E-1,1.4643636E0,-2.3869079E-2,-5.4988E-3,-1.1366407E-2,9.27013E-3,1.9265754E-2,7.093797E-3,2.7296804E-2,7.912379E-2,7.198278E-3,2.319528E-2,4.7552697E-3,3.0272808E-2,5.0806377E-2,7.471439E-2],"categories":[],"categories_nodes":[],"categories_segments":[],"categories_sizes":[],"default_left":[0,0,0,0,0,0,0,0,0,0,0,0,0,0,0,0,0,0,0,0,0,0,0,0,0,0,0,0,0],"id":8,"left_children":[1,3,5,7,9,11,13,15,17,19,21,-1,23,25,27,-1,-1,-1,-1,-1,-1,-1,-1,-1,-1,-1,-1,-1,-1],"loss_changes":[1.5618452E2,5.0934296E1,2.293013E1,2.4644314E1,1.1979687E1,4.2216835E0,1.1510376E1,5.099724E0,2.313268E1,2.3803115E-1,3.8530846E0,0E0,6.096549E-1,1.2926359E0,3.7661896E0,0E0,0E0,0E0,0E0,0E0,0E0,0E0,0E0,0E0,0E0,0E0,0E0,0E0,0E0],"parents":[2147483647,0,0,1,1,2,2,3,3,4,4,5,5,6,6,7,7,8,8,9,9,10,10,12,12,13,13,14,14],"right_children":[2,4,6,8,10,12,14,16,18,20,22,-1,24,26,28,-1,-1,-1,-1,-1,-1,-1,-1,-1,-1,-1,-1,-1,-1],"split_conditions":[1.1118114E0,1.9964424E0,-7.822932E-1,-6.536392E-1,-3.7746203E-1,-9.1132987E-1,-4.0231708E-1,5.190081E-1,-2.4504948E-1,-8.6420727E-1,-4.953442E-1,-1.8096726E-2,-4.1034722E-1,-2.0163805E0,4.7372244E-2,-2.3869079E-2,-5.4988E-3,-1.1366407E-2,9.27013E-3,1.9265754E-2,7.093797E-3,2.7296804E-2,7.912379E-2,7.198278E-3,2.319528E-2,4.7552697E-3,3.0272808E-2,5.0806377E-2,7.471439E-2],"split_indices":[1,6,6,6,4,6,2,1,1,4,1,0,2,2,2,0,0,0,0,0,0,0,0,0,0,0,0,0,0],"split_type":[0,0,0,0,0,0,0,0,0,0,0,0,0,0,0,0,0,0,0,0,0,0,0,0,0,0,0,0,0],"sum_hessian":[8.12E2,6.87E2,1.25E2,6.53E2,3.4E1,3.1E1,9.4E1,2.29E2,4.24E2,1.7E1,1.7E1,6E0,2.5E1,2.1E1,7.3E1,1.97E2,3.2E1,2.76E2,1.48E2,1.1E1,6E0,5E0,1.2E1,7E0,1.8E1,5E0,1.6E1,4.2E1,3.1E1],"tree_param":{"num_deleted":"0","num_feature":"7","num_nodes":"29","size_leaf_vector":"1"}},{"base_weights":[2.6548805E-2,-7.847195E-2,7.420636E-1,-1.2188245E-1,1.3350726E0,1.2582366E0,3.198907E-1,-2.6936594E-1,2.0861085E-1,2.3033183E-2,1.7790037E0,7.976081E-1,1.581889E0,-1.0554599E-2,4.1606706E-1,-2.0633599E-2,-6.092939E-3,-7.551402E-3,1.7336903E-2,4.443378E-2,8.873975E-2,6.209612E-3,4.187423E-2,3.450918E-2,8.1855975E-2,1.0226563E-2,3.0051557E-2],"categories":[],"categories_nodes":[],"categories_segments":[],"categories_sizes":[],"default_left":[0,0,0,0,0,0,0,0,0,0,0,0,0,0,0,0,0,0,0,0,0,0,0,0,0,0,0],"id":9,"left_children":[1,3,5,7,9,11,13,15,17,-1,19,21,23,-1,25,-1,-1,-1,-1,-1,-1,-1,-1,-1,-1,-1,-1],"loss_changes":[6.0473923E1,4.3239323E1,2.2042667E1,3.3298443E1,6.390419E0,5.596115E0,3.2827911E0,1.2875149E1,1.6585833E1,0E0,8.361931E-1,2.5058966E0,5.507004E0,0E0,2.3978386E0,0E0,0E0,0E0,0E0,0E0,0E0,0E0,0E0,0E0,0E0,0E0,0E0],"parents":[2147483647,0,0,1,1,2,2,3,3,4,4,5,5,6,6,7,7,8,8,10,10,11,11,12,12,14,14],"right_children":[2,4,6,8,10,12,14,16,18,-1,20,22,24,-1,26,-1,-1,-1,-1,-1,-1,-1,-1,-1,-1,-1,-1],"split_conditions":[1.1738219E0,1.6975714E0,1.3682936E-1,5.9602845E-1,-5.2402866E-1,1.9964424E0,-1.9963051E0,-6.536392E-1,-7.022312E-1,2.3033183E-2,-3.829176E-1,-2.2630472E0,-3.7746203E-1,-1.0554599E-2,-3.287875E-1,-2.0633599E-2,-6.092939E-3,-7.551402E-3,1.7336903E-2,4.443378E-2,8.873975E-2,6.209612E-3,4.187423E-2,3.450918E-2,8.1855975E-2,1.0226563E-2,3.0051557E-2],"split_indices":[6,2,5,4,6,6,2,6,6,0,3,3,4,0,4,0,0,0,0,0,0,0,0,0,0,0,0],"split_type":[0,0,0,0,0,0,0,0,0,0,0,0,0,0,0,0,0,0,0,0,0,0,0,0,0,0,0],"sum_hessian":[8.03E2,7.01E2,1.02E2,6.81E2,2E1,4.5E1,5.7E1,4.71E2,2.1E2,8E0,1.2E1,2E1,2.5E1,8E0,4.9E1,1.7E2,3.01E2,7.2E1,1.38E2,5E0,7E0,5E0,1.5E1,9E0,1.6E1,3.2E1,1.7E1],"tree_param":{"num_deleted":"0","num_feature":"7","num_nodes":"27","size_leaf_vector":"1"}},{"base_weights":[-5.2315383E-3,-1.7458852E-1,9.651435E-1,-2.430618E-1,9.5958525E-1,7.801267E-4,1.2658507E0,-3.955709E-1,-2.3740649E-3,3.3850214E-1,1.3595364E0,-3.7320722E-2,2.1306513E-1,6.810479E-1,1.5913124E0,-2.2131283E-2,-3.515354E-3,-7.843413E-3,1.5387264E-2,8.120824E-3,2.425512E-2,2.413011E-2,6.9687456E-2,-1.9612643E-3,1.6432429E-2,-9.095306E-3,3.5368536E-2,5.3435486E-2,8.151662E-2],"categories":[],"categories_nodes":[],"categories_segments":[],"categories_sizes":[],"default_left":[0,0,0,0,0,0,0,0,0,0,0,0,0,0,0,0,0,0,0,0,0,0,0,0,0,0,0,0,0],"id":10,"left_children":[1,3,5,7,9,11,13,15,17,19,21,-1,23,25,27,-1,-1,-1,-1,-1,-1,-1,-1,-1,-1,-1,-1,-1,-1],"loss_changes":[1.3492712E2,5.4517994E1,3.53779E1,2.4225727E1,9.47591E0,5.8222656E0,1.661702E1,1.617838E1,1.7354347E1,4.7581542E-1,4.5583534E0,0E0,1.1606251E0,5.093546E0,4.0779266E0,0E0,0E0,0E0,0E0,0E0,0E0,0E0,0E0,0E0,0E0,0E0,0E0,0E0,0E0],"parents":[2147483647,0,0,1,1,2,2,3,3,4,4,5,5,6,6,7,7,8,8,9,9,10,10,12,12,13,13,14,14],"right_children":[2,4,6,8,10,12,14,16,18,20,22,-1,24,26,28,-1,-1,-1,-1,-1,-1,-1,-1,-1,-1,-1,-1,-1,-1],"split_conditions":[1.1118114E0,1.9964424E0,-4.1034722E-1,-1.0315301E-1,-3.7746203E-1,-9.181213E-1,-5.94334E-1,5.2452497E-3,-3.7678355E-1,3.5268993E0,-4.953442E-1,-3.7320722E-2,-2.4472807E-1,-8.9325136E-1,1.3570407E-1,-2.2131283E-2,-3.515354E-3,-7.843413E-3,1.5387264E-2,8.120824E-3,2.425512E-2,2.413011E-2,6.9687456E-2,-1.9612643E-3,1.6432429E-2,-9.095306E-3,3.5368536E-2,5.3435486E-2,8.151662E-2],"split_indices":[1,6,2,6,4,6,6,1,1,6,1,0,3,6,2,0,0,0,0,0,0,0,0,0,0,0,0,0,0],"split_type":[0,0,0,0,0,0,0,0,0,0,0,0,0,0,0,0,0,0,0,0,0,0,0,0,0,0,0,0,0],"sum_hessian":[8.19E2,6.98E2,1.21E2,6.59E2,3.9E1,2.9E1,9.2E1,4.03E2,2.56E2,1.6E1,2.3E1,5E0,2.4E1,3.4E1,5.8E1,2.85E2,1.18E2,1.71E2,8.5E1,1.1E1,5E0,7E0,1.6E1,1E1,1.4E1,5E0,2.9E1,3.2E1,2.6E1],"tree_param":{"num_deleted":"0","num_feature":"7","num_nodes":"29","size_leaf_vector":"1"}},{"base_weights":[8.825855E-3,-1.6807395E-1,9.709165E-1,-3.007484E-1,3.6387816E-1,8.504401E-3,1.1358204E0,-4.030328E-1,-8.550907E-3,9.640682E-2,9.4747233E-1,-1.637936E-1,1.7274573E-2,1.6467705E-1,1.247713E0,-2.1040952E-2,-8.094874E-3,-1.1482105E-2,1.1927285E-2,-1.3983976E-3,1.4539864E-2,6.885856E-2,1.9602573E-2,7.052045E-3,-2.1891583E-2,-3.4560086E-3,1.7938718E-2,4.5497917E-2,6.882985E-2],"categories":[],"categories_nodes":[],"categories_segments":[],"categories_sizes":[],"default_left":[0,0,0,0,0,0,0,0,0,0,0,0,0,0,0,0,0,0,0,0,0,0,0,0,0,0,0,0,0],"id":11,"left_children":[1,3,5,7,9,11,13,15,17,19,21,23,-1,25,27,-1,-1,-1,-1,-1,-1,-1,-1,-1,-1,-1,-1,-1,-1],"loss_changes":[1.3478636E2,4.732509E1,1.9511124E1,1.6016117E1,2.082535E1,1.3784763E0,1.1204224E1,7.8981323E0,1.080792E1,2.9980803E0,1.3110966E1,1.7291644E0,0E0,8.0443037E-1,4.3606415E0,0E0,0E0,0E0,0E0,0E0,0E0,0E0,0E0,0E0,0E0,0E0,0E0,0E0,0E0],"parents":[2147483647,0,0,1,1,2,2,3,3,4,4,5,5,6,6,7,7,8,8,9,9,10,10,11,11,13,13,14,14],"right_children":[2,4,6,8,10,12,14,16,18,20,22,24,-1,26,28,-1,-1,-1,-1,-1,-1,-1,-1,-1,-1,-1,-1,-1,-1],"split_conditions":[1.1776785E0,8.294691E-1,-8.530769E-1,5.2452497E-3,-2.7139628E-1,-8.8894695E-1,-2.0163805E0,-1.0315301E-1,-6.1011684E-1,1.7620913E0,-2.71969E-1,-1.4642975E0,1.7274573E-2,8.3940107E-1,4.0327314E-2,-2.1040952E-2,-8.094874E-3,-1.1482105E-2,1.1927285E-2,-1.3983976E-3,1.4539864E-2,6.885856E-2,1.9602573E-2,7.052045E-3,-2.1891583E-2,-3.4560086E-3,1.7938718E-2,4.5497917E-2,6.882985E-2],"split_indices":[1,6,6,1,1,6,2,6,6,6,5,5,0,4,6,0,0,0,0,0,0,0,0,0,0,0,0,0,0],"split_type":[0,0,0,0,0,0,0,0,0,0,0,0,0,0,0,0,0,0,0,0,0,0,0,0,0,0,0,0,0],"sum_hessian":[7.9E2,6.68E2,1.22E2,5.35E2,1.33E2,1.8E1,1.04E2,3.96E2,1.39E2,9.2E1,4.1E1,1.3E1,5E0,1.1E1,9.3E1,2.72E2,1.24E2,7.3E1,6.6E1,6.1E1,3.1E1,1.6E1,2.5E1,7E0,6E0,6E0,5E0,6.7E1,2.6E1],"tree_param":{"num_deleted":"0","num_feature":"7","num_nodes":"29","size_leaf_vector":"1"}},{"base_weights":[-7.487848E-3,-1.862628E-1,7.343082E-1,-2.4558829E-1,8.3211476E-1,2.9168492E-2,1.0425463E0,-4.903337E-1,-1.2608619E-1,1.4087921E0,4.989579E-1,-4.3104538E-1,3.503459E-1,7.5607695E-2,8.8024795E-1,-2.2783168E-2,-1.0534972E-2,-1.1133518E-2,5.2219857E-3,8.355242E-2,3.3998974E-2,8.601941E-3,2.543815E-2,-3.971742E-3,-2.5031243E-2,9.517736E-3,3.0766636E-2,3.291416E-2,7.877957E-2],"categories":[],"categories_nodes":[],"categories_segments":[],"categories_sizes":[],"default_left":[0,0,0,0,0,0,0,0,0,0,0,0,0,0,0,0,0,0,0,0,0,0,0,0,0,0,0,0,0],"id":12,"left_children":[1,3,5,7,9,11,13,15,17,19,21,23,25,-1,27,-1,-1,-1,-1,-1,-1,-1,-1,-1,-1,-1,-1,-1,-1],"loss_changes":[1.0994161E2,4.056208E1,3.4963097E1,1.8422653E1,6.4056587E0,7.54153E0,1.202195E1,2.3202324E0,1.4671839E1,2.8792038E0,6.411686E-1,1.0890398E0,1.2536716E0,0E0,7.877701E0,0E0,0E0,0E0,0E0,0E0,0E0,0E0,0E0,0E0,0E0,0E0,0E0,0E0,0E0],"parents":[2147483647,0,0,1,1,2,2,3,3,4,4,5,5,6,6,7,7,8,8,9,9,10,10,11,11,12,12,14,14],"right_children":[2,4,6,8,10,12,14,16,18,20,22,24,26,-1,28,-1,-1,-1,-1,-1,-1,-1,-1,-1,-1,-1,-1,-1,-1],"split_conditions":[7.034358E-1,1.943833E0,-7.6555383E-1,-6.832918E-1,-2.71969E-1,-8.8894695E-1,-6.9780064E-1,2.1601975E-1,-3.7678355E-1,3.0964582E0,3.8231414E-2,-1.4642975E0,3.80415E-1,7.5607695E-2,1.5755668E0,-2.2783168E-2,-1.0534972E-2,-1.1133518E-2,5.2219857E-3,8.355242E-2,3.3998974E-2,8.601941E-3,2.543815E-2,-3.971742E-3,-2.5031243E-2,9.517736E-3,3.0766636E-2,3.291416E-2,7.877957E-2],"split_indices":[1,6,6,6,5,6,5,1,1,6,3,5,3,0,6,0,0,0,0,0,0,0,0,0,0,0,0,0,0],"split_type":[0,0,0,0,0,0,0,0,0,0,0,0,0,0,0,0,0,0,0,0,0,0,0,0,0,0,0,0,0],"sum_hessian":[8.27E2,6.67E2,1.6E2,6.31E2,3.6E1,4.9E1,1.11E2,2.06E2,4.25E2,1.2E1,2.4E1,2E1,2.9E1,1.8E1,9.3E1,1.7E2,3.6E1,2.74E2,1.51E2,5E0,7E0,7E0,1.7E1,7E0,1.3E1,2.3E1,6E0,8.6E1,7E0],"tree_param":{"num_deleted":"0","num_feature":"7","num_nodes":"29","size_leaf_vector":"1"}},{"base_weights":[-6.882265E-3,-1.4940444E-1,8.0639035E-1,-2.2656387E-1,8.2579255E-1,-3.688601E-1,9.416414E-1,-3.5868815E-1,-8.910018E-3,3.186567E-1,1.5109489E0,6.2366533E-3,-2.9986566E-2,2.5909433E-1,1.1152525E0,-1.9483354E-2,-6.551058E-3,-7.536728E-3,1.3949504E-2,-3.5849572E-3,1.8796967E-2,2.7997402E-2,7.323661E-2,-1.9974064E-3,2.1045582E-2,3.9896466E-2,6.5878615E-2],"categories":[],"categories_nodes":[],"categories_segments":[],"categories_sizes":[],"default_left":[0,0,0,0,0,0,0,0,0,0,0,0,0,0,0,0,0,0,0,0,0,0,0,0,0,0,0],"id":13,"left_children":[1,3,5,7,9,11,13,15,17,19,21,-1,-1,23,25,-1,-1,-1,-1,-1,-1,-1,-1,-1,-1,-1,-1],"loss_changes":[9.250026E1,5.1278893E1,1.9262848E1,1.8113937E1,1.6891891E1,2.3969364E0,1.2390297E1,8.12561E0,1.3810018E1,1.5694737E0,2.8298645E0,0E0,0E0,1.710183E0,4.969818E0,0E0,0E0,0E0,0E0,0E0,0E0,0E0,0E0,0E0,0E0,0E0,0E0],"parents":[2147483647,0,0,1,1,2,2,3,3,4,4,5,5,6,6,7,7,8,8,9,9,10,10,13,13,14,14],"right_children":[2,4,6,8,10,12,14,16,18,20,22,-1,-1,24,26,-1,-1,-1,-1,-1,-1,-1,-1,-1,-1,-1,-1],"split_conditions":[1.1118114E0,1.7142644E0,-8.8894695E-1,-8.880498E-2,-3.7678355E-1,-1.4642975E0,-4.1034722E-1,-6.0621783E-2,-3.7678355E-1,-1.347405E-1,-1.9810277E0,6.2366533E-3,-2.9986566E-2,-3.265137E-1,2.1196604E-2,-1.9483354E-2,-6.551058E-3,-7.536728E-3,1.3949504E-2,-3.5849572E-3,1.8796967E-2,2.7997402E-2,7.323661E-2,-1.9974064E-3,2.1045582E-2,3.9896466E-2,6.5878615E-2],"split_indices":[1,6,6,6,1,5,2,1,1,3,3,0,0,3,6,0,0,0,0,0,0,0,0,0,0,0,0],"split_type":[0,0,0,0,0,0,0,0,0,0,0,0,0,0,0,0,0,0,0,0,0,0,0,0,0,0,0],"sum_hessian":[7.96E2,6.78E2,1.18E2,6.29E2,4.9E1,1.2E1,1.06E2,3.91E2,2.38E2,2.9E1,2E1,5E0,7E0,2.2E1,8.4E1,2.59E2,1.32E2,1.59E2,7.9E1,7E0,2.2E1,5E0,1.5E1,1E1,1.2E1,6.3E1,2.1E1],"tree_param":{"num_deleted":"0","num_feature":"7","num_nodes":"27","size_leaf_vector":"1"}},{"base_weights":[-4.758946E-3,-1.4104202E-1,7.360439E-1,-2.0154162E-1,8.4918326E-1,-1.155021E-2,9.643784E-1,-3.9819208E-1,-7.893538E-2,4.532474E-1,1.20266E0,-2.9224807E-2,2.2567686E-1,2.1940711E-1,1.135678E0,-2.0176379E-2,-8.966258E-3,-7.172447E-3,1.1316362E-2,4.9769273E-3,2.4851538E-2,2.0972852E-2,6.890593E-2,1.3627931E-2,-1.7867596E-3,3.4662476E-3,2.1248996E-2,3.8756475E-2,5.9674665E-2],"categories":[],"categories_nodes":[],"categories_segments":[],"categories_sizes":[],"default_left":[0,0,0,0,0,0,0,0,0,0,0,0,0,0,0,0,0,0,0,0,0,0,0,0,0,0,0,0,0],"id":14,"left_children":[1,3,5,7,9,11,13,15,17,19,21,-1,23,25,27,-1,-1,-1,-1,-1,-1,-1,-1,-1,-1,-1,-1,-1,-1],"loss_changes":[8.056805E1,4.0549294E1,2.1178131E1,1.5302898E1,4.913109E0,4.9997883E0,1.1874092E1,3.5101967E0,1.2443733E1,8.3825636E-1,5.2500267E0,0E0,6.1201143E-1,6.992131E-1,3.3584518E0,0E0,0E0,0E0,0E0,0E0,0E0,0E0,0E0,0E0,0E0,0E0,0E0,0E0,0E0],"parents":[2147483647,0,0,1,1,2,2,3,3,4,4,5,5,6,6,7,7,8,8,9,9,10,10,12,12,13,13,14,14],"right_children":[2,4,6,8,10,12,14,16,18,20,22,-1,24,26,28,-1,-1,-1,-1,-1,-1,-1,-1,-1,-1,-1,-1,-1,-1],"split_conditions":[9.405571E-1,1.943833E0,-7.9664123E-1,-6.196822E-1,-3.7678355E-1,-9.181213E-1,-5.669355E-1,5.2452497E-3,5.2452497E-3,-6.929453E-1,-2.4171375E-1,-2.9224807E-2,2.0562642E0,8.3940107E-1,4.7372244E-2,-2.0176379E-2,-8.966258E-3,-7.172447E-3,1.1316362E-2,4.9769273E-3,2.4851538E-2,2.0972852E-2,6.890593E-2,1.3627931E-2,-1.7867596E-3,3.4662476E-3,2.1248996E-2,3.8756475E-2,5.9674665E-2],"split_indices":[1,6,6,6,1,6,2,1,1,1,2,0,4,4,2,0,0,0,0,0,0,0,0,0,0,0,0,0,0],"split_type":[0,0,0,0,0,0,0,0,0,0,0,0,0,0,0,0,0,0,0,0,0,0,0,0,0,0,0,0,0],"sum_hessian":[7.96E2,6.73E2,1.23E2,6.35E2,3.8E1,2.9E1,9.4E1,2.43E2,3.92E2,1.9E1,1.9E1,7E0,2.2E1,1.8E1,7.6E1,1.69E2,7.4E1,3.11E2,8.1E1,6E0,1.3E1,8E0,1.1E1,1.6E1,6E0,1.3E1,5E0,4.5E1,3.1E1],"tree_param":{"num_deleted":"0","num_feature":"7","num_nodes":"29","size_leaf_vector":"1"}},{"base_weights":[1.3400626E-2,-3.0383494E-2,1.3666697E0,-8.02346E-2,8.6159813E-1,2.309201E-2,1.7936146E0,-3.4392846E-1,3.9500307E-2,1.1977774E0,3.654926E-1,4.0604383E-2,8.801058E-2,-1.8533153E-2,-4.952504E-3,1.2782772E-2,-5.3066467E-3,2.7348455E-2,6.0479246E-2,5.6276685E-3,1.8770868E-2],"categories":[],"categories_nodes":[],"categories_segments":[],"categories_sizes":[],"default_left":[0,0,0,0,0,0,0,0,0,0,0,0,0,0,0,0,0,0,0,0,0],"id":15,"left_children":[1,3,5,7,9,-1,11,13,15,17,19,-1,-1,-1,-1,-1,-1,-1,-1,-1,-1],"loss_changes":[4.726512E1,3.444156E1,7.769108E0,2.315686E1,6.400215E0,0E0,1.8659477E0,4.878725E0,2.1995832E1,2.1689186E0,2.7120566E-1,0E0,0E0,0E0,0E0,0E0,0E0,0E0,0E0,0E0,0E0],"parents":[2147483647,0,0,1,1,2,2,3,3,4,4,6,6,7,7,8,8,9,9,10,10],"right_children":[2,4,6,8,10,-1,12,14,16,18,20,-1,-1,-1,-1,-1,-1,-1,-1,-1,-1],"split_conditions":[1.6975714E0,1.9964424E0,-5.857252E-1,-6.923789E-1,1.3682936E-1,2.309201E-2,-3.829176E-1,5.9602845E-1,2.3902896E-1,-3.7746203E-1,3.8231414E-2,4.0604383E-2,8.801058E-2,-1.8533153E-2,-4.952504E-3,1.2782772E-2,-5.3066467E-3,2.7348455E-2,6.0479246E-2,5.6276685E-3,1.8770868E-2],"split_indices":[2,6,6,6,5,0,3,4,5,4,3,0,0,0,0,0,0,0,0,0,0],"split_type":[0,0,0,0,0,0,0,0,0,0,0,0,0,0,0,0,0,0,0,0,0],"sum_hessian":[7.96E2,7.72E2,2.4E1,7.32E2,4E1,9E0,1.5E1,2.28E2,5.04E2,2.3E1,1.7E1,5E0,1E1,1.6E2,6.8E1,1.94E2,3.1E2,8E0,1.5E1,5E0,1.2E1],"tree_param":{"num_deleted":"0","num_feature":"7","num_nodes":"21","size_leaf_vector":"1"}},{"base_weights":[1.3138006E-3,-1.6802424E-1,6.5984255E-1,-2.803655E-1,3.4292713E-1,-3.3105797E-1,8.261862E-1,-4.68211E-1,-1.8617536E-1,1.4871264E-1,8.15129E-1,-7.667217E-3,-6.538098E-1,3.4693542E-1,9.966307E-1,-2.52752E-2,-1.6594848E-2,-1.2197236E-2,4.0662E-3,-1.3119319E-2,8.553703E-3,3.2071455E-3,4.784872E-2,-8.574437E-3,7.9732025E-3,-3.7191637E-2,-1.1822928E-2,-1.6249171E-3,1.9755643E-2,2.2439128E-2,5.0342306E-2],"categories":[],"categories_nodes":[],"categories_segments":[],"categories_sizes":[],"default_left":[0,0,0,0,0,0,0,0,0,0,0,0,0,0,0,0,0,0,0,0,0,0,0,0,0,0,0,0,0,0,0],"id":16,"left_children":[1,3,5,7,9,11,13,15,17,19,21,23,25,27,29,-1,-1,-1,-1,-1,-1,-1,-1,-1,-1,-1,-1,-1,-1,-1,-1],"loss_changes":[8.831842E1,3.6258728E1,2.6975983E1,9.060211E0,1.0333541E1,2.4999862E0,1.1008537E1,1.4510384E0,1.0064694E1,2.092188E0,7.6727085E0,5.374939E-1,7.716336E-1,1.7892761E0,8.649246E0,0E0,0E0,0E0,0E0,0E0,0E0,0E0,0E0,0E0,0E0,0E0,0E0,0E0,0E0,0E0,0E0],"parents":[2147483647,0,0,1,1,2,2,3,3,4,4,5,5,6,6,7,7,8,8,9,9,10,10,11,11,12,12,13,13,14,14],"right_children":[2,4,6,8,10,12,14,16,18,20,22,24,26,28,30,-1,-1,-1,-1,-1,-1,-1,-1,-1,-1,-1,-1,-1,-1,-1,-1],"split_conditions":[7.1660924E-1,9.2034E-1,-8.8894695E-1,-7.292055E-1,-2.7139628E-1,-1.3961645E0,-4.0231708E-1,-8.779468E-1,-1.00142E-1,-1.9360788E0,-4.1034722E-1,1.085997E0,-2.738344E-1,-3.265137E-1,-5.94334E-1,-2.52752E-2,-1.6594848E-2,-1.2197236E-2,4.0662E-3,-1.3119319E-2,8.553703E-3,3.2071455E-3,4.784872E-2,-8.574437E-3,7.9732025E-3,-3.7191637E-2,-1.1822928E-2,-1.6249171E-3,1.9755643E-2,2.2439128E-2,5.0342306E-2],"split_indices":[1,6,6,6,1,5,2,6,1,2,2,0,2,3,6,0,0,0,0,0,0,0,0,0,0,0,0,0,0,0,0],"split_type":[0,0,0,0,0,0,0,0,0,0,0,0,0,0,0,0,0,0,0,0,0,0,0,0,0,0,0,0,0,0,0],"sum_hessian":[7.9E2,6.29E2,1.61E2,5.16E2,1.13E2,2.3E1,1.38E2,1.71E2,3.45E2,8.1E1,3.2E1,1.2E1,1.1E1,3.7E1,1.01E2,6E1,1.11E2,2.53E2,9.2E1,8E0,7.3E1,1E1,2.2E1,6E0,6E0,6E0,5E0,9E0,2.8E1,3.1E1,7E1],"tree_param":{"num_deleted":"0","num_feature":"7","num_nodes":"31","size_leaf_vector":"1"}},{"base_weights":[6.959968E-3,-1.6345887E-1,5.432942E-1,-2.8920057E-1,2.0415066E-1,-3.3843356E-1,6.6675633E-1,-3.6290896E-1,-9.4869874E-2,7.318565E-2,6.27754E-1,1.303476E-3,-5.2501494E-1,5.715898E-1,1.3779695E0,-1.575862E-2,6.5687094E-3,-1.0676649E-2,6.778801E-3,-1.4898692E-2,5.07877E-3,-7.6478836E-3,3.5014257E-2,-2.899702E-2,-1.1715005E-2,1.4960688E-2,3.4843024E-2,4.136748E-2,6.918143E-2],"categories":[],"categories_nodes":[],"categories_segments":[],"categories_sizes":[],"default_left":[0,0,0,0,0,0,0,0,0,0,0,0,0,0,0,0,0,0,0,0,0,0,0,0,0,0,0,0,0],"id":17,"left_children":[1,3,5,7,9,11,13,15,17,19,21,-1,23,25,27,-1,-1,-1,-1,-1,-1,-1,-1,-1,-1,-1,-1,-1,-1],"loss_changes":[7.202175E1,2.7700901E1,2.0909042E1,6.353985E0,8.442071E0,1.6699328E0,1.0515541E1,1.7836761E0,5.044214E0,2.4100173E0,6.0175934E0,0E0,4.5006895E-1,7.917679E0,3.657074E-1,0E0,0E0,0E0,0E0,0E0,0E0,0E0,0E0,0E0,0E0,0E0,0E0,0E0,0E0],"parents":[2147483647,0,0,1,1,2,2,3,3,4,4,5,5,6,6,7,7,8,8,9,9,10,10,12,12,13,13,14,14],"right_children":[2,4,6,8,10,12,14,16,18,20,22,-1,24,26,28,-1,-1,-1,-1,-1,-1,-1,-1,-1,-1,-1,-1,-1,-1],"split_conditions":[5.190081E-1,6.046833E-1,-8.8894695E-1,-7.928157E-3,-2.7139628E-1,-1.4642975E0,9.7294945E-1,1.4767418E0,-4.9533257E-1,-1.9963051E0,-4.1034722E-1,1.303476E-3,-2.738344E-1,1.5465338E0,1.5755668E0,-1.575862E-2,6.5687094E-3,-1.0676649E-2,6.778801E-3,-1.4898692E-2,5.07877E-3,-7.6478836E-3,3.5014257E-2,-2.899702E-2,-1.1715005E-2,1.4960688E-2,3.4843024E-2,4.136748E-2,6.918143E-2],"split_indices":[1,6,6,1,1,5,6,2,6,2,2,0,2,1,6,0,0,0,0,0,0,0,0,0,0,0,0,0,0],"split_type":[0,0,0,0,0,0,0,0,0,0,0,0,0,0,0,0,0,0,0,0,0,0,0,0,0,0,0,0,0],"sum_hessian":[7.86E2,5.97E2,1.89E2,4.45E2,1.52E2,2.3E1,1.66E2,3.22E2,1.23E2,1.17E2,3.5E1,8E0,1.5E1,1.48E2,1.8E1,3.16E2,6E0,7.6E1,4.7E1,1.1E1,1.06E2,7E0,2.8E1,8E0,7E0,8.1E1,6.7E1,9E0,9E0],"tree_param":{"num_deleted":"0","num_feature":"7","num_nodes":"29","size_leaf_vector":"1"}},{"base_weights":[-2.491378E-3,-4.28506E-2,1.2285607E0,-2.894251E-1,9.454157E-2,1.7067099E0,1.2365387E-2,-4.6943307E-1,-2.1528678E-1,3.5040575E-1,-9.162511E-2,2.4528828E-2,8.982686E-2,-2.044461E-2,-1.2495119E-2,-1.8634772E-2,-3.815371E-3,5.2449955E-3,2.5933221E-2,2.1956557E-2,-5.2287653E-3],"categories":[],"categories_nodes":[],"categories_segments":[],"categories_sizes":[],"default_left":[0,0,0,0,0,0,0,0,0,0,0,0,0,0,0,0,0,0,0,0,0],"id":18,"left_children":[1,3,5,7,9,11,-1,13,15,17,19,-1,-1,-1,-1,-1,-1,-1,-1,-1,-1],"loss_changes":[4.06944E1,2.6892145E1,1.113282E1,3.6890564E0,2.4325134E1,6.8151283E0,0E0,6.670189E-2,5.6925993E0,1.2751125E1,5.895415E0,0E0,0E0,0E0,0E0,0E0,0E0,0E0,0E0,0E0,0E0],"parents":[2147483647,0,0,1,1,2,2,3,3,4,4,5,5,7,7,8,8,9,9,10,10],"right_children":[2,4,6,8,10,12,-1,14,16,18,20,-1,-1,-1,-1,-1,-1,-1,-1,-1,-1],"split_conditions":[1.6975714E0,-6.196822E-1,5.9602845E-1,-8.855991E-1,2.3902896E-1,-3.4228688E-1,1.2365387E-2,-1.038466E0,-3.7746203E-1,3.5265583E-1,-5.4315937E-1,2.4528828E-2,8.982686E-2,-2.044461E-2,-1.2495119E-2,-1.8634772E-2,-3.815371E-3,5.2449955E-3,2.5933221E-2,2.1956557E-2,-5.2287653E-3],"split_indices":[2,6,4,6,5,6,0,5,4,4,6,0,0,0,0,0,0,0,0,0,0],"split_type":[0,0,0,0,0,0,0,0,0,0,0,0,0,0,0,0,0,0,0,0,0],"sum_hessian":[8.17E2,7.92E2,2.5E1,2.83E2,5.09E2,1.6E1,9E0,8.1E1,2.02E2,2.14E2,2.95E2,5E0,1.1E1,7.3E1,8E0,7.1E1,1.31E2,1.16E2,9.8E1,1.4E1,2.81E2],"tree_param":{"num_deleted":"0","num_feature":"7","num_nodes":"21","size_leaf_vector":"1"}},{"base_weights":[3.401056E-3,-1.4046794E-1,5.88019E-1,-2.2112776E-1,4.0914163E-1,1.6209368E-1,8.717552E-1,-3.616986E-1,-1.1665294E-1,2.0737186E-1,8.124737E-1,-2.917561E-1,3.7501985E-1,2.300439E-1,1.0104442E0,-1.8200586E-2,-6.3310224E-3,-9.274101E-3,3.4999966E-3,-7.145991E-3,1.1953233E-2,4.9827605E-2,1.3757614E-2,-1.7203426E-2,2.7587314E-3,-5.163557E-4,1.9482866E-2,-2.6062742E-4,2.9704941E-2,3.0060435E-2,6.1410595E-2],"categories":[],"categories_nodes":[],"categories_segments":[],"categories_sizes":[],"default_left":[0,0,0,0,0,0,0,0,0,0,0,0,0,0,0,0,0,0,0,0,0,0,0,0,0,0,0,0,0,0,0],"id":19,"left_children":[1,3,5,7,9,11,13,15,17,19,21,23,25,27,29,-1,-1,-1,-1,-1,-1,-1,-1,-1,-1,-1,-1,-1,-1,-1,-1],"loss_changes":[6.686466E1,2.8373913E1,1.8832207E1,8.137968E0,6.504695E0,6.2941504E0,8.133385E0,3.415741E0,6.614864E0,1.6448171E0,4.445595E0,8.940536E-1,1.4777217E0,2.0174506E0,9.169212E0,0E0,0E0,0E0,0E0,0E0,0E0,0E0,0E0,0E0,0E0,0E0,0E0,0E0,0E0,0E0,0E0],"parents":[2147483647,0,0,1,1,2,2,3,3,4,4,5,5,6,6,7,7,8,8,9,9,10,10,11,11,12,12,13,13,14,14],"right_children":[2,4,6,8,10,12,14,16,18,20,22,24,26,28,30,-1,-1,-1,-1,-1,-1,-1,-1,-1,-1,-1,-1,-1,-1,-1,-1],"split_conditions":[7.034358E-1,1.1738219E0,-6.0820377E-1,-6.534251E-1,-3.7678355E-1,-8.8894695E-1,-7.777448E-1,2.9380924E-1,-1.0315301E-1,-1.347405E-1,-1.8680267E-1,1.1236495E-2,-4.1034722E-1,6.8485704E-3,4.7372244E-2,-1.8200586E-2,-6.3310224E-3,-9.274101E-3,3.4999966E-3,-7.145991E-3,1.1953233E-2,4.9827605E-2,1.3757614E-2,-1.7203426E-2,2.7587314E-3,-5.163557E-4,1.9482866E-2,-2.6062742E-4,2.9704941E-2,3.0060435E-2,6.1410595E-2],"split_indices":[1,6,6,1,1,6,3,6,6,3,5,2,2,6,2,0,0,0,0,0,0,0,0,0,0,0,0,0,0,0,0],"split_type":[0,0,0,0,0,0,0,0,0,0,0,0,0,0,0,0,0,0,0,0,0,0,0,0,0,0,0,0,0,0,0],"sum_hessian":[7.93E2,6.37E2,1.56E2,5.56E2,8.1E1,6.3E1,9.3E1,2.36E2,3.2E2,5.5E1,2.6E1,2E1,4.3E1,1.7E1,7.6E1,1.77E2,5.9E1,2.11E2,1.09E2,9E0,4.6E1,1.4E1,1.2E1,1.5E1,5E0,8E0,3.5E1,1.2E1,5E0,4.7E1,2.9E1],"tree_param":{"num_deleted":"0","num_feature":"7","num_nodes":"31","size_leaf_vector":"1"}},{"base_weights":[-4.19813E-3,-1.5628368E-1,4.6638435E-1,-2.1011183E-1,6.579064E-1,-3.8255162E-3,6.844804E-1,-2.9290324E-1,2.8751133E-2,1.156193E0,3.6429408E-1,-2.83005E-1,2.2893032E-1,8.695654E-1,4.0620938E-1,-1.444358E-2,-2.6542118E-3,-3.2422934E-3,6.9158836E-3,2.8054673E-2,7.182971E-2,7.094752E-3,2.445927E-2,2.7215644E-3,-1.8366918E-2,1.553109E-2,-1.9043008E-3,2.5530098E-2,4.7280595E-2,3.4686907E-3,2.9351087E-2],"categories":[],"categories_nodes":[],"categories_segments":[],"categories_sizes":[],"default_left":[0,0,0,0,0,0,0,0,0,0,0,0,0,0,0,0,0,0,0,0,0,0,0,0,0,0,0,0,0,0,0],"id":20,"left_children":[1,3,5,7,9,11,13,15,17,19,21,23,25,27,29,-1,-1,-1,-1,-1,-1,-1,-1,-1,-1,-1,-1,-1,-1,-1,-1],"loss_changes":[5.9188713E1,2.7529703E1,2.0717907E1,1.1616819E1,5.284624E0,4.288531E0,6.754303E0,4.9097595E0,2.1788492E0,2.6216412E0,9.9969244E-1,1.6122544E0,1.3867916E0,4.7581367E0,5.279579E0,0E0,0E0,0E0,0E0,0E0,0E0,0E0,0E0,0E0,0E0,0E0,0E0,0E0,0E0,0E0,0E0],"parents":[2147483647,0,0,1,1,2,2,3,3,4,4,5,5,6,6,7,7,8,8,9,9,10,10,11,11,12,12,13,13,14,14],"right_children":[2,4,6,8,10,12,14,16,18,20,22,24,26,28,30,-1,-1,-1,-1,-1,-1,-1,-1,-1,-1,-1,-1,-1,-1,-1,-1],"split_conditions":[5.190081E-1,1.943833E0,-7.6555383E-1,3.5598403E-1,-2.71969E-1,-8.8717735E-1,1.5386263E-1,5.2452497E-3,-5.480378E-1,3.8231414E-2,-4.689974E-1,-1.4642975E0,-1.697694E-1,1.5465338E0,1.5855971E-1,-1.444358E-2,-2.6542118E-3,-3.2422934E-3,6.9158836E-3,2.8054673E-2,7.182971E-2,7.094752E-3,2.445927E-2,2.7215644E-3,-1.8366918E-2,1.553109E-2,-1.9043008E-3,2.5530098E-2,4.7280595E-2,3.4686907E-3,2.9351087E-2],"split_indices":[1,6,6,6,5,6,5,1,1,3,1,5,5,1,3,0,0,0,0,0,0,0,0,0,0,0,0,0,0,0,0],"split_type":[0,0,0,0,0,0,0,0,0,0,0,0,0,0,0,0,0,0,0,0,0,0,0,0,0,0,0,0,0,0,0],"sum_hessian":[8.25E2,6.24E2,2.01E2,5.86E2,3.8E1,6.4E1,1.37E2,4.35E2,1.51E2,1.3E1,2.5E1,2.9E1,3.5E1,8.1E1,5.6E1,3.58E2,7.7E1,8.5E1,6.6E1,8E0,5E0,1.4E1,1.1E1,9E0,2E1,2.3E1,1.2E1,4.1E1,4E1,2.7E1,2.9E1],"tree_param":{"num_deleted":"0","num_feature":"7","num_nodes":"31","size_leaf_vector":"1"}},{"base_weights":[1.5363482E-2,-1.3971701E-1,4.111595E-1,-2.9680145E-1,1.8090658E-1,-3.1225237E-1,5.181504E-1,-4.06922E-1,-2.2582175E-1,3.3067454E-2,6.494162E-1,-4.2833604E-2,-4.6597725E-1,4.408984E-1,1.1519582E0,-2.2273563E-2,-1.5638573E-2,-1.2854115E-2,-1.9161636E-3,-1.5436632E-3,1.20097855E-2,2.0286415E-2,7.160436E-2,-9.54842E-3,5.0838795E-3,-2.6733698E-2,-1.4361446E-2,1.6509375E-2,5.2577328E-2,5.5071868E-2,2.3383405E-2],"categories":[],"categories_nodes":[],"categories_segments":[],"categories_sizes":[],"default_left":[0,0,0,0,0,0,0,0,0,0,0,0,0,0,0,0,0,0,0,0,0,0,0,0,0,0,0,0,0,0,0],"id":21,"left_children":[1,3,5,7,9,11,13,15,17,19,21,23,25,27,29,-1,-1,-1,-1,-1,-1,-1,-1,-1,-1,-1,-1,-1,-1,-1,-1],"loss_changes":[4.971406E1,2.936611E1,1.7808651E1,2.9642906E0,1.3277222E1,1.2225311E0,9.235729E0,4.745884E-1,3.3901844E0,2.5830975E0,7.3185463E0,3.8628572E-1,1.84371E-1,6.6979218E0,1.1910095E0,0E0,0E0,0E0,0E0,0E0,0E0,0E0,0E0,0E0,0E0,0E0,0E0,0E0,0E0,0E0,0E0],"parents":[2147483647,0,0,1,1,2,2,3,3,4,4,5,5,6,6,7,7,8,8,9,9,10,10,11,11,12,12,13,13,14,14],"right_children":[2,4,6,8,10,12,14,16,18,20,22,24,26,28,30,-1,-1,-1,-1,-1,-1,-1,-1,-1,-1,-1,-1,-1,-1,-1,-1],"split_conditions":[3.8727406E-1,3.5598403E-1,-8.8894695E-1,-7.292055E-1,-2.7139628E-1,-1.4642975E0,2.4950192E0,-4.8254546E-2,-3.3462864E-1,1.7620913E0,4.255381E-1,9.405571E-1,-9.2146915E-1,1.6090455E0,3.5488915E0,-2.2273563E-2,-1.5638573E-2,-1.2854115E-2,-1.9161636E-3,-1.5436632E-3,1.20097855E-2,2.0286415E-2,7.160436E-2,-9.54842E-3,5.0838795E-3,-2.6733698E-2,-1.4361446E-2,1.6509375E-2,5.2577328E-2,5.5071868E-2,2.3383405E-2],"split_indices":[1,6,6,6,1,5,1,3,1,6,3,1,6,6,1,0,0,0,0,0,0,0,0,0,0,0,0,0,0,0,0],"split_type":[0,0,0,0,0,0,0,0,0,0,0,0,0,0,0,0,0,0,0,0,0,0,0,0,0,0,0,0,0,0,0],"sum_hessian":[8.08E2,5.81E2,2.27E2,3.9E2,1.91E2,2.9E1,1.98E2,1.51E2,2.39E2,1.46E2,4.5E1,1.1E1,1.8E1,1.78E2,2E1,3.2E1,1.19E2,1.66E2,7.3E1,1.15E2,3.1E1,4E1,5E0,5E0,6E0,6E0,1.2E1,1.69E2,9E0,1.5E1,5E0],"tree_param":{"num_deleted":"0","num_feature":"7","num_nodes":"31","size_leaf_vector":"1"}},{"base_weights":[6.0742046E-3,-1.1903303E-1,5.184938E-1,-1.7513895E-1,5.601024E-1,-1.9791272E-1,6.767539E-1,-2.4171327E-1,5.152476E-2,2.4857406E-1,1.0389063E0,-2.078295E-2,-1.7116569E-2,1.0623864E0,5.631453E-1,-1.3167167E-2,-9.6758E-4,-2.6199182E-3,1.4485704E-2,-2.0142779E-4,1.3071238E-2,7.3463554E-3,5.638531E-2,-6.386635E-3,6.280117E-3,6.1584648E-2,2.3733247E-2,2.1290936E-2,5.0033174E-2],"categories":[],"categories_nodes":[],"categories_segments":[],"categories_sizes":[],"default_left":[0,0,0,0,0,0,0,0,0,0,0,0,0,0,0,0,0,0,0,0,0,0,0,0,0,0,0,0,0],"id":22,"left_children":[1,3,5,7,9,11,13,15,17,19,21,-1,23,25,27,-1,-1,-1,-1,-1,-1,-1,-1,-1,-1,-1,-1,-1,-1],"loss_changes":[5.0962986E1,2.4446247E1,1.7820992E1,8.930634E0,7.050644E0,1.5345752E0,5.009552E0,7.004816E0,4.4912915E0,4.8049998E-1,4.639759E0,0E0,4.451863E-1,4.7294445E0,3.1021194E0,0E0,0E0,0E0,0E0,0E0,0E0,0E0,0E0,0E0,0E0,0E0,0E0,0E0,0E0],"parents":[2147483647,0,0,1,1,2,2,3,3,4,4,5,5,6,6,7,7,8,8,9,9,10,10,12,12,13,13,14,14],"right_children":[2,4,6,8,10,12,14,16,18,20,22,-1,24,26,28,-1,-1,-1,-1,-1,-1,-1,-1,-1,-1,-1,-1,-1,-1],"split_conditions":[7.034358E-1,1.7479345E0,-8.410054E-1,3.5598403E-1,-3.7678355E-1,-9.1429514E-1,-6.9780064E-1,5.2452497E-3,-3.7678355E-1,-1.347405E-1,-5.446087E-1,-2.078295E-2,-8.8894695E-1,8.3940107E-1,1.1403432E0,-1.3167167E-2,-9.6758E-4,-2.6199182E-3,1.4485704E-2,-2.0142779E-4,1.3071238E-2,7.3463554E-3,5.638531E-2,-6.386635E-3,6.280117E-3,6.1584648E-2,2.3733247E-2,2.1290936E-2,5.0033174E-2],"split_indices":[1,6,6,6,1,6,5,1,1,3,3,0,6,4,6,0,0,0,0,0,0,0,0,0,0,0,0,0,0],"split_type":[0,0,0,0,0,0,0,0,0,0,0,0,0,0,0,0,0,0,0,0,0,0,0,0,0,0,0,0,0],"sum_hessian":[7.93E2,6.38E2,1.55E2,5.9E2,4.8E1,2.8E1,1.27E2,4.56E2,1.34E2,3E1,1.8E1,1E1,1.8E1,2.7E1,1E2,3.45E2,1.11E2,9.7E1,3.7E1,6E0,2.4E1,5E0,1.3E1,1E1,8E0,1.4E1,1.3E1,9.3E1,7E0],"tree_param":{"num_deleted":"0","num_feature":"7","num_nodes":"29","size_leaf_vector":"1"}},{"base_weights":[5.9892554E-3,-1.0446577E-1,5.90259E-1,-1.273681E-1,6.217515E-2,3.9058805E-2,7.680302E-1,-2.1521397E-1,2.0066036E-1,-1.903415E-2,2.1384124E-1,-9.718147E-3,8.3490413E-1,-1.3077313E-2,-2.8037578E-3,2.8508734E-3,2.2663482E-2,1.2909554E-2,-5.409879E-3,2.9818729E-2,5.2465495E-2],"categories":[],"categories_nodes":[],"categories_segments":[],"categories_sizes":[],"default_left":[0,0,0,0,0,0,0,0,0,0,0,0,0,0,0,0,0,0,0,0,0],"id":23,"left_children":[1,3,5,7,-1,9,11,13,15,-1,17,-1,19,-1,-1,-1,-1,-1,-1,-1,-1],"loss_changes":[5.3174404E1,2.5216097E1,1.280637E1,1.9753288E1,0E0,2.9217448E0,6.8006706E0,7.573124E0,6.4520493E0,0E0,8.248099E-1,0E0,4.00177E0,0E0,0E0,0E0,0E0,0E0,0E0,0E0,0E0],"parents":[2147483647,0,0,1,1,2,2,3,3,5,5,6,6,7,7,8,8,10,10,12,12],"right_children":[2,4,6,8,-1,10,12,14,16,-1,18,-1,20,-1,-1,-1,-1,-1,-1,-1,-1],"split_conditions":[1.1776785E0,1.6975714E0,-7.822932E-1,7.385982E-1,6.217515E-2,-9.181213E-1,-2.2291799E0,-1.7918244E-1,-1.9235586E-1,-1.903415E-2,2.0562642E0,-9.718147E-3,1.0250212E-1,-1.3077313E-2,-2.8037578E-3,2.8508734E-3,2.2663482E-2,1.2909554E-2,-5.409879E-3,2.9818729E-2,5.2465495E-2],"split_indices":[1,2,6,6,0,6,2,1,1,0,4,0,6,0,0,0,0,0,0,0,0],"split_type":[0,0,0,0,0,0,0,0,0,0,0,0,0,0,0,0,0,0,0,0,0],"sum_hessian":[8.22E2,6.92E2,1.3E2,6.83E2,9E0,3.2E1,9.8E1,5.39E2,1.44E2,8E0,2.4E1,6E0,9.2E1,3.29E2,2.1E2,1.04E2,4E1,1.9E1,5E0,7.2E1,2E1],"tree_param":{"num_deleted":"0","num_feature":"7","num_nodes":"21","size_leaf_vector":"1"}},{"base_weights":[3.1337526E-3,-2.7928852E-2,1.0151263E0,-2.7054808E-1,6.6329196E-2,1.3600992E0,1.2204882E-2,-3.711352E-1,-1.7464647E-1,2.665183E-1,-7.643071E-2,2.2160944E-2,7.144541E-2,-2.1571025E-2,-1.44612845E-2,1.3062542E-3,-1.4937843E-2,2.9571483E-2,7.900016E-3,-6.956202E-3,3.023788E-3],"categories":[],"categories_nodes":[],"categories_segments":[],"categories_sizes":[],"default_left":[0,0,0,0,0,0,0,0,0,0,0,0,0,0,0,0,0,0,0,0,0],"id":24,"left_children":[1,3,5,7,9,11,-1,13,15,17,19,-1,-1,-1,-1,-1,-1,-1,-1,-1,-1],"loss_changes":[2.5333628E1,1.790136E1,5.618305E0,2.047758E0,1.6138912E1,3.5481796E0,0E0,2.4934673E-1,4.2090664E0,7.965912E0,4.3263083E0,0E0,0E0,0E0,0E0,0E0,0E0,0E0,0E0,0E0,0E0],"parents":[2147483647,0,0,1,1,2,2,3,3,4,4,5,5,7,7,8,8,9,9,10,10],"right_children":[2,4,6,8,10,12,-1,14,16,18,20,-1,-1,-1,-1,-1,-1,-1,-1,-1,-1],"split_conditions":[1.6975714E0,-7.292055E-1,5.9602845E-1,-8.530769E-1,2.3902896E-1,-3.4228688E-1,1.2204882E-2,-9.190778E-1,6.8696305E-2,-8.681333E-1,-3.6740355E-2,2.2160944E-2,7.144541E-2,-2.1571025E-2,-1.44612845E-2,1.3062542E-3,-1.4937843E-2,2.9571483E-2,7.900016E-3,-6.956202E-3,3.023788E-3],"split_indices":[2,6,4,6,5,6,0,6,5,5,4,0,0,0,0,0,0,0,0,0,0],"split_type":[0,0,0,0,0,0,0,0,0,0,0,0,0,0,0,0,0,0,0,0,0],"sum_hessian":[8.04E2,7.81E2,2.3E1,2.18E2,5.63E2,1.5E1,8E0,1.05E2,1.13E2,2.34E2,3.29E2,5E0,1E1,1.5E1,9E1,5.3E1,6E1,3.5E1,1.99E2,2.06E2,1.23E2],"tree_param":{"num_deleted":"0","num_feature":"7","num_nodes":"21","size_leaf_vector":"1"}},{"base_weights":[3.5554993E-3,-9.339926E-2,5.795509E-1,-1.4081614E-1,6.420803E-1,5.280793E-2,7.6450807E-1,-1.9113997E-1,1.2049422E-1,2.7608964E-1,9.483292E-1,-1.2453535E-1,2.166129E-1,6.400132E-1,1.3277153E0,-1.1700184E-2,-2.5247973E-3,-1.6024388E-2,9.48825E-3,-1.0602281E-3,1.8092334E-2,9.906833E-3,5.260757E-2,4.74268E-3,-1.3563989E-2,1.5870257E-3,1.4279095E-2,1.0006441E-2,3.1180944E-2,3.4588665E-2,6.653386E-2],"categories":[],"categories_nodes":[],"categories_segments":[],"categories_sizes":[],"default_left":[0,0,0,0,0,0,0,0,0,0,0,0,0,0,0,0,0,0,0,0,0,0,0,0,0,0,0,0,0,0,0],"id":25,"left_children":[1,3,5,7,9,11,13,15,17,19,21,23,25,27,29,-1,-1,-1,-1,-1,-1,-1,-1,-1,-1,-1,-1,-1,-1,-1,-1],"loss_changes":[4.6126663E1,2.4746433E1,1.1553192E1,8.767874E0,4.5578003E0,9.565667E-1,5.3204803E0,6.283243E0,5.7130184E0,9.746729E-1,4.5925426E0,7.815254E-1,3.5725427E-1,2.7611408E0,6.011181E-1,0E0,0E0,0E0,0E0,0E0,0E0,0E0,0E0,0E0,0E0,0E0,0E0,0E0,0E0,0E0,0E0],"parents":[2147483647,0,0,1,1,2,2,3,3,4,4,5,5,6,6,7,7,8,8,9,9,10,10,11,11,12,12,13,13,14,14],"right_children":[2,4,6,8,10,12,14,16,18,20,22,24,26,28,30,-1,-1,-1,-1,-1,-1,-1,-1,-1,-1,-1,-1,-1,-1,-1,-1],"split_conditions":[1.2303721E0,1.943833E0,-7.9664123E-1,3.8727406E-1,-3.7678355E-1,-8.8894695E-1,1.7902496E-1,-1.0315301E-1,-8.8717735E-1,-6.929453E-1,-3.7746203E-1,-1.4642975E0,5.7032708E-2,1.085997E0,1.085997E0,-1.1700184E-2,-2.5247973E-3,-1.6024388E-2,9.48825E-3,-1.0602281E-3,1.8092334E-2,9.906833E-3,5.260757E-2,4.74268E-3,-1.3563989E-2,1.5870257E-3,1.4279095E-2,1.0006441E-2,3.1180944E-2,3.4588665E-2,6.653386E-2],"split_indices":[1,6,6,1,1,6,6,6,6,1,4,5,3,0,0,0,0,0,0,0,0,0,0,0,0,0,0,0,0,0,0],"split_type":[0,0,0,0,0,0,0,0,0,0,0,0,0,0,0,0,0,0,0,0,0,0,0,0,0,0,0,0,0,0,0],"sum_hessian":[8.24E2,7.06E2,1.18E2,6.64E2,4.2E1,3.1E1,8.7E1,5.57E2,1.07E2,2E1,2.2E1,1.5E1,1.6E1,7.3E1,1.4E1,3.36E2,2.21E2,1.8E1,8.9E1,7E0,1.3E1,7E0,1.5E1,7E0,8E0,7E0,9E0,1.5E1,5.8E1,6E0,8E0],"tree_param":{"num_deleted":"0","num_feature":"7","num_nodes":"31","size_leaf_vector":"1"}},{"base_weights":[-3.7198209E-3,-8.0487184E-2,5.108049E-1,-1.8517785E-1,1.8805976E-1,2.552922E-1,9.3011343E-1,-2.8599554E-1,-5.2525442E-2,4.2754102E-2,4.6094754E-1,-2.1468799E-1,3.5319167E-1,2.983425E-1,1.2719715E0,-1.6272057E-2,-9.648185E-3,-1.5508737E-2,1.4268645E-3,-5.7353103E-3,4.9002166E-3,7.827245E-4,2.7793046E-2,-1.2221509E-2,-3.8716225E-3,-6.450027E-3,1.7660772E-2,5.0807716E-3,2.0461723E-2,5.8663476E-2,3.2584693E-2],"categories":[],"categories_nodes":[],"categories_segments":[],"categories_sizes":[],"default_left":[0,0,0,0,0,0,0,0,0,0,0,0,0,0,0,0,0,0,0,0,0,0,0,0,0,0,0,0,0,0,0],"id":26,"left_children":[1,3,5,7,9,11,13,15,17,19,21,23,25,27,29,-1,-1,-1,-1,-1,-1,-1,-1,-1,-1,-1,-1,-1,-1,-1,-1],"loss_changes":[3.1640076E1,1.9630531E1,1.090497E1,6.69858E0,7.7521124E0,3.1125388E0,8.043579E0,1.5403919E0,5.9355373E0,1.7043611E0,5.922696E0,8.379561E-2,1.8746157E0,4.390285E-1,3.9564514E-1,0E0,0E0,0E0,0E0,0E0,0E0,0E0,0E0,0E0,0E0,0E0,0E0,0E0,0E0,0E0,0E0],"parents":[2147483647,0,0,1,1,2,2,3,3,4,4,5,5,6,6,7,7,8,8,9,9,10,10,11,11,12,12,13,13,14,14],"right_children":[2,4,6,8,10,12,14,16,18,20,22,24,26,28,30,-1,-1,-1,-1,-1,-1,-1,-1,-1,-1,-1,-1,-1,-1,-1,-1],"split_conditions":[1.2303721E0,3.5598403E-1,4.7372244E-2,-2.4504948E-1,-3.7678355E-1,-8.530769E-1,-7.3446643E-1,-7.292055E-1,-8.530769E-1,5.7032708E-2,-4.1034722E-1,1.5855971E-1,-3.265137E-1,1.2471737E-1,8.3940107E-1,-1.6272057E-2,-9.648185E-3,-1.5508737E-2,1.4268645E-3,-5.7353103E-3,4.9002166E-3,7.827245E-4,2.7793046E-2,-1.2221509E-2,-3.8716225E-3,-6.450027E-3,1.7660772E-2,5.0807716E-3,2.0461723E-2,5.8663476E-2,3.2584693E-2],"split_indices":[1,6,2,1,1,6,6,6,6,3,2,3,3,3,4,0,0,0,0,0,0,0,0,0,0,0,0,0,0,0,0],"split_type":[0,0,0,0,0,0,0,0,0,0,0,0,0,0,0,0,0,0,0,0,0,0,0,0,0,0,0,0,0,0,0],"sum_hessian":[7.99E2,6.96E2,1.03E2,5.01E2,1.95E2,6.5E1,3.8E1,2.84E2,2.17E2,1.28E2,6.7E1,1.1E1,5.4E1,1.4E1,2.4E1,1.02E2,1.82E2,4.6E1,1.71E2,3.7E1,9.1E1,2.1E1,4.6E1,6E0,5E0,6E0,4.8E1,8E0,6E0,1.8E1,6E0],"tree_param":{"num_deleted":"0","num_feature":"7","num_nodes":"31","size_leaf_vector":"1"}},{"base_weights":[-6.021079E-3,-9.214221E-2,5.562143E-1,-2.2423393E-1,7.88469E-2,4.3201017E-1,1.243387E0,-2.3828715E-1,2.0717172E-2,4.8497E-2,4.5675993E-2,2.8241888E-1,8.503177E-1,2.9750781E-2,6.317605E-2,-1.3548479E-2,-6.4871204E-3,-5.3813993E-3,8.3248895E-3,-4.471048E-3,1.7268347E-2,4.2049177E-2,1.4972873E-2],"categories":[],"categories_nodes":[],"categories_segments":[],"categories_sizes":[],"default_left":[0,0,0,0,0,0,0,0,0,0,0,0,0,0,0,0,0,0,0,0,0,0,0],"id":27,"left_children":[1,3,5,7,9,11,13,15,-1,17,-1,19,21,-1,-1,-1,-1,-1,-1,-1,-1,-1,-1],"loss_changes":[3.9368565E1,1.5940984E1,8.680611E0,4.1153755E0,9.322441E0,5.579344E0,1.125267E0,2.6841106E0,0E0,7.872055E0,0E0,3.4831042E0,1.3783436E0,0E0,0E0,0E0,0E0,0E0,0E0,0E0,0E0,0E0,0E0],"parents":[2147483647,0,0,1,1,2,2,3,3,4,4,5,5,6,6,7,7,9,9,11,11,12,12],"right_children":[2,4,6,8,10,12,14,16,-1,18,-1,20,22,-1,-1,-1,-1,-1,-1,-1,-1,-1,-1],"split_conditions":[1.2303721E0,-1.0315301E-1,2.555478E-1,1.6975714E0,1.6975714E0,2.4950192E0,1.085997E0,-7.292055E-1,2.0717172E-2,-5.8755803E-1,4.5675993E-2,-4.5049807E-1,1.0271796E0,2.9750781E-2,6.317605E-2,-1.3548479E-2,-6.4871204E-3,-5.3813993E-3,8.3248895E-3,-4.471048E-3,1.7268347E-2,4.2049177E-2,1.4972873E-2],"split_indices":[1,6,6,2,2,1,0,6,0,1,0,2,3,0,0,0,0,0,0,0,0,0,0],"split_type":[0,0,0,0,0,0,0,0,0,0,0,0,0,0,0,0,0,0,0,0,0,0,0],"sum_hessian":[8.11E2,7.04E2,1.07E2,3.97E2,3.07E2,9.2E1,1.5E1,3.9E2,7E0,2.99E2,8E0,6.9E1,2.3E1,6E0,9E0,1.96E2,1.94E2,1.37E2,1.62E2,1.7E1,5.2E1,1.7E1,6E0],"tree_param":{"num_deleted":"0","num_feature":"7","num_nodes":"23","size_leaf_vector":"1"}},{"base_weights":[8.930413E-3,-1.0656574E-1,3.648016E-1,-1.2435948E-1,7.1257696E-2,2.2579486E-2,5.860497E-1,-2.0304509E-1,1.8815921E-1,-3.5192254E-1,1.0289408E-1,3.8861114E-1,9.259733E-1,-1.2522634E-2,-5.496068E-3,3.0554209E-2,5.6327283E-3,-1.7539937E-2,-9.673642E-3,2.671079E-3,1.7829508E-2,7.848815E-3,2.3355223E-2,2.9119546E-2,6.2450714E-2],"categories":[],"categories_nodes":[],"categories_segments":[],"categories_sizes":[],"default_left":[0,0,0,0,0,0,0,0,0,0,0,0,0,0,0,0,0,0,0,0,0,0,0,0,0],"id":28,"left_children":[1,3,5,7,-1,9,11,13,15,17,19,21,23,-1,-1,-1,-1,-1,-1,-1,-1,-1,-1,-1,-1],"loss_changes":[3.2879177E1,1.9492561E1,1.4827099E1,1.4768046E1,0E0,2.3822932E0,7.626728E0,3.2265282E0,3.4513164E0,1.3980269E-2,7.9605E-1,2.4652262E0,4.600281E0,0E0,0E0,0E0,0E0,0E0,0E0,0E0,0E0,0E0,0E0,0E0,0E0],"parents":[2147483647,0,0,1,1,2,2,3,3,5,5,6,6,7,7,8,8,9,9,10,10,11,11,12,12],"right_children":[2,4,6,8,-1,10,12,14,16,18,20,22,24,-1,-1,-1,-1,-1,-1,-1,-1,-1,-1,-1,-1],"split_conditions":[5.190081E-1,1.6975714E0,-6.196822E-1,8.8633513E-1,7.1257696E-2,-9.181213E-1,1.7046148E0,-6.534251E-1,-8.681333E-1,-9.2146915E-1,2.363285E0,-1.6944225E-1,2.3206607E-1,-1.2522634E-2,-5.496068E-3,3.0554209E-2,5.6327283E-3,-1.7539937E-2,-9.673642E-3,2.671079E-3,1.7829508E-2,7.848815E-3,2.3355223E-2,2.9119546E-2,6.2450714E-2],"split_indices":[1,2,6,6,0,6,1,1,5,6,1,2,2,0,0,0,0,0,0,0,0,0,0,0,0],"split_type":[0,0,0,0,0,0,0,0,0,0,0,0,0,0,0,0,0,0,0,0,0,0,0,0,0],"sum_hessian":[7.98E2,6.03E2,1.95E2,5.98E2,5E0,7.7E1,1.18E2,4.78E2,1.2E2,1.3E1,6.4E1,7.6E1,4.2E1,2.08E2,2.7E2,1E1,1.1E2,7E0,6E0,5.8E1,6E0,3.5E1,4.1E1,3.1E1,1.1E1],"tree_param":{"num_deleted":"0","num_feature":"7","num_nodes":"25","size_leaf_vector":"1"}},{"base_weights":[5.234506E-3,-7.563556E-2,4.786598E-1,-9.246325E-2,5.7423424E-2,6.455885E-2,6.271781E-1,-1.7529067E-1,4.6489988E-2,-1.2824744E-2,1.9997714E-1,9.219421E-2,7.2992224E-1,-4.606484E-3,-1.1486007E-2,3.369914E-2,6.596368E-4,5.533874E-3,1.6251553E-2,1.4014603E-2,-1.3625609E-2,2.5156526E-2,4.5295488E-2],"categories":[],"categories_nodes":[],"categories_segments":[],"categories_sizes":[],"default_left":[0,0,0,0,0,0,0,0,0,0,0,0,0,0,0,0,0,0,0,0,0,0,0],"id":29,"left_children":[1,3,5,7,-1,9,11,13,15,-1,17,19,21,-1,-1,-1,-1,-1,-1,-1,-1,-1,-1],"loss_changes":[3.070324E1,1.667387E1,7.1551914E0,7.811345E0,0E0,1.6566759E0,4.6598206E0,2.6917133E0,5.8804626E0,0E0,2.5540328E-1,1.5989412E0,2.6717567E0,0E0,0E0,0E0,0E0,0E0,0E0,0E0,0E0,0E0,0E0],"parents":[2147483647,0,0,1,1,2,2,3,3,5,5,6,6,7,7,8,8,10,10,11,11,12,12],"right_children":[2,4,6,8,-1,10,12,14,16,-1,18,20,22,-1,-1,-1,-1,-1,-1,-1,-1,-1,-1],"split_conditions":[1.1118114E0,1.6975714E0,-4.1034722E-1,-2.4504948E-1,5.7423424E-2,-4.0171888E-1,-1.3791312E0,5.9672755E-1,-3.235757E0,-1.2824744E-2,2.3501117E0,-1.3961645E0,2.4950192E0,-4.606484E-3,-1.1486007E-2,3.369914E-2,6.596368E-4,5.533874E-3,1.6251553E-2,1.4014603E-2,-1.3625609E-2,2.5156526E-2,4.5295488E-2],"split_indices":[1,2,2,1,0,3,5,5,5,0,1,5,1,0,0,0,0,0,0,0,0,0,0],"split_type":[0,0,0,0,0,0,0,0,0,0,0,0,0,0,0,0,0,0,0,0,0,0,0],"sum_hessian":[8E2,6.84E2,1.16E2,6.77E2,7E0,3.1E1,8.5E1,4.24E2,2.53E2,8E0,2.3E1,1.4E1,7.1E1,2.53E2,1.71E2,9E0,2.44E2,1.8E1,5E0,9E0,5E0,5.3E1,1.8E1],"tree_param":{"num_deleted":"0","num_feature":"7","num_nodes":"23","size_leaf_vector":"1"}},{"base_weights":[1.3399289E-2,-5.6344237E-2,5.6736815E-1,-7.045318E-2,5.1236905E-2,3.5502073E-1,1.0091103E0,-2.1206324E-1,8.816903E-3,1.1767259E-2,5.263673E-1,7.959389E-1,5.8876842E-2,-1.2701103E-2,-5.3653433E-3,2.6879183E-3,-5.7205744E-3,1.3369723E-2,-9.443557E-3,2.5663799E-2,8.656267E-3,1.4062009E-2,4.2376373E-2],"categories":[],"categories_nodes":[],"categories_segments":[],"categories_sizes":[],"default_left":[0,0,0,0,0,0,0,0,0,0,0,0,0,0,0,0,0,0,0,0,0,0,0],"id":30,"left_children":[1,3,5,7,-1,9,11,13,15,17,19,21,-1,-1,-1,-1,-1,-1,-1,-1,-1,-1,-1],"loss_changes":[3.1442825E1,1.3038358E1,8.177801E0,8.039284E0,0E0,3.6991696E0,1.2719212E0,1.9001598E0,3.6488314E0,1.6498089E0,9.744854E-1,1.6844921E0,0E0,0E0,0E0,0E0,0E0,0E0,0E0,0E0,0E0,0E0,0E0],"parents":[2147483647,0,0,1,1,2,2,3,3,5,5,6,6,7,7,8,8,9,9,10,10,11,11],"right_children":[2,4,6,8,-1,10,12,14,16,18,20,22,-1,-1,-1,-1,-1,-1,-1,-1,-1,-1,-1],"split_conditions":[1.5465338E0,2.3199093E0,4.7372244E-2,-6.534251E-1,5.1236905E-2,1.5855971E-1,5.4524255E-1,2.3752515E-1,6.648606E-1,5.9602845E-1,9.8957694E-1,-6.9780064E-1,5.8876842E-2,-1.2701103E-2,-5.3653433E-3,2.6879183E-3,-5.7205744E-3,1.3369723E-2,-9.443557E-3,2.5663799E-2,8.656267E-3,1.4062009E-2,4.2376373E-2],"split_indices":[1,2,2,1,0,3,2,3,5,4,3,5,0,0,0,0,0,0,0,0,0,0,0],"split_type":[0,0,0,0,0,0,0,0,0,0,0,0,0,0,0,0,0,0,0,0,0,0,0],"sum_hessian":[8.12E2,7.22E2,9E1,7.15E2,7E0,6.2E1,2.8E1,2.56E2,4.59E2,2.1E1,4.1E1,2E1,8E0,1.24E2,1.32E2,3.33E2,1.26E2,9E0,1.2E1,3.2E1,9E0,7E0,1.3E1],"tree_param":{"num_deleted":"0","num_feature":"7","num_nodes":"23","size_leaf_vector":"1"}},{"base_weights":[-8.918926E-3,-9.500708E-2,3.5215345E-1,-1.6840796E-1,2.1771286E-1,2.3376457E-1,8.584718E-1,-2.3538646E-1,-5.1277366E-2,1.2127681E-1,5.4401946E-1,-2.544659E-1,3.1672433E-1,6.595179E-1,4.942477E-2,-1.1964955E-2,-5.510192E-3,-1.6089564E-2,2.9529954E-4,-1.679258E-3,9.528984E-3,8.255717E-3,4.1902885E-2,-1.5572573E-2,-2.1596015E-3,-1.028077E-3,1.7236946E-2,3.3996552E-2,7.833971E-3],"categories":[],"categories_nodes":[],"categories_segments":[],"categories_sizes":[],"default_left":[0,0,0,0,0,0,0,0,0,0,0,0,0,0,0,0,0,0,0,0,0,0,0,0,0,0,0,0,0],"id":31,"left_children":[1,3,5,7,9,11,13,15,17,19,21,23,25,27,-1,-1,-1,-1,-1,-1,-1,-1,-1,-1,-1,-1,-1,-1,-1],"loss_changes":[2.5025036E1,1.4956713E1,9.090401E0,4.122367E0,3.8360214E0,5.224539E0,1.0284977E0,1.6489487E0,3.711397E0,1.6398515E0,4.1811523E0,4.2284536E-1,3.4116297E0,1.2311125E0,0E0,0E0,0E0,0E0,0E0,0E0,0E0,0E0,0E0,0E0,0E0,0E0,0E0,0E0,0E0],"parents":[2147483647,0,0,1,1,2,2,3,3,4,4,5,5,6,6,7,7,8,8,9,9,10,10,11,11,12,12,13,13],"right_children":[2,4,6,8,10,12,14,16,18,20,22,24,26,28,-1,-1,-1,-1,-1,-1,-1,-1,-1,-1,-1,-1,-1,-1,-1],"split_conditions":[7.034358E-1,8.294691E-1,2.4950192E0,-2.4504948E-1,2.4699275E0,-8.8894695E-1,-5.06811E-1,-1.0315301E-1,-8.855991E-1,-6.6001177E-1,-3.7746203E-1,1.085997E0,-5.5212927E-1,1.0271796E0,4.942477E-2,-1.1964955E-2,-5.510192E-3,-1.6089564E-2,2.9529954E-4,-1.679258E-3,9.528984E-3,8.255717E-3,4.1902885E-2,-1.5572573E-2,-2.1596015E-3,-1.028077E-3,1.7236946E-2,3.3996552E-2,7.833971E-3],"split_indices":[1,6,1,1,6,6,6,6,6,1,4,0,3,3,0,0,0,0,0,0,0,0,0,0,0,0,0,0,0],"split_type":[0,0,0,0,0,0,0,0,0,0,0,0,0,0,0,0,0,0,0,0,0,0,0,0,0,0,0,0,0],"sum_hessian":[8.03E2,6.49E2,1.54E2,5.26E2,1.23E2,1.26E2,2.8E1,3.34E2,1.92E2,9.6E1,2.7E1,1.8E1,1.08E2,1.9E1,9E0,2.28E2,1.06E2,2.8E1,1.64E2,3.8E1,5.8E1,1.6E1,1.1E1,1.1E1,7E0,2.3E1,8.5E1,1.4E1,5E0],"tree_param":{"num_deleted":"0","num_feature":"7","num_nodes":"29","size_leaf_vector":"1"}},{"base_weights":[-1.1910155E-2,-1.1817963E-1,2.7184957E-1,-1.5958516E-1,5.049783E-1,2.4059404E-2,4.2070845E-1,-2.1193513E-1,-6.2040016E-3,1.6414025E-1,8.192386E-1,-2.0345677E-1,1.477217E-1,1.612387E-1,5.617509E-1,-1.2164304E-2,-6.387699E-3,-9.139905E-3,2.097336E-3,2.7432514E-3,1.554626E-2,1.2470544E-2,4.9546096E-2,-2.0478804E-2,-5.394043E-3,-9.519344E-3,8.361101E-3,-9.070326E-3,1.0514924E-2,1.6004218E-2,3.236162E-2],"categories":[],"categories_nodes":[],"categories_segments":[],"categories_sizes":[],"default_left":[0,0,0,0,0,0,0,0,0,0,0,0,0,0,0,0,0,0,0,0,0,0,0,0,0,0,0,0,0,0,0],"id":32,"left_children":[1,3,5,7,9,11,13,15,17,19,21,23,25,27,29,-1,-1,-1,-1,-1,-1,-1,-1,-1,-1,-1,-1,-1,-1,-1,-1],"loss_changes":[2.4457674E1,1.5303877E1,8.141632E0,4.44703E0,3.8286676E0,2.3934095E0,4.9597073E0,1.8640862E0,1.6789999E0,3.605504E-1,3.1788406E0,5.7750726E-1,1.0769166E0,1.7041267E0,3.0379314E0,0E0,0E0,0E0,0E0,0E0,0E0,0E0,0E0,0E0,0E0,0E0,0E0,0E0,0E0,0E0,0E0],"parents":[2147483647,0,0,1,1,2,2,3,3,4,4,5,5,6,6,7,7,8,8,9,9,10,10,11,11,12,12,13,13,14,14],"right_children":[2,4,6,8,10,12,14,16,18,20,22,24,26,28,30,-1,-1,-1,-1,-1,-1,-1,-1,-1,-1,-1,-1,-1,-1,-1,-1],"split_conditions":[3.8727406E-1,1.9964424E0,-6.196822E-1,3.5598403E-1,-3.7746203E-1,-8.8717735E-1,-3.3004558E-1,-6.534251E-1,-4.0231708E-1,3.3786361E0,-2.4171375E-1,-9.2146915E-1,-1.5345705E0,-4.0171888E-1,1.3752795E0,-1.2164304E-2,-6.387699E-3,-9.139905E-3,2.097336E-3,2.7432514E-3,1.554626E-2,1.2470544E-2,4.9546096E-2,-2.0478804E-2,-5.394043E-3,-9.519344E-3,8.361101E-3,-9.070326E-3,1.0514924E-2,1.6004218E-2,3.236162E-2],"split_indices":[1,6,6,6,4,6,2,1,2,6,2,6,2,3,1,0,0,0,0,0,0,0,0,0,0,0,0,0,0,0,0],"split_type":[0,0,0,0,0,0,0,0,0,0,0,0,0,0,0,0,0,0,0,0,0,0,0,0,0,0,0,0,0,0,0],"sum_hessian":[8.09E2,5.89E2,2.2E2,5.53E2,3.6E1,8.3E1,1.37E2,4.12E2,1.41E2,1.8E1,1.8E1,2.9E1,5.4E1,4.9E1,8.8E1,1.81E2,2.31E2,2.9E1,1.12E2,1.3E1,5E0,8E0,1E1,5E0,2.4E1,6E0,4.8E1,9E0,4E1,4.8E1,4E1],"tree_param":{"num_deleted":"0","num_feature":"7","num_nodes":"31","size_leaf_vector":"1"}},{"base_weights":[1.5112633E-2,-9.03079E-2,3.490465E-1,-1.3985369E-1,4.3251276E-1,2.8126395E-1,1.0940214E0,-2.7864358E-1,-8.474333E-2,2.2086975E-1,8.107567E-1,-9.413195E-2,3.7511486E-1,2.9046072E-2,5.630422E-2,-1.5734274E-2,-9.55779E-3,-5.958695E-3,2.8448498E-3,-2.5348768E-3,1.2805412E-2,1.2196737E-2,4.6071943E-2,-1.137176E-2,3.084095E-5,5.7093627E-3,2.631607E-2],"categories":[],"categories_nodes":[],"categories_segments":[],"categories_sizes":[],"default_left":[0,0,0,0,0,0,0,0,0,0,0,0,0,0,0,0,0,0,0,0,0,0,0,0,0,0,0],"id":33,"left_children":[1,3,5,7,9,11,13,15,17,19,21,23,25,-1,-1,-1,-1,-1,-1,-1,-1,-1,-1,-1,-1,-1,-1],"loss_changes":[2.8757565E1,1.6146599E1,9.589569E0,4.320883E0,4.143773E0,6.4121647E0,6.3855743E-1,7.068777E-1,3.5085106E0,8.515012E-1,2.4650002E0,6.150857E-1,8.547087E0,0E0,0E0,0E0,0E0,0E0,0E0,0E0,0E0,0E0,0E0,0E0,0E0,0E0,0E0],"parents":[2147483647,0,0,1,1,2,2,3,3,4,4,5,5,6,6,7,7,8,8,9,9,10,10,11,11,12,12],"right_children":[2,4,6,8,10,12,14,16,18,20,22,24,26,-1,-1,-1,-1,-1,-1,-1,-1,-1,-1,-1,-1,-1,-1],"split_conditions":[5.190081E-1,1.7142644E0,1.1403432E0,-7.3733604E-1,-3.7678355E-1,-5.669355E-1,1.7142644E0,-8.8253814E-1,-1.7918244E-1,-1.347405E-1,-2.4171375E-1,-2.4472807E-1,1.085997E0,2.9046072E-2,5.630422E-2,-1.5734274E-2,-9.55779E-3,-5.958695E-3,2.8448498E-3,-2.5348768E-3,1.2805412E-2,1.2196737E-2,4.6071943E-2,-1.137176E-2,3.084095E-5,5.7093627E-3,2.631607E-2],"split_indices":[1,6,6,6,1,2,6,6,1,3,2,3,0,0,0,0,0,0,0,0,0,0,0,0,0,0,0],"split_type":[0,0,0,0,0,0,0,0,0,0,0,0,0,0,0,0,0,0,0,0,0,0,0,0,0,0,0],"sum_hessian":[8.15E2,6.2E2,1.95E2,5.67E2,5.3E1,1.8E2,1.5E1,1.6E2,4.07E2,3.5E1,1.8E1,3.6E1,1.44E2,7E0,8E0,5.5E1,1.05E2,2.97E2,1.1E2,8E0,2.7E1,7E0,1.1E1,1.2E1,2.4E1,7.4E1,7E1],"tree_param":{"num_deleted":"0","num_feature":"7","num_nodes":"27","size_leaf_vector":"1"}},{"base_weights":[1.7657736E-2,-5.243484E-2,4.03306E-1,-6.591958E-2,6.296963E-2,3.0124456E-1,1.0339762E0,-1.3290696E-1,1.7712876E-1,1.9251646E-1,6.4093363E-1,2.5921077E-2,5.34831E-2,-7.971703E-3,1.355125E-4,2.604527E-3,1.7898886E-2,-4.04604E-3,1.278571E-2,1.2162896E-2,3.4235675E-2],"categories":[],"categories_nodes":[],"categories_segments":[],"categories_sizes":[],"default_left":[0,0,0,0,0,0,0,0,0,0,0,0,0,0,0,0,0,0,0,0,0],"id":34,"left_children":[1,3,5,7,-1,9,11,13,15,17,19,-1,-1,-1,-1,-1,-1,-1,-1,-1,-1],"loss_changes":[2.1970387E1,1.442046E1,7.7344112E0,1.1143583E1,0E0,3.9023886E0,8.840122E-1,4.078085E0,4.190191E0,2.700269E0,1.3250046E0,0E0,0E0,0E0,0E0,0E0,0E0,0E0,0E0,0E0,0E0],"parents":[2147483647,0,0,1,1,2,2,3,3,5,5,6,6,7,7,8,8,9,9,10,10],"right_children":[2,4,6,8,-1,10,12,14,16,18,20,-1,-1,-1,-1,-1,-1,-1,-1,-1,-1],"split_conditions":[1.2303721E0,2.3199093E0,2.555478E-1,7.385982E-1,6.296963E-2,2.4950192E0,1.085997E0,5.2452497E-3,-1.9235586E-1,-4.1034722E-1,-1.17246166E-1,2.5921077E-2,5.34831E-2,-7.971703E-3,1.355125E-4,2.604527E-3,1.7898886E-2,-4.04604E-3,1.278571E-2,1.2162896E-2,3.4235675E-2],"split_indices":[1,2,6,6,0,1,0,1,1,2,2,0,0,0,0,0,0,0,0,0,0],"split_type":[0,0,0,0,0,0,0,0,0,0,0,0,0,0,0,0,0,0,0,0,0],"sum_hessian":[8.11E2,6.87E2,1.24E2,6.82E2,5E0,1.08E2,1.6E1,5.35E2,1.47E2,8.3E1,2.5E1,7E0,9E0,3.79E2,1.56E2,1.01E2,4.6E1,2.3E1,6E1,9E0,1.6E1],"tree_param":{"num_deleted":"0","num_feature":"7","num_nodes":"21","size_leaf_vector":"1"}},{"base_weights":[1.2864632E-2,-7.332133E-2,3.4992814E-1,-8.632922E-2,5.7837322E-2,7.834255E-2,5.5350965E-1,-1.5747257E-1,8.53732E-2,-1.939214E-1,1.972604E-1,4.9177966E-1,5.944256E-2,-1.3227043E-2,-5.0653955E-3,6.4140106E-5,1.4995152E-2,-1.3202155E-2,-3.4978052E-4,-7.5979815E-3,1.0975558E-2,6.815976E-4,2.406123E-2],"categories":[],"categories_nodes":[],"categories_segments":[],"categories_sizes":[],"default_left":[0,0,0,0,0,0,0,0,0,0,0,0,0,0,0,0,0,0,0,0,0,0,0],"id":35,"left_children":[1,3,5,7,-1,9,11,13,15,17,19,21,-1,-1,-1,-1,-1,-1,-1,-1,-1,-1,-1],"loss_changes":[2.4253477E1,1.2601335E1,9.355906E0,8.075664E0,0E0,2.4341543E0,4.4229145E0,2.691205E0,4.387816E0,5.044184E-1,1.2761195E0,3.406824E0,0E0,0E0,0E0,0E0,0E0,0E0,0E0,0E0,0E0,0E0,0E0],"parents":[2147483647,0,0,1,1,2,2,3,3,5,5,6,6,7,7,8,8,9,9,10,10,11,11],"right_children":[2,4,6,8,-1,10,12,14,16,18,20,22,-1,-1,-1,-1,-1,-1,-1,-1,-1,-1,-1],"split_conditions":[7.034358E-1,1.6975714E0,-6.0820377E-1,3.7989742E-1,5.7837322E-2,-8.8894695E-1,1.7142644E0,-8.4446806E-1,-1.9235586E-1,1.085997E0,8.615167E-1,-8.003064E-1,5.944256E-2,-1.3227043E-2,-5.0653955E-3,6.4140106E-5,1.4995152E-2,-1.3202155E-2,-3.4978052E-4,-7.5979815E-3,1.0975558E-2,6.815976E-4,2.406123E-2],"split_indices":[1,2,6,6,0,6,6,6,1,0,1,3,0,0,0,0,0,0,0,0,0,0,0],"split_type":[0,0,0,0,0,0,0,0,0,0,0,0,0,0,0,0,0,0,0,0,0,0,0],"sum_hessian":[8.33E2,6.64E2,1.69E2,6.59E2,5E0,7.3E1,9.6E1,4.66E2,1.93E2,2.2E1,5.1E1,9.1E1,5E0,8.9E1,3.77E2,1.48E2,4.5E1,1.3E1,9E0,7E0,4.4E1,1.3E1,7.8E1],"tree_param":{"num_deleted":"0","num_feature":"7","num_nodes":"23","size_leaf_vector":"1"}},{"base_weights":[9.038395E-3,-1.9192835E-2,9.19119E-1,-6.378781E-2,3.5792312E-1,1.02836015E-2,1.241683E0,-1.2890954E-1,1.7081413E-1,2.510939E-1,4.653038E-2,3.1820614E-2,7.437981E-2,-1.0325533E-2,-3.013757E-3,2.673855E-3,1.8549658E-2,-6.038415E-3,1.3652002E-2],"categories":[],"categories_nodes":[],"categories_segments":[],"categories_sizes":[],"default_left":[0,0,0,0,0,0,0,0,0,0,0,0,0,0,0,0,0,0,0],"id":36,"left_children":[1,3,5,7,9,-1,11,13,15,17,-1,-1,-1,-1,-1,-1,-1,-1,-1],"loss_changes":[2.0494719E1,1.3039558E1,4.9275494E0,1.0609455E1,6.241269E0,0E0,2.7321644E0,3.5950003E0,4.3301487E0,2.124198E0,0E0,0E0,0E0,0E0,0E0,0E0,0E0,0E0,0E0],"parents":[2147483647,0,0,1,1,2,2,3,3,4,4,6,6,7,7,8,8,9,9],"right_children":[2,4,6,8,10,-1,12,14,16,18,-1,-1,-1,-1,-1,-1,-1,-1,-1],"split_conditions":[1.6975714E0,1.5465338E0,-5.2402866E-1,7.385982E-1,1.0250212E-1,1.02836015E-2,2.3199093E0,-7.3733604E-1,-1.9235586E-1,-8.530769E-1,4.653038E-2,3.1820614E-2,7.437981E-2,-1.0325533E-2,-3.013757E-3,2.673855E-3,1.8549658E-2,-6.038415E-3,1.3652002E-2],"split_indices":[2,1,6,6,6,0,2,6,1,6,0,0,0,0,0,0,0,0,0],"split_type":[0,0,0,0,0,0,0,0,0,0,0,0,0,0,0,0,0,0,0],"sum_hessian":[7.96E2,7.73E2,2.3E1,6.92E2,8.1E1,8E0,1.5E1,5.42E2,1.5E2,7.2E1,9E0,9E0,6E0,1.79E2,3.63E2,1.08E2,4.2E1,1.1E1,6.1E1],"tree_param":{"num_deleted":"0","num_feature":"7","num_nodes":"19","size_leaf_vector":"1"}},{"base_weights":[-1.2284443E-3,-8.330716E-2,2.527725E-1,-1.6332956E-1,9.1452375E-2,1.425737E-1,6.10816E-1,-3.5500935E-1,-1.3638626E-1,-2.4545176E-1,1.490641E-1,-2.1787953E-1,2.2030899E-1,3.845207E-1,8.970886E-1,-2.186057E-2,-1.3043564E-2,-9.357764E-3,-2.9607276E-3,-2.0726224E-2,-2.8800739E-3,2.9517645E-3,1.8048039E-2,-1.2799433E-2,-1.7837086E-4,-7.3932568E-3,1.1584027E-2,-5.4355655E-3,2.1183629E-2,1.8606268E-2,4.30626E-2],"categories":[],"categories_nodes":[],"categories_segments":[],"categories_sizes":[],"default_left":[0,0,0,0,0,0,0,0,0,0,0,0,0,0,0,0,0,0,0,0,0,0,0,0,0,0,0,0,0,0,0],"id":37,"left_children":[1,3,5,7,9,11,13,15,17,19,21,23,25,27,29,-1,-1,-1,-1,-1,-1,-1,-1,-1,-1,-1,-1,-1,-1,-1,-1],"loss_changes":[1.7158175E1,8.713406E0,7.843563E0,2.1568165E0,3.8408747E0,4.391091E0,2.69981E0,2.3010969E-1,2.1082025E0,1.2279338E0,3.6719885E0,5.0871944E-1,2.7829337E0,1.7484894E0,6.713047E-1,0E0,0E0,0E0,0E0,0E0,0E0,0E0,0E0,0E0,0E0,0E0,0E0,0E0,0E0,0E0,0E0],"parents":[2147483647,0,0,1,1,2,2,3,3,4,4,5,5,6,6,7,7,8,8,9,9,10,10,11,11,12,12,13,13,14,14],"right_children":[2,4,6,8,10,12,14,16,18,20,22,24,26,28,30,-1,-1,-1,-1,-1,-1,-1,-1,-1,-1,-1,-1,-1,-1,-1,-1],"split_conditions":[5.190081E-1,3.5598403E-1,6.8485704E-3,-8.956427E-1,-4.1034722E-1,-8.8717735E-1,1.1236495E-2,5.7032708E-2,-6.534251E-1,5.7032708E-2,-2.5822288E-1,1.085997E0,-1.2133639E0,-4.0171888E-1,-8.003064E-1,-2.186057E-2,-1.3043564E-2,-9.357764E-3,-2.9607276E-3,-2.0726224E-2,-2.8800739E-3,2.9517645E-3,1.8048039E-2,-1.2799433E-2,-1.7837086E-4,-7.3932568E-3,1.1584027E-2,-5.4355655E-3,2.1183629E-2,1.8606268E-2,4.30626E-2],"split_indices":[1,6,6,6,2,6,2,3,1,3,1,0,2,3,3,0,0,0,0,0,0,0,0,0,0,0,0,0,0,0,0],"split_type":[0,0,0,0,0,0,0,0,0,0,0,0,0,0,0,0,0,0,0,0,0,0,0,0,0,0,0,0,0,0,0],"sum_hessian":[8.21E2,6.21E2,2E2,4.26E2,1.95E2,1.54E2,4.6E1,5.1E1,3.75E2,2.8E1,1.67E2,2.7E1,1.27E2,2.7E1,1.9E1,9E0,4.2E1,1.63E2,2.12E2,1.1E1,1.7E1,1.31E2,3.6E1,1.9E1,8E0,1.5E1,1.12E2,5E0,2.2E1,5E0,1.4E1],"tree_param":{"num_deleted":"0","num_feature":"7","num_nodes":"31","size_leaf_vector":"1"}},{"base_weights":[7.41327E-3,-7.8018166E-2,2.412329E-1,-1.390886E-1,1.7483316E-1,1.955732E-1,4.9268506E-2,-2.3030926E-1,-9.958007E-2,-2.547942E-1,2.4612148E-1,2.1591436E-3,2.9156896E-1,-2.3187459E-2,-8.762193E-3,-1.1398505E-3,-8.383832E-3,-3.979294E-3,-1.5105976E-2,5.0837756E-3,2.6990714E-2,-1.1140351E-2,2.6070056E-3,-1.8621879E-3,1.5285392E-2],"categories":[],"categories_nodes":[],"categories_segments":[],"categories_sizes":[],"default_left":[0,0,0,0,0,0,0,0,0,0,0,0,0,0,0,0,0,0,0,0,0,0,0,0,0],"id":38,"left_children":[1,3,5,7,9,11,-1,13,15,17,19,21,23,-1,-1,-1,-1,-1,-1,-1,-1,-1,-1,-1,-1],"loss_changes":[1.6199015E1,9.196711E0,8.942775E0,1.7033777E0,3.61549E0,3.8612928E0,0E0,9.3255615E-1,2.4084973E0,2.4730825E-1,4.865197E0,1.1257116E0,3.3024206E0,0E0,0E0,0E0,0E0,0E0,0E0,0E0,0E0,0E0,0E0,0E0,0E0],"parents":[2147483647,0,0,1,1,2,2,3,3,4,4,5,5,7,7,8,8,9,9,10,10,11,11,12,12],"right_children":[2,4,6,8,10,12,-1,14,16,18,20,22,24,-1,-1,-1,-1,-1,-1,-1,-1,-1,-1,-1,-1],"split_conditions":[3.8727406E-1,9.2034E-1,1.6090455E0,-7.3733604E-1,-4.1034722E-1,-6.3929117E-1,4.9268506E-2,-1.7353246E0,6.648606E-1,-9.1689324E-1,-2.7139628E-1,-9.1429514E-1,-1.2133639E0,-2.3187459E-2,-8.762193E-3,-1.1398505E-3,-8.383832E-3,-3.979294E-3,-1.5105976E-2,5.0837756E-3,2.6990714E-2,-1.1140351E-2,2.6070056E-3,-1.8621879E-3,1.5285392E-2],"split_indices":[1,6,6,6,2,6,0,2,5,1,1,6,2,0,0,0,0,0,0,0,0,0,0,0,0],"split_type":[0,0,0,0,0,0,0,0,0,0,0,0,0,0,0,0,0,0,0,0,0,0,0,0,0],"sum_hessian":[8.09E2,5.93E2,2.16E2,4.78E2,1.15E2,2.07E2,9E0,1.43E2,3.35E2,1.6E1,9.9E1,6.9E1,1.38E2,8E0,1.35E2,1.94E2,1.41E2,7E0,9E0,7.6E1,2.3E1,1.2E1,5.7E1,2.4E1,1.14E2],"tree_param":{"num_deleted":"0","num_feature":"7","num_nodes":"25","size_leaf_vector":"1"}},{"base_weights":[5.10771E-5,-1.8328162E-2,5.8205567E-2,-5.4932214E-2,1.7818618E-1,-1.8921529E-1,7.5292867E-3,2.7494326E-1,-5.9121836E-2,-1.3757331E-2,-6.8159155E-3,-1.0060157E-2,1.9179457E-3,-3.5663184E-3,1.4959978E-2,-8.002828E-3,7.4378494E-3],"categories":[],"categories_nodes":[],"categories_segments":[],"categories_sizes":[],"default_left":[0,0,0,0,0,0,0,0,0,0,0,0,0,0,0,0,0],"id":39,"left_children":[1,3,-1,5,7,9,11,13,15,-1,-1,-1,-1,-1,-1,-1,-1],"loss_changes":[1.9254255E1,5.4047036E0,0E0,5.310726E0,2.7256804E0,7.105193E-1,4.04365E0,2.4256682E0,1.1072558E0,0E0,0E0,0E0,0E0,0E0,0E0,0E0,0E0],"parents":[2147483647,0,0,1,1,3,3,4,4,5,5,6,6,7,7,8,8],"right_children":[2,4,-1,6,8,10,12,14,16,-1,-1,-1,-1,-1,-1,-1,-1],"split_conditions":[2.3199093E0,9.2034E-1,5.8205567E-2,-3.7746203E-1,5.796943E-1,-4.0171888E-1,-8.8717735E-1,-5.446087E-1,9.79976E-1,-1.3757331E-2,-6.8159155E-3,-1.0060157E-2,1.9179457E-3,-3.5663184E-3,1.4959978E-2,-8.002828E-3,7.4378494E-3],"split_indices":[2,6,0,4,5,3,6,3,5,0,0,0,0,0,0,0,0],"split_type":[0,0,0,0,0,0,0,0,0,0,0,0,0,0,0,0,0],"sum_hessian":[7.58E2,7.49E2,9E0,6.32E2,1.17E2,2E2,4.32E2,8.3E1,3.4E1,3.2E1,1.68E2,5.7E1,3.75E2,1.5E1,6.8E1,2.2E1,1.2E1],"tree_param":{"num_deleted":"0","num_feature":"7","num_nodes":"17","size_leaf_vector":"1"}},{"base_weights":[-1.1903821E-2,-6.1997842E-2,4.415631E-1,-8.575588E-2,6.142601E-1,3.379752E-1,4.8272356E-2,-1.6808714E-1,-1.029482E-2,2.2727478E-1,9.539946E-1,9.069392E-2,5.1244533E-1,-8.701536E-3,-1.6179061E-3,-4.235017E-3,4.7723474E-3,1.5590655E-2,2.231402E-3,2.4242174E-2,4.7276042E-2,-3.5024313E-3,9.319323E-3,1.7487844E-2,3.7088003E-2],"categories":[],"categories_nodes":[],"categories_segments":[],"categories_sizes":[],"default_left":[0,0,0,0,0,0,0,0,0,0,0,0,0,0,0,0,0,0,0,0,0,0,0,0,0],"id":40,"left_children":[1,3,5,7,9,11,-1,13,15,17,19,21,23,-1,-1,-1,-1,-1,-1,-1,-1,-1,-1,-1,-1],"loss_changes":[1.849547E1,1.1829468E1,5.501111E0,4.403148E0,3.0699883E0,3.0598345E0,0E0,1.6634626E0,4.1291146E0,3.0239195E-1,1.7519283E-1,7.1817607E-1,1.1465988E0,0E0,0E0,0E0,0E0,0E0,0E0,0E0,0E0,0E0,0E0,0E0,0E0],"parents":[2147483647,0,0,1,1,2,2,3,3,4,4,5,5,7,7,8,8,9,9,10,10,11,11,12,12],"right_children":[2,4,6,8,10,12,-1,14,16,18,20,22,24,-1,-1,-1,-1,-1,-1,-1,-1,-1,-1,-1,-1],"split_conditions":[1.5465338E0,2.6134079E0,5.4524255E-1,-3.5185224E-1,-8.1553274E-1,-6.1011684E-1,4.8272356E-2,3.8727406E-1,-4.55824E-1,-8.914059E-2,8.350799E-2,1.5855971E-1,1.0250212E-1,-8.701536E-3,-1.6179061E-3,-4.235017E-3,4.7723474E-3,1.5590655E-2,2.231402E-3,2.4242174E-2,4.7276042E-2,-3.5024313E-3,9.319323E-3,1.7487844E-2,3.7088003E-2],"split_indices":[1,6,2,6,4,6,0,1,1,2,2,3,6,0,0,0,0,0,0,0,0,0,0,0,0],"split_type":[0,0,0,0,0,0,0,0,0,0,0,0,0,0,0,0,0,0,0,0,0,0,0,0,0],"sum_hessian":[8.12E2,7.32E2,8E1,7.08E2,2.4E1,7.1E1,9E0,3.38E2,3.7E2,1.2E1,1.2E1,3E1,4.1E1,2.61E2,7.7E1,2.14E2,1.56E2,6E0,6E0,5E0,7E0,1.3E1,1.7E1,3.4E1,7E0],"tree_param":{"num_deleted":"0","num_feature":"7","num_nodes":"25","size_leaf_vector":"1"}},{"base_weights":[-1.6151242E-3,-7.9674765E-2,2.0079444E-1,-1.4458133E-1,7.112393E-2,4.1535154E-2,3.5145813E-1,-3.1898573E-1,-1.2538792E-1,4.671922E-1,4.2064026E-2,-2.230769E-2,3.9586076E-1,2.4178217E-1,6.443831E-1,-5.704021E-3,-1.7430622E-2,-1.4240689E-3,-7.2790473E-3,8.690826E-3,2.6368108E-2,2.7261642E-3,-1.3317202E-2,-1.3732187E-2,7.243681E-4,5.7162885E-3,2.0821294E-2,3.3778641E-3,1.696169E-2,3.2422222E-2,8.120444E-5],"categories":[],"categories_nodes":[],"categories_segments":[],"categories_sizes":[],"default_left":[0,0,0,0,0,0,0,0,0,0,0,0,0,0,0,0,0,0,0,0,0,0,0,0,0,0,0,0,0,0,0],"id":41,"left_children":[1,3,5,7,9,11,13,15,17,19,21,23,25,27,29,-1,-1,-1,-1,-1,-1,-1,-1,-1,-1,-1,-1,-1,-1,-1,-1],"loss_changes":[1.2829814E1,5.745949E0,5.4081793E0,1.3324423E0,2.0175655E0,2.5197787E0,3.5709124E0,6.344032E-1,1.5925751E0,3.6477947E-1,1.3554657E0,1.1411958E0,3.6389303E-1,2.192944E0,2.4577026E0,0E0,0E0,0E0,0E0,0E0,0E0,0E0,0E0,0E0,0E0,0E0,0E0,0E0,0E0,0E0,0E0],"parents":[2147483647,0,0,1,1,2,2,3,3,4,4,5,5,6,6,7,7,8,8,9,9,10,10,11,11,12,12,13,13,14,14],"right_children":[2,4,6,8,10,12,14,16,18,20,22,24,26,28,30,-1,-1,-1,-1,-1,-1,-1,-1,-1,-1,-1,-1,-1,-1,-1,-1],"split_conditions":[3.8727406E-1,3.5598403E-1,-1.2929142E-1,-1.7353246E0,-8.681333E-1,2.555478E-1,1.7046148E0,-8.905464E-1,1.1236495E-2,2.4699275E0,1.3261464E0,-9.1429514E-1,-1.6951739E0,-4.044617E-1,1.5695189E0,-5.704021E-3,-1.7430622E-2,-1.4240689E-3,-7.2790473E-3,8.690826E-3,2.6368108E-2,2.7261642E-3,-1.3317202E-2,-1.3732187E-2,7.243681E-4,5.7162885E-3,2.0821294E-2,3.3778641E-3,1.696169E-2,3.2422222E-2,8.120444E-5],"split_indices":[1,6,2,2,5,6,1,1,2,6,4,6,2,6,4,0,0,0,0,0,0,0,0,0,0,0,0,0,0,0,0],"split_type":[0,0,0,0,0,0,0,0,0,0,0,0,0,0,0,0,0,0,0,0,0,0,0,0,0,0,0,0,0,0,0],"sum_hessian":[8.1E2,5.85E2,2.25E2,4.09E2,1.76E2,1.1E2,1.15E2,3.9E1,3.7E2,1.1E1,1.65E2,9.4E1,1.6E1,8.5E1,3E1,1.4E1,2.5E1,1.26E2,2.44E2,5E0,6E0,1.56E2,9E0,1E1,8.4E1,5E0,1.1E1,4.3E1,4.2E1,2.5E1,5E0],"tree_param":{"num_deleted":"0","num_feature":"7","num_nodes":"31","size_leaf_vector":"1"}},{"base_weights":[2.9136639E-3,-7.693227E-2,2.0796768E-1,2.460684E-2,-8.946238E-2,5.2766733E-2,3.3645907E-1,-9.864928E-2,3.3574175E-2,-2.4416614E-1,1.1359461E-1,1.4624496E-1,4.9095535E-1,-1.0837339E-2,-2.751154E-3,-2.5286835E-3,-1.3107906E-2,6.7537217E-3,-7.999386E-3,-3.5433872E-3,1.0054068E-2,2.9435989E-2,1.21740345E-2],"categories":[],"categories_nodes":[],"categories_segments":[],"categories_sizes":[],"default_left":[0,0,0,0,0,0,0,0,0,0,0,0,0,0,0,0,0,0,0,0,0,0,0],"id":42,"left_children":[1,3,5,-1,7,9,11,13,-1,15,17,19,21,-1,-1,-1,-1,-1,-1,-1,-1,-1,-1],"loss_changes":[1.3261538E1,4.871273E0,4.509076E0,0E0,4.735073E0,1.9061625E0,3.572235E0,2.989349E0,0E0,2.0122755E-1,1.2524354E0,1.2252095E0,2.6400185E0,0E0,0E0,0E0,0E0,0E0,0E0,0E0,0E0,0E0,0E0],"parents":[2147483647,0,0,1,1,2,2,4,4,5,5,6,6,7,7,9,9,10,10,11,11,12,12],"right_children":[2,4,6,-1,8,10,12,14,-1,16,18,20,22,-1,-1,-1,-1,-1,-1,-1,-1,-1,-1],"split_conditions":[3.8727406E-1,-3.235757E0,-1.2929142E-1,2.460684E-2,1.6975714E0,-2.4472807E-1,1.085997E0,-5.0700617E-1,3.3574175E-2,1.1118114E0,6.648606E-1,-1.038466E0,8.3940107E-1,-1.0837339E-2,-2.751154E-3,-2.5286835E-3,-1.3107906E-2,6.7537217E-3,-7.999386E-3,-3.5433872E-3,1.0054068E-2,2.9435989E-2,1.21740345E-2],"split_indices":[1,5,2,0,2,3,0,3,0,1,5,5,4,0,0,0,0,0,0,0,0,0,0],"split_type":[0,0,0,0,0,0,0,0,0,0,0,0,0,0,0,0,0,0,0,0,0,0,0],"sum_hessian":[8.08E2,5.82E2,2.26E2,1E1,5.72E2,1.03E2,1.23E2,5.67E2,5E0,1.7E1,8.6E1,5.6E1,6.7E1,9.8E1,4.69E2,5E0,1.2E1,7.5E1,1.1E1,1.6E1,4E1,3.2E1,3.5E1],"tree_param":{"num_deleted":"0","num_feature":"7","num_nodes":"23","size_leaf_vector":"1"}},{"base_weights":[-6.7065624E-3,-2.7782153E-2,6.5786433E-1,-5.4718394E-2,3.3936447E-1,8.966808E-1,8.865878E-3,-2.2666802E-1,-2.2787755E-2,2.5995487E-1,3.5274375E-2,4.5960125E-2,1.6704071E-2,-1.1537155E-2,9.712483E-4,-8.230494E-3,6.18517E-4,2.4618004E-2,8.046885E-3],"categories":[],"categories_nodes":[],"categories_segments":[],"categories_sizes":[],"default_left":[0,0,0,0,0,0,0,0,0,0,0,0,0,0,0,0,0,0,0],"id":43,"left_children":[1,3,5,7,9,11,-1,13,15,17,-1,-1,-1,-1,-1,-1,-1,-1,-1],"loss_changes":[1.1391331E1,7.811535E0,2.4858265E0,4.030324E0,1.9099216E0,1.1070795E0,0E0,1.3433394E0,4.0046473E0,9.648032E-1,0E0,0E0,0E0,0E0,0E0,0E0,0E0,0E0,0E0],"parents":[2147483647,0,0,1,1,2,2,3,3,4,4,5,5,7,7,8,8,9,9],"right_children":[2,4,6,8,10,12,-1,14,16,18,-1,-1,-1,-1,-1,-1,-1,-1,-1],"split_conditions":[1.6975714E0,1.7479345E0,5.9602845E-1,-4.0171888E-1,3.5268993E0,1.3682936E-1,8.865878E-3,1.0827737E0,-8.530769E-1,-8.681333E-1,3.5274375E-2,4.5960125E-2,1.6704071E-2,-1.1537155E-2,9.712483E-4,-8.230494E-3,6.18517E-4,2.4618004E-2,8.046885E-3],"split_indices":[2,6,4,3,6,5,0,4,6,5,0,0,0,0,0,0,0,0,0],"split_type":[0,0,0,0,0,0,0,0,0,0,0,0,0,0,0,0,0,0,0],"sum_hessian":[8.11E2,7.87E2,2.4E1,7.34E2,5.3E1,1.5E1,9E0,1.14E2,6.2E2,4.7E1,6E0,1E1,5E0,9.6E1,1.8E1,1.1E2,5.1E2,7E0,4E1],"tree_param":{"num_deleted":"0","num_feature":"7","num_nodes":"19","size_leaf_vector":"1"}},{"base_weights":[7.097691E-3,-3.8142636E-2,2.7645662E-1,-5.7994485E-2,4.7397265E-1,-1.1687846E-1,4.0895975E-1,-1.2397416E-1,3.967547E-2,-8.157769E-4,6.3076615E-1,-2.8834197E-1,4.0457025E-2,2.1093829E-1,5.9286535E-1,-7.344965E-3,-3.1731091E-3,-5.1887683E-3,5.7918285E-3,1.3517354E-2,3.708646E-2,-1.9018218E-2,-2.6149016E-3,-3.4015134E-3,6.060483E-3,-5.6790467E-3,1.1986104E-2,4.574746E-2,2.1103822E-2],"categories":[],"categories_nodes":[],"categories_segments":[],"categories_sizes":[],"default_left":[0,0,0,0,0,0,0,0,0,0,0,0,0,0,0,0,0,0,0,0,0,0,0,0,0,0,0,0,0],"id":44,"left_children":[1,3,5,7,9,11,13,15,17,-1,19,21,23,25,27,-1,-1,-1,-1,-1,-1,-1,-1,-1,-1,-1,-1,-1,-1],"loss_changes":[9.491165E0,6.8085003E0,5.885027E0,4.1485596E0,1.9458141E0,7.9400706E-1,2.9339914E0,9.239459E-1,4.1375E0,0E0,1.1799059E0,4.8582864E-1,2.111395E-1,1.096269E0,1.4216003E0,0E0,0E0,0E0,0E0,0E0,0E0,0E0,0E0,0E0,0E0,0E0,0E0,0E0,0E0],"parents":[2147483647,0,0,1,1,2,2,3,3,4,4,5,5,6,6,7,7,8,8,10,10,11,11,12,12,13,13,14,14],"right_children":[2,4,6,8,10,12,14,16,18,-1,20,22,24,26,28,-1,-1,-1,-1,-1,-1,-1,-1,-1,-1,-1,-1,-1,-1],"split_conditions":[1.1776785E0,2.4699275E0,-7.9664123E-1,-1.0315301E-1,-7.851592E-1,-2.738344E-1,-1.17246166E-1,-7.292055E-1,-6.6001177E-1,-8.157769E-4,4.7372244E-2,-8.8894695E-1,1.5855971E-1,-2.0163805E0,-8.681333E-1,-7.344965E-3,-3.1731091E-3,-5.1887683E-3,5.7918285E-3,1.3517354E-2,3.708646E-2,-1.9018218E-2,-2.6149016E-3,-3.4015134E-3,6.060483E-3,-5.6790467E-3,1.1986104E-2,4.574746E-2,2.1103822E-2],"split_indices":[1,6,6,6,1,2,2,6,1,0,2,6,3,2,5,0,0,0,0,0,0,0,0,0,0,0,0,0,0],"split_type":[0,0,0,0,0,0,0,0,0,0,0,0,0,0,0,0,0,0,0,0,0,0,0,0,0,0,0,0,0],"sum_hessian":[7.77E2,6.66E2,1.11E2,6.42E2,2.4E1,2.8E1,8.3E1,3.83E2,2.59E2,6E0,1.8E1,1.3E1,1.5E1,4.1E1,4.2E1,1.88E2,1.95E2,9.7E1,1.62E2,9E0,9E0,7E0,6E0,7E0,8E0,7E0,3.4E1,5E0,3.7E1],"tree_param":{"num_deleted":"0","num_feature":"7","num_nodes":"29","size_leaf_vector":"1"}},{"base_weights":[1.0593264E-2,-3.6418464E-2,2.9710695E-1,2.6095647E-2,-4.6874627E-2,1.974592E-1,5.257646E-1,-5.3599592E-2,3.0532321E-2,-9.1152545E-3,2.394759E-1,2.2597854E-1,6.412596E-1,-6.671742E-3,-3.862169E-4,4.4692922E-3,1.5339476E-2,5.101166E-3,1.239206E-2,3.2353587E-2,1.7899066E-2],"categories":[],"categories_nodes":[],"categories_segments":[],"categories_sizes":[],"default_left":[0,0,0,0,0,0,0,0,0,0,0,0,0,0,0,0,0,0,0,0,0],"id":45,"left_children":[1,3,5,-1,7,9,11,13,-1,-1,15,17,19,-1,-1,-1,-1,-1,-1,-1,-1],"loss_changes":[1.0894178E1,4.78484E0,2.4936981E0,0E0,3.5857244E0,1.4584279E0,1.0322981E0,3.154588E0,0E0,0E0,1.1858559E0,4.2635083E-2,3.27116E-1,0E0,0E0,0E0,0E0,0E0,0E0,0E0,0E0],"parents":[2147483647,0,0,1,1,2,2,4,4,5,5,6,6,7,7,10,10,11,11,12,12],"right_children":[2,4,6,-1,8,10,12,14,-1,-1,16,18,20,-1,-1,-1,-1,-1,-1,-1,-1],"split_conditions":[1.2303721E0,-3.235757E0,4.7372244E-2,2.6095647E-2,3.845641E0,-3.265137E-1,1.45432E0,-6.797719E-1,3.0532321E-2,-9.1152545E-3,1.9680829E0,5.7032708E-2,8.3940107E-1,-6.671742E-3,-3.862169E-4,4.4692922E-3,1.5339476E-2,5.101166E-3,1.239206E-2,3.2353587E-2,1.7899066E-2],"split_indices":[1,5,2,0,2,3,1,1,0,0,1,3,4,0,0,0,0,0,0,0,0],"split_type":[0,0,0,0,0,0,0,0,0,0,0,0,0,0,0,0,0,0,0,0,0],"sum_hessian":[8.07E2,6.94E2,1.13E2,1E1,6.84E2,8E1,3.3E1,6.79E2,5E0,7E0,7.3E1,1E1,2.3E1,2.02E2,4.77E2,3.6E1,3.7E1,5E0,5E0,1.3E1,1E1],"tree_param":{"num_deleted":"0","num_feature":"7","num_nodes":"21","size_leaf_vector":"1"}},{"base_weights":[-4.328947E-3,-1.752235E-2,9.675789E-1,-6.415954E-2,2.1823062E-1,8.978414E-3,6.592284E-2,-7.475879E-2,3.085942E-2,1.791812E-1,3.8048275E-2,-4.8165573E-3,1.9841052E-3,-3.043291E-3,1.1591164E-2],"categories":[],"categories_nodes":[],"categories_segments":[],"categories_sizes":[],"default_left":[0,0,0,0,0,0,0,0,0,0,0,0,0,0,0],"id":46,"left_children":[1,3,5,7,9,-1,-1,11,-1,13,-1,-1,-1,-1,-1],"loss_changes":[1.0531628E1,8.919835E0,4.5981445E0,5.7593617E0,3.4117455E0,0E0,0E0,3.2073367E0,0E0,3.0857859E0,0E0,0E0,0E0,0E0,0E0],"parents":[2147483647,0,0,1,1,2,2,3,3,4,4,7,7,9,9],"right_children":[2,4,6,8,10,-1,-1,12,-1,14,-1,-1,-1,-1,-1],"split_conditions":[2.3199093E0,9.142103E-1,-4.7189745E-1,3.5268993E0,1.7142644E0,8.978414E-3,6.592284E-2,5.090297E-1,3.085942E-2,-4.1034722E-1,3.8048275E-2,-4.8165573E-3,1.9841052E-3,-3.043291E-3,1.1591164E-2],"split_indices":[2,1,6,6,6,0,0,6,0,2,0,0,0,0,0],"split_type":[0,0,0,0,0,0,0,0,0,0,0,0,0,0,0],"sum_hessian":[8.19E2,8.09E2,1E1,6.76E2,1.33E2,5E0,5E0,6.68E2,8E0,1.27E2,6E0,5.05E2,1.63E2,3.5E1,9.2E1],"tree_param":{"num_deleted":"0","num_feature":"7","num_nodes":"15","size_leaf_vector":"1"}},{"base_weights":[2.423356E-3,-1.4904346E-2,7.589317E-1,-3.284472E-2,5.56071E-1,1.14310095E-2,4.7393583E-2,-5.914336E-2,3.0023178E-1,9.098174E-3,7.460649E-1,-6.3064406E-3,-2.1817039E-4,8.718915E-3,3.5335936E-2,3.724773E-2,1.6675403E-2],"categories":[],"categories_nodes":[],"categories_segments":[],"categories_sizes":[],"default_left":[0,0,0,0,0,0,0,0,0,0,0,0,0,0,0,0,0],"id":47,"left_children":[1,3,5,7,9,-1,-1,11,13,-1,15,-1,-1,-1,-1,-1,-1],"loss_changes":[1.05374775E1,8.069663E0,2.8904533E0,6.7012243E0,1.3923202E0,0E0,0E0,3.4467356E0,2.6442409E0,0E0,3.6835098E-1,0E0,0E0,0E0,0E0,0E0,0E0],"parents":[2147483647,0,0,1,1,2,2,3,3,4,4,7,7,8,8,10,10],"right_children":[2,4,6,8,10,-1,-1,12,14,-1,16,-1,-1,-1,-1,-1,-1],"split_conditions":[1.7859032E0,2.363285E0,-1.6532782E-1,1.7142644E0,-1.17246166E-1,1.14310095E-2,4.7393583E-2,-6.534251E-1,5.2452497E-3,9.098174E-3,1.0271796E0,-6.3064406E-3,-2.1817039E-4,8.718915E-3,3.5335936E-2,3.724773E-2,1.6675403E-2],"split_indices":[2,1,6,6,2,0,0,1,1,0,3,0,0,0,0,0,0],"split_type":[0,0,0,0,0,0,0,0,0,0,0,0,0,0,0,0,0],"sum_hessian":[8.02E2,7.85E2,1.7E1,7.62E2,2.3E1,8E0,9E0,7.07E2,5.5E1,9E0,1.4E1,2.64E2,4.43E2,4.8E1,7E0,9E0,5E0],"tree_param":{"num_deleted":"0","num_feature":"7","num_nodes":"17","size_leaf_vector":"1"}},{"base_weights":[-6.417835E-3,-4.9951248E-2,2.11622E-1,-6.6211805E-2,4.3274486E-1,-1.2367294E-1,2.7858773E-1,-1.6511716E-1,-1.2744589E-2,4.4008272E-4,5.563442E-1,1.3025479E-4,-2.0538042E-1,9.431631E-2,4.103791E-1,-1.31507125E-2,-5.380705E-3,-1.008004E-2,1.0976066E-3,7.6898863E-3,2.9434228E-2,-4.2186617E-3,-1.3906724E-2,2.2269916E-4,1.0236274E-2,1.3792788E-2,3.5391886E-2],"categories":[],"categories_nodes":[],"categories_segments":[],"categories_sizes":[],"default_left":[0,0,0,0,0,0,0,0,0,0,0,0,0,0,0,0,0,0,0,0,0,0,0,0,0,0,0],"id":48,"left_children":[1,3,5,7,9,11,13,15,17,-1,19,-1,21,23,25,-1,-1,-1,-1,-1,-1,-1,-1,-1,-1,-1,-1],"loss_changes":[7.6421533E0,5.29527E0,3.043192E0,3.435222E0,1.1425743E0,2.3884597E-1,2.6812572E0,1.217639E0,3.7093148E0,0E0,7.684679E-1,0E0,1.5015042E-1,6.317488E-1,2.0543451E0,0E0,0E0,0E0,0E0,0E0,0E0,0E0,0E0,0E0,0E0,0E0,0E0],"parents":[2147483647,0,0,1,1,2,2,3,3,4,4,5,5,6,6,7,7,8,8,10,10,12,12,13,13,14,14],"right_children":[2,4,6,8,10,12,14,16,18,-1,20,-1,22,24,26,-1,-1,-1,-1,-1,-1,-1,-1,-1,-1,-1,-1],"split_conditions":[9.2034E-1,1.6975714E0,-4.1034722E-1,-3.7746203E-1,-5.784511E-1,7.550961E-2,-3.7746203E-1,-2.3250724E-1,-8.8253814E-1,4.4008272E-4,-7.545537E-1,1.3025479E-4,1.5695189E0,1.943833E0,2.6134079E0,-1.31507125E-2,-5.380705E-3,-1.008004E-2,1.0976066E-3,7.6898863E-3,2.9434228E-2,-4.2186617E-3,-1.3906724E-2,2.2269916E-4,1.0236274E-2,1.3792788E-2,3.5391886E-2],"split_indices":[6,2,2,4,3,5,4,3,6,0,6,0,4,6,6,0,0,0,0,0,0,0,0,0,0,0,0],"split_type":[0,0,0,0,0,0,0,0,0,0,0,0,0,0,0,0,0,0,0,0,0,0,0,0,0,0,0],"sum_hessian":[8.03E2,6.7E2,1.33E2,6.49E2,2.1E1,2.2E1,1.11E2,2.27E2,4.22E2,5E0,1.6E1,9E0,1.3E1,4.7E1,6.4E1,4.5E1,1.82E2,6.1E1,3.61E2,5E0,1.1E1,8E0,5E0,3E1,1.7E1,5.5E1,9E0],"tree_param":{"num_deleted":"0","num_feature":"7","num_nodes":"27","size_leaf_vector":"1"}},{"base_weights":[6.2685153E-3,-3.6798935E-2,2.5014836E-1,-6.341476E-2,2.847919E-1,1.8461551E-1,6.440502E-1,-1.5080544E-1,-1.1170908E-2,1.9715936E-1,3.515151E-2,9.183571E-2,4.397937E-1,1.5169181E-2,3.61982E-2,-1.1632263E-2,-5.186182E-3,-3.5471006E-3,5.287112E-3,5.6440295E-3,2.5703454E-2,5.5672694E-3,-1.42961955E-2,2.4819018E-2,6.6559734E-3],"categories":[],"categories_nodes":[],"categories_segments":[],"categories_sizes":[],"default_left":[0,0,0,0,0,0,0,0,0,0,0,0,0,0,0,0,0,0,0,0,0,0,0,0,0],"id":49,"left_children":[1,3,5,7,9,11,13,15,17,19,-1,21,23,-1,-1,-1,-1,-1,-1,-1,-1,-1,-1,-1,-1],"loss_changes":[8.53787E0,5.9326096E0,3.0303454E0,2.91575E0,2.3796954E0,2.4692018E0,7.244077E-1,7.999592E-1,3.993953E0,1.1468166E0,0E0,1.4052451E0,1.0765963E0,0E0,0E0,0E0,0E0,0E0,0E0,0E0,0E0,0E0,0E0,0E0,0E0],"parents":[2147483647,0,0,1,1,2,2,3,3,4,4,5,5,6,6,7,7,8,8,9,9,11,11,12,12],"right_children":[2,4,6,8,10,12,14,16,18,20,-1,22,24,-1,-1,-1,-1,-1,-1,-1,-1,-1,-1,-1,-1],"split_conditions":[1.2303721E0,1.7479345E0,2.555478E-1,-6.196822E-1,5.383459E-1,2.4950192E0,1.085997E0,-4.0171888E-1,-1.7918244E-1,3.856904E0,3.515151E-2,2.2996368E0,1.3261464E0,1.5169181E-2,3.61982E-2,-1.1632263E-2,-5.186182E-3,-3.5471006E-3,5.287112E-3,5.6440295E-3,2.5703454E-2,5.5672694E-3,-1.42961955E-2,2.4819018E-2,6.6559734E-3],"split_indices":[1,6,6,6,3,1,0,3,1,6,0,4,4,0,0,0,0,0,0,0,0,0,0,0,0],"split_type":[0,0,0,0,0,0,0,0,0,0,0,0,0,0,0,0,0,0,0,0,0,0,0,0,0],"sum_hessian":[8.11E2,6.9E2,1.21E2,6.38E2,5.2E1,1.05E2,1.6E1,2.38E2,4E2,4.6E1,6E0,7.8E1,2.7E1,8E0,8E0,4.2E1,1.96E2,2.61E2,1.39E2,4.1E1,5E0,7.2E1,6E0,1.7E1,1E1],"tree_param":{"num_deleted":"0","num_feature":"7","num_nodes":"25","size_leaf_vector":"1"}},{"base_weights":[9.765612E-3,-5.8453446E-3,5.1606435E-1,-4.1795455E-2,1.8622838E-1,1.276682E-3,6.763274E-1,-2.1744455E-1,-1.2809328E-2,-2.4119334E-1,2.4333936E-1,1.2191608E-2,4.0430825E-2,4.1501387E-4,-1.0089495E-2,2.1986603E-3,-4.314069E-3,-1.4291189E-2,-4.80417E-3,4.3785213E-3,1.6422229E-2],"categories":[],"categories_nodes":[],"categories_segments":[],"categories_sizes":[],"default_left":[0,0,0,0,0,0,0,0,0,0,0,0,0,0,0,0,0,0,0,0,0],"id":50,"left_children":[1,3,5,7,9,-1,11,13,15,17,19,-1,-1,-1,-1,-1,-1,-1,-1,-1,-1],"loss_changes":[6.34187E0,5.3868337E0,1.8481994E0,3.342256E0,3.0611806E0,0E0,1.6853666E0,4.5691013E-1,3.2810752E0,1.4738983E-1,2.1756978E0,0E0,0E0,0E0,0E0,0E0,0E0,0E0,0E0,0E0,0E0],"parents":[2147483647,0,0,1,1,2,2,3,3,4,4,6,6,7,7,8,8,9,9,10,10],"right_children":[2,4,6,8,10,-1,12,14,16,18,20,-1,-1,-1,-1,-1,-1,-1,-1,-1,-1],"split_conditions":[1.6975714E0,9.2034E-1,-5.784511E-1,-8.779468E-1,-1.9360788E0,1.276682E-3,-5.857252E-1,-1.6651954E-1,5.796943E-1,-2.0565314E0,-3.287875E-1,1.2191608E-2,4.0430825E-2,4.1501387E-4,-1.0089495E-2,2.1986603E-3,-4.314069E-3,-1.4291189E-2,-4.80417E-3,4.3785213E-3,1.6422229E-2],"split_indices":[2,6,3,6,2,0,6,0,5,2,4,0,0,0,0,0,0,0,0,0,0],"split_type":[0,0,0,0,0,0,0,0,0,0,0,0,0,0,0,0,0,0,0,0,0],"sum_hessian":[8.01E2,7.78E2,2.3E1,6.56E2,1.22E2,6E0,1.7E1,9.2E1,5.64E2,1.4E1,1.08E2,8E0,9E0,8E0,8.4E1,3.27E2,2.37E2,7E0,7E0,5.6E1,5.2E1],"tree_param":{"num_deleted":"0","num_feature":"7","num_nodes":"21","size_leaf_vector":"1"}},{"base_weights":[9.324321E-3,-2.5473827E-2,3.0176312E-1,-3.442478E-2,3.7790593E-2,2.2273396E-1,3.7161987E-2,-1.3023707E-1,1.9714234E-2,3.74359E-2,3.402128E-1,-8.192337E-3,-1.7177806E-3,-2.1839407E-3,5.3116935E-3,7.157628E-3,-9.209862E-3,1.7863264E-2,2.6739368E-3],"categories":[],"categories_nodes":[],"categories_segments":[],"categories_sizes":[],"default_left":[0,0,0,0,0,0,0,0,0,0,0,0,0,0,0,0,0,0,0],"id":51,"left_children":[1,3,5,7,-1,9,-1,11,13,15,17,-1,-1,-1,-1,-1,-1,-1,-1],"loss_changes":[8.230162E0,5.9876857E0,3.7347188E0,3.7217782E0,0E0,1.6634462E0,0E0,1.4715304E0,3.4849174E0,1.0833274E0,1.051321E0,0E0,0E0,0E0,0E0,0E0,0E0,0E0,0E0],"parents":[2147483647,0,0,1,1,2,2,3,3,5,5,7,7,8,8,9,9,10,10],"right_children":[2,4,6,8,-1,10,-1,12,14,16,18,-1,-1,-1,-1,-1,-1,-1,-1],"split_conditions":[1.5465338E0,3.845641E0,1.0250212E-1,-6.6001177E-1,3.7790593E-2,1.9992255E-1,3.7161987E-2,3.2401112E-1,-1.0315301E-1,-5.953532E-2,9.033263E-1,-8.192337E-3,-1.7177806E-3,-2.1839407E-3,5.3116935E-3,7.157628E-3,-9.209862E-3,1.7863264E-2,2.6739368E-3],"split_indices":[1,2,6,1,0,3,0,3,6,3,5,0,0,0,0,0,0,0,0],"split_type":[0,0,0,0,0,0,0,0,0,0,0,0,0,0,0,0,0,0,0],"sum_hessian":[8.07E2,7.22E2,8.5E1,7.16E2,6E0,7.6E1,9E0,2.58E2,4.58E2,3E1,4.6E1,1.5E2,1.08E2,2.74E2,1.84E2,2E1,1E1,3.5E1,1.1E1],"tree_param":{"num_deleted":"0","num_feature":"7","num_nodes":"19","size_leaf_vector":"1"}},{"base_weights":[1.9847546E-3,-1.0173797E-2,4.8154035E-1,-1.06817484E-1,4.3791365E-2,-4.299113E-3,6.827803E-1,-2.7897415E-1,-7.978996E-2,1.0389842E-1,-8.485576E-2,1.3407126E-2,3.7621975E-2,-1.4125843E-2,-6.748089E-3,-6.7913844E-3,-1.2079522E-3,-1.0764224E-3,7.4820826E-3,-5.689318E-3,9.821914E-4],"categories":[],"categories_nodes":[],"categories_segments":[],"categories_sizes":[],"default_left":[0,0,0,0,0,0,0,0,0,0,0,0,0,0,0,0,0,0,0,0,0],"id":52,"left_children":[1,3,5,7,9,-1,11,13,15,17,19,-1,-1,-1,-1,-1,-1,-1,-1,-1,-1],"loss_changes":[4.716106E0,4.119622E0,2.4174123E0,1.2945304E0,3.9292445E0,0E0,8.579235E-1,1.981554E-1,1.0158932E0,3.2861426E0,8.768685E-1,0E0,0E0,0E0,0E0,0E0,0E0,0E0,0E0,0E0,0E0],"parents":[2147483647,0,0,1,1,2,2,3,3,4,4,6,6,7,7,8,8,9,9,10,10],"right_children":[2,4,6,8,10,-1,12,14,16,18,20,-1,-1,-1,-1,-1,-1,-1,-1,-1,-1],"split_conditions":[1.7859032E0,-6.196822E-1,-5.0700617E-1,-5.589053E-1,6.648606E-1,-4.299113E-3,-3.4228688E-1,-7.4020565E-1,-1.3408941E-1,-3.7746203E-1,3.8793552E-1,1.3407126E-2,3.7621975E-2,-1.4125843E-2,-6.748089E-3,-6.7913844E-3,-1.2079522E-3,-1.0764224E-3,7.4820826E-3,-5.689318E-3,9.821914E-4],"split_indices":[2,6,3,2,5,0,6,6,4,4,3,0,0,0,0,0,0,0,0,0,0],"split_type":[0,0,0,0,0,0,0,0,0,0,0,0,0,0,0,0,0,0,0,0,0],"sum_hessian":[8.07E2,7.88E2,1.9E1,2.82E2,5.06E2,5E0,1.4E1,3.7E1,2.45E2,3.45E2,1.61E2,6E0,8E0,2.4E1,1.3E1,9.4E1,1.51E2,1.25E2,2.2E2,1.1E2,5.1E1],"tree_param":{"num_deleted":"0","num_feature":"7","num_nodes":"21","size_leaf_vector":"1"}},{"base_weights":[-6.6626547E-3,-1.9481273E-2,4.2614255E-2,-8.105795E-2,1.4302364E-1,2.1568777E-2,-9.243769E-2,1.04110375E-1,4.1444305E-1,-9.694783E-3,-2.621524E-3,-2.2174078E-3,6.3194176E-3,2.3722876E-2,2.416931E-3],"categories":[],"categories_nodes":[],"categories_segments":[],"categories_sizes":[],"default_left":[0,0,0,0,0,0,0,0,0,0,0,0,0,0,0],"id":53,"left_children":[1,3,-1,5,7,-1,9,11,13,-1,-1,-1,-1,-1,-1],"loss_changes":[1.0450641E1,7.9367514E0,0E0,3.9200554E0,2.2593284E0,0E0,2.3379588E0,1.3777366E0,1.3893237E0,0E0,0E0,0E0,0E0,0E0,0E0],"parents":[2147483647,0,0,1,1,3,3,4,4,6,6,7,7,8,8],"right_children":[2,4,-1,6,8,-1,10,12,14,-1,-1,-1,-1,-1,-1],"split_conditions":[2.3199093E0,3.8727406E-1,4.2614255E-2,-3.235757E0,2.4950192E0,2.1568777E-2,-5.0700617E-1,-5.669355E-1,9.8957694E-1,-9.694783E-3,-2.621524E-3,-2.2174078E-3,6.3194176E-3,2.3722876E-2,2.416931E-3],"split_indices":[2,1,0,5,1,0,3,2,3,0,0,0,0,0,0],"split_type":[0,0,0,0,0,0,0,0,0,0,0,0,0,0,0],"sum_hessian":[8E2,7.91E2,9E0,5.74E2,2.17E2,1E1,5.64E2,1.91E2,2.6E1,1.01E2,4.63E2,4.3E1,1.48E2,1.8E1,8E0],"tree_param":{"num_deleted":"0","num_feature":"7","num_nodes":"15","size_leaf_vector":"1"}},{"base_weights":[1.0340658E-3,-1.5755171E-2,6.229861E-1,-6.94426E-2,1.3665721E-1,3.6719424E-1,5.072251E-2,-9.439854E-2,1.352685E-1,6.8909615E-2,5.1032424E-1,2.3749946E-2,4.290264E-3,-8.838807E-3,-2.627313E-3,3.046376E-3,1.953266E-2,-2.947559E-3,7.2148917E-3,1.6034225E-2,3.8161874E-2],"categories":[],"categories_nodes":[],"categories_segments":[],"categories_sizes":[],"default_left":[0,0,0,0,0,0,0,0,0,0,0,0,0,0,0,0,0,0,0,0,0],"id":54,"left_children":[1,3,5,7,9,11,-1,13,15,17,19,-1,-1,-1,-1,-1,-1,-1,-1,-1,-1],"loss_changes":[8.34261E0,6.375575E0,2.6652117E0,2.9554143E0,5.1037874E0,7.726648E-1,0E0,1.8877482E0,1.2682724E0,2.4588034E0,1.2495899E0,0E0,0E0,0E0,0E0,0E0,0E0,0E0,0E0,0E0,0E0],"parents":[2147483647,0,0,1,1,2,2,3,3,4,4,5,5,7,7,8,8,9,9,10,10],"right_children":[2,4,6,8,10,12,-1,14,16,18,20,-1,-1,-1,-1,-1,-1,-1,-1,-1,-1],"split_conditions":[1.6975714E0,3.8727406E-1,4.8033366E-1,1.4655652E0,2.0293835E-1,-1.1969946E-1,5.072251E-2,-2.3250724E-1,3.3786361E0,-2.738344E-1,1.5728806E0,2.3749946E-2,4.290264E-3,-8.838807E-3,-2.627313E-3,3.046376E-3,1.953266E-2,-2.947559E-3,7.2148917E-3,1.6034225E-2,3.8161874E-2],"split_indices":[2,1,6,6,6,3,0,3,6,2,1,0,0,0,0,0,0,0,0,0,0],"split_type":[0,0,0,0,0,0,0,0,0,0,0,0,0,0,0,0,0,0,0,0,0],"sum_hessian":[7.97E2,7.77E2,2E1,5.75E2,2.02E2,1.5E1,5E0,5.13E2,6.2E1,1.72E2,3E1,8E0,7E0,1.11E2,4.02E2,5.3E1,9E0,7.3E1,9.9E1,2.4E1,6E0],"tree_param":{"num_deleted":"0","num_feature":"7","num_nodes":"21","size_leaf_vector":"1"}},{"base_weights":[7.852685E-3,-8.458966E-2,1.1153062E-1,-1.3960566E-1,1.1095805E-2,-1.8476763E-1,1.6989458E-1,-1.7618169E-1,-7.3835775E-2,-3.2052442E-1,4.5324825E-2,-3.1655812E-1,-1.3036346E-1,1.086099E-1,3.820313E-1,-5.2657174E-3,-9.154939E-3,-2.3104777E-3,-1.10224E-2,-1.7116655E-2,-6.9940495E-3,